~o
<STREAMINFO> 1 25
<VECSIZE> 25<NULLD><MFCC_D_N_Z_0><DIAGC>
~s "silst"
<MEAN> 25
 -1.720417e+01 4.565937e+00 -2.506937e+00 6.680296e+00 1.860121e+00 6.477547e+00 4.451507e+00 5.283021e+00 7.008471e+00 1.593490e+00 5.742793e+00 5.292511e+00 -2.182992e-03 -2.872121e-03 3.141813e-03 2.077927e-02 2.336260e-02 4.392017e-03 -2.181991e-02 -3.193682e-03 2.926763e-02 6.688788e-03 6.689071e-03 -1.354513e-03 -2.809031e-03
<VARIANCE> 25
 4.480439e+00 4.681760e+00 1.058178e+01 1.150580e+01 8.441068e+00 1.020274e+01 1.240696e+01 1.300261e+01 1.301394e+01 1.011792e+01 8.753916e+00 7.128911e+00 3.823740e-02 1.381745e-01 2.151394e-01 3.760095e-01 4.835746e-01 4.386887e-01 7.445771e-01 1.099998e+00 1.262971e+00 1.001415e+00 7.908366e-01 8.523397e-01 5.360071e-02
<GCONST> 5.975179e+01
~h "E"
<BEGINHMM>
<NUMSTATES> 5
<STATE> 2
<MEAN> 25
 1.399312e+01 -2.447117e+00 -1.647067e+01 -1.241933e+00 9.823564e+00 6.445855e-01 -5.572972e+00 -7.274945e-01 -9.015828e-01 -5.263026e-01 -7.447884e+00 -5.418644e+00 -1.592173e+00 5.370607e-01 3.059290e-01 -1.805127e-01 1.809398e-01 3.001045e-01 -1.556354e-01 6.474434e-02 -8.771816e-02 -1.664548e-01 1.207348e-01 -9.067020e-02 -1.381442e+00
<VARIANCE> 25
 6.898003e+01 3.245258e+01 2.358169e+01 2.198765e+01 1.677243e+01 2.384709e+01 2.638961e+01 2.063899e+01 2.066508e+01 1.329121e+01 9.641816e+00 2.117229e+01 2.992585e+00 1.691916e+00 1.111469e+00 2.227569e+00 1.904761e+00 2.390024e+00 2.290582e+00 1.970678e+00 1.651030e+00 1.443057e+00 1.201234e+00 1.384903e+00 1.591748e+00
<GCONST> 9.053079e+01
<STATE> 3
<MEAN> 25
 -3.868188e+00 -1.419566e+00 -7.242302e+00 2.616679e-01 5.170967e+00 2.811927e+00 -4.968448e+00 -6.975453e-01 -1.110512e+00 -9.884621e-01 -2.354605e+00 -2.555109e+00 -1.183040e+00 1.298242e+00 8.048679e-01 -3.741651e-02 -7.591395e-01 2.809401e-01 6.493037e-01 -3.840043e-01 -6.573634e-01 -6.660182e-01 3.744590e-01 3.090994e-01 -1.342761e+00
<VARIANCE> 25
 1.268532e+01 2.794842e+01 9.776310e+00 1.164001e+01 1.946446e+01 1.829819e+01 1.839146e+01 1.957679e+01 1.222653e+01 2.305843e+01 1.100331e+01 1.840182e+01 7.329067e-01 1.626441e+00 1.411621e+00 1.016992e+00 1.510753e+00 1.479836e+00 1.935131e+00 2.428168e+00 2.073828e+00 2.617234e+00 1.113658e+00 2.202264e+00 3.958141e-01
<GCONST> 8.381698e+01
<STATE> 4
<MEAN> 25
 -9.788475e+00 6.767667e+00 -1.200267e+00 -5.520992e-01 2.115642e+00 2.392848e+00 -4.745620e+00 -1.263763e+00 -3.550158e+00 -3.457234e+00 -1.176132e+00 1.119261e+00 -1.487832e-01 1.338919e-01 1.756727e-01 -4.574552e-03 -1.362260e-01 -1.566988e-02 2.167626e-02 -8.810314e-03 -2.243949e-02 -1.372345e-02 8.158168e-03 1.166130e-01 -1.512564e-01
<VARIANCE> 25
 9.103495e+00 5.326831e+00 1.191100e+01 9.170200e+00 1.357681e+01 1.805654e+01 1.510924e+01 8.395230e+00 1.670800e+01 1.173987e+01 1.556052e+01 1.123773e+01 2.195477e-01 2.581819e-01 4.776017e-01 7.156623e-01 1.000520e+00 1.119972e+00 1.273087e+00 1.136226e+00 1.440853e+00 1.502343e+00 1.552997e+00 9.820731e-01 1.248591e-01
<GCONST> 7.096246e+01
<TRANSP> 5
 0.000000e+00 1.000000e+00 0.000000e+00 0.000000e+00 0.000000e+00
 0.000000e+00 8.041162e-01 1.958837e-01 0.000000e+00 0.000000e+00
 0.000000e+00 0.000000e+00 7.281438e-01 2.718561e-01 0.000000e+00
 0.000000e+00 0.000000e+00 0.000000e+00 9.192502e-01 8.074977e-02
 0.000000e+00 0.000000e+00 0.000000e+00 0.000000e+00 0.000000e+00
<ENDHMM>
~h "a"
<BEGINHMM>
<NUMSTATES> 5
<STATE> 2
<MEAN> 25
 4.760609e+00 -4.162398e-01 -7.864894e-01 -1.343932e+00 1.403075e+00 3.747347e-02 -7.780483e-01 -1.370264e+00 7.675422e-01 -2.981937e-01 -1.111652e+00 -9.662408e-01 1.298721e+00 -1.701457e+00 3.597177e-01 -1.125549e+00 2.901600e-01 -7.635032e-01 1.342505e-01 3.736107e-01 8.328767e-02 -1.461369e-02 -5.604765e-01 -4.493089e-01 2.807978e+00
<VARIANCE> 25
 1.767261e+02 1.391442e+02 6.833991e+01 9.490946e+01 4.153199e+01 6.212280e+01 4.992082e+01 5.534667e+01 4.276766e+01 3.369623e+01 4.513465e+01 3.895301e+01 1.230903e+01 9.456951e+00 5.702935e+00 6.541630e+00 4.596663e+00 5.743238e+00 6.050151e+00 5.338155e+00 5.395314e+00 3.318257e+00 4.221743e+00 3.196496e+00 1.522656e+01
<GCONST> 1.186941e+02
<STATE> 3
<MEAN> 25
 9.302065e+00 -3.880038e+00 -4.812372e-02 -4.501272e+00 1.829559e+00 -1.865037e+00 -8.259113e-01 -6.717548e-01 4.451361e-01 -1.883961e-01 -1.797245e+00 -1.944108e+00 1.886185e+00 -2.750786e+00 5.290388e-01 -1.934953e+00 2.632469e-01 -1.067368e+00 -1.693135e-01 4.338875e-01 -2.993571e-01 2.229124e-01 -8.078889e-01 -1.045962e+00 3.892035e+00
<VARIANCE> 25
 1.097056e+02 1.415159e+02 7.870095e+01 1.179944e+02 4.783207e+01 7.296520e+01 5.290000e+01 5.422419e+01 4.925532e+01 3.786864e+01 4.679553e+01 4.121744e+01 1.465043e+01 1.127510e+01 7.700977e+00 1.104314e+01 6.034796e+00 7.255340e+00 8.627019e+00 8.297139e+00 6.131991e+00 4.339616e+00 5.194756e+00 4.451521e+00 1.885128e+01
<GCONST> 1.229075e+02
<STATE> 4
<MEAN> 25
 1.319228e+01 -1.233160e+01 2.486684e+00 -1.026772e+01 3.181785e+00 -4.601171e+00 -1.866793e+00 1.195380e+00 -8.749473e-01 8.118311e-01 -3.771832e+00 -5.593759e+00 4.321117e-01 -9.544901e-01 -3.088827e-02 -4.050563e-01 2.003337e-01 -7.034230e-02 3.150645e-01 -1.781912e-01 3.420082e-02 2.673539e-01 -7.374211e-01 -7.075284e-01 7.741017e-01
<VARIANCE> 25
 5.551643e+01 7.849754e+01 6.882629e+01 1.078279e+02 5.884620e+01 8.209007e+01 7.537208e+01 9.605854e+01 6.313330e+01 4.780671e+01 4.358884e+01 4.284590e+01 3.716194e+00 5.487895e+00 4.939413e+00 6.467547e+00 4.842147e+00 5.793958e+00 6.938075e+00 7.858881e+00 5.462176e+00 5.063241e+00 4.429990e+00 3.672939e+00 4.820914e+00
<GCONST> 1.176481e+02
<TRANSP> 5
 0.000000e+00 1.000000e+00 0.000000e+00 0.000000e+00 0.000000e+00
 0.000000e+00 2.435411e-01 7.564589e-01 0.000000e+00 0.000000e+00
 0.000000e+00 0.000000e+00 2.666996e-01 7.333003e-01 0.000000e+00
 0.000000e+00 0.000000e+00 0.000000e+00 6.174245e-01 3.825755e-01
 0.000000e+00 0.000000e+00 0.000000e+00 0.000000e+00 0.000000e+00
<ENDHMM>
~h "b"
<BEGINHMM>
<NUMSTATES> 5
<STATE> 2
<MEAN> 25
 1.834142e+01 8.768849e+00 1.842365e+00 -2.661068e-01 4.264959e+00 3.392558e+00 -4.420920e+00 -1.313045e+01 -1.064486e+01 -1.450904e+00 -1.306352e+00 -3.424494e+00 -1.437181e-02 -2.116746e+00 1.153744e+00 -1.049205e-01 -1.707393e+00 -1.239235e+00 -4.791369e-01 1.628636e+00 1.267171e+00 1.360848e-01 5.452667e-01 -3.278429e-01 1.066810e+00
<VARIANCE> 25
 2.919909e+01 1.635148e+02 5.982056e+01 7.652064e+01 4.253279e+01 4.964467e+01 4.952393e+01 1.228615e+02 6.220862e+01 3.501228e+01 3.325503e+01 2.930923e+01 2.946015e+00 1.179762e+01 4.821274e+00 6.750865e+00 2.905359e+00 7.704759e+00 4.619662e+00 1.012523e+01 1.065541e+01 3.494781e+00 3.888613e+00 1.742895e+00 5.875834e+00
<GCONST> 1.150705e+02
<STATE> 3
<MEAN> 25
 1.803727e+01 5.514003e+00 3.084892e+00 -2.444080e-01 1.943990e+00 7.196708e-01 -5.705281e+00 -8.508110e+00 -6.681244e+00 -1.964269e+00 -7.590297e-01 -3.569270e+00 4.140012e-01 -5.213635e+00 1.612554e-01 -7.640051e-01 -2.176520e+00 -2.099725e+00 1.203774e-01 1.796786e+00 1.801342e+00 1.822355e+00 6.244548e-01 -1.168357e+00 3.214940e+00
<VARIANCE> 25
 2.254542e+01 1.482209e+02 6.700115e+01 7.602708e+01 3.753112e+01 5.865335e+01 4.331588e+01 6.594720e+01 5.325031e+01 3.877007e+01 3.740622e+01 2.517859e+01 4.164845e+00 2.260291e+01 1.331977e+01 1.694086e+01 6.254567e+00 8.508231e+00 5.406785e+00 1.824706e+01 1.434280e+01 5.725705e+00 4.262025e+00 2.937512e+00 1.080877e+01
<GCONST> 1.205772e+02
<STATE> 4
<MEAN> 25
 2.021050e+01 -3.399438e+00 3.668555e+00 4.132146e+00 -3.485746e+00 -4.153298e-01 -2.033177e+00 -1.518832e+01 -9.389047e+00 5.018418e+00 -1.151925e+00 -8.988785e+00 -2.943712e-01 -2.134416e+00 1.836268e-01 -1.170661e+00 -8.456767e-01 -1.230202e+00 4.957707e-01 6.992255e-01 1.676573e+00 6.853813e-01 -1.759659e-01 -2.182458e-01 1.775062e+00
<VARIANCE> 25
 8.954243e+00 9.839679e+01 5.232491e+01 1.658538e+02 3.458022e+01 5.862206e+01 7.724632e+01 1.367212e+02 1.442632e+02 4.871393e+01 3.871391e+01 2.379311e+01 2.257143e+00 2.128843e+01 5.973770e+00 2.476027e+01 6.381029e+00 6.374915e+00 6.862235e+00 2.285415e+01 1.245424e+01 6.635498e+00 4.270815e+00 2.724608e+00 1.115583e+01
<GCONST> 1.212695e+02
<TRANSP> 5
 0.000000e+00 1.000000e+00 0.000000e+00 0.000000e+00 0.000000e+00
 0.000000e+00 2.834950e-02 9.716505e-01 0.000000e+00 0.000000e+00
 0.000000e+00 0.000000e+00 2.877848e-01 7.122152e-01 0.000000e+00
 0.000000e+00 0.000000e+00 0.000000e+00 7.232790e-01 2.767210e-01
 0.000000e+00 0.000000e+00 0.000000e+00 0.000000e+00 0.000000e+00
<ENDHMM>
~h "c"
<BEGINHMM>
<NUMSTATES> 5
<STATE> 2
<MEAN> 25
 -2.217213e+00 3.946403e+00 -5.682697e+00 1.116868e+00 -1.037435e-01 4.289859e+00 -2.318107e+00 -2.641427e+00 3.101299e-01 2.951922e+00 3.098143e+00 3.056223e-02 -1.593281e+00 -1.262513e+00 -5.698934e-01 -3.772271e-02 3.814152e-02 2.863913e-01 7.902153e-01 1.576015e-01 -6.256135e-01 -5.617607e-01 1.219452e-01 -5.938471e-02 -8.370449e-01
<VARIANCE> 25
 1.873535e+01 2.083959e+01 5.276810e+00 1.508572e+01 1.508909e+01 1.294394e+01 2.126224e+01 1.086592e+01 1.348695e+01 1.698132e+01 8.923202e+00 6.357702e+00 1.541183e+00 9.651949e-01 2.967050e-01 1.137066e+00 2.282462e+00 1.208769e+00 1.277607e+00 1.957840e+00 5.224728e-01 1.070033e+00 7.834019e-01 6.094272e-01 4.712263e-01
<GCONST> 7.564957e+01
<STATE> 3
<MEAN> 25
 -7.996418e+00 9.494857e-01 -7.054460e+00 1.840139e-01 1.722495e-01 8.057804e+00 3.733048e+00 6.942154e-02 -3.530690e+00 -1.657260e+00 2.822099e+00 1.613053e+00 -2.800732e-01 2.159875e-01 2.463072e-01 1.775771e-01 -6.033153e-02 1.093974e-01 -1.322788e-01 -7.663882e-02 -1.689865e-02 -2.700982e-01 -1.247083e-01 1.504560e-01 -2.183184e-01
<VARIANCE> 25
 3.667844e+00 1.140764e+01 1.517798e+01 1.200697e+01 6.276380e+00 1.450057e+01 9.410905e+00 1.453450e+01 1.550102e+01 1.508017e+01 1.038584e+01 7.831336e+00 7.117444e-02 2.635054e-01 3.801270e-01 3.385544e-01 5.917966e-01 7.226644e-01 9.079962e-01 8.180542e-01 2.167116e+00 1.197770e+00 2.063992e+00 4.617455e-01 5.360071e-02
<GCONST> 6.497459e+01
<STATE> 4
<MEAN> 25
 -9.524371e+00 1.219324e+00 -4.160045e+00 2.915683e+00 -1.714399e-01 4.786096e+00 -9.715680e-01 -1.709565e+00 -1.170570e+00 -1.702685e+00 -4.539687e-02 8.222974e-01 -2.750261e-02 -2.184432e-02 2.371342e-02 -3.292002e-02 -2.571559e-03 6.281620e-03 -8.749061e-02 -5.528052e-02 7.313450e-02 1.032790e-01 1.016818e-02 2.461103e-02 -2.547912e-02
<VARIANCE> 25
 6.632426e+00 1.540153e+01 2.482833e+01 8.067059e+00 9.221534e+00 1.431583e+01 1.147651e+01 1.481052e+01 1.359699e+01 1.142853e+01 1.180611e+01 1.112047e+01 1.162191e-01 2.324124e-01 4.954543e-01 3.792287e-01 6.888319e-01 1.476039e+00 1.007243e+00 8.181801e-01 9.772173e-01 1.220734e+00 1.451479e+00 1.039641e+00 5.360071e-02
<GCONST> 6.801646e+01
<TRANSP> 5
 0.000000e+00 1.000000e+00 0.000000e+00 0.000000e+00 0.000000e+00
 0.000000e+00 7.948365e-01 2.051635e-01 0.000000e+00 0.000000e+00
 0.000000e+00 0.000000e+00 7.940544e-01 2.059456e-01 0.000000e+00
 0.000000e+00 0.000000e+00 0.000000e+00 9.698189e-01 3.018114e-02
 0.000000e+00 0.000000e+00 0.000000e+00 0.000000e+00 0.000000e+00
<ENDHMM>
~h "d"
<BEGINHMM>
<NUMSTATES> 5
<STATE> 2
<MEAN> 25
 1.759501e+01 2.924089e+00 -1.809973e+00 7.238921e+00 1.533935e-01 -8.920323e+00 -8.023126e+00 -1.727497e-01 3.550552e+00 -1.058566e+00 -6.237285e+00 -4.273177e+00 -2.057534e-01 1.903071e+00 -2.180310e-01 7.497257e-01 9.364867e-01 1.357100e-01 -8.863232e-01 -7.907748e-01 2.701572e-01 -5.071473e-01 -2.368694e-01 1.363212e-01 -1.215885e+00
<VARIANCE> 25
 1.717704e+01 1.984897e+02 5.190060e+01 5.157872e+01 6.542595e+01 3.878432e+01 5.864834e+01 5.180259e+01 4.735293e+01 3.888477e+01 3.659901e+01 2.029974e+01 1.762234e+00 1.843693e+01 7.074745e+00 6.778656e+00 6.937517e+00 5.861388e+00 6.885212e+00 5.018121e+00 5.465565e+00 4.873721e+00 4.411806e+00 3.319507e+00 7.387606e+00
<GCONST> 1.145257e+02
<STATE> 3
<MEAN> 25
 2.111674e+01 -2.110932e+00 -1.008329e+00 -7.234275e-01 9.401597e-01 -2.809686e+00 -1.201562e+01 -1.057722e+01 -5.202177e+00 -4.165182e+00 2.650769e+00 1.925300e+00 1.112739e+00 -3.115398e-01 -6.585132e-01 -2.655569e+00 -9.056008e-01 1.351913e+00 9.046603e-01 -1.346091e+00 -2.333518e+00 5.757376e-02 1.382575e+00 7.640910e-01 1.285309e+00
<VARIANCE> 25
 2.003224e+01 7.144751e+01 6.594116e+01 1.071127e+02 6.762620e+01 1.004448e+02 5.974187e+01 6.802262e+01 7.690459e+01 4.643991e+01 5.035756e+01 3.768161e+01 2.343275e+00 1.802764e+01 1.120823e+01 8.053067e+00 9.188811e+00 1.007214e+01 8.227834e+00 7.892434e+00 7.684743e+00 5.653866e+00 8.303636e+00 4.439678e+00 6.797592e+00
<GCONST> 1.211812e+02
<STATE> 4
<MEAN> 25
 2.161845e+01 -5.224422e+00 -5.641603e-01 -1.459073e+01 -5.175314e+00 2.778229e+00 -2.735030e+00 -8.535628e+00 -8.019513e+00 1.309280e+00 3.244632e+00 -6.323605e-01 -4.976617e-01 -1.648677e+00 4.940030e-01 -1.739501e-01 -1.730151e-01 -3.614803e-01 3.183571e-01 7.269785e-01 1.095854e+00 9.506439e-01 -3.106371e-01 -8.954025e-01 8.509688e-01
<VARIANCE> 25
 1.884627e+01 1.480224e+02 5.659436e+01 5.251340e+01 4.055763e+01 7.235789e+01 3.599456e+01 8.578227e+01 6.041809e+01 6.405785e+01 3.394018e+01 4.029124e+01 9.758286e-01 6.352984e+00 2.676187e+00 4.475717e+00 3.737056e+00 4.840949e+00 3.101711e+00 5.523710e+00 3.542976e+00 4.630663e+00 4.066472e+00 3.285647e+00 1.545216e+00
<GCONST> 1.092480e+02
<TRANSP> 5
 0.000000e+00 1.000000e+00 0.000000e+00 0.000000e+00 0.000000e+00
 0.000000e+00 8.990851e-01 1.009148e-01 0.000000e+00 0.000000e+00
 0.000000e+00 0.000000e+00 8.638984e-01 1.361016e-01 0.000000e+00
 0.000000e+00 0.000000e+00 0.000000e+00 9.024955e-01 9.750451e-02
 0.000000e+00 0.000000e+00 0.000000e+00 0.000000e+00 0.000000e+00
<ENDHMM>
~h "e"
<BEGINHMM>
<NUMSTATES> 5
<STATE> 2
<MEAN> 25
 1.175518e+01 -6.120667e+00 1.247114e+01 -6.522789e-01 -8.808669e+00 -1.438106e+01 1.698371e+00 3.166509e+00 -7.781545e+00 -1.680480e-01 -1.084512e+00 2.126838e+00 -8.745663e-01 1.633769e+00 3.802067e-01 1.669452e-01 -5.059726e-01 4.580479e-01 1.102008e+00 -1.033013e+00 -6.298782e-01 4.429774e-02 7.390950e-02 1.311545e-01 -1.088306e+00
<VARIANCE> 25
 7.467902e+01 1.135031e+02 8.074609e+01 1.425168e+02 9.016669e+01 7.136031e+01 7.327850e+01 6.338635e+01 7.016283e+01 4.282858e+01 3.513057e+01 3.256546e+01 8.341053e+00 1.079860e+01 9.358380e+00 1.372745e+01 1.153350e+01 7.442389e+00 7.502700e+00 8.501794e+00 1.078393e+01 4.749942e+00 4.831146e+00 3.983669e+00 6.897499e+00
<GCONST> 1.233949e+02
<STATE> 3
<MEAN> 25
 3.086275e-01 4.322368e+00 1.438635e+01 -2.996341e+00 -1.123360e+01 -7.606283e+00 7.235796e+00 -3.615574e+00 -5.779424e+00 -8.159103e-01 3.339259e+00 3.040236e+00 8.309588e-01 7.498567e-02 1.552499e+00 -2.262987e-01 -1.029407e+00 6.651021e-01 -3.700628e-01 -4.833698e-01 -1.190643e+00 -1.309758e-01 -8.551721e-02 -2.975824e-01 1.061769e-01
<VARIANCE> 25
 1.920614e+02 8.477298e+01 1.567131e+02 9.805545e+01 1.280631e+02 5.368887e+01 9.709064e+01 4.440780e+01 1.125784e+02 3.940552e+01 4.218780e+01 3.332898e+01 1.338994e+01 9.654848e+00 1.288251e+01 6.899631e+00 1.331535e+01 5.437948e+00 1.236560e+01 7.193420e+00 1.084591e+01 4.210465e+00 3.787041e+00 3.900308e+00 7.987894e+00
<GCONST> 1.248472e+02
<STATE> 4
<MEAN> 25
 1.092405e+01 2.371265e+00 1.971109e+01 -3.313981e+00 -1.318139e+01 -3.968485e+00 -1.179498e+00 -5.747658e+00 -1.194740e+01 -5.332272e-01 -3.604648e-01 -2.438884e+00 -1.360775e-02 4.818459e-01 -6.540663e-01 2.889524e-01 3.965694e-01 4.218039e-02 -3.719546e-01 -6.265686e-02 4.365474e-01 -1.498361e-02 -4.406156e-02 -1.153801e-01 -5.253849e-01
<VARIANCE> 25
 3.043927e+01 9.113984e+01 1.690053e+02 1.154925e+02 1.071048e+02 9.054523e+01 1.095736e+02 9.432279e+01 1.065052e+02 5.733767e+01 4.377740e+01 4.377242e+01 2.775813e+00 1.119685e+01 1.322206e+01 1.080790e+01 9.447808e+00 7.050285e+00 9.444519e+00 8.540273e+00 1.011946e+01 4.405045e+00 4.332901e+00 4.653958e+00 9.137675e+00
<GCONST> 1.244538e+02
<TRANSP> 5
 0.000000e+00 1.000000e+00 0.000000e+00 0.000000e+00 0.000000e+00
 0.000000e+00 7.703554e-01 2.296446e-01 0.000000e+00 0.000000e+00
 0.000000e+00 0.000000e+00 7.575386e-01 2.424614e-01 0.000000e+00
 0.000000e+00 0.000000e+00 0.000000e+00 8.920839e-01 1.079161e-01
 0.000000e+00 0.000000e+00 0.000000e+00 0.000000e+00 0.000000e+00
<ENDHMM>
~h "g"
<BEGINHMM>
<NUMSTATES> 5
<STATE> 2
<MEAN> 25
 -2.840827e+00 3.280947e+00 -1.838504e-01 2.819060e+00 -9.012876e-01 2.651451e-01 7.350174e-01 8.255234e-01 7.081383e-01 -5.949124e-01 8.440698e-01 1.368757e+00 6.431806e-02 3.324785e-01 -6.489449e-01 -3.527486e-01 1.071018e+00 -1.192805e-01 -2.699235e-01 -1.662983e-01 1.124341e-01 -5.058231e-01 2.843293e-01 2.270235e-01 7.717916e-01
<VARIANCE> 25
 2.009032e+02 8.329073e+01 9.394276e+01 5.945182e+01 5.420484e+01 8.956964e+01 4.121235e+01 5.415701e+01 4.141341e+01 1.976693e+01 3.522794e+01 3.017939e+01 6.670105e+00 4.384658e+00 5.657226e+00 2.634078e+00 4.175272e+00 5.069111e+00 4.040750e+00 4.851195e+00 4.713935e+00 2.903887e+00 3.149790e+00 1.896549e+00 1.017232e+01
<GCONST> 1.130038e+02
<STATE> 3
<MEAN> 25
 -2.868924e+00 3.244441e+00 -4.151063e-01 2.718401e+00 2.974459e-01 7.854803e-02 5.331677e-01 8.531201e-01 1.023416e+00 -1.331029e+00 8.015146e-01 2.079181e+00 1.310425e+00 -1.853563e-01 1.952886e-01 -7.667157e-01 7.151542e-01 -1.097126e+00 -5.062596e-01 -2.391285e-01 -1.816440e-01 -1.617622e-01 -1.828962e-01 -2.043439e-01 2.897864e+00
<VARIANCE> 25
 1.654161e+02 8.269135e+01 8.504035e+01 5.739970e+01 4.086694e+01 8.049675e+01 4.100417e+01 4.898273e+01 3.667522e+01 1.993340e+01 3.321210e+01 2.707010e+01 1.073972e+01 6.740522e+00 5.187752e+00 3.196931e+00 3.472739e+00 6.800690e+00 3.041858e+00 4.606763e+00 3.118641e+00 2.554934e+00 2.874213e+00 2.260110e+00 2.098042e+01
<GCONST> 1.129459e+02
<STATE> 4
<MEAN> 25
 -5.212643e+00 3.061077e+00 -7.127898e-01 1.293389e+00 1.408139e+00 -4.569694e-01 -7.493976e-02 1.235794e+00 7.730682e-01 -1.075428e+00 4.711365e-01 1.463027e+00 1.093328e+00 2.903905e-02 5.406908e-01 -2.375453e-01 5.029866e-02 -7.137188e-01 -4.985380e-01 -1.719286e-01 -5.079014e-01 -1.869864e-01 -2.810130e-01 -4.599927e-01 1.527189e+00
<VARIANCE> 25
 8.718607e+01 4.824566e+01 5.368777e+01 4.739471e+01 3.087971e+01 4.999934e+01 3.215981e+01 4.037885e+01 3.398027e+01 1.970644e+01 2.503592e+01 2.071837e+01 9.518860e+00 5.326262e+00 3.042515e+00 3.581645e+00 2.642012e+00 5.208165e+00 2.670001e+00 2.637776e+00 2.142852e+00 2.058258e+00 2.416062e+00 2.038754e+00 2.059338e+01
<GCONST> 1.063938e+02
<TRANSP> 5
 0.000000e+00 1.000000e+00 0.000000e+00 0.000000e+00 0.000000e+00
 0.000000e+00 1.597516e-02 9.840249e-01 0.000000e+00 0.000000e+00
 0.000000e+00 0.000000e+00 5.361893e-02 9.463810e-01 0.000000e+00
 0.000000e+00 0.000000e+00 0.000000e+00 5.283386e-01 4.716614e-01
 0.000000e+00 0.000000e+00 0.000000e+00 0.000000e+00 0.000000e+00
<ENDHMM>
~h "h"
<BEGINHMM>
<NUMSTATES> 5
<STATE> 2
<MEAN> 25
 -2.263261e+00 4.765210e+00 -4.452205e+00 -1.830568e+00 1.026668e+00 5.154560e+00 2.694988e+00 1.469300e+00 -9.061842e-01 -7.618828e-01 1.034783e-01 2.067240e+00 -1.081436e-01 -2.184802e-01 4.943214e-01 -4.825239e-01 -3.116648e-01 -5.565258e-01 -1.282343e-01 3.298088e-01 9.868281e-02 -2.495645e-01 -5.122253e-01 -4.601541e-01 4.209607e-01
<VARIANCE> 25
 9.861286e+01 2.461281e+01 9.969832e+01 8.767868e+01 1.902646e+01 6.723031e+01 3.014808e+01 2.769635e+01 2.212887e+01 1.417374e+01 1.795901e+01 1.287953e+01 4.032056e+00 1.387783e+00 3.017769e+00 3.290074e+00 1.846252e+00 2.766413e+00 2.522633e+00 1.199682e+00 1.472026e+00 1.208236e+00 1.779846e+00 1.315653e+00 8.121343e+00
<GCONST> 9.816725e+01
<STATE> 3
<MEAN> 25
 -1.987251e-01 8.106165e+00 -4.773531e+00 -2.949191e+00 -1.567673e+00 3.180831e+00 7.802467e-01 1.492289e-01 -3.135571e-02 -3.182280e+00 -5.377169e-01 8.285968e-02 -7.237680e-01 3.059018e-01 4.008777e-01 2.986602e-01 -4.216087e-01 1.950517e-01 2.588576e-02 5.110290e-02 1.207202e-01 -2.833256e-01 9.585198e-02 -1.216606e-01 -9.311507e-01
<VARIANCE> 25
 1.228373e+02 5.031548e+01 6.309244e+01 5.290694e+01 2.134232e+01 1.812494e+01 1.813918e+01 2.188788e+01 1.951920e+01 2.330636e+01 1.565997e+01 1.419565e+01 8.446928e-01 5.485139e-01 2.477754e+00 1.666381e+00 9.176860e-01 1.690913e+00 1.884996e+00 1.445077e+00 1.639592e+00 1.193013e+00 1.202622e+00 1.089006e+00 1.324066e+00
<GCONST> 8.956693e+01
<STATE> 4
<MEAN> 25
 -6.883188e+00 4.045270e+00 -2.082329e+00 2.470381e+00 -1.397537e+00 1.560653e+00 -1.317038e+00 7.272616e-01 6.835057e-01 -1.003290e+00 -3.982448e-01 -1.874733e-01 -6.208404e-02 -1.644371e-01 -1.924527e-02 1.085098e-01 -2.460575e-02 1.120509e-01 -2.192561e-02 -1.278005e-01 -1.046439e-01 2.397842e-02 8.284624e-02 5.810612e-02 -5.896437e-02
<VARIANCE> 25
 2.173400e+01 1.372199e+01 2.838910e+01 1.394802e+01 1.272771e+01 2.436485e+01 1.784981e+01 1.825961e+01 2.146842e+01 1.459861e+01 1.325345e+01 1.366265e+01 4.763878e-01 4.484569e-01 1.008878e+00 7.974377e-01 6.824498e-01 1.247713e+00 1.127358e+00 1.323641e+00 2.250561e+00 1.309613e+00 1.374090e+00 1.540779e+00 4.216572e-01
<GCONST> 7.954215e+01
<TRANSP> 5
 0.000000e+00 1.000000e+00 0.000000e+00 0.000000e+00 0.000000e+00
 0.000000e+00 5.355568e-01 4.644432e-01 0.000000e+00 0.000000e+00
 0.000000e+00 0.000000e+00 3.292782e-01 6.707218e-01 0.000000e+00
 0.000000e+00 0.000000e+00 0.000000e+00 7.545831e-01 2.454169e-01
 0.000000e+00 0.000000e+00 0.000000e+00 0.000000e+00 0.000000e+00
<ENDHMM>
~h "i"
<BEGINHMM>
<NUMSTATES> 5
<STATE> 2
<MEAN> 25
 1.084650e+01 -6.446687e-01 1.645877e+01 -1.427022e+00 -1.005694e+01 -9.470977e+00 3.158503e-01 -3.532731e+00 -9.735430e+00 -1.098164e+00 3.404445e-01 -8.601806e-01 3.551609e-01 -1.081341e+00 -9.992264e-02 -5.530410e-02 -7.323106e-02 -6.097789e-01 -7.983746e-02 4.167091e-01 1.659791e-01 2.279209e-01 -2.294183e-01 -5.945992e-02 9.739671e-01
<VARIANCE> 25
 3.999705e+01 1.250240e+02 1.415034e+02 1.197869e+02 1.248499e+02 1.366132e+02 1.169929e+02 9.952890e+01 1.139264e+02 6.712211e+01 5.355121e+01 4.487159e+01 4.046288e+00 1.283820e+01 1.318717e+01 9.899305e+00 1.111707e+01 9.750769e+00 1.116963e+01 1.150235e+01 1.213878e+01 5.979381e+00 5.759487e+00 3.995335e+00 9.065834e+00
<GCONST> 1.280243e+02
<STATE> 3
<MEAN> 25
 1.870556e+01 -7.700414e+00 -1.699889e+00 8.914982e-01 -1.990652e+00 -4.292400e+00 -1.131570e+00 -6.643807e+00 -2.379031e+00 2.938851e+00 -3.650941e+00 -4.896728e+00 4.802599e-02 -1.289575e-01 -6.936263e-01 -2.272892e-01 5.912592e-01 6.208876e-01 -1.264341e-01 1.774342e-01 2.164774e-01 -8.273355e-02 -3.239639e-01 -2.948664e-01 -1.380659e-01
<VARIANCE> 25
 3.284659e+01 8.873189e+01 8.298878e+01 1.094809e+02 6.901164e+01 1.041877e+02 9.073720e+01 1.292810e+02 9.963112e+01 4.981570e+01 4.321036e+01 4.251903e+01 2.408667e+00 7.913161e+00 7.416861e+00 1.042625e+01 8.722630e+00 6.395276e+00 7.700787e+00 1.213294e+01 8.022499e+00 5.779846e+00 5.090721e+00 3.672370e+00 4.289269e+00
<GCONST> 1.213905e+02
<STATE> 4
<MEAN> 25
 1.312515e+01 -1.240624e+01 8.268702e+00 -7.604277e+00 -3.159338e+00 -7.275007e+00 1.286878e+00 2.695972e+00 -3.241386e+00 -1.820046e+00 -4.305546e+00 -3.165219e+00 -1.913415e-01 6.162395e-01 2.902136e-01 -5.947892e-02 -1.849366e-01 3.853143e-02 1.025449e-01 -2.745120e-01 -1.778608e-01 2.611251e-01 2.062911e-01 3.343565e-01 -4.227524e-01
<VARIANCE> 25
 2.669732e+01 7.824825e+01 1.240800e+02 7.440033e+01 9.010857e+01 1.111989e+02 7.210557e+01 8.015270e+01 8.461401e+01 5.883441e+01 5.452536e+01 3.451652e+01 1.195378e+00 1.717611e+00 3.841356e+00 3.370375e+00 4.078939e+00 3.848865e+00 4.408548e+00 4.460663e+00 4.389935e+00 3.716585e+00 3.472211e+00 2.407278e+00 1.263730e+00
<GCONST> 1.108113e+02
<TRANSP> 5
 0.000000e+00 1.000000e+00 0.000000e+00 0.000000e+00 0.000000e+00
 0.000000e+00 8.321148e-01 1.678852e-01 0.000000e+00 0.000000e+00
 0.000000e+00 0.000000e+00 7.565871e-01 2.434130e-01 0.000000e+00
 0.000000e+00 0.000000e+00 0.000000e+00 7.828684e-01 2.171316e-01
 0.000000e+00 0.000000e+00 0.000000e+00 0.000000e+00 0.000000e+00
<ENDHMM>
~h "j"
<BEGINHMM>
<NUMSTATES> 5
<STATE> 2
<MEAN> 25
 -1.891902e+00 7.572601e+00 -6.055212e+00 -1.642558e+00 4.228824e-02 6.448137e+00 -7.572676e-01 2.286881e+00 -1.631704e+00 -4.912291e+00 -2.092263e+00 -7.447234e-01 -1.702572e+00 -9.431188e-01 1.425696e-01 9.821154e-01 6.487997e-01 -1.236708e-01 -3.721742e-01 1.132717e-01 1.860507e-01 4.161330e-02 -2.231042e-01 -3.184674e-01 -9.612641e-01
<VARIANCE> 25
 3.243878e+01 3.256809e+01 2.137975e+01 3.626300e+01 1.827674e+01 3.874495e+01 2.794284e+01 2.863302e+01 1.593919e+01 1.756073e+01 1.298145e+01 2.382803e+01 1.826224e+00 1.951181e+00 1.511219e+00 1.833337e+00 1.955968e+00 1.491115e+00 2.024739e+00 9.863302e-01 1.531990e+00 1.315138e+00 1.503247e+00 1.467404e+00 6.663786e-01
<GCONST> 8.931660e+01
<STATE> 3
<MEAN> 25
 -7.533462e+00 4.142063e+00 -6.743755e+00 3.413973e+00 1.468826e+00 3.176603e+00 -6.369851e-01 -1.115613e+00 -1.164573e+00 -3.938323e+00 -2.684135e+00 -5.592756e-01 -7.899160e-01 -5.404032e-01 2.521539e-02 1.212126e-01 -1.195162e-01 -3.069217e-01 -2.382231e-01 -1.039736e-01 2.843390e-02 2.506621e-01 1.874357e-01 -1.038083e-01 -3.921759e-01
<VARIANCE> 25
 4.265938e+00 4.983113e+00 1.121412e+01 1.771410e+01 1.586983e+01 1.395514e+01 1.266281e+01 1.227164e+01 1.016856e+01 1.344203e+01 1.403247e+01 1.889665e+01 1.460963e-01 4.144278e-01 5.520471e-01 9.302849e-01 1.231574e+00 9.426470e-01 1.330093e+00 9.914741e-01 1.336610e+00 1.431158e+00 1.199393e+00 1.162494e+00 5.360071e-02
<GCONST> 7.024944e+01
<STATE> 4
<MEAN> 25
 -1.209162e+01 3.234484e+00 -4.810920e+00 4.954788e+00 4.007341e+00 3.519062e+00 -1.525257e+00 8.580408e-01 -6.729493e-01 -2.998653e+00 9.161730e-01 -4.879665e-01 -1.253876e-01 5.287357e-03 1.125727e-01 7.084908e-02 2.702634e-02 3.061839e-02 -5.648760e-03 8.285353e-02 1.158815e-01 9.383810e-02 8.319801e-02 9.141969e-02 -8.847018e-02
<VARIANCE> 25
 5.751086e+00 3.446319e+00 1.012798e+01 2.343960e+01 1.211917e+01 3.285214e+01 1.288852e+01 1.680809e+01 1.229517e+01 1.594568e+01 1.467305e+01 1.441745e+01 1.221944e-01 3.046823e-01 5.110604e-01 8.313063e-01 7.356818e-01 9.740534e-01 1.277113e+00 1.073368e+00 1.124365e+00 1.126196e+00 1.556991e+00 1.690932e+00 5.360071e-02
<GCONST> 7.051462e+01
<TRANSP> 5
 0.000000e+00 1.000000e+00 0.000000e+00 0.000000e+00 0.000000e+00
 0.000000e+00 8.050360e-01 1.949640e-01 0.000000e+00 0.000000e+00
 0.000000e+00 0.000000e+00 7.610942e-01 2.389058e-01 0.000000e+00
 0.000000e+00 0.000000e+00 0.000000e+00 9.168646e-01 8.313545e-02
 0.000000e+00 0.000000e+00 0.000000e+00 0.000000e+00 0.000000e+00
<ENDHMM>
~h "k"
<BEGINHMM>
<NUMSTATES> 5
<STATE> 2
<MEAN> 25
 1.563894e+01 -6.174501e+00 4.323534e+00 -1.020940e+00 -2.700796e+00 -3.329391e+00 1.381419e+00 -1.982016e+00 -5.002067e+00 7.601326e-01 -4.630606e+00 -3.575473e+00 -4.880425e-01 2.097130e+00 -1.315309e+00 1.418284e+00 4.735185e-01 2.395012e-01 -2.990431e-01 5.058379e-02 8.060178e-01 -1.569820e-01 1.074342e-01 3.922534e-01 -2.466845e+00
<VARIANCE> 25
 3.776406e+01 1.067348e+02 1.868930e+02 9.885254e+01 1.356874e+02 8.984320e+01 7.851313e+01 9.522685e+01 8.123631e+01 7.065558e+01 7.406616e+01 5.639404e+01 3.071538e+00 7.349331e+00 1.182535e+01 9.937088e+00 1.062406e+01 7.622445e+00 8.997174e+00 1.111240e+01 6.952454e+00 5.495865e+00 5.411132e+00 4.838650e+00 6.156515e+00
<GCONST> 1.250014e+02
<STATE> 3
<MEAN> 25
 1.253820e+01 1.004088e+00 -8.199994e+00 -1.237658e-01 4.920496e+00 1.469508e-02 -4.090693e+00 -5.244710e-01 2.041035e+00 5.189890e-01 -4.165417e+00 -4.105086e+00 -2.918752e+00 2.217998e+00 9.987220e-02 -5.339863e-01 -3.220176e-01 1.153890e+00 -2.771470e-01 -7.071312e-02 1.394275e-01 -3.205463e-01 7.478461e-01 5.125229e-01 -3.612146e+00
<VARIANCE> 25
 5.659150e+01 6.288340e+01 8.612087e+01 5.036549e+01 6.311348e+01 4.333110e+01 4.460376e+01 5.761546e+01 5.077566e+01 3.840807e+01 2.908150e+01 2.381698e+01 4.501713e+00 4.493609e+00 8.966175e+00 4.745394e+00 1.057647e+01 5.740163e+00 7.445504e+00 5.691060e+00 5.557378e+00 3.557759e+00 3.335001e+00 2.837793e+00 2.987828e+00
<GCONST> 1.133174e+02
<STATE> 4
<MEAN> 25
 5.283678e+00 6.796083e+00 -1.490289e+00 -3.809594e-01 -1.469446e+00 -4.826263e-01 -2.393741e+00 -2.166265e+00 -1.894771e+00 -1.232205e+00 -3.137874e+00 -3.026379e+00 -1.218974e+00 2.503385e-01 7.363405e-01 1.135441e-01 -1.696195e-01 -4.725898e-02 1.822291e-01 -6.270999e-02 -3.251561e-01 5.824630e-02 4.332887e-01 2.089537e-01 -8.526151e-01
<VARIANCE> 25
 8.582030e+01 9.795037e+01 5.940501e+01 3.502747e+01 4.611073e+01 2.949207e+01 3.848280e+01 3.761900e+01 3.362101e+01 3.607238e+01 2.805567e+01 1.930229e+01 2.511894e+00 2.978974e+00 5.182943e+00 3.344301e+00 4.468459e+00 3.276614e+00 4.648118e+00 3.085612e+00 3.050060e+00 3.129606e+00 2.667458e+00 1.724206e+00 1.938754e+00
<GCONST> 1.051684e+02
<TRANSP> 5
 0.000000e+00 1.000000e+00 0.000000e+00 0.000000e+00 0.000000e+00
 0.000000e+00 6.702058e-01 3.297942e-01 0.000000e+00 0.000000e+00
 0.000000e+00 0.000000e+00 5.108954e-01 4.891045e-01 0.000000e+00
 0.000000e+00 0.000000e+00 0.000000e+00 6.140862e-01 3.859138e-01
 0.000000e+00 0.000000e+00 0.000000e+00 0.000000e+00 0.000000e+00
<ENDHMM>
~h "l"
<BEGINHMM>
<NUMSTATES> 5
<STATE> 2
<MEAN> 25
 1.212011e+01 -7.073243e+00 7.394902e+00 -6.082660e+00 -2.932795e+00 -6.548797e+00 -6.562706e+00 -2.646626e+00 4.228693e+00 -1.606738e+00 -2.601314e+00 -1.844680e+00 1.164278e+00 -2.769062e-01 1.359391e+00 1.175547e+00 -1.824989e+00 6.198270e-01 -9.789310e-01 -8.181025e-01 -1.451400e+00 5.727045e-01 7.888317e-01 -3.979070e-01 2.574114e-01
<VARIANCE> 25
 6.896391e+01 7.571957e+01 1.254584e+02 1.104239e+02 7.794875e+01 1.003368e+02 1.200292e+02 1.003746e+02 1.041728e+02 7.477308e+01 5.423752e+01 4.068728e+01 5.449129e+00 8.850312e+00 1.338171e+01 1.094512e+01 1.242850e+01 1.110705e+01 2.059009e+01 1.046455e+01 1.148932e+01 8.972003e+00 6.007636e+00 4.515890e+00 9.033104e+00
<GCONST> 1.283650e+02
<STATE> 3
<MEAN> 25
 1.591373e+01 -9.896819e+00 1.436902e+01 -1.323964e+00 -1.380870e+01 -6.974041e+00 -4.438396e+00 -4.154694e+00 -4.535497e+00 1.178860e+00 -1.264426e+00 -3.803800e-01 -2.405496e-01 6.418959e-01 1.205201e+00 -2.664344e-01 -9.419692e-01 -9.414675e-03 8.455978e-01 1.030342e-01 -1.839860e+00 3.550257e-01 2.797702e-01 1.759481e-01 -2.298631e-01
<VARIANCE> 25
 2.129098e+01 2.431339e+01 1.079772e+02 9.660667e+01 7.423653e+01 7.891113e+01 1.323588e+02 9.853858e+01 9.381383e+01 6.517205e+01 6.186062e+01 4.836535e+01 8.233697e-01 2.981166e+00 4.752472e+00 7.305073e+00 5.170441e+00 7.682502e+00 6.953016e+00 7.883598e+00 6.725101e+00 6.587562e+00 5.207431e+00 3.918926e+00 1.510146e+00
<GCONST> 1.156726e+02
<STATE> 4
<MEAN> 25
 1.560588e+01 5.624908e+00 1.501577e+01 -4.462461e+00 -1.355650e+01 9.874941e-01 -1.945384e-01 -1.033780e+01 -1.556362e+01 1.734578e+00 1.528805e+00 -1.112740e+00 5.117249e-01 2.293990e+00 -2.107464e+00 1.186964e+00 1.300091e+00 4.054223e-01 -3.825952e-01 -1.164487e+00 7.729278e-01 -8.188437e-01 -3.603395e-02 -6.335162e-02 -1.687005e+00
<VARIANCE> 25
 3.198221e+01 9.597226e+01 1.539689e+02 8.556194e+01 1.061843e+02 8.972015e+01 1.190603e+02 1.274025e+02 7.055283e+01 8.297321e+01 5.051793e+01 2.280141e+01 1.978997e+00 5.325008e+00 9.060126e+00 6.941789e+00 9.144119e+00 1.032556e+01 8.657902e+00 1.259011e+01 6.902144e+00 6.592036e+00 3.657562e+00 2.206078e+00 1.715532e+00
<GCONST> 1.201560e+02
<TRANSP> 5
 0.000000e+00 1.000000e+00 0.000000e+00 0.000000e+00 0.000000e+00
 0.000000e+00 6.118997e-01 3.881003e-01 0.000000e+00 0.000000e+00
 0.000000e+00 0.000000e+00 8.461692e-01 1.538308e-01 0.000000e+00
 0.000000e+00 0.000000e+00 0.000000e+00 8.251531e-01 1.748470e-01
 0.000000e+00 0.000000e+00 0.000000e+00 0.000000e+00 0.000000e+00
<ENDHMM>
~h "m"
<BEGINHMM>
<NUMSTATES> 5
<STATE> 2
<MEAN> 25
 1.538120e+01 -7.171363e+00 -8.810841e-01 -2.514075e+00 1.302128e+00 -3.845669e-01 -1.416274e+00 -3.567997e+00 -3.026108e+00 -1.856954e-01 -4.244467e+00 -6.147989e+00 1.934571e-01 6.576085e-01 -1.428648e+00 8.514669e-01 5.647246e-01 1.081738e+00 1.810031e-01 -1.366084e+00 -5.335564e-01 -9.630246e-02 -1.541308e-01 -1.004572e-01 -1.103874e+00
<VARIANCE> 25
 7.539258e+01 1.627875e+02 6.295370e+01 1.140997e+02 4.651790e+01 5.824578e+01 5.699063e+01 1.097649e+02 6.490273e+01 4.647729e+01 3.415078e+01 3.855901e+01 3.289075e+00 6.241791e+00 3.240289e+00 4.518170e+00 3.681708e+00 4.148837e+00 3.848537e+00 5.145604e+00 5.487359e+00 2.901260e+00 3.330262e+00 2.348297e+00 2.576581e+00
<GCONST> 1.132706e+02
<STATE> 3
<MEAN> 25
 1.819783e+01 -8.200268e+00 -3.575313e+00 -2.787912e+00 1.669779e+00 -2.915396e-01 2.589631e-02 -4.251849e+00 -4.837741e+00 2.722409e+00 -4.177264e+00 -7.990337e+00 1.284951e-01 1.901769e+00 -7.449890e-01 5.159073e-01 1.015407e+00 1.165536e+00 -6.170135e-01 -9.922228e-01 -7.849863e-01 -3.265206e-01 1.743834e-01 4.975559e-01 -1.468352e+00
<VARIANCE> 25
 6.607718e+01 1.058911e+02 7.086777e+01 1.127290e+02 4.930939e+01 4.060111e+01 8.249725e+01 1.159304e+02 5.334101e+01 4.922281e+01 4.679401e+01 3.468067e+01 1.456103e+00 6.715642e+00 3.657407e+00 4.615020e+00 3.641843e+00 2.943139e+00 2.895814e+00 5.526326e+00 3.922834e+00 2.348130e+00 3.444952e+00 2.144315e+00 2.273937e+00
<GCONST> 1.111113e+02
<STATE> 4
<MEAN> 25
 2.020189e+01 7.145331e+00 -4.601684e+00 7.346061e-01 6.520421e+00 5.338900e+00 -5.068868e+00 -1.430582e+01 -1.027669e+01 -1.062841e+00 -1.653147e+00 -2.959526e+00 -4.935501e-01 1.483052e+00 6.151878e-01 3.233290e-01 2.466075e-02 2.997473e-01 -1.046420e-01 -6.919055e-01 -5.341672e-01 -3.225936e-01 2.740817e-01 4.589822e-01 -1.024624e+00
<VARIANCE> 25
 4.349151e+01 6.148531e+01 5.338575e+01 4.294409e+01 3.262697e+01 2.533632e+01 5.554018e+01 7.766886e+01 5.082510e+01 2.912807e+01 2.799289e+01 2.311775e+01 1.394030e+00 4.570403e+00 4.422302e+00 3.814947e+00 3.248891e+00 2.484185e+00 2.942991e+00 6.559494e+00 4.983227e+00 2.907221e+00 2.494006e+00 2.033009e+00 1.844717e+00
<GCONST> 1.050703e+02
<TRANSP> 5
 0.000000e+00 1.000000e+00 0.000000e+00 0.000000e+00 0.000000e+00
 0.000000e+00 2.091163e-01 7.908837e-01 0.000000e+00 0.000000e+00
 0.000000e+00 0.000000e+00 4.945095e-01 5.054905e-01 0.000000e+00
 0.000000e+00 0.000000e+00 0.000000e+00 7.589532e-01 2.410468e-01
 0.000000e+00 0.000000e+00 0.000000e+00 0.000000e+00 0.000000e+00
<ENDHMM>
~h "n"
<BEGINHMM>
<NUMSTATES> 5
<STATE> 2
<MEAN> 25
 -5.503005e+00 3.184104e+00 -4.336454e+00 3.027728e+00 8.927919e-01 3.167927e+00 -9.104815e-01 5.370855e-01 9.099753e-01 -1.791525e+00 -6.690769e-01 -6.928369e-03 -1.319120e-01 8.721294e-02 -3.285108e-02 -8.502726e-02 -1.268222e-02 7.639168e-03 3.400585e-02 5.457807e-02 -8.358558e-02 -9.899449e-02 5.684511e-02 2.630244e-02 -1.363028e-01
<VARIANCE> 25
 6.787792e+01 2.662951e+01 2.929420e+01 2.143234e+01 1.905386e+01 2.260966e+01 3.373677e+01 2.518080e+01 2.397139e+01 1.589577e+01 1.703537e+01 1.744561e+01 5.011343e-01 8.229956e-01 1.074376e+00 9.937335e-01 1.309099e+00 1.458261e+00 1.556803e+00 1.690233e+00 1.544141e+00 1.537450e+00 1.178952e+00 1.318908e+00 2.136975e-01
<GCONST> 8.489323e+01
<STATE> 3
<MEAN> 25
 1.726176e+00 5.391900e+00 -2.731135e+00 1.573297e+00 2.119529e+00 1.984554e+00 -2.389708e+00 -1.698630e+00 -9.219776e-01 -2.748904e+00 -1.439682e+00 -7.009485e-01 1.635372e+00 5.065038e-01 -1.271919e-01 -1.423083e+00 -6.550493e-01 4.847721e-01 2.087922e-01 -2.439765e-01 -3.051177e-01 1.446755e-01 6.178217e-01 5.357612e-01 1.105666e+00
<VARIANCE> 25
 1.726097e+02 6.379938e+01 5.269518e+01 4.018713e+01 2.968833e+01 4.126425e+01 4.343528e+01 5.237659e+01 3.829843e+01 2.932495e+01 2.858903e+01 2.174561e+01 1.257197e+01 6.683220e+00 3.743722e+00 4.095568e+00 2.053096e+00 3.361379e+00 2.717005e+00 3.644299e+00 2.960663e+00 2.341351e+00 2.479935e+00 2.212451e+00 6.520016e+00
<GCONST> 1.081073e+02
<STATE> 4
<MEAN> 25
 1.235939e+01 6.663342e+00 -5.248482e+00 -6.381467e+00 -9.331163e-01 6.377730e+00 -1.646283e+00 -4.279923e+00 -2.469486e+00 -1.720525e+00 2.662382e+00 1.304214e+00 2.001782e+00 -1.860491e+00 -2.418028e-02 -1.805403e+00 -6.039115e-01 8.530647e-02 -4.276064e-02 -1.055734e-01 -8.406539e-01 5.010485e-01 5.976530e-01 -2.671919e-01 2.718128e+00
<VARIANCE> 25
 1.689794e+02 9.468540e+01 7.128371e+01 9.490741e+01 4.633053e+01 5.300831e+01 4.417524e+01 5.924839e+01 5.364135e+01 2.671217e+01 4.303784e+01 2.173690e+01 1.507314e+01 1.212740e+01 6.685181e+00 7.168575e+00 2.987564e+00 4.402350e+00 5.053878e+00 5.562407e+00 8.116466e+00 2.719115e+00 4.296960e+00 2.344285e+00 9.497402e+00
<GCONST> 1.168774e+02
<TRANSP> 5
 0.000000e+00 1.000000e+00 0.000000e+00 0.000000e+00 0.000000e+00
 0.000000e+00 8.224141e-01 1.775859e-01 0.000000e+00 0.000000e+00
 0.000000e+00 0.000000e+00 3.328448e-01 6.671552e-01 0.000000e+00
 0.000000e+00 0.000000e+00 0.000000e+00 4.724224e-01 5.275776e-01
 0.000000e+00 0.000000e+00 0.000000e+00 0.000000e+00 0.000000e+00
<ENDHMM>
~h "o"
<BEGINHMM>
<NUMSTATES> 5
<STATE> 2
<MEAN> 25
 1.392183e+01 -5.734023e+00 -4.583789e+00 -1.451228e+01 6.013184e+00 3.009953e-01 -1.858100e+00 -2.608412e+00 -3.474678e+00 2.909518e+00 3.635973e+00 -2.274004e+00 8.183668e-01 1.390278e-04 -1.314139e-01 -3.059731e-01 5.778683e-02 -1.016061e-01 -6.066536e-02 -2.739592e-01 9.342232e-02 3.983334e-01 -4.608049e-01 -5.665949e-02 6.567555e-01
<VARIANCE> 25
 6.977396e+01 7.115642e+01 9.565532e+01 1.010164e+02 1.213468e+02 1.288503e+02 1.009471e+02 7.298313e+01 7.877396e+01 6.240318e+01 7.815316e+01 3.173656e+01 6.475503e+00 1.014195e+01 1.281464e+01 1.180621e+01 1.571595e+01 1.350469e+01 1.232678e+01 7.687246e+00 9.424534e+00 6.658232e+00 8.054563e+00 4.289912e+00 1.356773e+01
<GCONST> 1.279139e+02
<STATE> 3
<MEAN> 25
 1.732080e+01 5.460554e+00 -1.287851e+01 -7.399060e+00 4.404044e+00 3.594562e+00 -4.888149e+00 -2.948905e+00 2.104505e+00 5.030364e+00 -4.103417e-01 -2.498418e+00 -2.513112e+00 2.128302e+00 -1.327673e+00 4.183218e-01 -1.268114e+00 1.090786e+00 5.328457e-01 3.742994e-01 6.167700e-01 -1.038683e+00 1.485094e+00 8.089159e-01 -4.023670e+00
<VARIANCE> 25
 2.795727e+01 1.894979e+01 4.635057e+01 2.849275e+01 2.121697e+01 2.658163e+01 4.101694e+01 1.683699e+01 3.018876e+01 2.406040e+01 3.239314e+01 2.057842e+01 4.042297e+00 3.742388e+00 1.201481e+01 5.186587e+00 5.956168e+00 4.710015e+00 8.236868e+00 3.495069e+00 5.586085e+00 2.724135e+00 5.882635e+00 2.325640e+00 3.600345e+00
<GCONST> 1.055304e+02
<STATE> 4
<MEAN> 25
 4.149859e-01 6.158326e+00 -6.756789e+00 -5.509356e+00 -3.669203e+00 3.846005e-01 -1.143840e+00 -3.407576e-01 -7.554198e-02 7.212808e-01 1.982913e+00 4.303169e-01 -1.815069e+00 -1.999635e+00 1.980936e+00 6.146030e-01 -1.721194e-01 -1.663133e+00 7.639164e-01 6.830639e-01 -2.647325e-01 -1.684843e-01 -1.260621e-01 7.600511e-01 4.989029e-01
<VARIANCE> 25
 3.245434e+01 7.841436e+00 3.033596e+01 2.352576e+01 1.906948e+01 1.755686e+01 2.350522e+01 1.929912e+01 2.349501e+01 1.949853e+01 1.991689e+01 1.390271e+01 5.793122e+00 5.005638e+00 4.559152e+00 2.630340e+00 4.736303e+00 3.934124e+00 3.513067e+00 3.435883e+00 3.024934e+00 4.211111e+00 2.270289e+00 3.172504e+00 1.196162e+01
<GCONST> 1.000061e+02
<TRANSP> 5
 0.000000e+00 1.000000e+00 0.000000e+00 0.000000e+00 0.000000e+00
 0.000000e+00 9.218984e-01 7.810164e-02 0.000000e+00 0.000000e+00
 0.000000e+00 0.000000e+00 7.309165e-01 2.690834e-01 0.000000e+00
 0.000000e+00 0.000000e+00 0.000000e+00 7.547805e-01 2.452194e-01
 0.000000e+00 0.000000e+00 0.000000e+00 0.000000e+00 0.000000e+00
<ENDHMM>
~h "p"
<BEGINHMM>
<NUMSTATES> 5
<STATE> 2
<MEAN> 25
 1.740128e+01 -9.763328e+00 1.296961e+00 -7.133184e+00 1.349700e+00 1.002896e+00 -4.142591e+00 -8.767644e-01 -2.444361e+00 3.142636e+00 -3.778324e+00 -6.819887e+00 3.610630e-01 2.614720e+00 -2.819957e+00 3.578037e+00 -6.184647e-01 1.118912e+00 2.801034e-01 -6.795637e-02 8.780993e-01 2.209654e-01 9.506267e-01 1.462212e-01 -3.552502e+00
<VARIANCE> 25
 2.831985e+01 1.439735e+02 6.179506e+01 1.346702e+02 4.665144e+01 6.405771e+01 4.995954e+01 5.273668e+01 4.139115e+01 4.103704e+01 3.730512e+01 2.163166e+01 3.954037e+00 7.891012e+00 9.000901e+00 9.818195e+00 6.077818e+00 7.819343e+00 4.571392e+00 6.275472e+00 7.921957e+00 3.893253e+00 4.537564e+00 2.472323e+00 6.689594e+00
<GCONST> 1.161834e+02
<STATE> 3
<MEAN> 25
 1.214269e+01 3.366832e+00 -1.346800e+01 5.816652e-01 3.553417e+00 1.544953e+00 -3.869176e+00 6.750441e-01 5.947466e+00 1.676521e+00 -2.552198e+00 -3.876710e+00 -2.036362e+00 3.764629e-02 2.486754e-01 -1.341015e-01 -5.805006e-01 -9.731159e-01 3.493531e-01 3.457494e-01 6.488563e-01 1.870316e-02 4.950945e-01 1.189940e+00 -1.286909e+00
<VARIANCE> 25
 5.536656e+01 5.718682e+01 8.470927e+01 3.294742e+01 2.890177e+01 3.827454e+01 3.862631e+01 3.779308e+01 4.379517e+01 3.385742e+01 2.553531e+01 1.773915e+01 6.075940e+00 1.182968e+01 1.598858e+01 5.605730e+00 5.890825e+00 5.547585e+00 5.053492e+00 3.950927e+00 6.757000e+00 3.648641e+00 3.379885e+00 2.512081e+00 1.222560e+01
<GCONST> 1.127524e+02
<STATE> 4
<MEAN> 25
 1.132626e+01 -8.507203e+00 2.426841e+00 2.225737e+00 -4.300739e+00 -7.687612e+00 -2.449841e+00 2.263906e+00 2.036430e+00 -2.292347e-01 1.723780e+00 4.837000e-01 1.531816e+00 -3.473999e+00 4.299907e+00 -6.256720e-01 -2.016208e+00 -2.870215e+00 -1.544814e-01 7.993008e-01 -1.605789e+00 -6.825622e-01 8.467441e-01 4.999449e-01 4.916735e+00
<VARIANCE> 25
 6.337155e+01 9.202638e+01 9.107822e+01 4.930161e+01 5.153807e+01 7.204590e+01 4.167890e+01 5.449086e+01 3.799620e+01 3.887234e+01 2.575597e+01 2.208158e+01 8.207791e+00 9.413354e+00 1.351652e+01 1.061756e+01 6.333251e+00 6.484432e+00 5.179823e+00 5.524950e+00 6.581113e+00 4.883270e+00 4.015849e+00 2.963934e+00 1.246353e+01
<GCONST> 1.174690e+02
<TRANSP> 5
 0.000000e+00 1.000000e+00 0.000000e+00 0.000000e+00 0.000000e+00
 0.000000e+00 6.663853e-01 3.336147e-01 0.000000e+00 0.000000e+00
 0.000000e+00 0.000000e+00 6.915464e-01 3.084536e-01 0.000000e+00
 0.000000e+00 0.000000e+00 0.000000e+00 6.432851e-01 3.567150e-01
 0.000000e+00 0.000000e+00 0.000000e+00 0.000000e+00 0.000000e+00
<ENDHMM>
~h "r"
<BEGINHMM>
<NUMSTATES> 5
<STATE> 2
<MEAN> 25
 1.106756e+01 -1.059895e+01 1.075558e+00 -8.455825e+00 2.062024e-01 -4.497574e+00 1.360471e+00 -1.245687e+00 4.278916e+00 5.972133e-01 -6.293613e+00 -5.650057e+00 -1.340311e-01 -3.633463e-02 5.350193e-02 -6.336475e-03 3.484003e-02 7.886600e-02 -2.468427e-01 2.158548e-01 1.332765e-01 -4.592306e-01 3.039479e-03 1.804282e-02 -8.781146e-02
<VARIANCE> 25
 7.349908e+01 9.197810e+01 4.840608e+01 1.119693e+02 5.000717e+01 5.471654e+01 7.366472e+01 6.990811e+01 6.224783e+01 4.295837e+01 3.618116e+01 3.649598e+01 1.501794e+00 1.213418e+00 1.554874e+00 1.825489e+00 1.731699e+00 2.490776e+00 2.098364e+00 2.497090e+00 2.528152e+00 2.381664e+00 2.133124e+00 1.626706e+00 8.990763e-01
<GCONST> 1.025961e+02
<STATE> 3
<MEAN> 25
 1.015910e+01 -8.675620e+00 1.028876e+00 -5.472037e+00 -6.979340e-01 -2.224830e+00 -1.052709e+00 -1.887018e+00 3.636404e+00 5.158334e-01 -4.114135e+00 -4.563132e+00 9.880707e-03 2.393362e-01 -1.699147e-01 6.588523e-01 -1.798070e-01 1.469329e-01 -6.130851e-01 2.917411e-01 -1.542120e-01 -2.976216e-01 5.075207e-01 2.407391e-01 -1.055457e+00
<VARIANCE> 25
 1.102502e+02 1.410380e+02 5.906579e+01 1.090507e+02 5.075540e+01 6.428229e+01 6.902615e+01 9.218903e+01 6.686297e+01 4.323979e+01 3.955391e+01 4.442456e+01 2.026800e+00 2.204918e+00 2.671066e+00 4.028984e+00 3.059175e+00 4.452967e+00 3.518565e+00 3.487277e+00 3.479687e+00 2.777513e+00 2.625352e+00 1.975163e+00 2.549426e+00
<GCONST> 1.105009e+02
<STATE> 4
<MEAN> 25
 1.456505e+01 -8.131956e+00 -2.185871e+00 -1.625776e-02 -8.662167e-01 -2.879039e+00 -2.399474e+00 -4.971743e-01 1.881398e+00 4.834212e-01 -2.956362e+00 -4.332875e+00 -4.812496e-02 1.551073e+00 -6.535591e-01 1.245282e+00 1.955299e-01 3.251445e-01 -4.326975e-01 -1.109535e-01 -4.338799e-01 -1.454433e-01 3.793003e-01 6.001198e-01 -1.863913e+00
<VARIANCE> 25
 8.404128e+01 1.189654e+02 8.359969e+01 9.461177e+01 5.672635e+01 5.901338e+01 6.135345e+01 5.925283e+01 5.074341e+01 4.101148e+01 3.129304e+01 2.815921e+01 3.738938e+00 6.568893e+00 6.534252e+00 1.080810e+01 6.147846e+00 6.423311e+00 6.727717e+00 5.763391e+00 5.262945e+00 3.859877e+00 3.628908e+00 2.951434e+00 4.420766e+00
<GCONST> 1.165304e+02
<TRANSP> 5
 0.000000e+00 1.000000e+00 0.000000e+00 0.000000e+00 0.000000e+00
 0.000000e+00 4.956283e-01 5.043717e-01 0.000000e+00 0.000000e+00
 0.000000e+00 0.000000e+00 1.470250e-01 8.529750e-01 0.000000e+00
 0.000000e+00 0.000000e+00 0.000000e+00 6.780657e-01 3.219343e-01
 0.000000e+00 0.000000e+00 0.000000e+00 0.000000e+00 0.000000e+00
<ENDHMM>
~h "s"
<BEGINHMM>
<NUMSTATES> 5
<STATE> 2
<MEAN> 25
 1.631202e+01 -5.248445e+00 3.413185e+00 -7.856755e+00 9.781572e-01 -3.754324e+00 -5.421871e+00 -3.005987e+00 -2.566608e+00 2.250178e+00 -4.352145e+00 6.440228e-02 -7.573960e-01 1.191017e+00 2.789726e-01 -5.440547e-01 1.526665e+00 -2.713968e-01 -2.204071e-01 1.925234e-01 2.286526e-01 8.931428e-02 4.097294e-02 3.465846e-01 2.563873e-01
<VARIANCE> 25
 6.345298e+01 9.376431e+01 1.087404e+02 1.064231e+02 8.660114e+01 9.754920e+01 1.126088e+02 1.365997e+02 9.729841e+01 5.899514e+01 7.938217e+01 4.817758e+01 1.332709e+01 1.084563e+01 9.769115e+00 1.365434e+01 1.330650e+01 8.851988e+00 9.624071e+00 1.611201e+01 1.148165e+01 6.615616e+00 5.756060e+00 3.952676e+00 8.063032e+00
<GCONST> 1.288031e+02
<STATE> 3
<MEAN> 25
 -6.565188e+00 5.507269e+00 6.481179e+00 -9.471838e+00 1.017166e+01 -8.207974e+00 -7.094157e-01 3.405235e+00 2.165052e+00 -5.206699e-01 5.605254e-01 2.254776e+00 -3.989257e+00 1.314797e+00 -7.132718e-01 -1.067135e-01 8.633993e-01 1.318559e-01 1.020454e+00 6.954798e-01 9.304305e-01 -4.255988e-01 7.274472e-01 3.797195e-01 -3.921030e-01
<VARIANCE> 25
 1.445233e+02 7.698702e+01 8.458403e+01 8.569078e+01 9.759532e+01 7.944299e+01 1.145867e+02 7.319958e+01 6.257094e+01 3.797115e+01 4.735257e+01 3.352620e+01 1.081551e+01 8.146835e+00 7.762349e+00 7.684881e+00 9.620084e+00 7.115131e+00 6.590842e+00 6.109448e+00 5.363240e+00 4.657027e+00 4.889243e+00 3.164105e+00 1.886654e+00
<GCONST> 1.203664e+02
<STATE> 4
<MEAN> 25
 -6.849876e+00 9.665275e-01 7.185647e+00 -7.387230e+00 5.141389e+00 -1.010609e+01 1.023090e+00 3.946810e+00 2.743094e+00 -1.219079e+00 -2.507907e-01 4.333206e+00 4.092798e+00 -1.982043e+00 1.229901e+00 9.848970e-01 -2.068262e+00 -6.071647e-01 -6.887289e-01 -8.496783e-01 -1.419416e+00 1.978566e-01 -4.857135e-01 -2.006660e-01 2.444275e-01
<VARIANCE> 25
 1.645837e+02 6.028988e+01 1.423381e+02 7.990328e+01 8.289936e+01 6.809019e+01 8.919290e+01 6.602777e+01 8.353384e+01 4.066841e+01 5.480186e+01 3.747269e+01 1.398525e+01 5.665847e+00 1.248561e+01 1.170837e+01 9.121804e+00 8.425742e+00 7.098216e+00 6.130793e+00 1.033166e+01 5.445927e+00 4.996740e+00 4.199727e+00 4.085680e+00
<GCONST> 1.235198e+02
<TRANSP> 5
 0.000000e+00 1.000000e+00 0.000000e+00 0.000000e+00 0.000000e+00
 0.000000e+00 7.089810e-01 2.910191e-01 0.000000e+00 0.000000e+00
 0.000000e+00 0.000000e+00 7.833874e-01 2.166127e-01 0.000000e+00
 0.000000e+00 0.000000e+00 0.000000e+00 7.483836e-01 2.516164e-01
 0.000000e+00 0.000000e+00 0.000000e+00 0.000000e+00 0.000000e+00
<ENDHMM>
~h "t"
<BEGINHMM>
<NUMSTATES> 5
<STATE> 2
<MEAN> 25
 8.431003e+00 -8.482051e+00 2.715028e+00 -7.305615e+00 1.667423e+00 -8.874277e+00 1.414988e+00 6.704698e-01 1.180333e-01 2.953715e+00 -2.870013e+00 5.165470e-01 1.631324e+00 -1.550892e+00 6.366298e-01 -1.127332e+00 1.260884e+00 -1.011314e+00 -3.157908e-01 -1.983710e-02 3.603954e-01 1.093194e+00 -1.324421e+00 -2.644584e-01 2.907681e+00
<VARIANCE> 25
 5.589574e+01 7.897796e+01 7.413258e+01 1.105252e+02 8.719533e+01 8.444290e+01 6.420322e+01 7.445689e+01 5.600807e+01 5.549039e+01 5.518159e+01 4.721467e+01 7.761027e+00 1.019924e+01 1.159231e+01 1.123881e+01 8.530346e+00 7.828869e+00 6.456909e+00 7.637199e+00 5.834186e+00 6.670485e+00 6.083544e+00 4.960242e+00 2.342562e+01
<GCONST> 1.241973e+02
<STATE> 3
<MEAN> 25
 1.508349e+01 -1.215877e+01 2.314720e+00 -1.026052e+01 3.662087e+00 -7.742428e+00 -1.104077e+00 -1.180245e+00 1.211223e+00 6.450150e+00 -8.056060e+00 -2.351721e+00 8.281283e-01 1.351730e+00 -1.471817e+00 1.895064e+00 -3.066376e-01 1.332200e+00 -9.979321e-01 6.250932e-02 6.647311e-01 -2.378140e-01 -7.965466e-02 -1.977338e-01 -1.902683e+00
<VARIANCE> 25
 1.994442e+01 3.356181e+01 4.185522e+01 1.020719e+02 5.808117e+01 7.010085e+01 6.736852e+01 6.925925e+01 4.960110e+01 4.338027e+01 6.951247e+01 4.231626e+01 2.520914e+00 5.563633e+00 6.514604e+00 8.908587e+00 6.174849e+00 6.675372e+00 6.066137e+00 6.393939e+00 6.844770e+00 6.204409e+00 5.365920e+00 4.550019e+00 8.520785e+00
<GCONST> 1.163990e+02
<STATE> 4
<MEAN> 25
 1.173831e+01 -1.319344e+00 -6.130007e+00 -2.596267e+00 2.508262e+00 -2.590442e+00 -5.391896e+00 1.069788e+00 5.823061e+00 1.328349e+00 -3.939845e+00 -1.265018e+00 -1.029673e+00 6.703773e-01 -1.871051e-01 -1.968017e-01 -4.094972e-01 7.239160e-01 -7.083189e-02 -1.101749e-02 3.388678e-02 -7.959639e-01 9.285825e-01 1.195784e-01 -1.088985e+00
<VARIANCE> 25
 6.126644e+01 6.921783e+01 8.677077e+01 7.270051e+01 5.097256e+01 5.298002e+01 7.159621e+01 5.362861e+01 4.587409e+01 3.495671e+01 4.528000e+01 3.296780e+01 8.274802e+00 9.706074e+00 1.601536e+01 8.533243e+00 7.529084e+00 7.580010e+00 8.895646e+00 7.912192e+00 7.647339e+00 5.260890e+00 4.536063e+00 4.304482e+00 1.662744e+01
<GCONST> 1.209709e+02
<TRANSP> 5
 0.000000e+00 1.000000e+00 0.000000e+00 0.000000e+00 0.000000e+00
 0.000000e+00 5.195996e-01 4.804004e-01 0.000000e+00 0.000000e+00
 0.000000e+00 0.000000e+00 6.927612e-01 3.072388e-01 0.000000e+00
 0.000000e+00 0.000000e+00 0.000000e+00 6.697341e-01 3.302659e-01
 0.000000e+00 0.000000e+00 0.000000e+00 0.000000e+00 0.000000e+00
<ENDHMM>
~h "u"
<BEGINHMM>
<NUMSTATES> 5
<STATE> 2
<MEAN> 25
 2.105811e+01 4.629461e+00 -9.581194e+00 -6.733208e+00 1.491174e+00 6.063931e+00 -4.773812e+00 -1.094667e+01 -4.858809e+00 2.917346e+00 6.422899e-01 -1.473618e+00 -1.115362e+00 2.803027e+00 -8.949497e-01 -7.236571e-01 6.357758e-01 1.120628e+00 6.545293e-01 5.575176e-01 -8.808152e-02 -1.245970e+00 4.692134e-01 1.022105e+00 -2.326615e+00
<VARIANCE> 25
 2.871855e+01 8.126139e+01 6.648189e+01 5.902464e+01 4.400227e+01 4.048540e+01 5.635605e+01 8.440974e+01 7.224384e+01 2.939005e+01 3.281067e+01 2.711110e+01 3.192906e+00 3.765739e+00 7.378953e+00 7.614690e+00 6.823326e+00 5.781034e+00 6.274138e+00 5.405864e+00 6.289598e+00 3.294653e+00 3.535622e+00 2.162728e+00 2.320329e+00
<GCONST> 1.120026e+02
<STATE> 3
<MEAN> 25
 1.274924e+01 1.173092e+01 -6.384238e+00 -6.295385e+00 -4.094988e-01 5.251173e+00 -8.605774e-01 -4.564673e+00 -4.978397e+00 -3.663875e+00 -4.835185e-01 7.002674e-02 -1.943395e+00 5.429473e-02 1.076887e+00 9.454072e-01 -3.774324e-01 -5.314205e-01 1.661476e-01 5.792214e-01 4.515602e-01 -2.915116e-01 -3.240840e-01 -1.920053e-01 -1.376706e+00
<VARIANCE> 25
 6.991104e+01 7.449100e+01 5.935978e+01 8.783178e+01 4.019681e+01 5.387747e+01 2.508436e+01 5.380927e+01 4.237246e+01 2.867437e+01 2.139002e+01 2.469575e+01 2.474618e+00 1.754717e+00 2.643408e+00 2.872904e+00 2.593888e+00 2.883543e+00 1.906205e+00 2.830769e+00 2.888298e+00 1.259916e+00 1.608423e+00 1.187977e+00 1.368850e+00
<GCONST> 1.007709e+02
<STATE> 4
<MEAN> 25
 1.714475e+00 4.813649e+00 -3.645076e+00 -1.738968e+00 7.121122e-02 6.088921e-01 -1.624561e+00 -1.685487e+00 7.173381e-01 -5.854350e-01 -8.617998e-01 -6.561835e-01 -1.138302e+00 -1.362344e+00 3.779170e-01 3.100280e-01 2.513610e-01 -5.985926e-01 2.418257e-01 1.867539e-01 1.504665e-01 -1.218688e-01 1.455786e-01 1.669577e-01 1.790996e-01
<VARIANCE> 25
 8.016714e+01 7.948071e+01 5.420560e+01 7.218829e+01 2.576394e+01 4.000341e+01 3.858443e+01 4.578945e+01 4.057790e+01 2.297187e+01 2.159091e+01 2.701727e+01 7.739608e+00 3.588932e+00 3.757960e+00 3.147314e+00 2.490852e+00 3.482677e+00 3.287671e+00 3.380249e+00 2.979903e+00 2.070154e+00 1.866956e+00 2.290928e+00 8.197340e+00
<GCONST> 1.063395e+02
<TRANSP> 5
 0.000000e+00 1.000000e+00 0.000000e+00 0.000000e+00 0.000000e+00
 0.000000e+00 6.921422e-01 3.078578e-01 0.000000e+00 0.000000e+00
 0.000000e+00 0.000000e+00 7.199110e-01 2.800890e-01 0.000000e+00
 0.000000e+00 0.000000e+00 0.000000e+00 5.873652e-01 4.126348e-01
 0.000000e+00 0.000000e+00 0.000000e+00 0.000000e+00 0.000000e+00
<ENDHMM>
~h "w"
<BEGINHMM>
<NUMSTATES> 5
<STATE> 2
<MEAN> 25
 -1.918099e+01 4.780065e+00 -4.065065e+00 6.847812e+00 4.477247e+00 7.424875e+00 2.633365e+00 6.226882e+00 8.204548e+00 2.524049e+00 6.323864e+00 5.150999e+00 5.415288e-03 1.301311e-02 7.579331e-03 2.585968e-02 2.029739e-02 -2.760615e-02 -5.381434e-02 5.805111e-02 1.330623e-01 4.004247e-02 -3.290337e-02 -6.126804e-02 -4.555824e-03
<VARIANCE> 25
 4.212775e+00 4.343801e+00 6.931043e+00 1.700358e+01 8.344310e+00 1.814143e+01 1.357075e+01 1.420296e+01 1.363534e+01 9.925817e+00 9.668699e+00 7.524472e+00 3.654580e-02 1.461488e-01 2.238309e-01 3.622256e-01 4.349588e-01 4.560218e-01 6.691233e-01 1.060273e+00 1.183481e+00 1.035169e+00 8.703413e-01 9.693590e-01 5.360071e-02
<GCONST> 6.050041e+01
<STATE> 3
<MEAN> 25
 -1.825724e+01 5.763501e+00 -2.987006e+00 8.019830e+00 4.627126e+00 7.392210e+00 -1.625577e-01 3.324959e+00 9.050489e+00 2.796064e+00 4.684641e+00 4.603879e+00 -4.583559e-02 6.870611e-02 1.116585e-01 -3.182883e-01 -3.887998e-01 1.823959e-01 1.078943e-01 -5.942678e-01 -7.628309e-01 1.657729e-02 4.010356e-02 3.878880e-01 -1.661431e-02
<VARIANCE> 25
 4.858257e+00 3.655277e+00 9.093203e+00 1.349679e+01 8.405776e+00 1.452742e+01 1.235304e+01 1.539593e+01 6.669900e+00 4.169582e+00 3.806903e+00 4.277636e+00 3.654580e-02 5.248706e-02 1.097144e-01 3.148704e-01 6.185511e-01 3.722104e-01 1.499982e+00 1.371155e+00 5.965273e-01 6.676234e-01 2.321222e-01 3.722503e-01 5.360071e-02
<GCONST> 5.313741e+01
<STATE> 4
<MEAN> 25
 -1.802034e+01 6.386941e+00 -2.504855e+00 5.895710e+00 1.371656e+00 7.309875e+00 4.101251e+00 3.724192e+00 3.890781e+00 3.497131e-02 3.873518e+00 4.982064e+00 2.350124e-01 -1.718878e-01 1.110344e-01 2.455484e-01 5.326185e-01 5.122205e-01 9.048644e-01 -2.053378e-01 -1.607902e+00 -1.035719e+00 2.476811e-01 -9.083090e-03 2.682621e-01
<VARIANCE> 25
 4.873765e+00 3.167001e+00 6.224208e+00 1.065078e+01 6.422362e+00 1.352596e+01 1.513412e+01 8.983367e+00 4.976118e+00 1.143966e+01 5.066561e+00 2.671611e+00 4.648663e-01 6.514601e-02 1.400209e-01 1.231389e-01 1.396193e-01 2.411961e-01 2.612527e-01 2.767821e-01 4.961489e-01 2.935644e-01 1.846872e-01 2.322398e-01 2.716019e-01
<GCONST> 4.894712e+01
<TRANSP> 5
 0.000000e+00 1.000000e+00 0.000000e+00 0.000000e+00 0.000000e+00
 0.000000e+00 9.645280e-01 3.547203e-02 0.000000e+00 0.000000e+00
 0.000000e+00 0.000000e+00 7.549361e-01 2.450639e-01 0.000000e+00
 0.000000e+00 0.000000e+00 0.000000e+00 4.463905e-01 5.536095e-01
 0.000000e+00 0.000000e+00 0.000000e+00 0.000000e+00 0.000000e+00
<ENDHMM>
~h "aw"
<BEGINHMM>
<NUMSTATES> 5
<STATE> 2
<MEAN> 25
 -9.651756e+00 3.290999e+00 -6.438852e+00 4.339687e+00 1.494009e+00 2.730325e+00 1.227075e+00 8.364238e-01 4.186307e+00 -1.896629e+00 -1.082216e+00 -5.463394e-01 1.032157e-03 1.130105e-02 -1.530332e-02 -4.445392e-02 -4.349438e-02 -2.707036e-03 3.188018e-02 7.395937e-02 1.005529e-01 2.570014e-02 -3.588290e-02 -9.925216e-03 3.386090e-03
<VARIANCE> 25
 3.347875e+00 2.899673e+00 6.715987e+00 8.349936e+00 1.034431e+01 1.196399e+01 1.226801e+01 1.528012e+01 1.301964e+01 1.638777e+01 1.000544e+01 1.136301e+01 1.022483e-01 2.055308e-01 3.557461e-01 4.891593e-01 6.013157e-01 1.003000e+00 1.066284e+00 1.203742e+00 1.186188e+00 1.481467e+00 1.141443e+00 1.260389e+00 5.360071e-02
<GCONST> 6.452913e+01
<STATE> 3
<MEAN> 25
 -1.403810e+01 2.754013e+00 -5.468598e+00 6.031759e+00 3.841798e+00 1.600058e+00 -1.085152e+00 1.601676e+00 2.516279e+00 -1.952938e+00 2.851718e-01 9.085999e-01 4.786216e-02 6.887532e-03 -2.852153e-02 -1.650926e-02 1.605327e-02 -4.490450e-01 -2.936410e-01 -7.557204e-02 -3.684321e-01 -1.766802e-01 1.432128e-01 2.287054e-01 5.707564e-02
<VARIANCE> 25
 9.466612e+00 2.663932e+00 8.166813e+00 1.505408e+01 2.088886e+01 2.057484e+01 1.442398e+01 1.207687e+01 1.294913e+01 1.226048e+01 1.817167e+01 1.242420e+01 1.272219e-01 2.051613e-01 5.094088e-01 6.410827e-01 8.645806e-01 1.043818e+00 9.394885e-01 1.096535e+00 7.910517e-01 1.229808e+00 1.750905e+00 1.334968e+00 5.360071e-02
<GCONST> 6.875417e+01
<STATE> 4
<MEAN> 25
 -5.084110e+00 5.942727e+00 -2.553498e+00 4.241477e+00 -1.061638e+00 -5.869955e-02 -4.806395e+00 8.478173e-01 1.900093e+00 -1.245823e+00 2.540087e-01 2.093895e+00 8.013515e-02 5.845557e-02 1.207533e-01 2.758106e-02 7.546200e-02 -1.073939e-03 -5.454255e-02 -1.920134e-01 -1.980247e-01 -6.465761e-02 -7.306267e-02 -5.165916e-02 6.450628e-02
<VARIANCE> 25
 4.892728e+01 4.977723e+01 3.678713e+01 1.965035e+01 3.168762e+01 5.014976e+01 3.032923e+01 2.218368e+01 1.561863e+01 1.508618e+01 1.348004e+01 9.134400e+00 6.867363e+00 6.803470e+00 3.362588e+00 1.795169e+00 2.661900e+00 3.681534e+00 4.163908e+00 1.719927e+00 1.871775e+00 1.330149e+00 1.469405e+00 1.203135e+00 4.578284e+00
<GCONST> 9.738239e+01
<TRANSP> 5
 0.000000e+00 1.000000e+00 0.000000e+00 0.000000e+00 0.000000e+00
 0.000000e+00 9.542678e-01 4.573216e-02 0.000000e+00 0.000000e+00
 0.000000e+00 0.000000e+00 7.687510e-01 2.312489e-01 0.000000e+00
 0.000000e+00 0.000000e+00 0.000000e+00 7.734017e-01 2.265984e-01
 0.000000e+00 0.000000e+00 0.000000e+00 0.000000e+00 0.000000e+00
<ENDHMM>
~h "ng"
<BEGINHMM>
<NUMSTATES> 5
<STATE> 2
<MEAN> 25
 1.191190e+01 -8.730935e+00 9.357517e-01 -2.557394e+00 2.703521e+00 -9.875993e+00 -8.898238e-01 5.679239e+00 -9.027898e-01 1.380672e+00 -4.062434e+00 -2.169948e+00 7.123317e-01 -2.196876e+00 -1.389579e-01 -2.253994e+00 5.834889e-01 -1.983280e-01 5.585738e-01 8.033645e-02 1.553089e-01 4.100761e-01 -1.428015e+00 -7.753702e-01 2.402800e+00
<VARIANCE> 25
 4.938879e+01 1.156675e+02 6.327707e+01 1.016317e+02 5.207663e+01 3.507107e+01 6.795047e+01 6.050578e+01 5.732863e+01 3.891516e+01 3.765572e+01 3.028121e+01 6.596592e+00 1.374933e+01 6.144695e+00 1.320627e+01 9.852592e+00 6.679119e+00 9.331932e+00 1.116939e+01 6.802601e+00 5.679923e+00 4.337354e+00 4.042961e+00 6.505423e+00
<GCONST> 1.200753e+02
<STATE> 3
<MEAN> 25
 1.439176e+01 -1.736688e+01 2.505824e+00 -1.092406e+01 1.485174e+00 -6.327291e+00 9.285880e-01 3.982321e+00 -9.790803e-01 2.927011e+00 -8.326159e+00 -5.763057e+00 4.496608e-01 8.066623e-02 -2.905245e-01 7.268047e-01 -4.430982e-01 4.024076e-01 1.001012e-02 -3.325793e-01 -1.573157e-01 1.261543e-01 -1.524631e-01 -2.697960e-01 -3.637078e-01
<VARIANCE> 25
 1.951751e+01 2.319162e+01 3.000039e+01 6.921264e+01 5.371535e+01 4.304882e+01 3.277692e+01 4.122015e+01 3.872483e+01 4.516031e+01 3.085621e+01 2.524976e+01 1.819437e+00 2.473259e+00 2.473728e+00 9.070345e+00 5.897954e+00 3.526653e+00 2.963285e+00 4.882236e+00 3.257127e+00 4.110871e+00 2.739612e+00 2.422624e+00 3.856849e+00
<GCONST> 1.049386e+02
<STATE> 4
<MEAN> 25
 2.188545e+01 -9.603405e+00 -9.815788e+00 3.601259e+00 -2.071702e+00 -7.665147e+00 5.757710e-01 -3.461834e-01 -1.092723e+00 5.441571e-01 -8.523985e+00 -7.017341e+00 7.040152e-02 1.152114e+00 -9.175016e-02 8.542292e-01 -1.083948e-01 2.112984e-01 -6.196810e-02 -3.516004e-01 3.510647e-02 -6.299464e-01 1.494181e-01 2.427753e-01 -8.025425e-01
<VARIANCE> 25
 5.413191e+00 4.288783e+01 6.941640e+01 4.857906e+01 5.625895e+01 3.650082e+01 4.606044e+01 7.938863e+01 4.609740e+01 4.859023e+01 2.953854e+01 2.012423e+01 7.626700e-01 5.885128e+00 3.405661e+00 4.523571e+00 4.220417e+00 3.315558e+00 3.916694e+00 6.186355e+00 2.766683e+00 2.371060e+00 1.851622e+00 1.321015e+00 2.480341e+00
<GCONST> 1.031973e+02
<TRANSP> 5
 0.000000e+00 1.000000e+00 0.000000e+00 0.000000e+00 0.000000e+00
 0.000000e+00 7.778001e-01 2.221998e-01 0.000000e+00 0.000000e+00
 0.000000e+00 0.000000e+00 9.095907e-01 9.040934e-02 0.000000e+00
 0.000000e+00 0.000000e+00 0.000000e+00 8.577805e-01 1.422195e-01
 0.000000e+00 0.000000e+00 0.000000e+00 0.000000e+00 0.000000e+00
<ENDHMM>
~h "sp"
<BEGINHMM>
<NUMSTATES> 3
<STATE> 2
~s "silst"
<TRANSP> 3
 0.000000e+00 2.001602e-03 9.979984e-01
 0.000000e+00 6.495598e-01 3.504403e-01
 0.000000e+00 0.000000e+00 0.000000e+00
<ENDHMM>
~h "sil"
<BEGINHMM>
<NUMSTATES> 5
<STATE> 2
<MEAN> 25
 -1.016308e+01 3.296698e+00 -2.994750e+00 2.872591e+00 4.409159e-01 1.755742e+00 -8.828691e-02 7.656009e-01 1.919963e-01 -1.918828e+00 2.132578e-01 1.024969e+00 -5.933715e-02 -1.999206e-02 2.769414e-03 4.842683e-03 2.384449e-02 8.101531e-03 1.019416e-02 2.809083e-02 1.747452e-02 9.136188e-03 2.768373e-02 2.237639e-02 -3.297244e-02
<VARIANCE> 25
 9.531212e+00 4.881769e+00 1.528378e+01 1.487849e+01 1.186395e+01 1.361046e+01 1.466180e+01 1.415349e+01 1.563191e+01 1.341756e+01 1.458673e+01 1.264223e+01 1.123867e-01 2.371760e-01 3.993898e-01 5.902385e-01 8.308452e-01 9.546679e-01 1.081144e+00 1.204852e+00 1.238484e+00 1.257165e+00 1.206502e+00 1.126926e+00 5.360071e-02
<GCONST> 6.898294e+01
<STATE> 3
~s "silst"
<STATE> 4
<MEAN> 25
 -1.053362e+01 2.364762e+00 -2.806729e+00 2.345416e+00 8.127952e-01 2.577499e+00 6.046313e-02 1.065924e+00 9.198413e-01 -1.636987e+00 9.281396e-01 1.639872e+00 2.312626e-01 -6.759991e-02 5.012907e-02 -7.953638e-02 -8.327837e-02 -1.591574e-01 -9.882622e-02 -8.469084e-02 -2.216064e-01 -1.446504e-01 -1.525094e-01 -9.325431e-02 2.653987e-01
<VARIANCE> 25
 2.290813e+01 1.592287e+01 2.347882e+01 2.805693e+01 1.988353e+01 2.803007e+01 2.497375e+01 2.250051e+01 2.097785e+01 1.783994e+01 1.961647e+01 1.728490e+01 1.392039e+00 1.465147e+00 1.335763e+00 1.904936e+00 1.636172e+00 2.038221e+00 1.783024e+00 1.835823e+00 2.070134e+00 1.789824e+00 1.821799e+00 1.674168e+00 2.778598e+00
<GCONST> 9.022588e+01
<TRANSP> 5
 0.000000e+00 1.000000e+00 0.000000e+00 0.000000e+00 0.000000e+00
 0.000000e+00 9.381965e-01 1.537645e-02 4.642708e-02 0.000000e+00
 0.000000e+00 0.000000e+00 9.775608e-01 2.243920e-02 0.000000e+00
 0.000000e+00 1.619988e-01 0.000000e+00 6.304468e-01 2.075545e-01
 0.000000e+00 0.000000e+00 0.000000e+00 0.000000e+00 0.000000e+00
<ENDHMM>
