~o
<STREAMINFO> 1 25
<VECSIZE> 25<NULLD><MFCC_D_N_Z_0><DIAGC>
~t "T_E"
<TRANSP> 5
 0.000000e+00 1.000000e+00 0.000000e+00 0.000000e+00 0.000000e+00
 0.000000e+00 8.117582e-01 1.882418e-01 0.000000e+00 0.000000e+00
 0.000000e+00 0.000000e+00 7.780408e-01 2.219592e-01 0.000000e+00
 0.000000e+00 0.000000e+00 0.000000e+00 9.332356e-01 6.676444e-02
 0.000000e+00 0.000000e+00 0.000000e+00 0.000000e+00 0.000000e+00
~t "T_a"
<TRANSP> 5
 0.000000e+00 1.000000e+00 0.000000e+00 0.000000e+00 0.000000e+00
 0.000000e+00 3.560277e-01 6.439723e-01 0.000000e+00 0.000000e+00
 0.000000e+00 0.000000e+00 4.946394e-01 5.053606e-01 0.000000e+00
 0.000000e+00 0.000000e+00 0.000000e+00 6.844943e-01 3.155057e-01
 0.000000e+00 0.000000e+00 0.000000e+00 0.000000e+00 0.000000e+00
~t "T_b"
<TRANSP> 5
 0.000000e+00 1.000000e+00 0.000000e+00 0.000000e+00 0.000000e+00
 0.000000e+00 4.450424e-01 5.549576e-01 0.000000e+00 0.000000e+00
 0.000000e+00 0.000000e+00 1.438130e-01 8.561870e-01 0.000000e+00
 0.000000e+00 0.000000e+00 0.000000e+00 6.823362e-02 9.317664e-01
 0.000000e+00 0.000000e+00 0.000000e+00 0.000000e+00 0.000000e+00
~t "T_c"
<TRANSP> 5
 0.000000e+00 1.000000e+00 0.000000e+00 0.000000e+00 0.000000e+00
 0.000000e+00 8.295502e-01 1.704498e-01 0.000000e+00 0.000000e+00
 0.000000e+00 0.000000e+00 8.185022e-01 1.814978e-01 0.000000e+00
 0.000000e+00 0.000000e+00 0.000000e+00 9.684748e-01 3.152519e-02
 0.000000e+00 0.000000e+00 0.000000e+00 0.000000e+00 0.000000e+00
~t "T_d"
<TRANSP> 5
 0.000000e+00 1.000000e+00 0.000000e+00 0.000000e+00 0.000000e+00
 0.000000e+00 8.505521e-01 1.494478e-01 0.000000e+00 0.000000e+00
 0.000000e+00 0.000000e+00 8.116146e-01 1.883854e-01 0.000000e+00
 0.000000e+00 0.000000e+00 0.000000e+00 8.058386e-01 1.941614e-01
 0.000000e+00 0.000000e+00 0.000000e+00 0.000000e+00 0.000000e+00
~t "T_e"
<TRANSP> 5
 0.000000e+00 1.000000e+00 0.000000e+00 0.000000e+00 0.000000e+00
 0.000000e+00 7.732818e-01 2.267183e-01 0.000000e+00 0.000000e+00
 0.000000e+00 0.000000e+00 6.467527e-01 3.532473e-01 0.000000e+00
 0.000000e+00 0.000000e+00 0.000000e+00 8.014896e-01 1.985104e-01
 0.000000e+00 0.000000e+00 0.000000e+00 0.000000e+00 0.000000e+00
~t "T_g"
<TRANSP> 5
 0.000000e+00 1.000000e+00 0.000000e+00 0.000000e+00 0.000000e+00
 0.000000e+00 6.585772e-02 9.341423e-01 0.000000e+00 0.000000e+00
 0.000000e+00 0.000000e+00 8.043019e-03 9.919570e-01 0.000000e+00
 0.000000e+00 0.000000e+00 0.000000e+00 3.517100e-01 6.482900e-01
 0.000000e+00 0.000000e+00 0.000000e+00 0.000000e+00 0.000000e+00
~t "T_h"
<TRANSP> 5
 0.000000e+00 1.000000e+00 0.000000e+00 0.000000e+00 0.000000e+00
 0.000000e+00 3.274353e-01 6.725647e-01 0.000000e+00 0.000000e+00
 0.000000e+00 0.000000e+00 1.232055e-01 8.767945e-01 0.000000e+00
 0.000000e+00 0.000000e+00 0.000000e+00 2.553616e-01 7.446384e-01
 0.000000e+00 0.000000e+00 0.000000e+00 0.000000e+00 0.000000e+00
~t "T_i"
<TRANSP> 5
 0.000000e+00 1.000000e+00 0.000000e+00 0.000000e+00 0.000000e+00
 0.000000e+00 8.328278e-01 1.671722e-01 0.000000e+00 0.000000e+00
 0.000000e+00 0.000000e+00 7.198910e-01 2.801090e-01 0.000000e+00
 0.000000e+00 0.000000e+00 0.000000e+00 7.620476e-01 2.379524e-01
 0.000000e+00 0.000000e+00 0.000000e+00 0.000000e+00 0.000000e+00
~t "T_j"
<TRANSP> 5
 0.000000e+00 1.000000e+00 0.000000e+00 0.000000e+00 0.000000e+00
 0.000000e+00 9.188645e-01 8.113554e-02 0.000000e+00 0.000000e+00
 0.000000e+00 0.000000e+00 7.976429e-01 2.023570e-01 0.000000e+00
 0.000000e+00 0.000000e+00 0.000000e+00 8.575467e-01 1.424533e-01
 0.000000e+00 0.000000e+00 0.000000e+00 0.000000e+00 0.000000e+00
~t "T_k"
<TRANSP> 5
 0.000000e+00 1.000000e+00 0.000000e+00 0.000000e+00 0.000000e+00
 0.000000e+00 6.399619e-01 3.600381e-01 0.000000e+00 0.000000e+00
 0.000000e+00 0.000000e+00 5.611621e-01 4.388379e-01 0.000000e+00
 0.000000e+00 0.000000e+00 0.000000e+00 6.620113e-01 3.379887e-01
 0.000000e+00 0.000000e+00 0.000000e+00 0.000000e+00 0.000000e+00
~t "T_l"
<TRANSP> 5
 0.000000e+00 1.000000e+00 0.000000e+00 0.000000e+00 0.000000e+00
 0.000000e+00 7.290773e-01 2.709226e-01 0.000000e+00 0.000000e+00
 0.000000e+00 0.000000e+00 8.086196e-01 1.913805e-01 0.000000e+00
 0.000000e+00 0.000000e+00 0.000000e+00 7.600561e-01 2.399439e-01
 0.000000e+00 0.000000e+00 0.000000e+00 0.000000e+00 0.000000e+00
~t "T_m"
<TRANSP> 5
 0.000000e+00 1.000000e+00 0.000000e+00 0.000000e+00 0.000000e+00
 0.000000e+00 5.708932e-01 4.291067e-01 0.000000e+00 0.000000e+00
 0.000000e+00 0.000000e+00 5.911640e-01 4.088360e-01 0.000000e+00
 0.000000e+00 0.000000e+00 0.000000e+00 7.015926e-01 2.984074e-01
 0.000000e+00 0.000000e+00 0.000000e+00 0.000000e+00 0.000000e+00
~t "T_n"
<TRANSP> 5
 0.000000e+00 1.000000e+00 0.000000e+00 0.000000e+00 0.000000e+00
 0.000000e+00 8.255500e-01 1.744500e-01 0.000000e+00 0.000000e+00
 0.000000e+00 0.000000e+00 3.787186e-01 6.212814e-01 0.000000e+00
 0.000000e+00 0.000000e+00 0.000000e+00 4.778116e-01 5.221884e-01
 0.000000e+00 0.000000e+00 0.000000e+00 0.000000e+00 0.000000e+00
~t "T_o"
<TRANSP> 5
 0.000000e+00 1.000000e+00 0.000000e+00 0.000000e+00 0.000000e+00
 0.000000e+00 8.950351e-01 1.049649e-01 0.000000e+00 0.000000e+00
 0.000000e+00 0.000000e+00 7.598476e-01 2.401524e-01 0.000000e+00
 0.000000e+00 0.000000e+00 0.000000e+00 7.724080e-01 2.275920e-01
 0.000000e+00 0.000000e+00 0.000000e+00 0.000000e+00 0.000000e+00
~t "T_p"
<TRANSP> 5
 0.000000e+00 1.000000e+00 0.000000e+00 0.000000e+00 0.000000e+00
 0.000000e+00 6.707309e-01 3.292690e-01 0.000000e+00 0.000000e+00
 0.000000e+00 0.000000e+00 6.952915e-01 3.047084e-01 0.000000e+00
 0.000000e+00 0.000000e+00 0.000000e+00 7.095839e-01 2.904161e-01
 0.000000e+00 0.000000e+00 0.000000e+00 0.000000e+00 0.000000e+00
~t "T_r"
<TRANSP> 5
 0.000000e+00 1.000000e+00 0.000000e+00 0.000000e+00 0.000000e+00
 0.000000e+00 5.438737e-01 4.561263e-01 0.000000e+00 0.000000e+00
 0.000000e+00 0.000000e+00 4.551815e-01 5.448185e-01 0.000000e+00
 0.000000e+00 0.000000e+00 0.000000e+00 6.656085e-01 3.343915e-01
 0.000000e+00 0.000000e+00 0.000000e+00 0.000000e+00 0.000000e+00
~t "T_s"
<TRANSP> 5
 0.000000e+00 1.000000e+00 0.000000e+00 0.000000e+00 0.000000e+00
 0.000000e+00 7.274796e-01 2.725204e-01 0.000000e+00 0.000000e+00
 0.000000e+00 0.000000e+00 8.141411e-01 1.858589e-01 0.000000e+00
 0.000000e+00 0.000000e+00 0.000000e+00 7.059333e-01 2.940666e-01
 0.000000e+00 0.000000e+00 0.000000e+00 0.000000e+00 0.000000e+00
~t "T_t"
<TRANSP> 5
 0.000000e+00 1.000000e+00 0.000000e+00 0.000000e+00 0.000000e+00
 0.000000e+00 3.041370e-01 6.958629e-01 0.000000e+00 0.000000e+00
 0.000000e+00 0.000000e+00 4.927778e-01 5.072222e-01 0.000000e+00
 0.000000e+00 0.000000e+00 0.000000e+00 6.253832e-01 3.746169e-01
 0.000000e+00 0.000000e+00 0.000000e+00 0.000000e+00 0.000000e+00
~t "T_u"
<TRANSP> 5
 0.000000e+00 1.000000e+00 0.000000e+00 0.000000e+00 0.000000e+00
 0.000000e+00 6.742232e-01 3.257768e-01 0.000000e+00 0.000000e+00
 0.000000e+00 0.000000e+00 7.397968e-01 2.602032e-01 0.000000e+00
 0.000000e+00 0.000000e+00 0.000000e+00 7.058915e-01 2.941085e-01
 0.000000e+00 0.000000e+00 0.000000e+00 0.000000e+00 0.000000e+00
~t "T_w"
<TRANSP> 5
 0.000000e+00 1.000000e+00 0.000000e+00 0.000000e+00 0.000000e+00
 0.000000e+00 9.497924e-01 5.020754e-02 0.000000e+00 0.000000e+00
 0.000000e+00 0.000000e+00 7.289556e-01 2.710444e-01 0.000000e+00
 0.000000e+00 0.000000e+00 0.000000e+00 4.671768e-01 5.328232e-01
 0.000000e+00 0.000000e+00 0.000000e+00 0.000000e+00 0.000000e+00
~t "T_aw"
<TRANSP> 5
 0.000000e+00 1.000000e+00 0.000000e+00 0.000000e+00 0.000000e+00
 0.000000e+00 9.523016e-01 4.769843e-02 0.000000e+00 0.000000e+00
 0.000000e+00 0.000000e+00 9.143076e-01 8.569240e-02 0.000000e+00
 0.000000e+00 0.000000e+00 0.000000e+00 7.091023e-01 2.908978e-01
 0.000000e+00 0.000000e+00 0.000000e+00 0.000000e+00 0.000000e+00
~t "T_ng"
<TRANSP> 5
 0.000000e+00 1.000000e+00 0.000000e+00 0.000000e+00 0.000000e+00
 0.000000e+00 6.826383e-01 3.173617e-01 0.000000e+00 0.000000e+00
 0.000000e+00 0.000000e+00 9.099719e-01 9.002813e-02 0.000000e+00
 0.000000e+00 0.000000e+00 0.000000e+00 8.264925e-01 1.735075e-01
 0.000000e+00 0.000000e+00 0.000000e+00 0.000000e+00 0.000000e+00
~s "ST_s_2_1"
<MEAN> 25
 1.025435e+01 -1.737323e+00 7.217888e+00 -1.007764e+01 6.286828e+00 -7.258010e+00 -4.431185e+00 2.500918e-01 -2.043448e+00 2.405201e+00 -3.745371e+00 1.848014e+00 -4.237033e+00 3.064998e+00 -2.899365e-01 -2.718373e-01 2.459507e+00 -4.383335e-01 8.548459e-01 7.983111e-01 1.072709e+00 -6.939619e-01 8.304247e-01 3.783099e-02 -4.833466e-01
<VARIANCE> 25
 1.017047e+02 9.174850e+01 9.598708e+01 1.081334e+02 1.208042e+02 9.840479e+01 1.608583e+02 1.313081e+02 8.288647e+01 5.040628e+01 7.391766e+01 4.233487e+01 1.279119e+01 7.485554e+00 9.767633e+00 1.367322e+01 1.411393e+01 8.238330e+00 1.151567e+01 1.383916e+01 9.716673e+00 6.354102e+00 6.388700e+00 4.133841e+00 2.592188e+00
<GCONST> 1.276957e+02
~s "ST_s_3_1"
<MEAN> 25
 -1.483282e+01 7.453712e+00 4.356677e+00 -7.177358e+00 5.938612e+00 -8.186965e+00 4.873226e+00 2.916269e+00 3.918080e+00 -1.245112e+00 2.594560e+00 3.873761e+00 -1.696191e+00 -4.696442e-01 -1.849484e-01 -9.979714e-02 -2.949866e-01 3.085458e-01 3.154609e-01 -1.314634e-02 5.182706e-01 8.899977e-02 3.139057e-01 4.660633e-01 -4.335874e-01
<VARIANCE> 25
 3.222156e+01 5.237085e+01 9.229923e+01 7.991222e+01 1.006298e+02 6.530068e+01 8.435597e+01 5.521236e+01 5.803002e+01 3.745233e+01 4.025971e+01 3.279052e+01 8.752458e+00 5.751659e+00 5.812554e+00 4.421915e+00 4.447582e+00 4.779107e+00 4.431978e+00 4.387672e+00 4.286696e+00 3.754932e+00 3.540502e+00 2.953683e+00 1.212916e+00
<GCONST> 1.128987e+02
~s "ST_s_4_1"
<MEAN> 25
 -3.536699e+00 1.513391e-01 1.201713e+01 -8.296164e+00 2.403664e+00 -1.022567e+01 1.170967e+00 2.765253e+00 7.021933e-01 -5.598319e-01 1.066529e-01 4.316596e+00 6.010443e+00 -1.648836e+00 2.405827e+00 8.640844e-01 -2.449073e+00 -4.375680e-01 -1.472670e+00 -5.333893e-01 -3.005289e+00 2.669117e-01 -8.961804e-01 -7.467739e-01 6.479497e-01
<VARIANCE> 25
 1.382164e+02 6.248796e+01 1.624166e+02 6.748672e+01 1.125329e+02 5.901466e+01 8.769461e+01 6.918656e+01 9.937366e+01 3.679418e+01 5.242175e+01 3.386546e+01 7.729677e+00 5.433156e+00 1.633121e+01 1.255172e+01 1.104466e+01 9.504404e+00 8.195150e+00 7.460011e+00 1.234170e+01 5.805214e+00 5.372045e+00 4.558482e+00 5.684753e+00
<GCONST> 1.245455e+02
~s "ST_i_2_1"
<MEAN> 25
 1.618947e+01 -1.362646e+01 1.509155e+00 -2.816839e+00 -1.179185e-01 -1.043291e+00 -1.517650e+00 -3.218832e+00 1.083642e+00 5.175995e-01 -2.244928e+00 -6.875040e+00 1.269935e+00 1.104581e+00 -5.690426e-01 3.849200e+00 -2.399496e+00 6.627834e-01 -4.343837e-01 -3.356277e-01 -1.401826e+00 1.796771e-01 4.189683e-01 4.340765e-01 -2.231555e+00
<VARIANCE> 25
 1.712218e+01 4.946887e+01 3.599196e+01 9.301556e+01 7.679901e+01 8.381101e+01 4.439488e+01 8.473801e+01 1.095677e+02 4.386166e+01 3.580119e+01 2.994910e+01 1.686709e+00 4.528524e+00 5.192226e+00 9.162354e+00 4.212778e+00 6.438133e+00 6.845268e+00 1.031066e+01 4.607994e+00 4.616568e+00 4.046261e+00 4.204931e+00 3.908223e+00
<GCONST> 1.139693e+02
~s "ST_i_2_2"
<MEAN> 25
 8.503719e+00 2.339020e+00 2.080749e+01 -3.963610e+00 -1.019076e+01 -5.681087e+00 -3.936411e-01 -4.285872e+00 -1.088061e+01 -1.233305e+00 2.771696e-01 -1.288259e+00 5.454885e-01 -2.249605e-02 6.451704e-01 6.151002e-02 -4.770367e-01 -5.527810e-01 -1.716239e-01 3.069236e-01 -6.193325e-01 2.286165e-02 -2.079685e-02 -1.655747e-01 5.276644e-01
<VARIANCE> 25
 3.581308e+01 1.056226e+02 1.419228e+02 1.339402e+02 1.075167e+02 1.278393e+02 1.226147e+02 9.687840e+01 1.135424e+02 7.542370e+01 5.616281e+01 4.854575e+01 4.197971e+00 1.206439e+01 1.670811e+01 1.038103e+01 9.548602e+00 9.381145e+00 9.612286e+00 9.656666e+00 1.057192e+01 5.703675e+00 5.989529e+00 4.037721e+00 1.133616e+01
<GCONST> 1.277343e+02
~s "ST_i_2_3"
<MEAN> 25
 1.202990e+01 -5.757569e+00 2.636434e+01 -5.181123e+00 -1.846070e+01 -9.142322e+00 -2.100974e+00 -4.819676e-01 -1.936562e+01 -1.008395e+00 3.920814e+00 -4.735485e-01 8.287369e-01 -1.438521e+00 -1.220393e+00 1.024089e-01 -2.832422e-01 -8.522601e-01 -6.770610e-01 3.709170e-01 7.221715e-01 3.681238e-01 -3.737346e-01 1.481447e-01 9.052056e-01
<VARIANCE> 25
 1.622752e+01 3.596935e+01 6.138456e+01 9.113831e+01 9.634142e+01 5.267377e+01 1.055639e+02 6.282482e+01 6.376651e+01 2.594134e+01 3.295124e+01 3.821276e+01 1.875481e+00 2.306285e+00 1.139998e+01 8.728174e+00 8.137334e+00 6.112644e+00 5.595087e+00 6.104698e+00 1.227999e+01 3.546376e+00 3.857183e+00 3.427122e+00 1.053896e+00
<GCONST> 1.127373e+02
~s "ST_i_2_4"
<MEAN> 25
 1.425998e+01 1.216105e+01 5.923233e+00 2.076438e+00 -5.391986e+00 -4.832778e+00 -2.998619e+00 -6.612945e+00 -7.700916e+00 -4.191494e+00 -4.142288e-01 2.102771e-01 -2.263731e+00 -4.697015e+00 9.610996e-03 9.629101e-01 1.805041e+00 -2.622783e+00 2.410827e-01 3.436485e+00 1.120142e+00 6.824811e-01 -7.129934e-01 -1.231944e-02 1.593415e+00
<VARIANCE> 25
 3.745837e+01 1.986703e+02 3.392873e+01 5.227342e+01 4.755676e+01 6.164788e+01 5.425095e+01 6.301298e+01 2.436010e+01 3.209880e+01 2.203770e+01 1.879123e+01 2.201205e+00 2.858274e+01 4.474130e+00 9.243564e+00 9.027308e+00 9.974903e+00 1.316036e+01 5.889701e+00 5.595762e+00 8.177483e+00 3.684420e+00 2.796884e+00 7.577913e+00
<GCONST> 1.160468e+02
~s "ST_i_3_1"
<MEAN> 25
 2.104637e+01 -9.806850e+00 -1.657913e+00 5.123189e+00 -1.576820e+00 -1.987619e+00 -3.457648e-01 -9.141047e+00 -5.637104e+00 3.240948e+00 -4.580285e+00 -7.875531e+00 -4.642449e-01 -9.115714e-01 7.845042e-01 -1.352219e+00 7.818701e-01 -3.139385e-01 2.342265e-01 1.088109e+00 -1.122606e-01 -5.531991e-01 -6.315882e-01 -6.250788e-02 9.928916e-01
<VARIANCE> 25
 1.358921e+01 8.773214e+01 5.914060e+01 7.673776e+01 6.182867e+01 3.139327e+01 7.157985e+01 1.274000e+02 7.707722e+01 4.874100e+01 4.086294e+01 4.119151e+01 1.697322e+00 9.226098e+00 4.741206e+00 8.413661e+00 7.053713e+00 3.740119e+00 7.395159e+00 1.373097e+01 5.011878e+00 5.059916e+00 4.068256e+00 4.404812e+00 2.791950e+00
<GCONST> 1.152759e+02
~s "ST_i_3_2"
<MEAN> 25
 1.854108e+01 -8.096493e+00 -2.500048e-01 -9.406938e-01 -4.099558e+00 -9.849652e+00 8.786194e-01 -4.301742e+00 -4.273026e+00 4.081147e+00 -3.948167e+00 -2.820594e+00 5.563715e-01 3.398957e-01 -1.841854e+00 -1.579924e-01 9.600460e-01 1.544622e+00 -8.279433e-02 -1.041587e+00 4.315981e-01 8.656085e-01 -4.130524e-01 -6.406267e-01 -5.697530e-01
<VARIANCE> 25
 2.097126e+01 6.119085e+01 1.206213e+02 1.323137e+02 7.227705e+01 1.369663e+02 1.416931e+02 1.270691e+02 9.019329e+01 6.537603e+01 3.751309e+01 3.414833e+01 1.538804e+00 2.597029e+00 6.606349e+00 6.012438e+00 6.695019e+00 6.831089e+00 8.489375e+00 7.188345e+00 7.813096e+00 5.504275e+00 4.589053e+00 3.545965e+00 1.200797e+00
<GCONST> 1.173532e+02
~s "ST_i_3_3"
<MEAN> 25
 1.289209e+01 -5.884352e+00 9.129595e+00 1.268441e+00 -7.703969e+00 -1.364336e+01 -3.485554e-01 1.538450e+00 -5.561990e+00 7.602948e-02 -1.508514e+00 2.379549e-01 5.641444e-02 -3.356682e-01 -2.684150e+00 1.815663e-01 2.028723e+00 -2.453392e-01 -5.932086e-01 4.972176e-02 2.760053e+00 -2.076743e-01 -8.337038e-01 1.953614e-01 -6.034485e-02
<VARIANCE> 25
 4.049506e+01 9.221019e+01 1.309991e+02 1.114571e+02 1.467537e+02 1.269871e+02 1.039023e+02 1.070005e+02 9.851192e+01 7.685046e+01 5.426262e+01 3.664939e+01 2.548691e+00 1.057054e+01 6.136547e+00 1.061198e+01 1.023577e+01 7.088809e+00 1.005494e+01 1.594799e+01 8.854267e+00 6.917911e+00 5.413502e+00 2.848193e+00 7.922183e+00
<GCONST> 1.251894e+02
~s "ST_i_4_1"
<MEAN> 25
 1.293122e+01 -1.497878e+01 1.365892e+01 -8.917108e+00 -6.021740e+00 -7.719910e+00 4.023668e+00 3.613237e+00 -4.875194e+00 -3.360704e+00 -3.837003e+00 -2.304179e+00 -2.715236e-01 7.698743e-01 1.209075e+00 -2.342243e-01 -9.041712e-01 -4.218563e-01 -2.226140e-02 -3.010095e-01 -4.495120e-01 4.960641e-01 6.619291e-01 4.669435e-01 -1.683140e-01
<VARIANCE> 25
 1.483214e+01 2.939928e+01 7.449933e+01 5.875464e+01 1.205757e+02 1.053531e+02 6.775648e+01 5.880738e+01 7.136043e+01 5.205563e+01 5.498358e+01 2.877796e+01 4.296992e-01 7.626116e-01 1.764649e+00 2.010586e+00 2.675504e+00 2.836244e+00 4.267727e+00 3.168452e+00 3.091778e+00 3.417704e+00 2.760145e+00 2.194544e+00 2.498332e-01
<GCONST> 1.012890e+02
~s "ST_i_4_2"
<MEAN> 25
 1.449519e+01 -2.916587e+00 -6.373623e-01 -1.065667e+00 -1.321476e+00 -4.623878e+00 -4.464802e+00 -1.995849e+00 -1.254613e+00 4.306724e-01 -2.762472e+00 -3.678769e+00 9.381690e-02 1.463873e+00 -1.735543e+00 -7.800353e-01 1.318873e+00 1.500228e+00 -8.082599e-01 -7.842025e-01 5.640783e-01 -7.441753e-02 2.997173e-01 1.652725e-03 -1.030764e+00
<VARIANCE> 25
 6.209200e+01 1.296716e+02 1.304428e+02 9.820807e+01 7.897993e+01 1.030445e+02 8.072070e+01 1.181247e+02 9.501971e+01 5.181934e+01 4.369761e+01 4.064576e+01 2.114987e+00 5.836031e+00 5.076085e+00 5.883282e+00 6.119156e+00 6.953812e+00 4.795002e+00 8.196721e+00 4.938297e+00 5.393706e+00 4.044516e+00 3.022973e+00 2.613065e+00
<GCONST> 1.186279e+02
~s "ST_i_4_3"
<MEAN> 25
 1.286884e+01 -1.131093e+01 6.781578e+00 -6.680962e+00 -1.392286e+00 -1.908832e+01 1.736187e+00 3.235933e+00 -1.699322e+00 1.858631e+00 -6.387288e+00 -1.152281e+00 2.710692e-01 -5.389979e-01 -1.623889e+00 -4.352580e-02 1.414468e+00 4.818894e-01 3.887916e-01 1.991632e-01 7.296807e-01 1.928840e-03 -1.338884e+00 -4.329351e-01 -2.241252e-01
<VARIANCE> 25
 1.795205e+01 3.979207e+01 5.880620e+01 1.149253e+02 6.965691e+01 1.259329e+02 9.236931e+01 9.573920e+01 9.610616e+01 3.720495e+01 5.603498e+01 5.550810e+01 8.763683e-01 1.552423e+00 3.352073e+00 2.283067e+00 2.538914e+00 3.633234e+00 4.679295e+00 4.835311e+00 6.157111e+00 4.291308e+00 4.763647e+00 2.136620e+00 6.264027e-01
<GCONST> 1.085386e+02
~s "ST_E_2_1"
<MEAN> 25
 1.427483e+01 -2.888240e+00 -1.586646e+01 -1.539239e+00 9.608184e+00 4.507176e-01 -4.835797e+00 -1.648398e-01 -1.148754e+00 -6.129155e-01 -7.143212e+00 -5.549897e+00 -1.675303e+00 4.580694e-01 3.184218e-01 -9.440568e-02 2.220494e-01 5.062221e-01 -2.492804e-02 -4.438430e-02 -1.378953e-01 -1.258783e-01 6.015737e-03 -4.523067e-02 -1.520665e+00
<VARIANCE> 25
 6.372047e+01 3.394691e+01 2.825428e+01 2.172293e+01 1.584208e+01 2.861330e+01 3.395962e+01 1.955156e+01 1.866108e+01 1.298536e+01 1.168427e+01 1.796614e+01 3.089030e+00 1.953278e+00 1.155354e+00 2.279486e+00 1.791745e+00 2.528621e+00 2.431711e+00 1.835692e+00 1.891260e+00 1.308416e+00 1.305333e+00 1.227903e+00 2.026566e+00
<GCONST> 9.135437e+01
~s "ST_E_3_1"
<MEAN> 25
 -3.584317e+00 -1.419692e+00 -7.035528e+00 6.016464e-01 5.133496e+00 2.881216e+00 -5.049751e+00 -1.066041e+00 -1.346574e+00 -5.916823e-01 -2.218922e+00 -2.737126e+00 -1.069569e+00 1.305291e+00 5.899065e-01 -1.520436e-01 -7.060195e-01 1.424071e-01 2.857112e-01 -5.683923e-01 -4.131847e-01 -3.419734e-01 1.731581e-01 1.728753e-01 -1.276331e+00
<VARIANCE> 25
 1.018074e+01 3.113609e+01 8.295156e+00 1.147877e+01 2.009110e+01 1.702205e+01 1.866475e+01 2.413605e+01 1.253376e+01 2.199587e+01 1.294733e+01 1.621021e+01 8.762554e-01 1.519584e+00 1.528344e+00 1.154311e+00 1.862412e+00 1.966592e+00 2.864883e+00 2.448498e+00 2.017588e+00 2.228071e+00 1.196684e+00 1.986064e+00 4.785970e-01
<GCONST> 8.490499e+01
~s "ST_E_4_1"
<MEAN> 25
 -1.009871e+01 6.550392e+00 -8.150420e-01 -5.335307e-01 1.976519e+00 3.094340e+00 -4.740362e+00 -4.785014e-01 -3.105127e+00 -3.190464e+00 -1.000582e+00 1.551098e+00 -1.189367e-01 1.047407e-01 1.440249e-01 1.261389e-02 -9.987120e-02 -1.471564e-02 2.663695e-02 2.313567e-02 -7.155994e-03 -2.870934e-02 2.156071e-02 7.204934e-02 -1.201282e-01
<VARIANCE> 25
 7.765956e+00 4.999023e+00 1.058769e+01 8.537252e+00 1.326796e+01 1.910426e+01 1.449950e+01 1.100786e+01 1.687251e+01 1.229889e+01 1.498878e+01 1.136833e+01 1.843745e-01 2.507378e-01 4.950617e-01 7.312912e-01 9.787460e-01 1.181565e+00 1.302764e+00 1.057403e+00 1.375777e+00 1.595385e+00 1.639040e+00 1.052332e+00 1.038345e-01
<GCONST> 7.063318e+01
~s "ST_l_2_1"
<MEAN> 25
 1.391959e+01 -6.255313e+00 8.789312e+00 -1.974194e+00 -6.297260e+00 -9.348859e+00 -6.842120e+00 -3.767159e+00 3.090163e+00 -3.215937e+00 -3.327175e+00 9.080872e-01 4.609582e-01 -2.055749e-01 1.030427e+00 7.738971e-01 -1.429514e+00 -8.931831e-02 1.409385e-01 -3.478995e-01 -1.421834e+00 2.327412e-01 5.175852e-01 3.133241e-02 4.909582e-02
<VARIANCE> 25
 5.233136e+01 5.759061e+01 9.674227e+01 1.095472e+02 1.014071e+02 9.839738e+01 1.166497e+02 7.256088e+01 7.556427e+01 6.075420e+01 5.792244e+01 4.556409e+01 3.748781e+00 8.598750e+00 1.117381e+01 9.410437e+00 1.576181e+01 8.635779e+00 2.091155e+01 8.695817e+00 1.165398e+01 8.310007e+00 6.971022e+00 3.866350e+00 5.118814e+00
<GCONST> 1.255333e+02
~s "ST_l_3_1"
<MEAN> 25
 1.455868e+01 -9.510011e+00 1.741791e+01 -4.406310e+00 -1.260369e+01 -6.112211e+00 -6.145917e+00 -2.904350e+00 -8.053655e+00 3.370715e+00 -3.874449e-01 -1.122231e+00 -2.777362e-01 8.218116e-01 1.361377e+00 -6.057231e-01 -8.936501e-01 5.790230e-01 8.452929e-01 -1.969125e-02 -2.105639e+00 3.877045e-01 1.969873e-01 -1.028578e-01 -2.917013e-01
<VARIANCE> 25
 2.736800e+01 2.238664e+01 1.296502e+02 1.192654e+02 5.745032e+01 8.281679e+01 1.215673e+02 1.172716e+02 1.118691e+02 6.751538e+01 6.322119e+01 4.483621e+01 6.936215e-01 2.286910e+00 4.173185e+00 6.580896e+00 3.570836e+00 9.112963e+00 4.991008e+00 8.946704e+00 5.002753e+00 6.584553e+00 4.402794e+00 3.772218e+00 1.204308e+00
<GCONST> 1.144690e+02
~s "ST_l_4_1"
<MEAN> 25
 1.588040e+01 5.145352e+00 1.420243e+01 -4.481605e+00 -1.488925e+01 2.573639e+00 1.827258e+00 -1.207210e+01 -1.555442e+01 2.739767e+00 1.538326e+00 -1.277923e+00 8.130521e-01 2.765129e+00 -2.752142e+00 1.144017e+00 1.396693e+00 4.567960e-01 -3.438393e-01 -1.272985e+00 1.029545e+00 -1.058194e+00 1.324816e-02 1.006649e-01 -1.974265e+00
<VARIANCE> 25
 3.212825e+01 7.731483e+01 1.387299e+02 7.406396e+01 1.098833e+02 8.783771e+01 1.257178e+02 1.144422e+02 7.707404e+01 6.819328e+01 4.945991e+01 2.205064e+01 1.787441e+00 3.872918e+00 7.992586e+00 7.087950e+00 9.722894e+00 9.767055e+00 9.459295e+00 1.167205e+01 7.086554e+00 7.028078e+00 3.726190e+00 2.293962e+00 1.358867e+00
<GCONST> 1.189025e+02
~s "ST_b_2_1"
<MEAN> 25
 1.890341e+01 1.446335e+01 3.720741e+00 5.360336e+00 9.243073e-01 3.764093e+00 -3.392180e+00 -1.790647e+01 -1.319201e+01 -8.436211e-01 8.818476e-03 -3.816347e+00 -4.478147e-01 -7.967300e-01 7.603290e-01 -9.794669e-01 -2.908799e-02 -1.338800e+00 -1.155432e+00 2.547486e+00 1.917112e+00 -1.102848e+00 2.476514e-01 2.188575e-01 7.001453e-01
<VARIANCE> 25
 1.900564e+01 3.651477e+01 5.476484e+01 4.963608e+01 4.192477e+01 4.720221e+01 6.037937e+01 7.887502e+01 6.143305e+01 3.795282e+01 1.845205e+01 3.516732e+01 2.380313e+00 9.013905e+00 5.708087e+00 5.781171e+00 5.486392e+00 4.523012e+00 4.805851e+00 5.281575e+00 5.910047e+00 4.237333e+00 2.696737e+00 1.949280e+00 3.140317e+00
<GCONST> 1.097180e+02
~s "ST_b_3_1"
<MEAN> 25
 1.889152e+01 1.078503e+01 1.940218e+00 4.454690e+00 3.571175e+00 1.677029e+00 -6.170694e+00 -1.206194e+01 -8.999906e+00 -3.725878e+00 -1.563161e+00 -4.364621e+00 -2.692569e-01 -6.971153e+00 2.686483e-01 -2.710534e+00 -1.845888e+00 -3.206268e+00 -7.295982e-02 3.534415e+00 2.957582e+00 1.781823e+00 5.069888e-01 -4.009213e-01 4.528517e+00
<VARIANCE> 25
 2.220909e+01 6.263602e+01 5.892855e+01 4.127025e+01 3.986978e+01 4.894005e+01 4.577097e+01 5.650437e+01 5.128055e+01 4.214698e+01 2.591506e+01 2.382957e+01 2.739178e+00 5.084024e+00 1.240490e+01 1.532319e+01 6.964045e+00 5.864317e+00 5.994088e+00 1.059126e+01 1.117219e+01 4.687983e+00 4.061394e+00 3.139894e+00 1.854904e+00
<GCONST> 1.133833e+02
~s "ST_b_4_1"
<MEAN> 25
 1.957055e+01 -6.345679e+00 1.250369e+00 -2.101412e+00 -2.082566e+00 -6.326179e+00 -6.038422e+00 -6.709284e+00 -5.047844e+00 3.642356e+00 2.888913e+00 -4.224241e+00 -8.317271e-01 -7.704152e+00 1.370587e+00 -3.884074e+00 -2.714645e+00 -3.003880e+00 1.134198e+00 3.237212e+00 3.078050e+00 2.534678e+00 -2.975464e-01 -6.109063e-01 5.598230e+00
<VARIANCE> 25
 1.806727e+01 3.672808e+01 7.601979e+01 1.018246e+02 3.616743e+01 9.850365e+01 6.285754e+01 6.136017e+01 4.674135e+01 5.936444e+01 4.391677e+01 1.890806e+01 4.201304e+00 5.660660e+00 1.700665e+01 1.249705e+01 6.959021e+00 7.113046e+00 8.385630e+00 1.475590e+01 1.904511e+01 4.736929e+00 4.745807e+00 4.852190e+00 1.944976e+00
<GCONST> 1.180372e+02
~s "ST_o_2_1"
<MEAN> 25
 1.576287e+01 -7.359995e+00 -3.315447e+00 -1.761862e+01 3.894530e+00 1.084740e+00 8.312667e-01 -4.356620e+00 -3.428997e+00 2.000613e+00 4.585954e+00 -1.960070e+00 1.094318e+00 -4.402050e-01 8.404905e-01 1.416778e-01 -6.524473e-01 -1.059524e+00 5.280327e-02 -3.473814e-01 -1.464400e-01 9.172955e-01 -1.288464e+00 -2.793695e-01 1.059120e+00
<VARIANCE> 25
 5.441047e+01 6.054064e+01 8.900726e+01 6.861967e+01 9.328120e+01 1.204374e+02 9.299557e+01 5.581456e+01 7.673212e+01 5.822358e+01 6.664430e+01 2.622454e+01 5.878232e+00 8.695292e+00 7.637067e+00 8.592372e+00 1.053125e+01 9.592311e+00 1.132341e+01 6.762316e+00 9.103033e+00 5.761646e+00 5.519076e+00 3.348058e+00 1.144379e+01
<GCONST> 1.229014e+02
~s "ST_o_3_1"
<MEAN> 25
 1.807887e+01 3.617244e+00 -1.059993e+01 -7.630762e+00 4.986722e+00 2.177881e+00 -5.359519e+00 -3.289710e+00 1.378915e+00 6.445839e+00 -2.138108e+00 -2.760723e+00 -1.922665e+00 2.732639e+00 -2.162153e+00 1.056571e+00 -8.886235e-01 1.642413e+00 1.141873e-01 5.479161e-01 9.030388e-01 -1.006760e+00 1.417885e+00 6.741822e-01 -4.527269e+00
<VARIANCE> 25
 2.371786e+01 2.934117e+01 7.034155e+01 4.177647e+01 2.584796e+01 3.416901e+01 4.053968e+01 2.101214e+01 3.596871e+01 2.880720e+01 3.860812e+01 2.282915e+01 4.494559e+00 3.847326e+00 1.170444e+01 7.111127e+00 6.218758e+00 4.592594e+00 8.835673e+00 3.743546e+00 5.563062e+00 2.992037e+00 6.133947e+00 2.798800e+00 3.489793e+00
<GCONST> 1.087612e+02
~s "ST_o_4_1"
<MEAN> 25
 1.397583e+00 6.476014e+00 -7.458216e+00 -6.048086e+00 -3.621915e+00 8.190269e-01 -1.043945e+00 -4.659925e-01 -1.386078e-01 8.465705e-01 2.270758e+00 4.743767e-01 -2.111666e+00 -1.876929e+00 2.004866e+00 5.990717e-01 -3.617921e-01 -1.665311e+00 7.449880e-01 6.735350e-01 -3.154414e-01 -2.539830e-01 -1.161361e-01 8.120552e-01 1.846702e-01
<VARIANCE> 25
 4.005430e+01 7.581170e+00 3.288919e+01 2.449356e+01 1.907892e+01 2.093302e+01 2.667576e+01 1.924432e+01 2.461941e+01 1.957209e+01 2.207631e+01 1.458317e+01 5.122365e+00 5.222006e+00 4.562912e+00 2.520190e+00 5.314393e+00 3.888136e+00 3.628164e+00 3.443093e+00 2.952443e+00 4.131919e+00 2.273319e+00 3.171641e+00 1.107822e+01
<GCONST> 1.007014e+02
~s "ST_aw_2_1"
<MEAN> 25
 -9.160189e+00 3.267841e+00 -6.759068e+00 4.655068e+00 1.461570e+00 2.895860e+00 1.081137e+00 6.827192e-01 4.427338e+00 -1.966508e+00 -1.152146e+00 -3.708664e-01 -1.436768e-02 6.139271e-03 8.436812e-03 5.556108e-03 -7.802211e-04 -2.702228e-02 -2.091713e-02 3.338150e-02 8.188989e-02 2.293044e-02 -3.555529e-02 8.164521e-03 -1.277241e-03
<VARIANCE> 25
 2.196170e+00 3.165893e+00 6.576345e+00 8.445657e+00 1.138517e+01 1.183966e+01 1.244061e+01 1.480227e+01 1.218633e+01 1.612582e+01 9.790904e+00 1.197999e+01 1.061752e-01 2.301012e-01 4.224246e-01 5.640405e-01 6.943034e-01 1.056996e+00 1.149499e+00 1.217909e+00 1.184976e+00 1.416530e+00 1.123035e+00 1.386764e+00 5.360071e-02
<GCONST> 6.498367e+01
~s "ST_aw_3_1"
<MEAN> 25
 -1.405972e+01 3.251437e+00 -4.702322e+00 6.977839e+00 4.802284e+00 9.839540e-01 -1.397786e+00 3.064683e-01 6.739773e-01 -3.044583e+00 1.520849e+00 4.097795e-01 -8.795922e-02 -4.188208e-02 -5.157999e-03 -5.118209e-02 -1.246738e-02 -6.003264e-02 1.497054e-02 1.009930e-01 -9.919425e-03 4.247773e-02 3.935513e-02 9.774818e-02 -3.731335e-02
<VARIANCE> 25
 3.916006e+00 3.123605e+00 7.383760e+00 9.844515e+00 1.192080e+01 1.347241e+01 1.226459e+01 1.095045e+01 1.230768e+01 1.368822e+01 1.478377e+01 1.310667e+01 1.266027e-01 2.441533e-01 4.813062e-01 8.180287e-01 6.577139e-01 1.118726e+00 1.147575e+00 9.383777e-01 9.986359e-01 1.271078e+00 1.789611e+00 1.477426e+00 5.360071e-02
<GCONST> 6.675271e+01
~s "ST_aw_4_1"
<MEAN> 25
 -5.691878e+00 7.167439e+00 -3.357511e+00 4.421575e+00 -1.239294e+00 -2.382282e+00 -3.653761e+00 2.557429e-01 2.702463e+00 -1.950695e+00 -4.340052e-01 2.028515e+00 1.138247e-01 8.284066e-02 1.186345e-01 -9.166176e-02 -1.021165e-01 5.059202e-02 -5.004755e-02 -2.120539e-01 -1.718232e-01 -8.267023e-02 -9.335279e-03 1.227195e-02 8.251553e-02
<VARIANCE> 25
 4.850026e+01 2.984613e+01 2.744359e+01 1.607254e+01 3.556776e+01 3.861975e+01 3.597269e+01 2.431989e+01 1.521518e+01 1.295582e+01 1.666725e+01 1.282739e+01 5.497746e+00 4.266775e+00 2.119999e+00 1.503952e+00 2.891455e+00 4.557298e+00 4.972091e+00 1.778580e+00 2.121637e+00 1.215881e+00 1.701508e+00 1.417016e+00 1.641249e+00
<GCONST> 9.535797e+01
~s "ST_e_2_1"
<MEAN> 25
 1.435201e+01 -2.120905e+00 1.311692e+01 7.420691e+00 -1.188255e+01 -1.571999e+01 4.504736e+00 -7.228232e-01 -1.098046e+01 -2.042493e+00 -1.770132e+00 1.161097e-02 1.390824e-01 1.628024e+00 9.485747e-02 9.854444e-01 -1.139845e+00 7.994103e-01 5.816202e-01 -7.704432e-01 7.005175e-02 -2.131718e-01 -9.033698e-03 -7.790083e-02 -1.696048e+00
<VARIANCE> 25
 3.196063e+01 7.228466e+01 9.538852e+01 9.578464e+01 1.108057e+02 7.156027e+01 9.076297e+01 1.137127e+02 8.113256e+01 4.743103e+01 4.894413e+01 3.753671e+01 5.234273e+00 1.046516e+01 6.500321e+00 1.171407e+01 1.158702e+01 8.210661e+00 9.337442e+00 1.391105e+01 1.020059e+01 4.153960e+00 5.786545e+00 4.234118e+00 9.774866e+00
<GCONST> 1.237867e+02
~s "ST_e_2_2"
<MEAN> 25
 1.399992e+01 -1.596404e+01 1.647329e+01 -7.365648e+00 -1.145803e+01 -1.521067e+01 -2.580127e+00 5.982144e+00 -6.277934e+00 1.011560e+00 3.685299e-01 2.966256e+00 -3.401439e-01 1.149408e+00 8.960011e-01 -6.001557e-01 -2.489494e-01 -3.298347e-01 9.963532e-01 -1.051220e+00 -1.524106e+00 6.669192e-01 -1.139736e+00 1.023302e+00 -5.338939e-01
<VARIANCE> 25
 1.183082e+01 1.624966e+01 3.492797e+01 6.748663e+01 5.333821e+01 3.746582e+01 4.041084e+01 4.379438e+01 4.923105e+01 2.243587e+01 2.529108e+01 1.726800e+01 5.491107e-01 2.346464e+00 2.925363e+00 6.158638e+00 3.323149e+00 2.741650e+00 4.093517e+00 2.173027e+00 3.674400e+00 1.913243e+00 3.101042e+00 2.558350e+00 1.685498e+00
<GCONST> 9.921918e+01
~s "ST_e_3_1"
<MEAN> 25
 6.359131e+00 2.411115e+00 1.165914e+01 -2.796082e+00 -6.843771e+00 -6.541892e+00 -1.987655e-01 -2.359141e+00 -5.211337e+00 -7.648392e-01 -2.601125e-01 2.358152e+00 -4.275402e-01 -1.341163e-01 9.284865e-01 -8.929950e-01 -2.927566e-01 8.914475e-01 1.498907e-01 -9.980528e-01 -3.787074e-01 -3.102392e-02 3.250097e-01 2.747281e-02 5.066383e-01
<VARIANCE> 25
 1.120270e+02 1.492930e+02 1.128014e+02 8.562950e+01 9.041925e+01 5.789302e+01 7.281620e+01 4.661033e+01 7.536235e+01 3.600239e+01 4.357201e+01 2.683312e+01 1.205823e+01 1.915713e+01 1.373739e+01 1.253090e+01 1.619753e+01 7.426950e+00 1.409391e+01 7.468859e+00 8.337315e+00 4.360624e+00 3.666578e+00 3.755501e+00 1.346689e+01
<GCONST> 1.253633e+02
~s "ST_e_4_1"
<MEAN> 25
 1.489673e+01 -1.012830e+00 6.023200e+00 -1.885936e+00 -8.875648e+00 -6.509896e+00 7.087390e-01 -3.263100e+00 -7.685416e-01 -8.672806e-01 -2.398744e+00 6.668697e-01 -1.319815e+00 2.066036e+00 -6.772792e-01 -4.329754e-02 1.157501e+00 9.560129e-01 6.102637e-01 -3.839844e-01 2.881448e-01 -2.077047e-01 3.308578e-01 -6.151707e-02 -1.384308e+00
<VARIANCE> 25
 2.700579e+01 7.619320e+01 1.347475e+02 6.835799e+01 1.380496e+02 1.649748e+02 9.037038e+01 1.029964e+02 8.245317e+01 5.250164e+01 4.110463e+01 5.221135e+01 1.039594e+01 7.257796e+00 9.384600e+00 1.093695e+01 1.090199e+01 7.846138e+00 1.070012e+01 1.236770e+01 7.746428e+00 4.381416e+00 3.796899e+00 2.928953e+00 2.699186e+00
<GCONST> 1.231363e+02
~s "ST_e_4_2"
<MEAN> 25
 1.087959e+01 4.540559e+00 2.404110e+01 -2.563777e+00 -2.027902e+01 -2.586095e+00 2.876386e+00 -8.076200e+00 -1.455649e+01 3.129123e-01 -9.512022e-01 -4.271863e+00 -3.581685e-02 1.300937e+00 -1.028673e+00 9.040526e-01 2.711417e-01 8.184443e-02 -2.612628e-01 -1.730803e-01 6.212901e-01 -7.927929e-02 5.007651e-03 -2.354759e-01 -1.345709e+00
<VARIANCE> 25
 1.538915e+01 5.811363e+01 5.521717e+01 8.906573e+01 7.242619e+01 5.133663e+01 1.009177e+02 7.572833e+01 6.572015e+01 6.791531e+01 3.870741e+01 4.875017e+01 2.267627e+00 8.158778e+00 8.156894e+00 9.086549e+00 1.168927e+01 4.662908e+00 8.816740e+00 6.563136e+00 9.732715e+00 4.691276e+00 3.343237e+00 6.030866e+00 6.801292e+00
<GCONST> 1.183745e+02
~s "ST_r_2_1"
<MEAN> 25
 1.078688e+01 -1.315150e+01 2.027508e+00 -1.371959e+01 9.499196e-01 -7.009951e+00 2.911956e+00 -1.022220e+00 8.234392e+00 -4.078480e-02 -7.822986e+00 -6.801810e+00 1.737151e-01 -2.144241e-01 2.186523e-01 2.323674e-01 -8.519946e-02 -4.372053e-01 -2.874487e-01 5.066296e-01 7.647213e-02 -2.946552e-01 2.107648e-01 3.954663e-01 -1.444479e-01
<VARIANCE> 25
 3.442128e+01 2.927308e+01 2.448167e+01 3.662212e+01 4.000222e+01 3.864765e+01 5.350325e+01 6.449852e+01 4.539144e+01 3.491634e+01 3.330874e+01 2.921165e+01 4.679410e-01 5.769529e-01 9.295596e-01 7.958971e-01 1.294375e+00 2.453349e+00 1.768893e+00 1.666068e+00 1.852620e+00 2.080015e+00 1.707654e+00 1.064364e+00 2.044617e-01
<GCONST> 9.038397e+01
~s "ST_r_2_2"
<MEAN> 25
 1.125449e+01 -6.732624e+00 2.124617e+00 -3.724191e+00 -1.637614e+00 -2.592304e+00 -9.201454e-02 -2.565448e+00 -4.524880e-01 8.733458e-01 -4.325575e+00 -3.420865e+00 5.537565e-02 1.139773e-01 -1.550589e-01 2.038742e-01 2.259092e-01 -1.654565e-01 -6.427519e-01 1.254603e-01 3.803894e-01 -4.731270e-02 -4.411435e-01 3.495256e-02 -2.597196e-01
<VARIANCE> 25
 1.051080e+02 1.495373e+02 8.956104e+01 1.221573e+02 8.221210e+01 1.161781e+02 1.168823e+02 9.012861e+01 5.840295e+01 6.457845e+01 4.368550e+01 4.040595e+01 1.653976e+00 1.268561e+00 2.308556e+00 3.012576e+00 1.991550e+00 2.582510e+00 2.852709e+00 3.014354e+00 3.299788e+00 2.497829e+00 2.413389e+00 1.778411e+00 1.274966e+00
<GCONST> 1.093265e+02
~s "ST_r_3_1"
<MEAN> 25
 1.482172e+01 -1.638875e+01 5.167973e+00 -1.169655e+01 -1.134851e+00 -6.496312e+00 -1.912336e+00 -6.615624e-01 7.117921e+00 1.346001e+00 -4.162902e+00 -5.075345e+00 1.452443e+00 1.121797e-01 -1.914200e-01 3.370631e+00 -1.630249e+00 1.220721e+00 -1.396766e+00 5.238888e-01 -1.224157e+00 5.240140e-01 7.439051e-01 7.320408e-01 -2.386277e+00
<VARIANCE> 25
 1.792278e+01 1.952180e+01 1.924808e+01 4.243824e+01 4.598263e+01 8.048843e+01 5.933855e+01 9.871500e+01 7.573341e+01 4.344099e+01 4.336148e+01 3.806819e+01 1.348103e+00 1.757740e+00 3.499254e+00 4.544444e+00 3.610388e+00 6.224329e+00 5.181258e+00 5.911959e+00 7.240735e+00 5.377921e+00 3.503952e+00 3.713706e+00 1.988725e+00
<GCONST> 1.079884e+02
~s "ST_r_3_2"
<MEAN> 25
 8.755214e+00 -3.744089e+00 1.490790e+00 -4.912591e-02 -4.574613e-01 -3.999486e+00 -1.582029e+00 -1.601876e+00 1.469661e+00 4.784020e-01 -4.134296e+00 -1.545148e+00 4.556904e-02 5.527045e-01 -7.319204e-01 1.444002e+00 -5.855559e-01 1.086062e+00 -1.015229e+00 2.669870e-02 1.748911e-01 1.609293e-02 2.451392e-01 -3.441878e-03 -1.745987e+00
<VARIANCE> 25
 1.231357e+02 1.456169e+02 7.868375e+01 1.053163e+02 5.993333e+01 1.327780e+02 8.473286e+01 8.088664e+01 4.646279e+01 4.484751e+01 3.933166e+01 4.110223e+01 3.276629e+00 4.690601e+00 4.098765e+00 8.433846e+00 4.833792e+00 1.017443e+01 6.959592e+00 5.945233e+00 5.109416e+00 3.459948e+00 3.161109e+00 3.560421e+00 4.977493e+00
<GCONST> 1.183997e+02
~s "ST_r_4_1"
<MEAN> 25
 1.561653e+01 -7.345264e+00 -2.575186e+00 4.319210e+00 -2.565909e+00 -3.870912e+00 -2.725712e+00 -1.540229e+00 1.003303e+00 1.233580e+00 -2.646952e+00 -3.455312e+00 -3.372515e-01 1.938080e+00 -8.189492e-01 1.053242e+00 5.301658e-01 9.429760e-02 -4.303155e-01 -4.129326e-01 -3.062334e-01 -3.228855e-01 2.870614e-01 4.406276e-01 -1.759333e+00
<VARIANCE> 25
 8.135040e+01 9.934377e+01 8.718597e+01 5.879808e+01 5.986730e+01 5.526556e+01 5.658445e+01 5.581667e+01 3.619712e+01 3.809811e+01 3.537762e+01 2.875765e+01 3.596114e+00 7.205165e+00 7.050497e+00 1.008283e+01 6.437965e+00 6.352909e+00 7.137013e+00 6.578919e+00 5.002977e+00 4.245977e+00 3.929086e+00 3.129612e+00 4.674438e+00
<GCONST> 1.159890e+02
~s "ST_h_2_1"
<MEAN> 25
 1.862838e+00 6.015689e+00 -5.731186e+00 -2.935552e+00 4.200500e-01 6.198568e+00 9.859329e-02 -5.953375e-01 -2.165512e+00 -5.550544e-01 -2.247944e-01 1.447876e+00 -5.573785e-01 1.113955e-01 1.171520e-01 1.812227e-01 -2.135561e-01 -4.502333e-02 1.754690e-01 4.825944e-01 3.832160e-02 -1.988492e-01 4.816311e-03 1.893883e-01 -6.475849e-01
<VARIANCE> 25
 1.368485e+02 4.149723e+01 1.114291e+02 1.054066e+02 2.330223e+01 7.123025e+01 5.819446e+01 4.423613e+01 2.572964e+01 1.427597e+01 1.294639e+01 2.004296e+01 1.526600e+00 2.517590e+00 4.088294e+00 3.565793e+00 1.572666e+00 2.687412e+00 4.031094e+00 2.027777e+00 1.986210e+00 1.837612e+00 1.491831e+00 1.261956e+00 1.246021e+00
<GCONST> 1.004109e+02
~s "ST_h_3_1"
<MEAN> 25
 -1.391033e-01 4.582701e+00 -3.030228e-01 2.388466e+00 9.095271e-01 5.310799e-01 -3.629588e+00 -3.054487e+00 -5.573002e-01 -1.645284e+00 -1.345294e+00 -2.880175e-01 -4.811182e-01 -2.327909e-01 -3.044115e-02 -9.703457e-02 -1.053331e-01 -3.733622e-02 3.956265e-01 5.686545e-01 -2.780799e-01 -5.401170e-02 7.235491e-02 1.712463e-01 -3.848376e-01
<VARIANCE> 25
 1.358737e+02 1.135784e+02 7.319947e+01 4.587849e+01 1.842031e+01 4.127304e+01 4.530213e+01 2.829159e+01 3.242127e+01 3.040680e+01 2.115362e+01 1.580186e+01 5.648292e-01 1.679101e+00 2.215924e+00 2.148576e+00 2.191757e+00 1.705261e+00 4.059388e+00 2.516020e+00 2.092177e+00 2.329564e+00 1.687331e+00 8.756971e-01 1.030884e+00
<GCONST> 9.735966e+01
~s "ST_h_4_1"
<MEAN> 25
 -3.503755e+00 5.373162e+00 6.569301e-01 3.160486e+00 1.091112e+00 1.744556e+00 -1.971525e+00 -8.313767e-01 -4.356223e-01 -9.715384e-01 -1.801228e-01 -2.074605e-01 -1.909155e-01 -7.263162e-01 2.751548e-01 -6.111771e-02 -1.958501e-01 3.121188e-01 4.883365e-01 1.628513e-01 -1.118334e-01 7.709481e-02 1.358223e-01 1.467552e-01 2.021980e-01
<VARIANCE> 25
 1.106052e+02 6.087261e+01 6.915820e+01 3.920469e+01 2.364847e+01 4.622124e+01 3.096722e+01 3.106864e+01 2.532413e+01 1.897454e+01 1.123651e+01 1.690908e+01 1.343925e+00 2.109590e+00 3.482350e+00 2.151872e+00 4.017154e+00 2.169792e+00 3.787346e+00 1.960080e+00 3.090018e+00 1.916027e+00 1.484654e+00 1.422637e+00 1.310163e+00
<GCONST> 9.797687e+01
~s "ST_u_2_1"
<MEAN> 25
 2.212390e+01 2.082773e+00 -7.788223e+00 -4.500332e+00 -8.900478e-01 3.935789e+00 -5.524113e+00 -1.369049e+01 -6.640491e+00 4.480795e+00 6.031659e-01 -1.940086e+00 -1.976838e-01 2.661330e+00 -1.246005e+00 -1.362214e+00 7.919464e-01 1.554196e+00 5.966895e-01 -4.972648e-02 -6.777114e-01 -1.015981e+00 5.979304e-01 6.929305e-01 -1.653259e+00
<VARIANCE> 25
 2.336493e+01 6.433552e+01 6.177090e+01 7.285269e+01 5.449125e+01 4.488604e+01 6.359409e+01 8.981643e+01 7.158498e+01 4.311233e+01 3.185292e+01 2.504646e+01 2.760041e+00 4.069101e+00 5.596208e+00 7.883008e+00 7.393010e+00 5.878780e+00 6.535208e+00 7.076808e+00 6.795327e+00 4.920911e+00 3.587678e+00 2.461075e+00 1.966480e+00
<GCONST> 1.130186e+02
~s "ST_u_3_1"
<MEAN> 25
 1.731594e+01 1.424791e+01 -7.807856e+00 -7.760731e+00 3.016968e-01 6.305100e+00 -1.519681e+00 -7.763772e+00 -7.761770e+00 -4.336168e+00 1.023976e+00 1.243156e+00 -1.682131e+00 5.756170e-01 1.449127e+00 1.214499e+00 -4.108514e-01 -3.526552e-01 3.950414e-01 6.135433e-01 3.400662e-01 -4.809214e-01 -1.980015e-01 -1.064269e-02 -1.435703e+00
<VARIANCE> 25
 3.282857e+01 3.657536e+01 4.165330e+01 7.349757e+01 4.662715e+01 5.883523e+01 2.457003e+01 6.800436e+01 2.707428e+01 2.422725e+01 2.259599e+01 2.270476e+01 2.211086e+00 2.132347e+00 3.054593e+00 2.612032e+00 2.286787e+00 3.413499e+00 1.967032e+00 3.868344e+00 3.643367e+00 1.218309e+00 1.821265e+00 1.419011e+00 1.092960e+00
<GCONST> 9.936915e+01
~s "ST_u_3_2"
<MEAN> 25
 7.097175e+00 3.736825e+00 -9.548048e+00 -5.394133e+00 -1.391226e+00 2.300472e+00 -1.656332e+00 -1.418727e+00 1.541246e-01 -1.207035e-01 -9.137464e-01 -4.092920e-01 -2.448282e+00 -6.213264e-01 1.305803e+00 3.911984e-01 -4.953879e-01 -7.320529e-01 -5.059292e-03 -3.403059e-02 -2.055437e-01 -4.121408e-02 2.956788e-01 2.288133e-01 -1.110473e+00
<VARIANCE> 25
 1.173099e+02 3.385405e+01 4.820373e+01 3.907433e+01 3.107809e+01 2.858940e+01 3.483730e+01 6.120893e+01 6.046467e+01 1.999942e+01 1.583931e+01 2.061247e+01 4.520614e+00 1.326924e+00 2.376178e+00 4.625345e+00 4.165861e+00 3.215011e+00 4.176052e+00 2.904316e+00 3.588740e+00 2.733337e+00 1.516800e+00 1.866981e+00 3.955046e+00
<GCONST> 1.030935e+02
~s "ST_u_4_1"
<MEAN> 25
 1.989299e+00 1.224464e+01 1.117749e+00 3.715041e+00 1.139257e+00 2.555370e+00 -2.265255e+00 -5.098330e+00 -3.210666e+00 -3.477814e+00 -1.749105e-01 2.403907e-01 -2.371828e+00 -1.388338e+00 -2.253452e-01 8.475921e-01 5.114744e-01 -1.363946e-01 1.582034e-01 6.100602e-01 2.309847e-01 9.741631e-02 -3.030873e-01 -4.536680e-01 -1.375858e+00
<VARIANCE> 25
 6.080745e+01 4.608898e+01 3.975232e+01 3.572439e+01 2.362014e+01 4.073629e+01 2.758518e+01 4.426929e+01 3.305595e+01 1.949065e+01 1.703443e+01 2.393500e+01 2.540521e+00 2.480115e+00 2.300245e+00 2.740296e+00 2.702287e+00 2.699247e+00 1.805860e+00 3.239601e+00 2.020030e+00 1.442171e+00 1.547040e+00 1.189705e+00 1.080651e+00
<GCONST> 9.679137e+01
~s "ST_u_4_2"
<MEAN> 25
 8.736654e+00 -3.393930e+00 -1.232857e+00 -8.041441e+00 5.949394e-01 -3.302683e+00 -2.881497e+00 -2.128472e+00 -8.512643e-02 6.013370e-01 1.347575e+00 1.288928e+00 2.061068e+00 -2.314972e+00 2.565634e+00 -2.219422e+00 6.443021e-01 -1.384290e+00 -1.231025e+00 -5.551887e-01 -5.696346e-01 1.050858e+00 7.328987e-01 8.953198e-02 4.973022e+00
<VARIANCE> 25
 1.413371e+02 8.675974e+01 1.047528e+02 8.258711e+01 5.050362e+01 8.522911e+01 6.464918e+01 9.153036e+01 6.119705e+01 5.290004e+01 3.199333e+01 3.537889e+01 1.029682e+01 6.799957e+00 1.006400e+01 7.655676e+00 5.043227e+00 8.302647e+00 1.008757e+01 8.069740e+00 6.678384e+00 6.268964e+00 3.303518e+00 4.492862e+00 1.095146e+01
<GCONST> 1.221465e+02
~s "ST_k_2_1"
<MEAN> 25
 1.469829e+01 -6.504531e+00 5.375751e+00 -2.742124e+00 -1.020395e+00 -4.711008e+00 -7.501670e-01 -2.930058e-01 -6.177964e+00 2.699988e+00 -3.509140e+00 -3.676660e+00 -9.265288e-02 2.034756e+00 -2.364720e+00 2.037594e+00 1.130619e+00 1.721487e-01 -4.219910e-01 -1.265115e-01 5.512993e-01 -1.472455e-01 3.126073e-01 3.198455e-01 -2.542972e+00
<VARIANCE> 25
 3.840385e+01 8.209626e+01 2.082277e+02 1.213921e+02 1.562537e+02 1.168973e+02 1.107992e+02 9.275174e+01 1.011670e+02 6.471879e+01 8.446444e+01 5.887119e+01 2.563887e+00 7.693168e+00 1.256651e+01 1.025160e+01 1.635111e+01 9.872390e+00 1.294739e+01 1.263671e+01 8.262216e+00 4.572974e+00 5.632946e+00 5.488546e+00 7.064611e+00
<GCONST> 1.275297e+02
~s "ST_k_3_1"
<MEAN> 25
 1.519404e+01 -1.081573e+00 -1.001922e+01 1.049836e+00 6.200937e+00 -1.108491e+00 -4.508023e+00 -8.399910e-01 2.562035e+00 9.805955e-01 -4.035913e+00 -4.772910e+00 -2.434878e+00 2.832445e+00 -6.815441e-01 -4.772950e-01 2.527263e-01 1.599173e+00 -3.659188e-01 -2.118685e-01 7.930831e-01 -7.705699e-01 9.384159e-01 8.186796e-01 -3.510396e+00
<VARIANCE> 25
 4.840885e+01 4.389104e+01 5.567279e+01 5.893859e+01 5.504877e+01 4.936097e+01 4.516898e+01 7.003730e+01 4.667135e+01 4.291396e+01 4.468941e+01 2.921596e+01 5.013489e+00 4.339026e+00 1.104362e+01 6.569706e+00 9.534155e+00 6.012740e+00 7.205324e+00 6.781583e+00 5.985112e+00 4.583877e+00 4.829160e+00 3.365034e+00 3.854093e+00
<GCONST> 1.151989e+02
~s "ST_k_4_1"
<MEAN> 25
 -1.622707e+00 2.003725e+00 -5.632381e+00 -8.432031e-01 -7.121499e-01 8.535267e-01 -1.082639e+00 -1.936612e-01 1.167941e+00 9.474103e-01 -2.295245e+00 -2.819401e+00 -1.647605e+00 4.802424e-01 1.431592e+00 3.496780e-01 -7.641537e-01 -1.264576e-02 3.477007e-01 1.376272e-02 -5.279724e-01 -2.836452e-01 2.891524e-01 3.186494e-01 -1.262525e+00
<VARIANCE> 25
 2.376794e+01 2.146732e+01 2.659605e+01 2.016599e+01 2.177398e+01 1.858857e+01 3.036280e+01 1.779542e+01 2.024937e+01 1.981472e+01 1.682607e+01 1.628594e+01 3.769366e+00 1.861213e+00 2.740203e+00 2.186250e+00 3.866461e+00 2.325628e+00 3.382590e+00 3.116192e+00 2.515465e+00 3.132336e+00 1.756540e+00 1.572250e+00 2.646764e+00
<GCONST> 9.471312e+01
~s "ST_k_4_2"
<MEAN> 25
 9.403984e+00 4.470479e+00 -7.262602e+00 -4.070618e+00 6.049017e+00 3.839667e+00 -3.680578e+00 -2.850856e+00 -1.445120e+00 -1.758159e+00 9.027528e-01 -1.846995e+00 -6.234804e-01 -4.237182e-01 6.706244e-01 -2.287254e+00 -8.113887e-01 1.485295e+00 1.329918e+00 -4.813755e-01 -5.156894e-01 -1.797982e-01 1.278300e+00 5.710773e-01 6.039310e-01
<VARIANCE> 25
 8.342781e+01 6.013523e+01 7.391411e+01 7.982034e+01 1.021944e+02 6.161419e+01 5.580947e+01 8.514291e+01 5.049252e+01 5.681009e+01 6.628823e+01 2.607510e+01 7.753006e+00 7.734544e+00 9.948983e+00 6.346101e+00 8.682467e+00 7.424973e+00 5.255107e+00 6.750018e+00 5.735160e+00 6.075179e+00 4.725344e+00 2.997846e+00 5.642924e+00
<GCONST> 1.196868e+02
~s "ST_a_2_1"
<MEAN> 25
 2.082328e+01 -6.938173e+00 -4.370810e+00 -7.159839e+00 -1.049797e+00 2.601291e-01 -1.763872e+00 -7.028380e+00 -3.786957e+00 3.083412e+00 1.819385e+00 -4.106287e+00 -2.412672e-01 -4.939418e+00 9.194125e-01 -1.737574e+00 -2.921513e-01 -1.292186e+00 8.981272e-01 1.528221e+00 1.413082e+00 7.852400e-01 -1.052043e+00 -1.621924e+00 3.781391e+00
<VARIANCE> 25
 2.090825e+01 7.656483e+01 7.200282e+01 1.146594e+02 5.684606e+01 8.205633e+01 7.754417e+01 7.141181e+01 7.610164e+01 5.398879e+01 5.573685e+01 3.478262e+01 4.831911e+00 6.559533e+00 8.057199e+00 1.287954e+01 6.469573e+00 7.949142e+00 7.998205e+00 1.231560e+01 1.128945e+01 5.723238e+00 5.969175e+00 3.269886e+00 3.128962e+00
<GCONST> 1.202106e+02
~s "ST_a_2_2"
<MEAN> 25
 6.787744e+00 -7.341605e-01 1.175396e+00 -1.323875e+00 6.856682e-01 -4.115319e+00 -2.567603e+00 6.439415e-01 -8.371471e-01 -1.360384e+00 -2.161733e+00 2.326259e-02 1.439215e+00 -2.717391e+00 4.400963e-01 -1.530770e+00 4.575678e-01 -9.573264e-01 -3.250419e-01 1.073534e+00 -2.833992e-01 2.220394e-01 -2.192648e-01 -4.746496e-01 3.042437e+00
<VARIANCE> 25
 8.325999e+01 1.354156e+02 8.729326e+01 6.232013e+01 5.903737e+01 6.853874e+01 4.829422e+01 5.834721e+01 5.580212e+01 3.812221e+01 5.400111e+01 3.606193e+01 1.142774e+01 1.344367e+01 8.716685e+00 9.292048e+00 7.604232e+00 7.008363e+00 7.979191e+00 8.846745e+00 5.455657e+00 4.091717e+00 5.369140e+00 4.376653e+00 1.346732e+01
<GCONST> 1.218894e+02
~s "ST_a_2_3"
<MEAN> 25
 -1.264660e+01 4.873781e+00 -2.215351e+00 5.079833e+00 6.694921e+00 6.789941e+00 4.267525e+00 2.092374e+00 2.087775e+00 2.671930e-01 4.554261e+00 4.309587e+00 4.659246e+00 -9.134603e-01 1.009535e-01 -2.907509e+00 3.655114e-01 -9.418740e-01 -1.331307e-01 -8.089402e-01 -5.565094e-01 2.606297e-01 -5.438067e-01 -6.846086e-01 6.473468e+00
<VARIANCE> 25
 8.192020e+01 1.277724e+01 1.102572e+01 4.793340e+01 1.399167e+01 3.238707e+01 1.366049e+01 9.621705e+00 1.133759e+01 6.550938e+00 1.427742e+01 6.619559e+00 7.993334e+00 4.519136e+00 2.391464e+00 7.398213e+00 3.421512e+00 3.803929e+00 2.292879e+00 2.319724e+00 1.490544e+00 1.305094e+00 1.555207e+00 1.309713e+00 1.828522e+01
<GCONST> 9.400193e+01
~s "ST_a_3_1"
<MEAN> 25
 1.794003e+01 -1.506588e+01 -1.037470e+00 -1.014216e+01 -2.344624e-01 -1.189114e+00 -5.948953e-02 -5.699088e+00 2.640773e+00 2.690627e+00 -2.688205e+00 -7.126502e+00 -1.393926e+00 -2.229804e+00 1.626658e+00 -1.527560e+00 6.167122e-01 -2.847383e-01 1.866483e-01 1.418680e+00 1.734483e+00 -8.409258e-01 -1.775285e+00 -9.476538e-01 1.865217e+00
<VARIANCE> 25
 2.182362e+01 2.909594e+01 6.512407e+01 8.382822e+01 4.324221e+01 6.870165e+01 8.575856e+01 1.007391e+02 8.029694e+01 6.303149e+01 6.108049e+01 2.972356e+01 1.513771e+00 3.418704e+00 4.402612e+00 5.915000e+00 5.936219e+00 5.483385e+00 8.239935e+00 7.486751e+00 7.966504e+00 5.580774e+00 4.729592e+00 3.376716e+00 1.491213e+00
<GCONST> 1.135731e+02
~s "ST_a_3_2"
<MEAN> 25
 1.010193e+01 -5.892337e+00 -3.609394e+00 -8.688464e+00 4.082238e+00 2.340929e+00 1.291037e+00 -1.520837e+00 5.860093e-01 1.779656e+00 -1.607358e+00 -1.058012e+00 3.271882e+00 -3.533050e+00 6.950578e-01 -2.978215e+00 -2.534270e-02 -5.353290e-01 2.719983e-01 -1.005761e+00 -5.673175e-01 4.474523e-01 -9.049511e-01 -1.895624e+00 5.997485e+00
<VARIANCE> 25
 1.473407e+02 1.140936e+02 5.668589e+01 1.189584e+02 4.935641e+01 7.909939e+01 4.847074e+01 4.541212e+01 3.696184e+01 3.250056e+01 5.654813e+01 3.947395e+01 1.188355e+01 7.831823e+00 7.177004e+00 1.030050e+01 5.951577e+00 7.191058e+00 7.938933e+00 5.593791e+00 4.667831e+00 4.703847e+00 4.289773e+00 2.946182e+00 1.316422e+01
<GCONST> 1.198511e+02
~s "ST_a_3_3"
<MEAN> 25
 9.220193e+00 1.774875e+00 2.641411e+00 3.433847e-01 -2.909911e+00 -4.644051e+00 -1.847515e+00 -1.763863e+00 -2.956020e+00 -1.996426e+00 -2.169466e+00 -2.145190e+00 -4.139338e-01 -4.457242e-01 -3.516442e-01 7.787360e-02 -7.726249e-02 -1.846287e-01 4.850555e-01 6.581810e-01 6.893881e-01 -1.081503e-01 9.666375e-02 -2.979779e-01 1.191728e-01
<VARIANCE> 25
 9.430861e+01 1.636593e+02 9.889060e+01 6.930446e+01 6.222546e+01 9.104026e+01 3.717213e+01 5.102776e+01 5.014165e+01 3.529932e+01 4.917448e+01 2.662554e+01 2.936147e+00 4.801278e+00 8.377876e+00 3.377190e+00 5.066193e+00 4.047788e+00 3.992940e+00 5.186775e+00 7.194778e+00 3.530814e+00 3.507078e+00 2.363539e+00 3.716753e+00
<GCONST> 1.139725e+02
~s "ST_a_3_4"
<MEAN> 25
 1.482655e+01 -1.214829e+01 6.327872e+00 -6.153538e+00 6.080891e-02 -9.830261e+00 -7.769078e+00 7.148166e+00 -7.438061e-01 5.068290e-01 -1.309895e+00 -3.509370e+00 1.935383e+00 -2.493316e+00 -2.203625e-01 -1.657772e+00 -4.277411e-01 2.564695e-01 -5.907433e-01 4.587023e-01 4.110933e-01 4.382207e-01 -5.098723e-01 -1.753832e+00 2.192734e+00
<VARIANCE> 25
 2.397016e+01 3.905812e+01 7.444838e+01 9.768281e+01 4.930902e+01 8.410804e+01 6.874918e+01 7.906359e+01 6.189821e+01 5.128544e+01 4.258895e+01 5.394509e+01 3.604852e+00 4.900102e+00 7.314773e+00 1.031016e+01 6.371550e+00 1.022678e+01 1.382826e+01 1.279905e+01 7.003782e+00 7.422581e+00 5.525153e+00 3.934472e+00 5.568167e+00
<GCONST> 1.197086e+02
~s "ST_a_4_1"
<MEAN> 25
 8.899057e+00 -1.323835e+01 2.577503e+00 -1.475204e+01 5.648493e+00 1.125831e+00 -6.497719e-01 -2.434817e-01 -5.730299e-01 1.562086e+00 -1.465982e+00 -6.176458e+00 9.750295e-01 -1.461049e+00 7.117441e-01 -1.046670e-01 1.606899e-01 1.629831e-01 -8.617592e-01 8.394642e-02 2.886538e-01 -4.744339e-01 -1.116012e+00 -1.117121e+00 1.150925e+00
<VARIANCE> 25
 8.949060e+01 7.281657e+01 2.771708e+01 8.528994e+01 4.984197e+01 6.082685e+01 6.827964e+01 4.043446e+01 6.467197e+01 3.844375e+01 3.939870e+01 4.740944e+01 3.248183e+00 2.230987e+00 1.690038e+00 5.852057e+00 4.385210e+00 7.516693e+00 5.715575e+00 5.056016e+00 9.006372e+00 4.981461e+00 2.352968e+00 2.742771e+00 4.479288e+00
<GCONST> 1.120873e+02
~s "ST_a_4_2"
<MEAN> 25
 1.292574e+01 -1.623546e+01 4.426186e+00 -1.576474e+01 2.502554e-01 -6.789595e+00 2.814994e+00 -8.779866e-01 6.453524e+00 2.718649e+00 -7.411804e+00 -8.173361e+00 -1.210842e+00 4.626702e-01 -2.995473e-01 -3.833080e-01 8.234681e-01 -1.685460e-01 1.393809e+00 1.423275e-01 1.196061e+00 -1.489144e+00 -1.355569e+00 1.961007e-01 6.987525e-01
<VARIANCE> 25
 2.548959e+01 2.093538e+01 2.652565e+01 2.830927e+01 2.913218e+01 3.327031e+01 5.351044e+01 6.615858e+01 4.781638e+01 3.464181e+01 2.813567e+01 2.567041e+01 6.890571e-01 1.154196e+00 2.156381e+00 2.228821e+00 2.358333e+00 2.850923e+00 4.969612e+00 4.025771e+00 4.108332e+00 3.880257e+00 5.409480e+00 2.611617e+00 2.672166e-01
<GCONST> 9.823106e+01
~s "ST_a_4_3"
<MEAN> 25
 1.158712e+01 -5.768897e+00 9.780617e-01 -3.884572e+00 -1.209286e+00 -5.912852e+00 -1.513030e+00 1.760102e+00 1.315208e-01 5.098264e-01 -5.615901e+00 -4.740852e+00 -2.122743e-01 6.368840e-02 -2.139381e-01 1.713850e-02 5.352013e-01 5.949796e-01 9.113838e-02 -2.384584e-01 1.272959e-01 2.268709e-01 -5.849137e-01 2.689911e-03 -5.674972e-01
<VARIANCE> 25
 8.949711e+01 1.730715e+02 6.043561e+01 1.057468e+02 5.687573e+01 7.777077e+01 5.125658e+01 8.283505e+01 5.036085e+01 5.109027e+01 3.474334e+01 3.487991e+01 1.420650e+00 2.157794e+00 3.413510e+00 2.563437e+00 3.283677e+00 3.526929e+00 2.988503e+00 3.218660e+00 3.059500e+00 3.949096e+00 4.847971e+00 3.423965e+00 8.353612e-01
<GCONST> 1.091821e+02
~s "ST_a_4_4"
<MEAN> 25
 1.480315e+01 -1.614363e+01 5.234254e+00 -1.348831e+01 4.586246e+00 -7.447069e+00 -4.661497e+00 8.336609e+00 -3.224641e+00 5.394953e-01 -6.289559e+00 -9.167884e+00 5.004935e-01 -1.335232e-01 -1.144017e+00 -2.755758e-01 8.428860e-01 1.789471e+00 8.040000e-01 -1.779981e+00 -2.471877e-01 7.583514e-01 -1.021116e+00 -1.065240e+00 -9.121433e-03
<VARIANCE> 25
 2.548013e+01 3.166701e+01 4.661843e+01 5.432179e+01 3.427150e+01 4.424532e+01 5.620347e+01 1.030764e+02 5.100979e+01 4.968052e+01 3.905483e+01 2.920239e+01 1.159770e+00 1.519842e+00 2.072279e+00 1.811621e+00 2.203408e+00 1.933559e+00 5.041526e+00 3.408483e+00 3.284449e+00 2.266268e+00 3.281199e+00 2.957302e+00 1.129443e+00
<GCONST> 1.019270e+02
~s "ST_a_4_5"
<MEAN> 25
 1.436337e+01 -1.679840e+01 2.256699e+00 -1.360206e+01 4.487134e+00 -3.085596e+00 -4.281918e-01 -7.980004e-01 4.744243e-01 1.228963e+00 -6.731791e+00 -6.668868e+00 3.940272e-02 5.866024e-02 6.307694e-02 -1.826326e-02 1.792748e-01 -6.629243e-01 1.631786e-01 9.307185e-02 -2.222534e-01 3.239402e-01 -5.899985e-01 -2.147669e-02 -9.370999e-02
<VARIANCE> 25
 2.952253e+01 2.255711e+01 4.511558e+01 7.039345e+01 6.234212e+01 3.890331e+01 6.011336e+01 6.617700e+01 5.753991e+01 4.821131e+01 3.787269e+01 2.678054e+01 1.305491e+00 1.635954e+00 2.143634e+00 3.983132e+00 3.664118e+00 3.833473e+00 4.184134e+00 4.797533e+00 4.336944e+00 3.805500e+00 3.710549e+00 2.546273e+00 1.747254e+00
<GCONST> 1.055963e+02
~s "ST_n_2_1"
<MEAN> 25
 2.951654e+00 5.021934e+00 -2.484716e-01 4.053568e+00 1.172463e+00 2.788384e+00 1.145062e+00 -1.195260e+00 -1.921070e+00 -3.415423e+00 -3.408253e+00 -3.249706e+00 -7.790112e-01 -1.073415e-01 -1.607559e-01 2.007812e-01 2.916003e-01 2.249828e-01 -5.901528e-02 -1.065853e-02 9.020068e-03 -1.563025e-01 2.461151e-01 1.624587e-01 -6.374888e-01
<VARIANCE> 25
 7.683703e+01 1.154243e+02 8.890173e+01 5.154155e+01 2.815773e+01 3.477754e+01 4.899425e+01 5.070572e+01 3.461966e+01 2.417512e+01 2.148041e+01 2.020709e+01 9.325370e-01 1.851134e+00 1.596391e+00 1.361149e+00 2.238009e+00 1.713391e+00 2.196515e+00 1.972892e+00 1.561963e+00 1.922410e+00 1.330414e+00 1.354368e+00 3.977345e-01
<GCONST> 9.587344e+01
~s "ST_n_2_2"
<MEAN> 25
 -7.663146e+00 3.406959e+00 -4.994268e+00 3.017544e+00 5.575680e-01 2.813201e+00 -2.077406e+00 9.330338e-01 1.981607e+00 -1.188449e+00 -3.625707e-02 1.013261e+00 5.537336e-02 1.339731e-01 -3.266714e-02 -6.927363e-02 -1.085520e-02 1.915893e-02 3.736487e-02 -2.970790e-02 -1.260831e-01 -9.974621e-02 1.414670e-02 -2.092488e-02 -1.301718e-02
<VARIANCE> 25
 4.780206e+01 1.037417e+01 1.476695e+01 1.450667e+01 1.752142e+01 1.893468e+01 2.646077e+01 2.042755e+01 1.667880e+01 1.313520e+01 1.383080e+01 1.333407e+01 1.906223e-01 4.793938e-01 6.988273e-01 7.798120e-01 1.073076e+00 1.412198e+00 1.438170e+00 1.334715e+00 1.431437e+00 1.452403e+00 1.234074e+00 1.211579e+00 8.958056e-02
<GCONST> 7.701348e+01
~s "ST_n_3_1"
<MEAN> 25
 3.178513e+00 5.484983e+00 -8.463206e-01 3.908494e+00 2.802100e+00 1.778624e+00 -3.390898e+00 -3.583615e+00 -1.885034e+00 -3.188801e+00 -2.653543e+00 -1.292350e+00 -2.678726e-01 -4.596717e-01 -6.373983e-01 -6.677905e-01 -7.020082e-02 3.750656e-01 2.896210e-01 5.868956e-02 -2.504184e-01 4.876667e-02 4.324443e-01 5.371302e-01 -1.763987e-01
<VARIANCE> 25
 1.702585e+02 8.058728e+01 6.425049e+01 6.075267e+01 3.109064e+01 3.124532e+01 4.161327e+01 4.833381e+01 3.513642e+01 3.272805e+01 2.938990e+01 2.225341e+01 6.065128e+00 7.566176e+00 4.316249e+00 2.569301e+00 2.389195e+00 3.106233e+00 2.814371e+00 2.263604e+00 2.309954e+00 2.581312e+00 1.885897e+00 2.114501e+00 3.337630e+00
<GCONST> 1.062215e+02
~s "ST_n_4_1"
<MEAN> 25
 1.067003e+01 8.228034e+00 -5.310700e+00 -4.028199e+00 1.389143e-01 5.985482e+00 -1.392306e+00 -3.900426e+00 -1.718417e+00 -2.246679e+00 1.445425e+00 1.335982e+00 3.389158e+00 -4.669701e-01 -8.258882e-01 -1.965196e+00 -6.072890e-01 4.128669e-01 2.489966e-01 -8.291376e-01 -8.145149e-01 3.572420e-01 8.823025e-01 -1.230308e-02 3.016502e+00
<VARIANCE> 25
 1.563429e+02 7.476409e+01 5.477986e+01 9.425117e+01 4.098824e+01 5.052930e+01 3.580423e+01 4.990035e+01 4.142675e+01 2.245504e+01 3.766365e+01 2.359188e+01 1.595847e+01 1.221938e+01 4.966164e+00 7.257228e+00 3.465864e+00 4.637133e+00 3.721649e+00 5.901378e+00 4.849153e+00 2.296297e+00 4.008788e+00 2.702233e+00 1.045144e+01
<GCONST> 1.144750e+02
~s "ST_d_2_1"
<MEAN> 25
 1.606921e+01 1.196123e+01 -2.295300e+00 6.659837e+00 3.313502e+00 -7.218543e+00 -1.094361e+01 -4.222565e-01 5.522096e+00 -3.937074e+00 -8.158952e+00 -4.688591e+00 -5.101663e-01 1.281274e+00 7.959104e-01 -2.803780e-01 6.474911e-01 6.651738e-01 -9.511120e-01 -7.239337e-01 2.838903e-01 -5.973749e-01 -2.321422e-01 1.545131e-01 -5.990425e-01
<VARIANCE> 25
 1.937545e+01 8.610204e+01 5.574881e+01 4.168108e+01 5.273674e+01 2.846504e+01 4.358546e+01 4.291541e+01 4.624094e+01 1.557422e+01 2.576764e+01 2.048749e+01 1.633014e+00 2.348569e+01 6.732481e+00 3.956788e+00 6.585159e+00 5.134431e+00 7.348170e+00 5.175533e+00 6.380482e+00 3.540590e+00 4.624230e+00 3.963094e+00 7.657655e+00
<GCONST> 1.109637e+02
~s "ST_d_3_1"
<MEAN> 25
 1.961993e+01 -5.322966e+00 1.280491e+00 1.889243e+00 1.307317e+00 -4.520508e+00 -1.350887e+01 -9.302462e+00 -3.231920e+00 -4.137848e+00 2.648869e+00 1.733535e+00 1.529155e+00 -1.240557e+00 -6.919340e-01 -2.503694e+00 -9.589663e-01 9.587328e-01 5.649362e-01 -1.854415e+00 -3.058898e+00 4.816711e-01 2.137009e+00 7.520854e-01 2.062343e+00
<VARIANCE> 25
 1.911032e+01 4.017745e+01 7.134783e+01 1.079827e+02 9.290173e+01 1.085299e+02 6.620062e+01 8.040907e+01 7.429247e+01 5.236295e+01 5.712911e+01 4.152542e+01 2.435774e+00 1.877226e+01 1.298418e+01 9.076971e+00 1.118516e+01 1.044958e+01 9.176683e+00 7.422770e+00 6.482598e+00 5.020885e+00 7.781952e+00 5.246874e+00 6.974790e+00
<GCONST> 1.220852e+02
~s "ST_d_4_1"
<MEAN> 25
 2.423787e+01 5.893538e+00 -6.071055e+00 -1.386294e+01 -4.127518e+00 6.253518e+00 -2.850764e+00 -1.354553e+01 -1.183138e+01 -1.476861e+00 2.542250e+00 1.483956e+00 2.328776e-01 2.390265e-01 -4.960988e-01 -9.666784e-01 -8.556781e-01 7.072576e-01 1.370264e+00 -2.819064e-03 -4.743348e-02 1.701026e-01 -6.076174e-01 2.097782e-01 -5.754635e-02
<VARIANCE> 25
 5.134283e+00 6.411463e+01 2.577617e+01 5.738033e+01 3.288537e+01 3.447586e+01 4.317526e+01 4.114835e+01 2.190923e+01 6.693890e+01 2.153307e+01 2.164839e+01 3.724569e-01 8.279261e+00 1.940845e+00 7.174471e+00 1.840269e+00 6.028934e+00 2.435475e+00 5.484031e+00 3.805217e+00 6.547213e+00 2.398029e+00 2.401897e+00 1.287135e+00
<GCONST> 1.009706e+02
~s "ST_g_2_1"
<MEAN> 25
 -1.549254e+00 7.191665e+00 1.033894e+00 5.030157e+00 6.047060e-02 4.076681e-01 -5.621425e-01 -9.968137e-02 -2.304216e-01 -1.984285e+00 2.986265e-01 9.255733e-01 1.274304e+00 -2.479510e-01 1.133505e-01 -6.079273e-01 9.861568e-01 -1.078934e+00 -9.428064e-01 -7.289351e-01 -1.462273e-01 -1.017403e-01 8.991000e-02 -1.805142e-01 2.936929e+00
<VARIANCE> 25
 1.488613e+02 7.378510e+01 9.313447e+01 3.397548e+01 6.172443e+01 6.768568e+01 4.461478e+01 4.819204e+01 5.075983e+01 2.099169e+01 4.439542e+01 3.468064e+01 1.471681e+01 9.103809e+00 8.103810e+00 3.950634e+00 5.741205e+00 7.200798e+00 4.868514e+00 6.156846e+00 3.982932e+00 3.313952e+00 2.808214e+00 3.076411e+00 2.440533e+01
<GCONST> 1.170495e+02
~s "ST_g_3_1"
<MEAN> 25
 1.546845e+00 6.968394e+00 2.274712e+00 4.513363e+00 2.216965e-01 -2.117031e+00 -1.036552e+00 -7.437015e-01 -1.800344e-01 -9.817020e-01 4.124660e-01 8.752832e-01 2.198651e+00 -1.593821e+00 1.032822e+00 -1.664677e+00 6.870398e-02 -1.813262e+00 -6.604713e-01 -4.804989e-01 -6.838297e-01 7.559113e-02 1.330774e-01 -4.188643e-01 5.005847e+00
<VARIANCE> 25
 7.767265e+01 8.282345e+01 9.969917e+01 5.126815e+01 5.942316e+01 5.926630e+01 4.498876e+01 5.743376e+01 5.260369e+01 2.396243e+01 3.331448e+01 2.804008e+01 2.191764e+01 1.517141e+01 6.181547e+00 5.953260e+00 5.610618e+00 1.089127e+01 6.214286e+00 5.421909e+00 5.303261e+00 3.323605e+00 5.077876e+00 4.337054e+00 3.206415e+01
<GCONST> 1.197294e+02
~s "ST_g_4_1"
<MEAN> 25
 4.605800e+00 2.445838e+00 6.573772e+00 -6.995294e-01 -2.432785e+00 -4.944633e+00 -3.462445e-01 -3.473237e+00 -2.941349e+00 -1.745756e+00 5.410797e-01 1.059299e-01 2.336931e+00 -2.910894e+00 2.095710e+00 -2.227871e+00 -8.466581e-01 -1.877997e+00 -4.044663e-01 6.292884e-01 -1.444194e+00 -9.867138e-02 2.393140e-01 -4.906555e-01 5.111055e+00
<VARIANCE> 25
 4.542848e+01 1.220326e+02 1.076965e+02 7.276830e+01 6.816660e+01 7.129811e+01 6.085309e+01 6.999662e+01 6.650412e+01 3.964451e+01 3.557582e+01 2.852808e+01 1.541394e+01 1.371857e+01 1.121001e+01 8.258328e+00 6.400604e+00 8.833387e+00 1.225136e+01 7.769761e+00 6.364735e+00 4.362830e+00 5.842556e+00 4.647148e+00 1.854060e+01
<GCONST> 1.231976e+02
~s "ST_t_2_1"
<MEAN> 25
 9.976870e+00 -1.049147e+01 3.979767e+00 -9.058988e+00 1.461019e+00 -9.371039e+00 5.629678e-01 8.128485e-01 -1.465762e-01 3.567439e+00 -4.653331e+00 9.020925e-01 1.230974e+00 -1.901377e-01 1.560166e-01 -7.949615e-02 1.389095e+00 -9.130166e-01 -2.241095e-01 -1.760907e-02 3.953628e-02 1.039555e+00 -1.423866e+00 6.427760e-02 1.278797e+00
<VARIANCE> 25
 5.579846e+01 6.531291e+01 7.276672e+01 9.382477e+01 9.057346e+01 7.146342e+01 7.259663e+01 7.349000e+01 6.096323e+01 5.904427e+01 6.439919e+01 4.480179e+01 5.688972e+00 1.156997e+01 9.073865e+00 9.018592e+00 6.236607e+00 6.593894e+00 7.236154e+00 5.485069e+00 6.285518e+00 6.616739e+00 4.342211e+00 4.873443e+00 2.223190e+01
<GCONST> 1.223608e+02
~s "ST_t_3_1"
<MEAN> 25
 1.480106e+01 -8.663668e+00 1.066309e+00 -6.398112e+00 3.052954e+00 -8.136593e+00 -8.400921e-01 -9.266954e-01 1.593180e-01 6.412942e+00 -8.397410e+00 -1.879525e+00 7.574320e-01 2.361461e+00 -2.555917e+00 2.443179e+00 1.332936e-01 1.596874e+00 -7.543540e-01 6.508841e-02 1.487708e+00 -6.225187e-01 8.970931e-02 -4.254345e-01 -2.654290e+00
<VARIANCE> 25
 2.896609e+01 4.375920e+01 6.391938e+01 8.936217e+01 6.990721e+01 8.204604e+01 8.466554e+01 6.980539e+01 5.394284e+01 5.878466e+01 6.192694e+01 5.022097e+01 4.146073e+00 7.249655e+00 8.759555e+00 1.065396e+01 7.596091e+00 5.898008e+00 6.809762e+00 6.932976e+00 6.360417e+00 5.796917e+00 5.508809e+00 4.341124e+00 1.598230e+01
<GCONST> 1.203346e+02
~s "ST_t_4_1"
<MEAN> 25
 1.020805e+01 5.341293e-01 -7.625115e+00 -1.766260e+00 2.739451e+00 -2.681758e+00 -4.503143e+00 1.488033e+00 5.652646e+00 1.770944e+00 -4.159183e+00 -1.662351e+00 -1.127783e+00 5.771331e-01 -3.329052e-01 -2.399924e-01 -3.395376e-01 7.649262e-01 1.430183e-01 -1.444530e-01 4.645171e-02 -5.682999e-01 9.639962e-01 1.490606e-01 -1.125482e+00
<VARIANCE> 25
 7.809389e+01 5.213530e+01 7.260318e+01 5.593695e+01 4.985323e+01 4.850984e+01 4.912275e+01 4.637667e+01 4.277117e+01 2.947519e+01 4.333409e+01 2.629593e+01 1.074424e+01 8.611184e+00 1.274932e+01 7.287101e+00 8.018957e+00 6.698117e+00 7.163962e+00 8.043000e+00 6.917619e+00 4.680707e+00 5.078177e+00 4.559689e+00 1.715073e+01
<GCONST> 1.188260e+02
~s "ST_sil_2_1"
<MEAN> 25
 -1.020955e+01 3.204057e+00 -2.991526e+00 2.797913e+00 4.267240e-01 1.778178e+00 -1.012894e-01 8.449516e-01 3.043137e-01 -1.861657e+00 2.664262e-01 1.020216e+00 -5.229030e-02 -1.592226e-02 3.600810e-03 7.770506e-04 1.491065e-02 3.176911e-03 7.637379e-03 1.982679e-02 1.612409e-04 5.678386e-03 2.584649e-02 2.045203e-02 -2.973838e-02
<VARIANCE> 25
 9.810049e+00 5.095019e+00 1.555919e+01 1.591518e+01 1.236730e+01 1.433450e+01 1.515775e+01 1.484012e+01 1.612124e+01 1.372554e+01 1.473893e+01 1.296952e+01 1.208367e-01 2.557904e-01 4.163988e-01 6.144609e-01 8.456712e-01 9.832485e-01 1.103929e+00 1.232233e+00 1.290941e+00 1.285575e+00 1.222859e+00 1.169127e+00 5.360071e-02
<GCONST> 6.983778e+01
~s "silst"
<MEAN> 25
 -1.728210e+01 4.683449e+00 -2.614284e+00 6.701378e+00 1.914473e+00 6.484073e+00 4.439063e+00 5.246099e+00 7.083498e+00 1.631196e+00 5.729049e+00 5.295337e+00 -3.299275e-03 -5.766814e-03 2.765486e-03 2.265825e-02 2.469829e-02 8.365449e-03 -9.088639e-03 2.080134e-03 2.024022e-02 7.859644e-04 8.877334e-03 -1.247483e-03 -2.039639e-03
<VARIANCE> 25
 4.121887e+00 4.726728e+00 1.043942e+01 1.149998e+01 8.275806e+00 1.005021e+01 1.229345e+01 1.295193e+01 1.320211e+01 1.012246e+01 8.778404e+00 7.039566e+00 3.840343e-02 1.383878e-01 2.152636e-01 3.749231e-01 4.854233e-01 4.451723e-01 7.480053e-01 1.089011e+00 1.280225e+00 1.010613e+00 7.895699e-01 8.519101e-01 5.360071e-02
<GCONST> 5.965816e+01
~s "ST_sil_3_1"
<MEAN> 25
 -1.729242e+01 4.686405e+00 -2.618172e+00 6.697303e+00 1.921242e+00 6.489565e+00 4.435301e+00 5.249214e+00 7.085825e+00 1.633659e+00 5.730929e+00 5.299916e+00 -2.996974e-03 -5.491097e-03 2.517391e-03 2.302304e-02 2.545071e-02 8.397949e-03 -8.545127e-03 3.186114e-03 2.108624e-02 7.207571e-04 9.134643e-03 -1.658609e-03 -1.866327e-03
<VARIANCE> 25
 4.071503e+00 4.732154e+00 1.042605e+01 1.151828e+01 8.257808e+00 1.003169e+01 1.229990e+01 1.293902e+01 1.321046e+01 1.014176e+01 8.789413e+00 7.036998e+00 3.857022e-02 1.383656e-01 2.151633e-01 3.749771e-01 4.851367e-01 4.451702e-01 7.477582e-01 1.088274e+00 1.279790e+00 1.011418e+00 7.891917e-01 8.516235e-01 5.360071e-02
<GCONST> 5.964812e+01
~s "ST_sil_4_1"
<MEAN> 25
 -9.848935e+00 2.439474e+00 -2.265809e+00 2.755224e+00 1.168085e+00 2.577641e+00 7.384363e-01 9.663464e-01 7.663990e-01 -1.828021e+00 8.122690e-01 2.006607e+00 6.438161e-01 -8.542413e-02 9.784270e-02 -1.518769e-01 -5.627292e-02 -3.733744e-01 -2.444371e-01 -1.145993e-01 -1.860636e-01 -1.359282e-01 -3.364726e-01 -2.150180e-01 7.007830e-01
<VARIANCE> 25
 2.997289e+01 2.062477e+01 2.857458e+01 2.999516e+01 2.095101e+01 3.140083e+01 2.709426e+01 2.216072e+01 2.245699e+01 1.701287e+01 2.099641e+01 1.651577e+01 2.801682e+00 2.478932e+00 2.032192e+00 2.586878e+00 1.917521e+00 2.749560e+00 1.921000e+00 1.982410e+00 2.168766e+00 1.753504e+00 1.922041e+00 1.658093e+00 6.498882e+00
<GCONST> 9.477188e+01
~s "ST_j_2_1"
<MEAN> 25
 8.839458e+00 1.091964e+01 -1.034326e+01 -7.189484e+00 -1.002553e+00 6.772581e+00 4.530119e-01 -6.490112e-01 -2.083749e+00 -3.681920e+00 -9.285505e-01 5.151279e-02 -1.904638e+00 -9.842766e-02 8.448271e-01 9.728160e-01 -1.730190e-01 -2.892402e-01 3.702966e-01 5.932249e-01 1.004860e-01 -3.705131e-01 -1.198295e-01 -3.521857e-02 -1.392951e+00
<VARIANCE> 25
 1.026623e+02 3.284811e+01 3.923660e+01 5.296086e+01 2.537959e+01 3.729198e+01 3.166152e+01 4.575798e+01 1.532881e+01 1.781261e+01 1.599592e+01 1.790084e+01 2.221036e+00 2.726985e+00 1.845624e+00 2.327434e+00 2.613742e+00 1.613880e+00 2.443227e+00 1.938318e+00 1.400574e+00 1.329463e+00 1.412356e+00 1.182639e+00 8.781711e-01
<GCONST> 9.436550e+01
~s "ST_j_3_1"
<MEAN> 25
 -6.875378e+00 4.623599e+00 -6.747021e+00 3.270526e+00 1.427726e+00 3.358196e+00 1.072800e-01 -8.717677e-01 -1.067361e+00 -4.120968e+00 -1.960877e+00 1.516311e-01 -8.706037e-01 -6.008543e-01 4.109389e-02 1.650254e-01 -1.482592e-01 -2.681540e-01 -2.245803e-01 -3.804565e-02 6.760032e-02 2.384784e-01 4.450288e-02 -1.338318e-01 -4.304049e-01
<VARIANCE> 25
 5.003922e+00 6.777048e+00 1.331611e+01 1.970669e+01 1.600480e+01 1.425055e+01 1.421407e+01 1.401250e+01 1.181526e+01 1.483352e+01 1.540642e+01 2.099220e+01 2.193179e-01 5.141449e-01 7.091556e-01 1.039911e+00 1.256194e+00 8.354460e-01 1.345989e+00 9.520720e-01 1.276381e+00 1.376886e+00 1.343716e+00 1.098181e+00 5.738915e-02
<GCONST> 7.261403e+01
~s "ST_j_4_1"
<MEAN> 25
 -9.891565e+00 3.191350e+00 -4.341068e+00 3.254408e-01 1.180037e+00 7.668962e+00 -2.629698e+00 3.640901e+00 -1.500772e+00 -1.766918e+00 -8.214325e-01 -9.993249e-01 -8.794872e-02 7.031877e-02 1.397067e-01 1.821944e-01 1.610467e-01 -5.052271e-02 -1.082139e-01 3.371908e-02 7.476126e-02 4.310326e-02 1.314948e-01 6.707950e-03 -8.461700e-02
<VARIANCE> 25
 2.233991e+00 3.227479e+00 1.501212e+01 1.926414e+01 1.206078e+01 3.445193e+01 1.456808e+01 1.853149e+01 1.369531e+01 1.910575e+01 1.326892e+01 1.295410e+01 1.365755e-01 2.249207e-01 3.324841e-01 5.402933e-01 7.568272e-01 8.964611e-01 1.056299e+00 1.014085e+00 1.536248e+00 1.177440e+00 1.321875e+00 1.521528e+00 5.360071e-02
<GCONST> 6.877763e+01
~s "ST_w_2_1"
<MEAN> 25
 -1.980735e+01 4.162704e+00 -4.058722e+00 6.601810e+00 5.204202e+00 8.034846e+00 1.867639e+00 6.929711e+00 8.117649e+00 2.631737e+00 6.657390e+00 5.177516e+00 6.392191e-03 1.526964e-02 2.267106e-02 2.418669e-02 2.209687e-02 -2.601787e-02 -7.951719e-02 3.004808e-02 1.080168e-01 4.805845e-02 -4.055314e-02 -7.184386e-02 -4.757144e-03
<VARIANCE> 25
 4.086582e+00 3.534925e+00 7.214365e+00 1.942312e+01 7.364844e+00 2.166888e+01 1.401810e+01 1.418832e+01 1.374761e+01 9.859971e+00 9.062799e+00 7.599456e+00 3.654580e-02 1.450560e-01 2.290754e-01 3.720092e-01 4.407497e-01 4.286030e-01 6.706912e-01 1.112670e+00 1.190003e+00 9.763336e-01 8.367431e-01 9.881511e-01 5.360071e-02
<GCONST> 6.043894e+01
~s "ST_w_3_1"
<MEAN> 25
 -1.810492e+01 5.960254e+00 -2.802340e+00 8.476679e+00 4.507109e+00 6.807615e+00 5.111317e-02 2.530161e+00 8.873090e+00 2.771925e+00 4.491128e+00 4.594921e+00 -3.856747e-02 8.134022e-02 7.942402e-02 -3.489662e-01 -4.401752e-01 1.452131e-01 1.114870e-01 -5.670365e-01 -7.349681e-01 5.167112e-02 8.577760e-02 4.559574e-01 -1.624260e-02
<VARIANCE> 25
 5.440340e+00 3.509928e+00 8.498291e+00 1.169740e+01 9.063354e+00 1.240107e+01 1.024174e+01 8.885634e+00 6.911122e+00 4.255739e+00 3.875951e+00 4.142344e+00 3.654580e-02 5.248706e-02 1.097296e-01 3.005501e-01 5.873353e-01 3.853101e-01 1.477089e+00 1.380372e+00 5.966568e-01 6.462038e-01 2.200412e-01 2.961863e-01 5.360071e-02
<GCONST> 5.183433e+01
~s "ST_w_4_1"
<MEAN> 25
 -1.799447e+01 6.359989e+00 -2.583215e+00 5.902423e+00 1.478331e+00 7.025828e+00 3.799295e+00 3.560146e+00 3.976511e+00 1.194980e-01 4.081680e+00 4.846129e+00 1.907983e-01 -1.728622e-01 1.261809e-01 2.125311e-01 5.173332e-01 5.352333e-01 8.944585e-01 -2.136899e-01 -1.607107e+00 -1.067463e+00 2.400201e-01 -3.965732e-02 2.421990e-01
<VARIANCE> 25
 5.548471e+00 3.193805e+00 6.920866e+00 1.093096e+01 6.288742e+00 1.302500e+01 1.614327e+01 8.846150e+00 5.722797e+00 1.177227e+01 5.436574e+00 2.564523e+00 4.207166e-01 6.441535e-02 1.400308e-01 1.422426e-01 1.215584e-01 2.504776e-01 2.711848e-01 3.116523e-01 5.009109e-01 2.918402e-01 1.870111e-01 2.421983e-01 2.317209e-01
<GCONST> 4.939347e+01
~s "ST_ng_2_1"
<MEAN> 25
 1.201749e+01 -9.244553e+00 -2.255216e-01 -4.016702e+00 2.609684e+00 -1.013551e+01 -1.282122e+00 7.935968e+00 8.528848e-01 2.002235e+00 -5.101221e+00 -2.268008e+00 1.942664e+00 -1.684336e+00 -2.959121e-01 -2.988338e+00 4.292102e-02 1.344423e-01 6.660428e-01 -5.416979e-01 -1.589050e-01 2.015793e-01 -1.547553e+00 -1.156453e+00 3.092598e+00
<VARIANCE> 25
 4.621963e+01 6.140767e+01 7.879829e+01 7.066236e+01 5.083060e+01 2.822186e+01 5.751772e+01 4.356842e+01 4.557171e+01 3.203397e+01 4.239628e+01 2.504088e+01 4.347485e+00 6.341929e+00 8.236267e+00 1.111619e+01 1.092676e+01 5.593907e+00 9.699677e+00 1.172393e+01 6.077426e+00 5.592156e+00 4.811711e+00 4.094323e+00 4.444461e+00
<GCONST> 1.165500e+02
~s "ST_ng_3_1"
<MEAN> 25
 1.387396e+01 -1.700827e+01 2.159847e+00 -1.149032e+01 1.552357e+00 -6.245458e+00 9.534283e-01 3.201547e+00 1.693156e-01 2.634786e+00 -8.018737e+00 -5.723424e+00 3.873447e-01 -3.544581e-02 -2.508948e-01 4.841643e-01 -2.139973e-01 3.477382e-01 -2.801290e-02 -2.112581e-01 -2.543506e-01 1.637300e-01 -1.477969e-01 -2.879143e-01 -2.552035e-01
<VARIANCE> 25
 2.185507e+01 2.689349e+01 2.801147e+01 6.871346e+01 5.623946e+01 4.508468e+01 3.306240e+01 4.969267e+01 4.016874e+01 4.325364e+01 2.877778e+01 2.472161e+01 2.058751e+00 2.067531e+00 2.554087e+00 8.437651e+00 6.161129e+00 3.948464e+00 3.169532e+00 5.015997e+00 3.517587e+00 4.059238e+00 2.547384e+00 2.220847e+00 3.721806e+00
<GCONST> 1.053383e+02
~s "ST_m_2_1"
<MEAN> 25
 1.592622e+01 -7.492231e+00 1.511433e+00 -1.267898e+00 -1.913345e+00 2.840628e+00 -2.153598e+00 -4.140057e+00 -4.413755e+00 -1.217412e+00 -3.581915e+00 -5.154361e+00 6.899744e-02 5.143303e-01 -1.019573e+00 1.462166e+00 -3.078180e-01 7.123935e-02 7.043374e-01 -9.064263e-01 -2.896440e-01 1.617888e-01 1.021420e-01 1.717387e-01 -9.084083e-01
<VARIANCE> 25
 5.700996e+01 1.580212e+02 5.605332e+01 7.644437e+01 7.047887e+01 4.968513e+01 4.608481e+01 1.064492e+02 8.688091e+01 3.867627e+01 3.754809e+01 3.818942e+01 2.678897e+00 1.052785e+01 6.937453e+00 9.667029e+00 8.612772e+00 4.991750e+00 5.069828e+00 1.199162e+01 8.496249e+00 4.287206e+00 3.792186e+00 2.512063e+00 4.923594e+00
<GCONST> 1.183198e+02
~s "ST_m_2_2"
<MEAN> 25
 1.899238e+01 -1.267999e+01 1.394510e+00 -9.248980e+00 3.541563e+00 8.630323e-01 -4.705955e+00 -1.411562e+00 -4.700758e+00 2.306195e+00 -4.301407e+00 -1.068310e+01 1.638910e+00 2.898252e+00 -1.553796e+00 3.947573e+00 -9.986012e-01 1.766378e+00 -5.396089e-02 -3.857358e+00 -1.062030e+00 -5.304953e-01 1.540947e+00 6.036599e-01 -2.693473e+00
<VARIANCE> 25
 1.668094e+01 5.055387e+01 6.705415e+01 7.558158e+01 3.029782e+01 6.120496e+01 9.173365e+01 8.608865e+01 7.822257e+01 4.307145e+01 3.268621e+01 2.088205e+01 8.399463e-01 4.425720e+00 5.091620e+00 8.940915e+00 4.213599e+00 3.750153e+00 4.755029e+00 7.619056e+00 6.832468e+00 4.198067e+00 3.957857e+00 3.488291e+00 2.122760e+00
<GCONST> 1.105781e+02
~s "ST_ng_4_1"
<MEAN> 25
 2.181565e+01 -1.076848e+01 -1.197032e+01 1.543306e+00 -3.284046e-02 -8.690162e+00 7.577490e-01 2.037781e+00 -1.340257e+00 6.871825e-01 -8.056667e+00 -7.845784e+00 2.553872e-01 7.538158e-01 -3.437937e-01 1.060861e+00 -1.928063e-01 2.224916e-01 1.293388e-01 -3.898232e-01 1.980113e-01 -4.739431e-01 7.563174e-02 7.449383e-02 -6.039934e-01
<VARIANCE> 25
 5.873871e+00 3.168792e+01 5.361991e+01 4.574570e+01 4.373595e+01 3.419871e+01 5.152336e+01 5.448394e+01 4.324382e+01 4.470620e+01 3.005063e+01 1.538987e+01 6.367184e-01 4.884223e+00 2.766173e+00 5.122751e+00 2.903169e+00 2.920941e+00 3.987357e+00 5.672537e+00 2.692533e+00 2.080386e+00 1.893461e+00 1.284991e+00 2.457506e+00
<GCONST> 1.004858e+02
~s "ST_m_3_1"
<MEAN> 25
 1.733620e+01 -1.365943e+00 -5.594138e+00 5.299733e+00 -8.696958e-01 9.921119e-01 2.631865e-01 -9.801319e+00 -5.590801e+00 1.961418e+00 -2.552062e+00 -4.785371e+00 -2.854263e-01 1.698670e+00 -1.056284e+00 3.636418e-01 1.700656e+00 -1.300899e-01 -9.054630e-01 -5.879575e-01 -7.249275e-01 -3.994778e-01 3.788594e-02 1.716789e-01 -1.245954e+00
<VARIANCE> 25
 8.171592e+01 1.032145e+02 4.706067e+01 4.003143e+01 6.296600e+01 3.314308e+01 5.867422e+01 6.358780e+01 6.525539e+01 4.724515e+01 4.555588e+01 2.832401e+01 1.626738e+00 9.384829e+00 4.066518e+00 5.005924e+00 6.070572e+00 3.076870e+00 4.209420e+00 5.442951e+00 6.885560e+00 3.138720e+00 2.933692e+00 2.698483e+00 2.921075e+00
<GCONST> 1.116045e+02
~s "ST_m_3_2"
<MEAN> 25
 2.318552e+01 -1.251611e+00 -4.335921e+00 6.680583e+00 5.987611e-02 7.265075e-01 3.503381e-01 -1.472014e+01 -8.703215e+00 3.303358e+00 -2.277604e+00 -7.943329e+00 2.361342e-01 3.504034e+00 -3.028824e-01 1.860774e+00 9.355891e-01 9.539015e-01 -2.430477e-01 -2.369437e+00 -1.779157e+00 1.701214e-02 -3.000223e-01 9.419826e-01 -2.201478e+00
<VARIANCE> 25
 6.812188e+00 4.004565e+01 9.492464e+01 7.125658e+01 5.591754e+01 2.312209e+01 8.368604e+01 6.182408e+01 7.591099e+01 4.028607e+01 3.556699e+01 2.316923e+01 9.695078e-01 3.409016e+00 5.829429e+00 8.822922e+00 6.223651e+00 4.027803e+00 5.627299e+00 1.035068e+01 3.883096e+00 3.984941e+00 4.572769e+00 2.168402e+00 1.140416e+00
<GCONST> 1.084175e+02
~s "ST_m_4_1"
<MEAN> 25
 9.021452e+00 4.231366e+00 -3.063197e+00 6.320048e+00 3.324869e+00 2.281123e+00 -2.248952e+00 -7.984167e+00 -7.288542e+00 -2.309885e+00 -1.683221e+00 -2.077933e+00 -6.567217e-01 -8.113740e-01 -5.922585e-01 -5.636970e-01 2.145408e-01 -2.693549e-01 -3.293659e-01 7.876763e-01 2.620189e-01 -3.218872e-01 1.686962e-01 2.043557e-01 -1.269054e-01
<VARIANCE> 25
 1.527694e+02 4.744053e+01 4.860929e+01 3.926738e+01 3.601668e+01 2.818272e+01 5.246012e+01 9.799242e+01 5.705352e+01 4.162914e+01 2.991735e+01 2.301123e+01 1.469099e+00 2.428792e+00 1.399718e+00 2.522173e+00 2.435895e+00 2.133921e+00 2.150984e+00 3.255883e+00 2.500962e+00 2.235952e+00 2.007286e+00 1.551564e+00 1.924709e+00
<GCONST> 1.018046e+02
~s "ST_m_4_2"
<MEAN> 25
 2.208589e+01 8.182627e+00 -3.987556e+00 3.048705e+00 5.843428e+00 6.357754e+00 -4.104227e+00 -1.902843e+01 -1.337457e+01 8.422243e-01 -1.556637e+00 -3.378111e+00 -3.524178e-01 1.240009e+00 1.018383e+00 -7.891732e-02 -3.446162e-01 5.204195e-01 1.783486e-01 -9.936335e-01 -1.009552e+00 -7.602042e-02 6.428652e-01 2.025403e-01 -5.733241e-01
<VARIANCE> 25
 5.511243e+00 2.352544e+01 4.329865e+01 4.470090e+01 4.576221e+01 1.588479e+01 7.534951e+01 3.975263e+01 3.595692e+01 3.228843e+01 2.632457e+01 2.225671e+01 2.600408e-01 1.648691e+00 1.842899e+00 1.495513e+00 2.200738e+00 1.549533e+00 2.075149e+00 3.161470e+00 2.456580e+00 2.464040e+00 1.967221e+00 1.226648e+00 3.842182e-01
<GCONST> 9.140336e+01
~s "ST_c_2_1"
<MEAN> 25
 -2.797315e+00 4.443476e+00 -4.779357e+00 1.617627e+00 1.092099e-01 3.400278e+00 -2.243893e+00 -1.815893e+00 -4.836081e-01 1.736158e+00 2.661500e+00 -7.821251e-01 -1.816002e+00 -1.399269e+00 -5.674592e-01 9.089944e-02 -2.578916e-02 -3.891615e-04 5.805075e-01 7.120631e-02 -6.290998e-01 -6.379308e-01 9.082231e-02 -1.874310e-01 -9.144626e-01
<VARIANCE> 25
 1.817769e+01 1.896345e+01 9.297935e+00 1.486300e+01 1.315114e+01 1.465988e+01 1.769282e+01 1.576731e+01 1.584016e+01 2.607060e+01 1.048053e+01 1.303164e+01 1.798826e+00 9.969618e-01 3.847048e-01 1.133057e+00 1.976649e+00 1.614293e+00 1.348616e+00 1.865283e+00 5.107669e-01 1.033395e+00 7.473574e-01 6.284791e-01 5.143227e-01
<GCONST> 7.832825e+01
~s "ST_c_3_1"
<MEAN> 25
 -7.864649e+00 4.099697e-01 -7.504212e+00 4.665872e-01 2.649056e-01 7.860645e+00 3.412915e+00 -5.879416e-01 -3.250220e+00 -1.670089e+00 2.755415e+00 1.519148e+00 -2.720010e-01 1.755470e-01 2.652248e-01 4.011022e-02 -2.198436e-01 5.103527e-02 -3.112457e-01 -2.442008e-01 -7.873138e-02 -3.151428e-01 -2.076846e-01 1.526736e-01 -2.043931e-01
<VARIANCE> 25
 3.435321e+00 1.207722e+01 1.478659e+01 1.156229e+01 6.762338e+00 1.284119e+01 9.818076e+00 1.715408e+01 1.553637e+01 1.385816e+01 1.077450e+01 7.512756e+00 5.817928e-02 2.559350e-01 3.473748e-01 4.740324e-01 7.937019e-01 6.711701e-01 1.062507e+00 9.464291e-01 1.967043e+00 1.141446e+00 1.860120e+00 4.712905e-01 5.360071e-02
<GCONST> 6.528606e+01
~s "ST_c_4_1"
<MEAN> 25
 -9.556657e+00 1.256406e+00 -4.070997e+00 2.957952e+00 -2.467754e-01 4.736216e+00 -9.392003e-01 -1.699191e+00 -1.120007e+00 -1.770091e+00 -1.071756e-01 8.750891e-01 -3.337229e-02 -2.185333e-02 1.208692e-02 -1.891039e-02 1.340120e-02 -1.050540e-02 -3.642225e-02 1.116420e-02 1.132298e-01 1.362998e-01 3.640272e-02 3.824952e-02 -2.749412e-02
<VARIANCE> 25
 6.721344e+00 1.535423e+01 2.475668e+01 8.109081e+00 9.118566e+00 1.471854e+01 1.118406e+01 1.410989e+01 1.360461e+01 1.135396e+01 1.182053e+01 1.128310e+01 1.121485e-01 2.380320e-01 5.081495e-01 3.526997e-01 5.985270e-01 1.501173e+00 9.760411e-01 7.220535e-01 9.415456e-01 1.209760e+00 1.478313e+00 1.049031e+00 5.360071e-02
<GCONST> 6.762302e+01
~s "ST_p_2_1"
<MEAN> 25
 1.986862e+01 -6.348866e+00 -3.517097e+00 -3.282188e+00 9.113573e-01 2.070933e+00 -2.947246e+00 -2.859963e+00 -2.782723e+00 3.312029e+00 -2.296289e+00 -6.541727e+00 -4.474962e-01 3.881223e+00 -3.227065e+00 3.032505e+00 5.344181e-01 1.374181e+00 -1.137671e-01 8.235213e-01 1.905245e+00 -4.371600e-01 7.377810e-01 4.001987e-01 -4.557038e+00
<VARIANCE> 25
 1.718954e+01 1.214829e+02 7.287947e+01 1.185883e+02 4.081715e+01 7.204887e+01 4.378640e+01 8.663586e+01 5.753957e+01 4.125193e+01 3.169725e+01 2.282773e+01 3.501272e+00 3.232429e+00 1.054867e+01 1.201219e+01 7.236790e+00 6.714439e+00 5.009353e+00 5.843537e+00 6.938305e+00 3.931345e+00 4.156292e+00 2.208510e+00 3.065066e+00
<GCONST> 1.144107e+02
~s "ST_p_3_1"
<MEAN> 25
 1.015895e+01 8.400246e+00 -8.253702e+00 3.315664e-01 3.126110e+00 2.610382e+00 -3.930115e+00 -6.487729e-01 3.173744e+00 -1.144035e+00 -2.709580e+00 -2.593317e+00 -3.229427e+00 1.547783e-01 2.385420e-01 -4.694266e-01 -6.090621e-01 -6.567827e-01 3.534993e-01 1.015411e+00 9.288476e-01 4.730013e-02 1.376451e-01 8.408148e-01 -2.413783e+00
<VARIANCE> 25
 5.767531e+01 6.766248e+01 1.619413e+02 3.222210e+01 2.933646e+01 4.318135e+01 3.193396e+01 3.982286e+01 6.109732e+01 4.159687e+01 2.364588e+01 2.005748e+01 2.560302e+00 5.406736e+00 7.760356e+00 4.172508e+00 3.718369e+00 4.326256e+00 4.051167e+00 4.522212e+00 5.687686e+00 2.976321e+00 2.594188e+00 2.099443e+00 2.981929e+00
<GCONST> 1.084786e+02
~s "ST_p_4_1"
<MEAN> 25
 9.513530e+00 -5.384888e+00 -6.288203e-01 1.921474e+00 -2.943211e+00 -6.101542e+00 -2.725451e+00 2.381240e+00 2.958187e+00 -2.366006e-01 1.443472e+00 -1.563865e-01 1.415155e+00 -3.730712e+00 4.528179e+00 -2.312465e-01 -2.316898e+00 -2.892210e+00 8.927623e-02 5.938799e-01 -1.531835e+00 -7.069133e-01 1.052581e+00 7.307210e-01 4.949503e+00
<VARIANCE> 25
 6.217925e+01 9.996059e+01 1.145589e+02 4.716324e+01 5.530563e+01 7.957038e+01 3.953614e+01 4.399703e+01 3.895861e+01 3.703399e+01 2.449883e+01 1.886700e+01 7.800114e+00 6.349648e+00 1.110080e+01 9.484690e+00 6.093489e+00 5.881420e+00 4.797439e+00 5.764997e+00 6.053082e+00 4.840293e+00 3.880674e+00 3.125657e+00 7.943482e+00
<GCONST> 1.159413e+02
~h "E"
<BEGINHMM>
<NUMSTATES> 5
<STATE> 2
~s "ST_E_2_1"
<STATE> 3
~s "ST_E_3_1"
<STATE> 4
~s "ST_E_4_1"
~t "T_E"
<ENDHMM>
~h "a"
<BEGINHMM>
<NUMSTATES> 5
<STATE> 2
~s "ST_a_2_1"
<STATE> 3
~s "ST_a_3_1"
<STATE> 4
~s "ST_a_4_5"
~t "T_a"
<ENDHMM>
~h "b"
<BEGINHMM>
<NUMSTATES> 5
<STATE> 2
~s "ST_b_2_1"
<STATE> 3
~s "ST_b_3_1"
<STATE> 4
~s "ST_b_4_1"
~t "T_b"
<ENDHMM>
~h "c"
<BEGINHMM>
<NUMSTATES> 5
<STATE> 2
~s "ST_c_2_1"
<STATE> 3
~s "ST_c_3_1"
<STATE> 4
~s "ST_c_4_1"
~t "T_c"
<ENDHMM>
~h "d"
<BEGINHMM>
<NUMSTATES> 5
<STATE> 2
~s "ST_d_2_1"
<STATE> 3
~s "ST_d_3_1"
<STATE> 4
~s "ST_d_4_1"
~t "T_d"
<ENDHMM>
~h "e"
<BEGINHMM>
<NUMSTATES> 5
<STATE> 2
~s "ST_e_2_1"
<STATE> 3
~s "ST_e_3_1"
<STATE> 4
~s "ST_e_4_1"
~t "T_e"
<ENDHMM>
~h "g"
<BEGINHMM>
<NUMSTATES> 5
<STATE> 2
~s "ST_g_2_1"
<STATE> 3
~s "ST_g_3_1"
<STATE> 4
~s "ST_g_4_1"
~t "T_g"
<ENDHMM>
~h "h"
<BEGINHMM>
<NUMSTATES> 5
<STATE> 2
~s "ST_h_2_1"
<STATE> 3
~s "ST_h_3_1"
<STATE> 4
~s "ST_h_4_1"
~t "T_h"
<ENDHMM>
~h "i"
<BEGINHMM>
<NUMSTATES> 5
<STATE> 2
~s "ST_i_2_1"
<STATE> 3
~s "ST_i_3_1"
<STATE> 4
~s "ST_i_4_1"
~t "T_i"
<ENDHMM>
~h "j"
<BEGINHMM>
<NUMSTATES> 5
<STATE> 2
~s "ST_j_2_1"
<STATE> 3
~s "ST_j_3_1"
<STATE> 4
~s "ST_j_4_1"
~t "T_j"
<ENDHMM>
~h "k"
<BEGINHMM>
<NUMSTATES> 5
<STATE> 2
~s "ST_k_2_1"
<STATE> 3
~s "ST_k_3_1"
<STATE> 4
~s "ST_k_4_1"
~t "T_k"
<ENDHMM>
~h "l"
<BEGINHMM>
<NUMSTATES> 5
<STATE> 2
~s "ST_l_2_1"
<STATE> 3
~s "ST_l_3_1"
<STATE> 4
~s "ST_l_4_1"
~t "T_l"
<ENDHMM>
~h "m"
<BEGINHMM>
<NUMSTATES> 5
<STATE> 2
~s "ST_m_2_1"
<STATE> 3
~s "ST_m_3_1"
<STATE> 4
~s "ST_m_4_1"
~t "T_m"
<ENDHMM>
~h "n"
<BEGINHMM>
<NUMSTATES> 5
<STATE> 2
~s "ST_n_2_1"
<STATE> 3
~s "ST_n_3_1"
<STATE> 4
~s "ST_n_4_1"
~t "T_n"
<ENDHMM>
~h "o"
<BEGINHMM>
<NUMSTATES> 5
<STATE> 2
~s "ST_o_2_1"
<STATE> 3
~s "ST_o_3_1"
<STATE> 4
~s "ST_o_4_1"
~t "T_o"
<ENDHMM>
~h "p"
<BEGINHMM>
<NUMSTATES> 5
<STATE> 2
~s "ST_p_2_1"
<STATE> 3
~s "ST_p_3_1"
<STATE> 4
~s "ST_p_4_1"
~t "T_p"
<ENDHMM>
~h "r"
<BEGINHMM>
<NUMSTATES> 5
<STATE> 2
~s "ST_r_2_1"
<STATE> 3
~s "ST_r_3_1"
<STATE> 4
~s "ST_r_4_1"
~t "T_r"
<ENDHMM>
~h "s"
<BEGINHMM>
<NUMSTATES> 5
<STATE> 2
~s "ST_s_2_1"
<STATE> 3
~s "ST_s_3_1"
<STATE> 4
~s "ST_s_4_1"
~t "T_s"
<ENDHMM>
~h "t"
<BEGINHMM>
<NUMSTATES> 5
<STATE> 2
~s "ST_t_2_1"
<STATE> 3
~s "ST_t_3_1"
<STATE> 4
~s "ST_t_4_1"
~t "T_t"
<ENDHMM>
~h "u"
<BEGINHMM>
<NUMSTATES> 5
<STATE> 2
~s "ST_u_2_1"
<STATE> 3
~s "ST_u_3_1"
<STATE> 4
~s "ST_u_4_1"
~t "T_u"
<ENDHMM>
~h "w"
<BEGINHMM>
<NUMSTATES> 5
<STATE> 2
~s "ST_w_2_1"
<STATE> 3
~s "ST_w_3_1"
<STATE> 4
~s "ST_w_4_1"
~t "T_w"
<ENDHMM>
~h "aw"
<BEGINHMM>
<NUMSTATES> 5
<STATE> 2
~s "ST_aw_2_1"
<STATE> 3
~s "ST_aw_3_1"
<STATE> 4
~s "ST_aw_4_1"
~t "T_aw"
<ENDHMM>
~h "ng"
<BEGINHMM>
<NUMSTATES> 5
<STATE> 2
~s "ST_ng_2_1"
<STATE> 3
~s "ST_ng_3_1"
<STATE> 4
~s "ST_ng_4_1"
~t "T_ng"
<ENDHMM>
~h "sp"
<BEGINHMM>
<NUMSTATES> 3
<STATE> 2
~s "ST_sil_3_1"
<TRANSP> 3
 0.000000e+00 1.052850e-18 1.000000e+00
 0.000000e+00 7.089642e-04 9.992911e-01
 0.000000e+00 0.000000e+00 0.000000e+00
<ENDHMM>
~h "k-i+n"
<BEGINHMM>
<NUMSTATES> 5
<STATE> 2
~s "ST_i_2_2"
<STATE> 3
~s "ST_i_3_3"
<STATE> 4
~s "ST_i_4_2"
~t "T_i"
<ENDHMM>
~h "a-k+i"
<BEGINHMM>
<NUMSTATES> 5
<STATE> 2
~s "ST_k_2_1"
<STATE> 3
~s "ST_k_3_1"
<STATE> 4
~s "ST_k_4_2"
~t "T_k"
<ENDHMM>
~h "a-m+b"
<BEGINHMM>
<NUMSTATES> 5
<STATE> 2
~s "ST_m_2_2"
<STATE> 3
~s "ST_m_3_2"
<STATE> 4
~s "ST_m_4_2"
~t "T_m"
<ENDHMM>
~h "a-m+p"
<BEGINHMM>
<NUMSTATES> 5
<STATE> 2
~s "ST_m_2_1"
<STATE> 3
~s "ST_m_3_1"
<STATE> 4
~s "ST_m_4_2"
~t "T_m"
<ENDHMM>
~h "a-r+a"
<BEGINHMM>
<NUMSTATES> 5
<STATE> 2
~s "ST_r_2_2"
<STATE> 3
~s "ST_r_3_2"
<STATE> 4
~s "ST_r_4_1"
~t "T_r"
<ENDHMM>
~h "d-u+a"
<BEGINHMM>
<NUMSTATES> 5
<STATE> 2
~s "ST_u_2_1"
<STATE> 3
~s "ST_u_3_2"
<STATE> 4
~s "ST_u_4_2"
~t "T_u"
<ENDHMM>
~h "g-a+m"
<BEGINHMM>
<NUMSTATES> 5
<STATE> 2
~s "ST_a_2_2"
<STATE> 3
~s "ST_a_3_4"
<STATE> 4
~s "ST_a_4_4"
~t "T_a"
<ENDHMM>
~h "t-a+m"
<BEGINHMM>
<NUMSTATES> 5
<STATE> 2
~s "ST_a_2_2"
<STATE> 3
~s "ST_a_3_2"
<STATE> 4
~s "ST_a_4_1"
~t "T_a"
<ENDHMM>
~h "g-i+t"
<BEGINHMM>
<NUMSTATES> 5
<STATE> 2
~s "ST_i_2_2"
<STATE> 3
~s "ST_i_3_3"
<STATE> 4
~s "ST_i_4_3"
~t "T_i"
<ENDHMM>
~h "w-a+r"
<BEGINHMM>
<NUMSTATES> 5
<STATE> 2
~s "ST_a_2_3"
<STATE> 3
~s "ST_a_3_2"
<STATE> 4
~s "ST_a_4_1"
~t "T_a"
<ENDHMM>
~h "l-i+ng"
<BEGINHMM>
<NUMSTATES> 5
<STATE> 2
~s "ST_i_2_4"
<STATE> 3
~s "ST_i_3_3"
<STATE> 4
~s "ST_i_4_2"
~t "T_i"
<ENDHMM>
~h "a+t"
<BEGINHMM>
<NUMSTATES> 5
<STATE> 2
~s "ST_a_2_2"
<STATE> 3
~s "ST_a_3_2"
<STATE> 4
~s "ST_a_4_5"
~t "T_a"
<ENDHMM>
~h "g-a"
<BEGINHMM>
<NUMSTATES> 5
<STATE> 2
~s "ST_a_2_2"
<STATE> 3
~s "ST_a_3_3"
<STATE> 4
~s "ST_a_4_3"
~t "T_a"
<ENDHMM>
~h "sil"
<BEGINHMM>
<NUMSTATES> 5
<STATE> 2
~s "ST_sil_2_1"
<STATE> 3
~s "ST_sil_3_1"
<STATE> 4
~s "ST_sil_4_1"
<TRANSP> 5
 0.000000e+00 1.000000e+00 0.000000e+00 0.000000e+00 0.000000e+00
 0.000000e+00 9.530269e-01 1.407477e-02 3.289836e-02 0.000000e+00
 0.000000e+00 0.000000e+00 9.792377e-01 2.076227e-02 0.000000e+00
 0.000000e+00 1.143414e-01 0.000000e+00 6.400851e-01 2.455735e-01
 0.000000e+00 0.000000e+00 0.000000e+00 0.000000e+00 0.000000e+00
<ENDHMM>
~h "p-e+s"
<BEGINHMM>
<NUMSTATES> 5
<STATE> 2
~s "ST_e_2_2"
<STATE> 3
~s "ST_e_3_1"
<STATE> 4
~s "ST_e_4_1"
~t "T_e"
<ENDHMM>
~h "p-i+l"
<BEGINHMM>
<NUMSTATES> 5
<STATE> 2
~s "ST_i_2_3"
<STATE> 3
~s "ST_i_3_3"
<STATE> 4
~s "ST_i_4_2"
~t "T_i"
<ENDHMM>
~h "s-a+r"
<BEGINHMM>
<NUMSTATES> 5
<STATE> 2
~s "ST_a_2_1"
<STATE> 3
~s "ST_a_3_1"
<STATE> 4
~s "ST_a_4_1"
~t "T_a"
<ENDHMM>
~h "s-e+g"
<BEGINHMM>
<NUMSTATES> 5
<STATE> 2
~s "ST_e_2_1"
<STATE> 3
~s "ST_e_3_1"
<STATE> 4
~s "ST_e_4_2"
~t "T_e"
<ENDHMM>
~h "s-i+u"
<BEGINHMM>
<NUMSTATES> 5
<STATE> 2
~s "ST_i_2_3"
<STATE> 3
~s "ST_i_3_2"
<STATE> 4
~s "ST_i_4_2"
~t "T_i"
<ENDHMM>
~h "b-a+r"
<BEGINHMM>
<NUMSTATES> 5
<STATE> 2
~s "ST_a_2_1"
<STATE> 3
~s "ST_a_3_1"
<STATE> 4
~s "ST_a_4_2"
~t "T_a"
<ENDHMM>
~h "b-i+r"
<BEGINHMM>
<NUMSTATES> 5
<STATE> 2
~s "ST_i_2_3"
<STATE> 3
~s "ST_i_3_3"
<STATE> 4
~s "ST_i_4_3"
~t "T_i"
<ENDHMM>
~h "r-a+p"
<BEGINHMM>
<NUMSTATES> 5
<STATE> 2
~s "ST_a_2_2"
<STATE> 3
~s "ST_a_3_4"
<STATE> 4
~s "ST_a_4_5"
~t "T_a"
<ENDHMM>
~h "r-n+a"
<BEGINHMM>
<NUMSTATES> 5
<STATE> 2
~s "ST_n_2_2"
<STATE> 3
~s "ST_n_3_1"
<STATE> 4
~s "ST_n_4_1"
~t "T_n"
<ENDHMM>
~h "h-i+j"
<BEGINHMM>
<NUMSTATES> 5
<STATE> 2
~s "ST_i_2_2"
<STATE> 3
~s "ST_i_3_2"
<STATE> 4
~s "ST_i_4_2"
~t "T_i"
<ENDHMM>
