~o
<STREAMINFO> 1 25
<VECSIZE> 25<NULLD><MFCC_D_N_Z_0><DIAGC>
~t "T_E"
<TRANSP> 5
 0.000000e+00 1.000000e+00 0.000000e+00 0.000000e+00 0.000000e+00
 0.000000e+00 8.083194e-01 1.916806e-01 0.000000e+00 0.000000e+00
 0.000000e+00 0.000000e+00 7.880220e-01 2.119780e-01 0.000000e+00
 0.000000e+00 0.000000e+00 0.000000e+00 9.171062e-01 8.289380e-02
 0.000000e+00 0.000000e+00 0.000000e+00 0.000000e+00 0.000000e+00
~t "T_a"
<TRANSP> 5
 0.000000e+00 1.000000e+00 0.000000e+00 0.000000e+00 0.000000e+00
 0.000000e+00 3.193122e-01 6.806878e-01 0.000000e+00 0.000000e+00
 0.000000e+00 0.000000e+00 4.553702e-01 5.446298e-01 0.000000e+00
 0.000000e+00 0.000000e+00 0.000000e+00 6.777484e-01 3.222516e-01
 0.000000e+00 0.000000e+00 0.000000e+00 0.000000e+00 0.000000e+00
~t "T_b"
<TRANSP> 5
 0.000000e+00 1.000000e+00 0.000000e+00 0.000000e+00 0.000000e+00
 0.000000e+00 3.317934e-01 6.682066e-01 0.000000e+00 0.000000e+00
 0.000000e+00 0.000000e+00 1.733342e-01 8.266658e-01 0.000000e+00
 0.000000e+00 0.000000e+00 0.000000e+00 1.492036e-01 8.507964e-01
 0.000000e+00 0.000000e+00 0.000000e+00 0.000000e+00 0.000000e+00
~t "T_c"
<TRANSP> 5
 0.000000e+00 1.000000e+00 0.000000e+00 0.000000e+00 0.000000e+00
 0.000000e+00 8.012120e-01 1.987880e-01 0.000000e+00 0.000000e+00
 0.000000e+00 0.000000e+00 8.178710e-01 1.821290e-01 0.000000e+00
 0.000000e+00 0.000000e+00 0.000000e+00 9.687463e-01 3.125367e-02
 0.000000e+00 0.000000e+00 0.000000e+00 0.000000e+00 0.000000e+00
~t "T_d"
<TRANSP> 5
 0.000000e+00 1.000000e+00 0.000000e+00 0.000000e+00 0.000000e+00
 0.000000e+00 8.623812e-01 1.376188e-01 0.000000e+00 0.000000e+00
 0.000000e+00 0.000000e+00 8.019894e-01 1.980106e-01 0.000000e+00
 0.000000e+00 0.000000e+00 0.000000e+00 7.465227e-01 2.534773e-01
 0.000000e+00 0.000000e+00 0.000000e+00 0.000000e+00 0.000000e+00
~t "T_e"
<TRANSP> 5
 0.000000e+00 1.000000e+00 0.000000e+00 0.000000e+00 0.000000e+00
 0.000000e+00 7.757321e-01 2.242679e-01 0.000000e+00 0.000000e+00
 0.000000e+00 0.000000e+00 6.911234e-01 3.088766e-01 0.000000e+00
 0.000000e+00 0.000000e+00 0.000000e+00 8.199412e-01 1.800588e-01
 0.000000e+00 0.000000e+00 0.000000e+00 0.000000e+00 0.000000e+00
~t "T_g"
<TRANSP> 5
 0.000000e+00 1.000000e+00 0.000000e+00 0.000000e+00 0.000000e+00
 0.000000e+00 3.709545e-02 9.629046e-01 0.000000e+00 0.000000e+00
 0.000000e+00 0.000000e+00 1.406487e-02 9.859351e-01 0.000000e+00
 0.000000e+00 0.000000e+00 0.000000e+00 3.883863e-01 6.116137e-01
 0.000000e+00 0.000000e+00 0.000000e+00 0.000000e+00 0.000000e+00
~t "T_h"
<TRANSP> 5
 0.000000e+00 1.000000e+00 0.000000e+00 0.000000e+00 0.000000e+00
 0.000000e+00 4.826708e-01 5.173292e-01 0.000000e+00 0.000000e+00
 0.000000e+00 0.000000e+00 2.851534e-01 7.148467e-01 0.000000e+00
 0.000000e+00 0.000000e+00 0.000000e+00 6.853371e-01 3.146630e-01
 0.000000e+00 0.000000e+00 0.000000e+00 0.000000e+00 0.000000e+00
~t "T_i"
<TRANSP> 5
 0.000000e+00 1.000000e+00 0.000000e+00 0.000000e+00 0.000000e+00
 0.000000e+00 8.279577e-01 1.720423e-01 0.000000e+00 0.000000e+00
 0.000000e+00 0.000000e+00 7.398554e-01 2.601446e-01 0.000000e+00
 0.000000e+00 0.000000e+00 0.000000e+00 7.676144e-01 2.323856e-01
 0.000000e+00 0.000000e+00 0.000000e+00 0.000000e+00 0.000000e+00
~t "T_j"
<TRANSP> 5
 0.000000e+00 1.000000e+00 0.000000e+00 0.000000e+00 0.000000e+00
 0.000000e+00 8.901942e-01 1.098058e-01 0.000000e+00 0.000000e+00
 0.000000e+00 0.000000e+00 7.987900e-01 2.012100e-01 0.000000e+00
 0.000000e+00 0.000000e+00 0.000000e+00 8.787712e-01 1.212288e-01
 0.000000e+00 0.000000e+00 0.000000e+00 0.000000e+00 0.000000e+00
~t "T_k"
<TRANSP> 5
 0.000000e+00 1.000000e+00 0.000000e+00 0.000000e+00 0.000000e+00
 0.000000e+00 6.724590e-01 3.275410e-01 0.000000e+00 0.000000e+00
 0.000000e+00 0.000000e+00 5.744736e-01 4.255264e-01 0.000000e+00
 0.000000e+00 0.000000e+00 0.000000e+00 6.416305e-01 3.583694e-01
 0.000000e+00 0.000000e+00 0.000000e+00 0.000000e+00 0.000000e+00
~t "T_l"
<TRANSP> 5
 0.000000e+00 1.000000e+00 0.000000e+00 0.000000e+00 0.000000e+00
 0.000000e+00 6.977168e-01 3.022832e-01 0.000000e+00 0.000000e+00
 0.000000e+00 0.000000e+00 8.276251e-01 1.723749e-01 0.000000e+00
 0.000000e+00 0.000000e+00 0.000000e+00 7.779364e-01 2.220636e-01
 0.000000e+00 0.000000e+00 0.000000e+00 0.000000e+00 0.000000e+00
~t "T_m"
<TRANSP> 5
 0.000000e+00 1.000000e+00 0.000000e+00 0.000000e+00 0.000000e+00
 0.000000e+00 4.796870e-01 5.203130e-01 0.000000e+00 0.000000e+00
 0.000000e+00 0.000000e+00 6.187755e-01 3.812245e-01 0.000000e+00
 0.000000e+00 0.000000e+00 0.000000e+00 7.252981e-01 2.747019e-01
 0.000000e+00 0.000000e+00 0.000000e+00 0.000000e+00 0.000000e+00
~t "T_n"
<TRANSP> 5
 0.000000e+00 1.000000e+00 0.000000e+00 0.000000e+00 0.000000e+00
 0.000000e+00 8.100272e-01 1.899728e-01 0.000000e+00 0.000000e+00
 0.000000e+00 0.000000e+00 4.590436e-01 5.409564e-01 0.000000e+00
 0.000000e+00 0.000000e+00 0.000000e+00 4.369375e-01 5.630625e-01
 0.000000e+00 0.000000e+00 0.000000e+00 0.000000e+00 0.000000e+00
~t "T_o"
<TRANSP> 5
 0.000000e+00 1.000000e+00 0.000000e+00 0.000000e+00 0.000000e+00
 0.000000e+00 8.971683e-01 1.028317e-01 0.000000e+00 0.000000e+00
 0.000000e+00 0.000000e+00 7.427461e-01 2.572540e-01 0.000000e+00
 0.000000e+00 0.000000e+00 0.000000e+00 7.591621e-01 2.408379e-01
 0.000000e+00 0.000000e+00 0.000000e+00 0.000000e+00 0.000000e+00
~t "T_p"
<TRANSP> 5
 0.000000e+00 1.000000e+00 0.000000e+00 0.000000e+00 0.000000e+00
 0.000000e+00 6.646208e-01 3.353792e-01 0.000000e+00 0.000000e+00
 0.000000e+00 0.000000e+00 6.758316e-01 3.241684e-01 0.000000e+00
 0.000000e+00 0.000000e+00 0.000000e+00 7.030306e-01 2.969693e-01
 0.000000e+00 0.000000e+00 0.000000e+00 0.000000e+00 0.000000e+00
~t "T_r"
<TRANSP> 5
 0.000000e+00 1.000000e+00 0.000000e+00 0.000000e+00 0.000000e+00
 0.000000e+00 5.688049e-01 4.311951e-01 0.000000e+00 0.000000e+00
 0.000000e+00 0.000000e+00 3.624954e-01 6.375046e-01 0.000000e+00
 0.000000e+00 0.000000e+00 0.000000e+00 6.688662e-01 3.311338e-01
 0.000000e+00 0.000000e+00 0.000000e+00 0.000000e+00 0.000000e+00
~t "T_s"
<TRANSP> 5
 0.000000e+00 1.000000e+00 0.000000e+00 0.000000e+00 0.000000e+00
 0.000000e+00 7.593525e-01 2.406475e-01 0.000000e+00 0.000000e+00
 0.000000e+00 0.000000e+00 8.081776e-01 1.918224e-01 0.000000e+00
 0.000000e+00 0.000000e+00 0.000000e+00 7.202243e-01 2.797758e-01
 0.000000e+00 0.000000e+00 0.000000e+00 0.000000e+00 0.000000e+00
~t "T_t"
<TRANSP> 5
 0.000000e+00 1.000000e+00 0.000000e+00 0.000000e+00 0.000000e+00
 0.000000e+00 4.770109e-01 5.229891e-01 0.000000e+00 0.000000e+00
 0.000000e+00 0.000000e+00 5.503709e-01 4.496291e-01 0.000000e+00
 0.000000e+00 0.000000e+00 0.000000e+00 6.494976e-01 3.505024e-01
 0.000000e+00 0.000000e+00 0.000000e+00 0.000000e+00 0.000000e+00
~t "T_u"
<TRANSP> 5
 0.000000e+00 1.000000e+00 0.000000e+00 0.000000e+00 0.000000e+00
 0.000000e+00 6.876721e-01 3.123278e-01 0.000000e+00 0.000000e+00
 0.000000e+00 0.000000e+00 7.568145e-01 2.431855e-01 0.000000e+00
 0.000000e+00 0.000000e+00 0.000000e+00 6.291243e-01 3.708757e-01
 0.000000e+00 0.000000e+00 0.000000e+00 0.000000e+00 0.000000e+00
~t "T_w"
<TRANSP> 5
 0.000000e+00 1.000000e+00 0.000000e+00 0.000000e+00 0.000000e+00
 0.000000e+00 9.501987e-01 4.980128e-02 0.000000e+00 0.000000e+00
 0.000000e+00 0.000000e+00 7.305486e-01 2.694514e-01 0.000000e+00
 0.000000e+00 0.000000e+00 0.000000e+00 4.712659e-01 5.287341e-01
 0.000000e+00 0.000000e+00 0.000000e+00 0.000000e+00 0.000000e+00
~t "T_aw"
<TRANSP> 5
 0.000000e+00 1.000000e+00 0.000000e+00 0.000000e+00 0.000000e+00
 0.000000e+00 9.522562e-01 4.774379e-02 0.000000e+00 0.000000e+00
 0.000000e+00 0.000000e+00 8.848523e-01 1.151477e-01 0.000000e+00
 0.000000e+00 0.000000e+00 0.000000e+00 7.509228e-01 2.490772e-01
 0.000000e+00 0.000000e+00 0.000000e+00 0.000000e+00 0.000000e+00
~t "T_ng"
<TRANSP> 5
 0.000000e+00 1.000000e+00 0.000000e+00 0.000000e+00 0.000000e+00
 0.000000e+00 7.434829e-01 2.565170e-01 0.000000e+00 0.000000e+00
 0.000000e+00 0.000000e+00 9.058586e-01 9.414135e-02 0.000000e+00
 0.000000e+00 0.000000e+00 0.000000e+00 8.380492e-01 1.619508e-01
 0.000000e+00 0.000000e+00 0.000000e+00 0.000000e+00 0.000000e+00
~s "ST_s_2_1"
<MEAN> 25
 1.343872e+01 -3.531966e+00 6.134034e+00 -9.663051e+00 4.053155e+00 -5.986039e+00 -4.839960e+00 -7.971261e-01 -2.716367e+00 2.194520e+00 -4.209507e+00 1.860239e+00 -2.898626e+00 2.325952e+00 1.552379e-01 -6.830733e-01 2.285877e+00 -3.487473e-01 4.233025e-01 4.680523e-01 4.862439e-01 -2.447908e-01 6.302922e-01 1.766386e-01 -2.160250e-01
<VARIANCE> 25
 8.396367e+01 8.503482e+01 1.074982e+02 1.117014e+02 1.162115e+02 1.006420e+02 1.453422e+02 1.289697e+02 8.143676e+01 5.179327e+01 7.864380e+01 4.475813e+01 1.484838e+01 9.563287e+00 9.723320e+00 1.463896e+01 1.405594e+01 8.156989e+00 1.117064e+01 1.448950e+01 9.930132e+00 6.559002e+00 6.034814e+00 4.024206e+00 4.384002e+00
<GCONST> 1.285195e+02
~s "ST_s_3_1"
<MEAN> 25
 -1.342444e+01 7.831291e+00 4.463074e+00 -7.374251e+00 7.010499e+00 -7.955829e+00 4.057155e+00 3.161462e+00 3.772061e+00 -1.427269e+00 2.261423e+00 3.438473e+00 -2.626120e+00 -9.108827e-03 -4.783771e-01 -2.300998e-02 -1.972829e-01 2.844656e-01 5.563088e-01 1.478099e-01 7.414911e-01 -6.380102e-02 5.579119e-01 4.209385e-01 -3.405840e-01
<VARIANCE> 25
 4.687537e+01 5.487480e+01 9.044567e+01 8.129358e+01 1.037409e+02 6.876643e+01 8.253458e+01 5.622929e+01 5.850880e+01 3.822020e+01 3.822089e+01 3.377694e+01 9.631706e+00 7.057334e+00 5.784607e+00 5.155972e+00 5.350228e+00 5.269910e+00 5.053725e+00 4.845050e+00 4.669776e+00 4.011444e+00 4.099893e+00 3.101846e+00 1.408301e+00
<GCONST> 1.148606e+02
~s "ST_s_4_1"
<MEAN> 25
 -6.253460e+00 5.217573e-01 1.038821e+01 -8.265645e+00 3.070824e+00 -1.024158e+01 1.912843e+00 2.775999e+00 1.823112e+00 -6.576018e-01 4.322698e-01 4.373333e+00 5.426024e+00 -1.593451e+00 2.386369e+00 7.755910e-01 -2.220968e+00 -6.030443e-01 -1.154817e+00 -6.142244e-01 -2.526734e+00 1.206084e-01 -7.699888e-01 -4.757852e-01 3.463331e-01
<VARIANCE> 25
 1.320575e+02 6.071095e+01 1.499268e+02 6.512838e+01 1.008580e+02 5.867067e+01 9.131327e+01 6.912168e+01 8.792118e+01 3.344389e+01 5.104367e+01 3.488049e+01 9.285713e+00 5.182731e+00 1.408687e+01 1.070275e+01 1.067664e+01 8.661277e+00 7.193627e+00 6.951193e+00 1.116752e+01 5.318044e+00 4.937934e+00 4.392521e+00 5.142729e+00
<GCONST> 1.231567e+02
~s "ST_i_2_1"
<MEAN> 25
 1.559647e+01 -1.475237e+01 1.351714e+00 -5.411267e+00 2.559841e+00 -2.518889e+00 -1.211640e+00 -1.865278e+00 1.442282e+00 -3.141340e-01 -2.489775e+00 -7.401775e+00 1.061628e+00 8.704422e-01 -1.985475e-01 3.956723e+00 -2.655661e+00 1.201059e+00 -9.350873e-01 2.611581e-01 -1.241205e+00 -3.302032e-01 5.793161e-01 4.712968e-01 -2.417269e+00
<VARIANCE> 25
 1.460938e+01 4.556506e+01 3.724070e+01 7.980827e+01 6.563245e+01 7.562274e+01 4.936219e+01 9.753586e+01 1.160184e+02 4.873533e+01 4.249170e+01 2.638346e+01 2.002880e+00 4.793670e+00 6.206841e+00 1.147671e+01 3.591778e+00 7.053668e+00 7.310970e+00 8.650309e+00 4.687150e+00 4.183180e+00 4.199674e+00 4.176818e+00 4.239408e+00
<GCONST> 1.142881e+02
~s "ST_i_2_2"
<MEAN> 25
 8.975633e+00 1.967000e+00 1.987173e+01 -3.128685e+00 -9.934175e+00 -6.591342e+00 -2.859168e-01 -3.931258e+00 -1.067838e+01 -1.317319e+00 2.185270e-01 -1.379305e+00 5.577050e-01 -4.480800e-02 4.308435e-01 8.895738e-02 -3.250606e-01 -5.440574e-01 -2.078528e-01 2.102513e-01 -4.040270e-01 4.952971e-03 -1.070549e-01 -1.312724e-01 5.270585e-01
<VARIANCE> 25
 3.834189e+01 1.067210e+02 1.478713e+02 1.375753e+02 1.064607e+02 1.378602e+02 1.191892e+02 1.031192e+02 1.179088e+02 7.606429e+01 5.346731e+01 4.956344e+01 3.949872e+00 1.190588e+01 1.637661e+01 1.012943e+01 9.651651e+00 9.290828e+00 9.453526e+00 1.047631e+01 1.133775e+01 5.822979e+00 5.787398e+00 4.213487e+00 1.119334e+01
<GCONST> 1.280316e+02
~s "ST_i_2_3"
<MEAN> 25
 1.202206e+01 -5.387650e+00 2.625893e+01 -5.086948e+00 -1.801593e+01 -9.550551e+00 -1.352637e+00 -4.785855e-01 -1.888642e+01 -1.084263e+00 3.523167e+00 -9.083246e-02 1.037923e+00 -1.558849e+00 -9.683350e-01 1.492260e-01 -4.358630e-01 -9.022337e-01 -7.327461e-01 5.154347e-01 2.666940e-01 2.900873e-01 -2.637846e-01 3.555284e-02 1.042833e+00
<VARIANCE> 25
 1.453745e+01 3.540139e+01 6.654968e+01 1.006049e+02 1.010208e+02 5.712006e+01 1.006355e+02 6.320086e+01 7.214050e+01 2.920135e+01 3.471892e+01 3.942234e+01 2.734813e+00 2.878511e+00 1.316413e+01 9.820288e+00 8.603471e+00 6.036821e+00 6.137934e+00 6.223104e+00 1.321463e+01 3.920483e+00 4.029274e+00 3.432271e+00 1.646714e+00
<GCONST> 1.148835e+02
~s "ST_i_2_4"
<MEAN> 25
 1.382218e+01 1.089306e+01 8.748687e+00 2.634173e+00 -6.012124e+00 -6.863111e+00 -2.757310e+00 -4.859529e+00 -7.709889e+00 -4.724252e+00 6.462348e-01 8.822551e-01 -2.105270e+00 -4.808937e+00 -4.117887e-01 7.989902e-01 2.203833e+00 -2.418730e+00 1.645317e-02 3.133600e+00 1.173352e+00 7.171370e-01 -8.625704e-01 -1.169897e-01 1.792276e+00
<VARIANCE> 25
 2.988029e+01 1.975658e+02 5.071857e+01 6.967744e+01 6.134212e+01 8.602620e+01 6.787735e+01 8.696751e+01 2.913477e+01 4.658926e+01 3.182921e+01 2.214479e+01 2.776346e+00 2.597588e+01 5.263722e+00 9.997875e+00 9.097321e+00 1.186814e+01 1.389510e+01 7.429361e+00 5.926881e+00 8.453429e+00 3.835297e+00 3.231350e+00 7.768717e+00
<GCONST> 1.198677e+02
~s "ST_i_3_1"
<MEAN> 25
 2.087160e+01 -9.702089e+00 -1.746569e+00 5.325986e+00 -2.130222e+00 -1.210311e+00 -7.997284e-01 -9.325999e+00 -4.730059e+00 3.341921e+00 -4.244858e+00 -7.693837e+00 -2.003348e-01 -6.957563e-01 5.246002e-01 -8.415462e-01 5.528169e-01 -2.577869e-01 2.377225e-01 7.064654e-01 -2.686657e-01 -3.177597e-01 -5.900904e-01 -1.100574e-01 7.341769e-01
<VARIANCE> 25
 1.354053e+01 8.283420e+01 5.469770e+01 7.029271e+01 5.734397e+01 4.214685e+01 6.768359e+01 1.127899e+02 8.530025e+01 4.632016e+01 3.801292e+01 4.027879e+01 2.105957e+00 9.353396e+00 5.184175e+00 1.001632e+01 7.248975e+00 3.918201e+00 7.182231e+00 1.454013e+01 5.263006e+00 5.210915e+00 4.050052e+00 4.240894e+00 3.413036e+00
<GCONST> 1.158779e+02
~s "ST_i_3_2"
<MEAN> 25
 1.912008e+01 -6.354162e+00 -2.250343e+00 -1.162552e+00 -3.440347e+00 -6.219416e+00 5.797933e-01 -6.656704e+00 -3.897322e+00 3.205358e+00 -3.303016e+00 -3.082504e+00 4.348856e-01 3.393364e-01 -1.447400e+00 -1.313003e-01 7.038723e-01 1.239075e+00 1.190902e-02 -5.577079e-01 1.663169e-01 3.909456e-01 -2.782857e-01 -4.502891e-01 -5.119020e-01
<VARIANCE> 25
 2.428961e+01 9.754311e+01 1.160284e+02 1.093776e+02 7.289625e+01 1.499996e+02 1.286320e+02 1.356005e+02 8.280122e+01 6.632959e+01 3.827858e+01 3.873948e+01 1.591950e+00 5.297235e+00 8.196669e+00 6.329251e+00 7.651467e+00 6.883833e+00 8.084863e+00 9.903883e+00 8.432147e+00 6.627800e+00 4.774665e+00 3.567661e+00 1.911835e+00
<GCONST> 1.200798e+02
~s "ST_i_3_3"
<MEAN> 25
 1.462777e+01 -5.482143e+00 4.546236e+00 9.837506e-01 -5.455564e+00 -1.071394e+01 -1.347134e+00 -8.843154e-01 -3.648846e+00 8.331622e-01 -2.212652e+00 -6.957704e-01 -3.436816e-02 -5.056803e-01 -2.494223e+00 2.561322e-02 1.657255e+00 2.559332e-02 -2.062209e-01 1.881738e-01 2.046466e+00 7.361675e-02 -8.240702e-01 -4.374799e-02 -1.021981e-01
<VARIANCE> 25
 4.673302e+01 1.015335e+02 1.377803e+02 9.613495e+01 1.315392e+02 1.282962e+02 9.252567e+01 1.067551e+02 8.464310e+01 5.390718e+01 4.812117e+01 3.567173e+01 2.598112e+00 1.164046e+01 6.043892e+00 9.113396e+00 9.936378e+00 7.340479e+00 9.164254e+00 1.331001e+01 9.927863e+00 6.146678e+00 5.509218e+00 3.039128e+00 5.796303e+00
<GCONST> 1.239066e+02
~s "ST_i_4_1"
<MEAN> 25
 1.300555e+01 -1.538727e+01 1.300666e+01 -8.684702e+00 -5.410600e+00 -7.553933e+00 3.719129e+00 3.715204e+00 -4.464736e+00 -3.579234e+00 -4.158379e+00 -2.487892e+00 -2.733653e-01 7.186614e-01 1.189922e+00 -2.185226e-01 -8.957549e-01 -4.414870e-01 2.483193e-02 -2.181076e-01 -4.625463e-01 4.498934e-01 6.059910e-01 4.907794e-01 -1.564689e-01
<VARIANCE> 25
 1.488683e+01 3.065215e+01 7.738489e+01 5.830968e+01 1.172464e+02 1.028834e+02 6.748355e+01 5.692130e+01 7.013492e+01 5.008353e+01 5.510773e+01 2.931928e+01 4.507156e-01 7.737315e-01 1.814591e+00 2.098994e+00 2.849770e+00 2.839066e+00 4.316910e+00 3.296208e+00 3.190652e+00 3.435235e+00 2.758136e+00 2.270877e+00 2.748996e-01
<GCONST> 1.016553e+02
~s "ST_i_4_2"
<MEAN> 25
 1.426532e+01 -4.256878e+00 1.133130e+00 -3.129515e+00 -2.337505e+00 -5.500842e+00 -3.824660e+00 -7.536804e-01 -1.755035e+00 -3.447438e-01 -2.662140e+00 -3.238688e+00 -5.093535e-02 7.511966e-01 -1.203384e+00 -6.276745e-01 8.478801e-01 1.111856e+00 -5.390374e-01 -4.186886e-01 7.583578e-01 2.702546e-01 4.727403e-04 -2.911895e-02 -7.539787e-01
<VARIANCE> 25
 5.747623e+01 1.387660e+02 1.594859e+02 9.879004e+01 7.874324e+01 1.145726e+02 8.609645e+01 1.017102e+02 9.233711e+01 5.527027e+01 4.256394e+01 3.639483e+01 1.859599e+00 3.649306e+00 4.515067e+00 4.320539e+00 5.146973e+00 5.466032e+00 4.132752e+00 7.301338e+00 4.887258e+00 5.153047e+00 3.333654e+00 2.468633e+00 2.097945e+00
<GCONST> 1.163687e+02
~s "ST_i_4_3"
<MEAN> 25
 1.309475e+01 -1.164386e+01 6.381352e+00 -6.878051e+00 -2.406721e-01 -1.873918e+01 2.552184e+00 2.515345e+00 -1.941418e+00 1.899276e+00 -7.939986e+00 -1.062768e+00 1.052325e-01 -3.148430e-01 -1.179780e+00 6.518591e-02 1.230790e+00 4.219014e-01 6.150058e-01 -1.498066e-01 3.007032e-01 -2.555290e-02 -1.087649e+00 -3.846034e-01 -2.645456e-01
<VARIANCE> 25
 1.693076e+01 3.429799e+01 6.934340e+01 1.104347e+02 7.015262e+01 1.436967e+02 7.996767e+01 1.042194e+02 1.036573e+02 4.152479e+01 5.513605e+01 5.965360e+01 7.779427e-01 1.561155e+00 3.130004e+00 2.219357e+00 2.972144e+00 3.202671e+00 4.667392e+00 4.038304e+00 5.114331e+00 4.064807e+00 4.047041e+00 2.310819e+00 5.820611e-01
<GCONST> 1.080180e+02
~s "ST_E_2_1"
<MEAN> 25
 1.340998e+01 -2.746117e+00 -1.591259e+01 -7.966406e-01 9.537333e+00 7.253853e-01 -5.044740e+00 -6.373028e-01 -6.171453e-01 -1.015670e+00 -7.534751e+00 -4.992038e+00 -1.685921e+00 4.159252e-01 3.599628e-01 -1.596573e-01 6.819153e-02 3.950155e-01 3.921273e-02 -1.332013e-01 -1.713710e-01 -6.752498e-02 1.100724e-01 -2.064599e-01 -1.422836e+00
<VARIANCE> 25
 7.014098e+01 3.357656e+01 2.760658e+01 2.633235e+01 1.610695e+01 2.678119e+01 3.220716e+01 1.918923e+01 2.225988e+01 1.644174e+01 1.077674e+01 2.382178e+01 2.923045e+00 1.792893e+00 1.067201e+00 2.279978e+00 1.814039e+00 2.360073e+00 2.167758e+00 1.841632e+00 1.694056e+00 1.209927e+00 1.168016e+00 1.077128e+00 1.448874e+00
<GCONST> 9.094653e+01
~s "ST_E_3_1"
<MEAN> 25
 -3.743003e+00 -1.425222e+00 -7.224433e+00 5.194061e-01 5.028602e+00 2.553401e+00 -5.317628e+00 -1.198765e+00 -1.078566e+00 -7.848041e-01 -2.082748e+00 -2.352642e+00 -1.103685e+00 1.375698e+00 5.724220e-01 -8.358914e-02 -7.016213e-01 9.874377e-02 2.845444e-01 -4.731968e-01 -4.548506e-01 -3.274695e-01 2.616579e-01 1.612759e-01 -1.345975e+00
<VARIANCE> 25
 9.116404e+00 2.979491e+01 8.444851e+00 9.582878e+00 1.961100e+01 1.799212e+01 1.721888e+01 2.382815e+01 1.313325e+01 2.222392e+01 1.187389e+01 1.754542e+01 8.631673e-01 1.458344e+00 1.528591e+00 1.156265e+00 1.846617e+00 2.077144e+00 2.850969e+00 2.418201e+00 1.915729e+00 2.367639e+00 1.221317e+00 1.898626e+00 4.795365e-01
<GCONST> 8.453608e+01
~s "ST_E_4_1"
<MEAN> 25
 -1.001635e+01 6.890752e+00 -1.021154e+00 -5.997393e-01 2.167367e+00 2.369554e+00 -4.834595e+00 -1.238172e+00 -3.658273e+00 -3.445441e+00 -9.930941e-01 1.168208e+00 -1.276588e-01 1.390648e-01 1.762671e-01 3.134757e-02 -1.004128e-01 3.332351e-03 1.138043e-02 -4.675466e-02 -7.255864e-02 -3.975048e-02 3.451407e-02 1.176665e-01 -1.382870e-01
<VARIANCE> 25
 7.145775e+00 4.263847e+00 1.071684e+01 8.973993e+00 1.387915e+01 1.834144e+01 1.523948e+01 8.505684e+00 1.683436e+01 1.201694e+01 1.468017e+01 1.131537e+01 1.884654e-01 2.732912e-01 4.590108e-01 7.287562e-01 1.000491e+00 1.131396e+00 1.291318e+00 1.064635e+00 1.535396e+00 1.529388e+00 1.584237e+00 1.035680e+00 1.082441e-01
<GCONST> 7.026288e+01
~s "ST_l_2_1"
<MEAN> 25
 1.233828e+01 -5.988744e+00 9.813244e+00 -2.680386e+00 -6.209265e+00 -9.829861e+00 -6.250906e+00 -3.394120e+00 2.855161e+00 -2.986589e+00 -2.667626e+00 4.189393e-01 8.397943e-01 -4.135070e-01 1.344444e+00 8.336279e-01 -1.768732e+00 -3.886325e-02 1.964173e-01 -5.332714e-01 -1.590948e+00 3.413070e-01 6.380180e-01 -1.752761e-01 4.496188e-01
<VARIANCE> 25
 5.744487e+01 6.459261e+01 9.786325e+01 1.154779e+02 1.065519e+02 1.061129e+02 1.142549e+02 7.235675e+01 8.085723e+01 6.448837e+01 5.907251e+01 4.370571e+01 5.602467e+00 8.972152e+00 1.217674e+01 1.120872e+01 1.587772e+01 9.749439e+00 2.265770e+01 8.449178e+00 1.305023e+01 8.442104e+00 6.505678e+00 3.975470e+00 7.422506e+00
<GCONST> 1.273567e+02
~s "ST_l_3_1"
<MEAN> 25
 1.494702e+01 -9.356441e+00 1.661126e+01 -3.651892e+00 -1.292242e+01 -6.162394e+00 -5.533624e+00 -3.521531e+00 -7.407045e+00 2.592438e+00 -4.783922e-01 -6.058045e-01 -2.457791e-01 7.664175e-01 1.231986e+00 -4.106291e-01 -8.142350e-01 4.127102e-01 7.479948e-01 -5.137508e-02 -1.876072e+00 3.291642e-01 1.828084e-01 -4.435885e-02 -2.990383e-01
<VARIANCE> 25
 2.672792e+01 2.315089e+01 1.317223e+02 1.146060e+02 6.444669e+01 8.164221e+01 1.278751e+02 1.167896e+02 1.095168e+02 7.391611e+01 6.053873e+01 4.747542e+01 7.280645e-01 2.437605e+00 4.313924e+00 6.561398e+00 3.837709e+00 8.842776e+00 5.775736e+00 8.828882e+00 5.476969e+00 6.461151e+00 4.900425e+00 3.876858e+00 1.220340e+00
<GCONST> 1.152217e+02
~s "ST_l_4_1"
<MEAN> 25
 1.545193e+01 5.594315e+00 1.310024e+01 -4.221040e+00 -1.390926e+01 2.499440e+00 1.747077e+00 -1.185165e+01 -1.513914e+01 2.280548e+00 1.682002e+00 -1.040264e+00 7.207842e-01 2.716497e+00 -2.469610e+00 1.165509e+00 1.299650e+00 3.694095e-01 -4.828324e-01 -1.178676e+00 1.076416e+00 -1.003142e+00 4.102603e-02 6.648434e-02 -1.937556e+00
<VARIANCE> 25
 4.656999e+01 8.205157e+01 1.537258e+02 7.285127e+01 1.145045e+02 8.743874e+01 1.181999e+02 1.119510e+02 7.713225e+01 6.889171e+01 4.797335e+01 2.124509e+01 1.827893e+00 3.548965e+00 8.589720e+00 6.525360e+00 9.383228e+00 9.746750e+00 8.818651e+00 1.162996e+01 6.557061e+00 6.897094e+00 3.610070e+00 2.152213e+00 1.189912e+00
<GCONST> 1.188038e+02
~s "ST_b_2_1"
<MEAN> 25
 1.883472e+01 1.422884e+01 3.260484e+00 5.140197e+00 1.706983e+00 3.952703e+00 -3.556642e+00 -1.736022e+01 -1.303585e+01 -1.154324e+00 -3.901160e-02 -3.476685e+00 -4.727450e-01 -1.456851e+00 1.006854e+00 -1.028755e+00 -4.993415e-01 -1.689888e+00 -9.925757e-01 2.738599e+00 2.069271e+00 -7.727847e-01 2.155674e-01 1.617143e-01 1.087620e+00
<VARIANCE> 25
 2.113928e+01 3.848337e+01 6.088084e+01 4.603011e+01 4.531656e+01 4.974157e+01 6.570969e+01 7.310501e+01 6.363368e+01 3.606157e+01 1.966814e+01 3.315877e+01 2.657760e+00 9.948813e+00 5.605033e+00 6.830807e+00 5.284773e+00 4.592128e+00 5.047452e+00 6.030966e+00 6.267990e+00 3.735359e+00 2.956841e+00 1.896518e+00 3.447745e+00
<GCONST> 1.106430e+02
~s "ST_b_3_1"
<MEAN> 25
 1.860496e+01 1.042844e+01 2.589791e+00 4.195287e+00 2.902537e+00 1.200803e+00 -5.713314e+00 -1.157153e+01 -8.883308e+00 -3.513154e+00 -1.149736e+00 -4.113364e+00 -2.118813e-01 -6.845744e+00 2.876807e-02 -2.727516e+00 -1.633637e+00 -2.986005e+00 -5.570994e-02 3.429965e+00 2.981206e+00 1.891394e+00 4.921424e-01 -5.190037e-01 4.451682e+00
<VARIANCE> 25
 2.271191e+01 6.935596e+01 5.983886e+01 4.878261e+01 4.119810e+01 6.190095e+01 4.800276e+01 5.221606e+01 5.217606e+01 4.128146e+01 3.026693e+01 2.361038e+01 3.071643e+00 6.183392e+00 1.275270e+01 1.483639e+01 8.427314e+00 6.241624e+00 6.423415e+00 1.105649e+01 1.073605e+01 4.623204e+00 3.727051e+00 3.273034e+00 2.296568e+00
<GCONST> 1.148555e+02
~s "ST_b_4_1"
<MEAN> 25
 1.965122e+01 -6.655838e+00 1.335998e+00 -2.147042e+00 -2.789864e+00 -5.851197e+00 -5.038029e+00 -7.071388e+00 -4.492773e+00 3.982544e+00 2.619164e+00 -4.632381e+00 -6.713201e-01 -7.319974e+00 1.089335e+00 -3.697337e+00 -2.607687e+00 -2.902394e+00 1.319604e+00 2.514583e+00 3.034712e+00 2.317049e+00 -3.330311e-01 -7.325410e-01 5.496834e+00
<VARIANCE> 25
 1.731848e+01 3.953555e+01 7.831406e+01 1.114606e+02 4.425899e+01 9.715902e+01 6.899463e+01 6.475107e+01 5.398714e+01 6.423196e+01 4.227546e+01 2.245316e+01 4.611030e+00 6.307186e+00 1.789026e+01 1.216071e+01 6.841527e+00 7.819424e+00 9.638832e+00 1.699709e+01 1.989309e+01 5.731610e+00 4.979645e+00 4.964991e+00 2.251738e+00
<GCONST> 1.199151e+02
~s "ST_o_2_1"
<MEAN> 25
 1.566986e+01 -7.067235e+00 -3.957896e+00 -1.723162e+01 4.203570e+00 1.535083e+00 9.595776e-02 -4.159389e+00 -3.389543e+00 2.034603e+00 4.481051e+00 -2.001418e+00 1.076649e+00 -3.073882e-01 6.956590e-01 6.674954e-02 -6.115729e-01 -7.949709e-01 7.546248e-02 -3.337573e-01 -9.467997e-02 8.191903e-01 -1.242617e+00 -2.137359e-01 1.019293e+00
<VARIANCE> 25
 6.024947e+01 6.335813e+01 9.070493e+01 7.822391e+01 9.860313e+01 1.206922e+02 9.165222e+01 5.910685e+01 7.944124e+01 6.207421e+01 7.035138e+01 2.720932e+01 6.198058e+00 9.318037e+00 8.233871e+00 9.964387e+00 1.111824e+01 1.012133e+01 1.138792e+01 7.154595e+00 9.448681e+00 5.977213e+00 5.677446e+00 3.666495e+00 1.216971e+01
<GCONST> 1.242590e+02
~s "ST_o_3_1"
<MEAN> 25
 1.765407e+01 4.522889e+00 -1.165570e+01 -7.735198e+00 5.010133e+00 2.994555e+00 -5.575575e+00 -3.242074e+00 1.888301e+00 5.750533e+00 -1.856052e+00 -2.859900e+00 -2.195769e+00 2.539411e+00 -1.750319e+00 7.375413e-01 -1.056117e+00 1.384304e+00 3.901392e-01 4.980046e-01 8.094122e-01 -1.011318e+00 1.542987e+00 7.284491e-01 -4.345148e+00
<VARIANCE> 25
 3.000949e+01 2.453416e+01 5.671040e+01 3.678336e+01 2.479243e+01 2.970115e+01 4.054914e+01 1.891697e+01 3.392530e+01 2.826397e+01 3.881660e+01 2.223520e+01 4.539841e+00 4.019115e+00 1.237509e+01 6.698082e+00 6.343204e+00 4.626184e+00 8.792024e+00 3.307705e+00 5.778375e+00 3.137690e+00 6.200150e+00 2.660217e+00 4.030123e+00
<GCONST> 1.082271e+02
~s "ST_o_4_1"
<MEAN> 25
 1.054323e+00 6.434735e+00 -7.285077e+00 -6.207875e+00 -3.637683e+00 7.570381e-01 -7.757811e-01 -4.077309e-01 -2.468549e-01 6.298754e-01 2.227499e+00 5.084456e-01 -2.031806e+00 -1.849692e+00 2.026637e+00 6.319504e-01 -2.930914e-01 -1.653740e+00 7.324229e-01 7.481326e-01 -3.717290e-01 -1.582482e-01 -6.550378e-02 7.682970e-01 1.321291e-01
<VARIANCE> 25
 3.550501e+01 7.124706e+00 3.079844e+01 2.498748e+01 2.067675e+01 1.990380e+01 2.709341e+01 1.907577e+01 2.442542e+01 1.934159e+01 2.152202e+01 1.435021e+01 5.103880e+00 4.795846e+00 4.599728e+00 2.475030e+00 4.896952e+00 3.888964e+00 3.707047e+00 3.242266e+00 3.001845e+00 3.795135e+00 2.291108e+00 3.164408e+00 1.031000e+01
<GCONST> 1.000947e+02
~s "ST_aw_2_1"
<MEAN> 25
 -9.355412e+00 3.180597e+00 -6.827043e+00 4.413177e+00 1.397850e+00 2.866971e+00 1.242681e+00 9.856347e-01 4.491047e+00 -2.004286e+00 -1.252151e+00 -6.081415e-01 -3.746352e-03 1.711059e-03 -3.279676e-03 -1.225435e-02 -1.210072e-02 -3.171670e-02 4.895451e-04 4.728874e-02 9.732145e-02 3.378562e-02 -1.547032e-02 1.571058e-02 5.417413e-03
<VARIANCE> 25
 2.504761e+00 3.133153e+00 5.972595e+00 9.161552e+00 1.122500e+01 1.138606e+01 1.218519e+01 1.577965e+01 1.203767e+01 1.640858e+01 9.547034e+00 1.181376e+01 1.052245e-01 2.280926e-01 3.710614e-01 5.503827e-01 6.774092e-01 9.757949e-01 1.104836e+00 1.284396e+00 1.209132e+00 1.500407e+00 1.074734e+00 1.334529e+00 5.360071e-02
<GCONST> 6.477808e+01
~s "ST_aw_3_1"
<MEAN> 25
 -1.435065e+01 2.982842e+00 -4.738378e+00 7.081080e+00 4.432002e+00 9.049894e-01 -1.351452e+00 8.198394e-01 1.145152e+00 -2.905963e+00 1.445469e+00 9.017283e-01 -3.809144e-02 -1.451134e-02 4.290275e-03 -6.977292e-02 -3.202830e-02 -9.967874e-02 -6.389748e-02 5.439819e-02 -5.805381e-02 5.876489e-03 6.462575e-02 1.638075e-01 -8.763977e-03
<VARIANCE> 25
 4.464600e+00 3.135845e+00 7.808908e+00 9.344311e+00 1.460596e+01 1.521720e+01 1.188587e+01 1.105851e+01 1.222040e+01 1.194475e+01 1.556380e+01 1.141683e+01 1.286957e-01 2.455951e-01 5.483980e-01 8.203570e-01 7.121871e-01 1.165381e+00 1.085050e+00 9.383231e-01 1.092762e+00 1.162661e+00 1.780764e+00 1.272330e+00 5.360071e-02
<GCONST> 6.703146e+01
~s "ST_aw_4_1"
<MEAN> 25
 -4.988227e+00 5.790509e+00 -2.719750e+00 4.393525e+00 -1.235905e+00 -5.800998e-01 -4.167096e+00 7.909481e-01 2.375148e+00 -1.915409e+00 -2.419205e-01 2.298550e+00 1.141571e-01 9.073415e-02 1.984129e-01 5.539966e-03 -8.231936e-02 -3.744695e-02 -1.243194e-01 -2.132075e-01 -1.705549e-01 -1.022478e-01 -9.651822e-03 -1.548999e-02 7.410665e-02
<VARIANCE> 25
 5.155916e+01 5.018618e+01 2.943307e+01 1.877974e+01 3.264010e+01 5.103743e+01 3.400850e+01 2.286534e+01 1.354190e+01 1.326884e+01 1.523207e+01 9.357655e+00 6.904326e+00 6.698917e+00 2.123488e+00 1.604615e+00 2.639439e+00 3.916166e+00 4.522892e+00 1.718110e+00 1.941664e+00 1.277769e+00 1.615083e+00 1.331032e+00 4.846251e+00
<GCONST> 9.704374e+01
~s "ST_e_2_1"
<MEAN> 25
 1.427837e+01 -3.284882e+00 1.205415e+01 6.665302e+00 -1.122824e+01 -1.534884e+01 4.587997e+00 1.061085e-01 -1.083728e+01 -1.391251e+00 -2.057544e+00 -2.120043e-02 2.435319e-01 1.515628e+00 -8.308040e-02 1.133397e+00 -1.169808e+00 6.582592e-01 6.249666e-01 -6.119158e-01 2.207849e-03 -2.277330e-01 -4.114079e-02 -1.858212e-01 -1.754117e+00
<VARIANCE> 25
 3.748479e+01 7.478536e+01 9.914461e+01 1.109578e+02 1.016999e+02 7.397958e+01 8.026554e+01 1.056783e+02 9.376611e+01 5.358752e+01 4.640759e+01 3.696015e+01 5.021758e+00 1.050883e+01 7.746646e+00 1.133559e+01 1.088518e+01 7.886028e+00 7.815953e+00 1.316879e+01 1.122117e+01 5.072620e+00 5.387184e+00 4.209112e+00 9.150302e+00
<GCONST> 1.240366e+02
~s "ST_e_2_2"
<MEAN> 25
 1.393417e+01 -1.574475e+01 1.611447e+01 -6.883885e+00 -1.124302e+01 -1.560262e+01 -2.359285e+00 5.536373e+00 -6.003012e+00 6.774909e-01 5.498626e-01 2.631349e+00 -3.636133e-01 1.237007e+00 7.620455e-01 -4.596601e-01 -2.847029e-01 -2.697659e-01 1.213655e+00 -1.269792e+00 -1.325695e+00 5.335594e-01 -1.059905e+00 9.176374e-01 -5.558479e-01
<VARIANCE> 25
 1.217108e+01 1.663275e+01 4.016483e+01 6.913364e+01 5.348979e+01 4.312712e+01 4.201596e+01 4.522529e+01 5.233955e+01 2.546220e+01 2.629394e+01 1.972056e+01 7.113765e-01 2.432347e+00 3.417289e+00 6.491149e+00 3.324669e+00 2.881715e+00 4.565728e+00 2.399469e+00 4.223879e+00 2.317723e+00 3.102997e+00 2.547348e+00 1.653076e+00
<GCONST> 1.010783e+02
~s "ST_e_3_1"
<MEAN> 25
 5.511467e+00 2.813245e+00 1.121561e+01 -1.389004e+00 -7.602181e+00 -7.847904e+00 2.333300e+00 -2.970394e+00 -4.675794e+00 -1.281951e+00 4.612843e-01 2.359849e+00 -3.116084e-01 1.536140e-01 8.598386e-01 -7.669968e-01 -2.228716e-01 8.667322e-01 2.964292e-02 -8.956544e-01 -2.854236e-01 -7.904584e-02 3.117574e-01 9.101324e-02 3.139859e-01
<VARIANCE> 25
 1.411786e+02 1.332675e+02 1.276505e+02 8.541586e+01 1.126560e+02 5.905607e+01 9.260463e+01 4.602905e+01 7.456061e+01 3.804855e+01 4.617590e+01 2.662639e+01 1.214128e+01 1.788599e+01 1.373159e+01 1.155620e+01 1.526939e+01 6.969773e+00 1.382107e+01 6.970551e+00 7.731671e+00 4.373439e+00 3.546250e+00 3.525303e+00 1.241920e+01
<GCONST> 1.255603e+02
~s "ST_e_4_1"
<MEAN> 25
 1.481348e+01 -9.337443e-01 1.086923e+01 -6.452442e-01 -1.043863e+01 -4.550641e+00 -2.176674e+00 -4.476138e+00 -5.925036e+00 1.016568e-01 1.701588e-01 -5.845832e-01 -4.655684e-01 1.236499e+00 -7.945922e-01 6.369699e-02 5.918002e-01 5.027912e-01 2.875747e-01 -3.722768e-01 2.647641e-01 -1.934961e-02 -3.790796e-03 -3.790034e-02 -8.013838e-01
<VARIANCE> 25
 3.113278e+01 8.260413e+01 2.065586e+02 7.898703e+01 1.355306e+02 1.021807e+02 1.132882e+02 1.034157e+02 1.244253e+02 5.075653e+01 4.621804e+01 3.898734e+01 7.917796e+00 9.504697e+00 1.127687e+01 8.866221e+00 1.227667e+01 8.675666e+00 1.201964e+01 1.017423e+01 9.490860e+00 4.018977e+00 4.533584e+00 2.950454e+00 4.307256e+00
<GCONST> 1.247467e+02
~s "ST_e_4_2"
<MEAN> 25
 1.022281e+01 4.649199e+00 2.420603e+01 -3.058488e+00 -1.969586e+01 -2.629472e+00 2.329772e+00 -7.751011e+00 -1.412804e+01 5.340262e-01 -9.045892e-01 -4.270068e+00 -1.729921e-02 1.141809e+00 -9.506352e-01 8.607813e-01 2.743647e-01 4.958048e-02 -3.430940e-01 -3.788329e-02 5.595919e-01 -9.037167e-02 8.748156e-02 -2.203881e-01 -1.185921e+00
<VARIANCE> 25
 2.080008e+01 5.812561e+01 6.097736e+01 9.581121e+01 7.060281e+01 5.525939e+01 1.035425e+02 7.588036e+01 6.482336e+01 6.471418e+01 3.918079e+01 4.595744e+01 2.471233e+00 9.064880e+00 9.108373e+00 9.916454e+00 1.079954e+01 5.202375e+00 9.427578e+00 6.880382e+00 1.007588e+01 4.371696e+00 3.516337e+00 5.829428e+00 7.358168e+00
<GCONST> 1.194081e+02
~s "ST_r_2_1"
<MEAN> 25
 1.107396e+01 -1.303816e+01 1.484445e+00 -1.323775e+01 4.965013e-01 -6.554829e+00 3.092611e+00 -1.689385e+00 8.637983e+00 -4.013362e-03 -7.956949e+00 -7.051359e+00 5.471696e-02 -2.020171e-01 2.594351e-01 1.721729e-01 -4.700506e-02 -4.115947e-01 -3.205576e-01 4.709522e-01 1.691173e-01 -4.176643e-01 1.907587e-01 3.717059e-01 -9.806960e-02
<VARIANCE> 25
 3.868903e+01 3.142348e+01 2.769113e+01 4.164737e+01 4.057742e+01 3.596083e+01 5.119500e+01 6.917859e+01 3.889536e+01 3.518024e+01 2.893720e+01 2.783183e+01 7.322724e-01 6.683224e-01 9.610328e-01 9.559585e-01 1.432738e+00 2.401978e+00 1.789505e+00 1.807382e+00 1.886738e+00 2.263874e+00 1.769873e+00 1.131249e+00 3.410578e-01
<GCONST> 9.215180e+01
~s "ST_r_2_2"
<MEAN> 25
 1.180585e+01 -8.625669e+00 1.386166e+00 -3.407232e+00 -5.231347e-01 -3.268895e+00 -3.660217e-01 -1.131949e+00 -4.720326e-01 5.254878e-01 -4.043134e+00 -3.490003e+00 1.077538e-01 -4.496258e-02 -7.144818e-02 2.200838e-01 1.464687e-01 1.341997e-01 -6.742730e-01 2.163238e-01 4.027673e-01 -2.590525e-01 -2.902236e-01 -8.864276e-02 -1.880975e-01
<VARIANCE> 25
 1.033213e+02 1.324889e+02 7.969939e+01 1.345464e+02 6.718436e+01 1.095254e+02 1.099133e+02 8.659731e+01 5.808225e+01 5.835740e+01 3.707509e+01 4.129762e+01 1.406470e+00 1.127860e+00 2.034573e+00 2.332375e+00 1.909161e+00 2.681182e+00 3.004149e+00 3.374867e+00 2.750213e+00 2.505902e+00 2.210300e+00 1.670422e+00 7.947155e-01
<GCONST> 1.072528e+02
~s "ST_r_3_1"
<MEAN> 25
 1.390962e+01 -1.622088e+01 4.540097e+00 -1.256959e+01 -6.647230e-01 -7.381350e+00 -8.054579e-01 -9.573711e-01 8.843709e+00 3.309811e-01 -4.786860e+00 -5.738347e+00 1.448073e+00 -1.473145e-01 2.452291e-01 2.910771e+00 -1.474029e+00 9.500864e-01 -1.544963e+00 7.494821e-01 -1.437963e+00 7.147599e-01 7.538233e-01 8.491640e-01 -2.200984e+00
<VARIANCE> 25
 2.390611e+01 2.586911e+01 2.688459e+01 3.720180e+01 4.634323e+01 7.457211e+01 5.672132e+01 1.055035e+02 7.183137e+01 4.365701e+01 4.073914e+01 3.897067e+01 1.720714e+00 1.493728e+00 3.009654e+00 3.802806e+00 3.700607e+00 6.146830e+00 4.915954e+00 5.299456e+00 7.637351e+00 5.400072e+00 3.138624e+00 3.528626e+00 1.943279e+00
<GCONST> 1.081021e+02
~s "ST_r_3_2"
<MEAN> 25
 8.504816e+00 -4.511269e+00 1.307079e+00 -6.700723e-01 -2.416832e-01 -3.088285e+00 -1.887228e+00 -1.139814e+00 1.089319e+00 2.193954e-01 -4.072062e+00 -1.893147e+00 9.110630e-02 6.713730e-01 -6.260174e-01 1.096088e+00 -4.403654e-01 1.034459e+00 -8.019816e-01 -1.073678e-01 2.147699e-01 -1.745716e-01 3.370219e-01 1.018941e-01 -1.611919e+00
<VARIANCE> 25
 1.306958e+02 1.490563e+02 7.442223e+01 1.057345e+02 5.544441e+01 1.227147e+02 8.602733e+01 8.103235e+01 4.842613e+01 4.578303e+01 4.200733e+01 4.381115e+01 2.841384e+00 4.188223e+00 3.587476e+00 7.857862e+00 3.859027e+00 7.342130e+00 5.357289e+00 4.972329e+00 4.740707e+00 3.267114e+00 3.434711e+00 3.169839e+00 4.086392e+00
<GCONST> 1.166685e+02
~s "ST_r_4_1"
<MEAN> 25
 1.546712e+01 -7.232280e+00 -1.938945e+00 3.709493e+00 -2.212884e+00 -3.717234e+00 -3.172651e+00 -1.584649e+00 1.031381e+00 1.421426e+00 -2.876430e+00 -3.792691e+00 -2.409745e-01 1.845752e+00 -7.765050e-01 1.258509e+00 2.433652e-01 3.977398e-01 -3.667310e-01 -4.547470e-01 -3.927098e-01 -1.540164e-01 4.132064e-01 3.894178e-01 -1.903999e+00
<VARIANCE> 25
 8.250372e+01 1.054610e+02 8.686314e+01 6.878407e+01 5.896756e+01 5.762866e+01 5.570426e+01 6.255990e+01 3.733910e+01 3.867121e+01 3.501386e+01 2.631002e+01 3.644693e+00 6.870069e+00 7.390157e+00 1.135319e+01 6.238986e+00 7.348062e+00 7.482351e+00 6.862620e+00 5.028742e+00 3.996454e+00 3.908243e+00 3.177962e+00 4.568432e+00
<GCONST> 1.165545e+02
~s "ST_h_2_1"
<MEAN> 25
 -2.638149e-01 5.233388e+00 -5.130439e+00 -2.919463e+00 6.358054e-01 6.029673e+00 1.109801e+00 -7.928855e-02 -1.821192e+00 -6.504549e-01 -4.150276e-01 1.498807e+00 -4.380957e-01 1.639905e-01 6.561918e-02 -1.401984e-01 -3.061008e-01 -2.419414e-02 -8.549416e-02 4.813350e-01 2.220066e-01 -1.930037e-01 -7.603765e-02 -2.455300e-02 -5.069373e-01
<VARIANCE> 25
 1.274037e+02 3.200328e+01 1.055086e+02 9.045870e+01 2.160691e+01 6.731230e+01 4.141827e+01 4.162254e+01 2.227631e+01 1.531721e+01 1.628128e+01 1.552564e+01 1.801284e+00 2.159931e+00 3.525931e+00 3.542231e+00 1.807944e+00 1.781582e+00 2.959352e+00 1.112673e+00 1.700417e+00 1.392673e+00 1.519725e+00 1.237463e+00 2.353231e+00
<GCONST> 9.811793e+01
~s "ST_h_3_1"
<MEAN> 25
 -8.851164e-01 7.091636e+00 -2.536371e+00 -1.650748e-01 -5.038464e-01 2.174084e+00 -1.590121e+00 -1.504452e+00 -1.480917e-01 -2.719686e+00 -2.694128e-01 1.903512e-01 -4.465887e-01 2.245058e-01 1.994440e-01 2.577830e-01 -1.279318e-01 -1.030262e-01 3.638726e-02 3.778355e-01 -6.340267e-02 -2.980438e-01 2.225402e-01 6.489369e-02 -6.283438e-01
<VARIANCE> 25
 1.292872e+02 9.011295e+01 6.498383e+01 4.575652e+01 1.777470e+01 2.889015e+01 3.863687e+01 3.603674e+01 2.333205e+01 2.686358e+01 2.033162e+01 1.290504e+01 8.437250e-01 1.032095e+00 3.046780e+00 2.104583e+00 1.710729e+00 1.381815e+00 2.158600e+00 1.791539e+00 1.895418e+00 1.653782e+00 1.090918e+00 8.127072e-01 9.715190e-01
<GCONST> 9.372388e+01
~s "ST_h_4_1"
<MEAN> 25
 -6.422531e+00 4.963323e+00 -1.256410e+00 2.247797e+00 -7.685931e-01 1.665744e+00 -2.585635e+00 9.055145e-01 2.631331e-01 -6.391364e-01 -5.093562e-01 -3.082436e-01 -4.206210e-02 -2.382724e-01 -1.352117e-02 4.311932e-02 -2.157472e-02 2.157518e-02 -1.968659e-02 -4.421074e-02 -1.428137e-01 -4.512895e-02 1.186649e-01 7.253973e-02 1.297112e-02
<VARIANCE> 25
 5.301317e+01 2.354502e+01 3.485016e+01 2.142651e+01 1.971888e+01 3.515723e+01 2.321072e+01 2.674010e+01 2.252024e+01 1.558381e+01 1.139189e+01 1.561980e+01 5.010905e-01 7.809921e-01 1.150959e+00 1.042947e+00 1.194634e+00 1.458668e+00 1.506305e+00 1.675852e+00 2.403817e+00 1.707815e+00 1.282886e+00 1.511272e+00 5.241721e-01
<GCONST> 8.586057e+01
~s "ST_u_2_1"
<MEAN> 25
 2.170089e+01 2.181002e+00 -7.191958e+00 -4.798109e+00 -3.499336e-01 4.232602e+00 -5.401218e+00 -1.309603e+01 -7.099884e+00 4.258166e+00 -8.461654e-02 -1.977230e+00 -2.359182e-01 2.706841e+00 -1.403212e+00 -9.828320e-01 6.867425e-01 1.409439e+00 6.301894e-01 4.860720e-02 -4.902136e-01 -1.115321e+00 4.680619e-01 8.031409e-01 -1.859496e+00
<VARIANCE> 25
 2.589294e+01 6.876385e+01 6.871470e+01 7.032502e+01 5.195801e+01 4.731958e+01 6.428654e+01 8.705341e+01 8.953937e+01 4.125232e+01 4.360650e+01 2.449023e+01 2.629213e+00 3.456320e+00 5.815410e+00 7.605927e+00 6.832002e+00 6.174913e+00 6.442618e+00 6.509506e+00 6.591073e+00 4.230265e+00 4.297926e+00 2.363260e+00 1.821137e+00
<GCONST> 1.132600e+02
~s "ST_u_3_1"
<MEAN> 25
 1.527832e+01 1.421428e+01 -6.856261e+00 -6.552884e+00 2.561409e-01 5.982430e+00 -1.439072e+00 -6.838889e+00 -6.637677e+00 -4.570751e+00 6.328278e-01 1.387492e+00 -1.860805e+00 3.673736e-01 1.406941e+00 1.289633e+00 -3.510935e-01 -4.038703e-01 3.350608e-01 7.372445e-01 5.269378e-01 -3.811804e-01 -2.792701e-01 -7.161888e-02 -1.494648e+00
<VARIANCE> 25
 5.283719e+01 4.074089e+01 4.988478e+01 8.066631e+01 4.459117e+01 5.939444e+01 2.246379e+01 5.325952e+01 2.850593e+01 2.182145e+01 2.206733e+01 2.216433e+01 2.155953e+00 1.984522e+00 2.811046e+00 2.681881e+00 2.445379e+00 3.269701e+00 1.918820e+00 3.486309e+00 3.175423e+00 1.224346e+00 1.778606e+00 1.278424e+00 1.012740e+00
<GCONST> 9.916093e+01
~s "ST_u_3_2"
<MEAN> 25
 1.123798e+01 3.964760e+00 -8.907235e+00 -7.674405e+00 -1.074900e+00 2.997665e+00 -2.747413e+00 -2.904474e+00 -2.124438e+00 -1.027695e+00 -7.643296e-01 8.590355e-02 -2.135523e+00 -4.356366e-01 8.385717e-01 1.036220e-01 -8.040480e-01 -6.255190e-01 2.538389e-01 1.591652e-01 2.142972e-02 4.281742e-03 3.547292e-01 2.963899e-01 -1.169430e+00
<VARIANCE> 25
 1.213776e+02 5.452724e+01 5.400957e+01 5.690116e+01 3.106609e+01 2.697363e+01 3.027170e+01 5.661391e+01 8.635857e+01 2.815033e+01 1.650902e+01 2.353405e+01 4.250053e+00 1.414720e+00 2.461608e+00 4.023536e+00 3.877634e+00 2.834091e+00 3.098895e+00 2.359669e+00 3.247826e+00 2.012629e+00 1.621021e+00 1.605000e+00 2.991621e+00
<GCONST> 1.031136e+02
~s "ST_u_4_1"
<MEAN> 25
 9.802992e-01 1.045107e+01 -3.247587e-01 3.923169e+00 1.625072e-01 8.441600e-01 -1.920148e+00 -3.493411e+00 -1.023729e+00 -2.721147e+00 -2.097282e-01 1.585973e-02 -2.209631e+00 -1.541446e+00 -5.323174e-01 4.972968e-01 3.974694e-01 -5.890338e-02 2.695436e-01 4.336577e-01 -2.849904e-02 3.992544e-03 -7.856494e-02 -3.518666e-01 -1.209344e+00
<VARIANCE> 25
 6.172342e+01 6.733551e+01 5.055370e+01 3.213987e+01 2.654124e+01 3.110951e+01 2.691895e+01 3.968966e+01 3.998297e+01 1.836243e+01 1.673678e+01 2.320934e+01 3.675391e+00 2.843177e+00 2.591472e+00 2.856836e+00 3.088550e+00 2.870563e+00 2.251529e+00 3.773938e+00 2.308763e+00 1.569746e+00 1.632985e+00 1.280578e+00 1.695695e+00
<GCONST> 9.914735e+01
~s "ST_u_4_2"
<MEAN> 25
 6.322482e+00 -1.703223e-01 -5.142065e+00 -4.868333e+00 -7.179362e-01 -5.255951e-01 -1.503353e+00 -2.327390e+00 1.021581e+00 2.099144e-01 2.154971e-01 5.058127e-01 1.374038e+00 -2.224255e+00 2.235740e+00 -1.211508e+00 3.215864e-01 -1.517031e+00 -5.450171e-01 -6.139557e-02 -1.463463e-01 4.331913e-01 6.795025e-01 -7.738124e-02 4.323492e+00
<VARIANCE> 25
 1.383757e+02 6.220623e+01 5.901735e+01 6.688684e+01 4.404911e+01 5.762657e+01 4.827681e+01 7.360987e+01 5.293892e+01 3.990108e+01 1.958574e+01 2.833610e+01 1.180581e+01 6.756589e+00 6.725353e+00 7.641516e+00 3.518371e+00 6.855421e+00 6.860064e+00 5.337850e+00 4.792384e+00 5.316837e+00 2.961059e+00 3.680842e+00 1.397000e+01
<GCONST> 1.166434e+02
~s "ST_k_2_1"
<MEAN> 25
 1.438103e+01 -5.721391e+00 5.735139e+00 -2.207476e+00 -1.923514e+00 -4.234136e+00 4.935994e-02 -6.529092e-01 -5.692701e+00 2.479435e+00 -3.962947e+00 -3.186268e+00 -2.765479e-01 2.096177e+00 -2.056358e+00 1.854988e+00 1.023384e+00 1.349504e-01 -4.229513e-01 -9.411947e-02 5.589288e-01 -5.032482e-02 2.330411e-01 2.930283e-01 -2.492951e+00
<VARIANCE> 25
 4.059180e+01 9.338501e+01 2.127842e+02 1.137146e+02 1.589596e+02 1.199026e+02 1.042419e+02 9.797794e+01 9.521582e+01 6.808002e+01 8.168457e+01 5.502141e+01 2.981780e+00 7.272222e+00 1.310950e+01 1.044946e+01 1.653413e+01 9.803881e+00 1.245869e+01 1.250813e+01 7.425463e+00 5.337283e+00 5.845567e+00 5.009682e+00 7.359555e+00
<GCONST> 1.277415e+02
~s "ST_k_3_1"
<MEAN> 25
 1.435953e+01 4.476100e-01 -9.607369e+00 5.940278e-01 5.740507e+00 -6.808497e-01 -4.878411e+00 -1.272071e+00 2.215895e+00 3.719805e-01 -3.951879e+00 -4.528235e+00 -2.429074e+00 2.831206e+00 -3.982570e-01 -5.116969e-01 -1.101679e-01 1.510535e+00 -2.266601e-01 -4.789340e-01 4.438850e-01 -7.470226e-01 9.029564e-01 6.989660e-01 -3.500061e+00
<VARIANCE> 25
 5.455904e+01 4.920397e+01 6.063252e+01 5.617828e+01 5.787952e+01 4.578477e+01 4.312688e+01 6.591356e+01 4.474432e+01 4.385450e+01 4.265202e+01 2.817525e+01 5.236978e+00 4.482167e+00 1.116847e+01 6.315212e+00 9.885663e+00 6.255682e+00 6.941506e+00 6.601859e+00 6.184172e+00 4.298825e+00 4.269988e+00 3.380495e+00 3.281991e+00
<GCONST> 1.149835e+02
~s "ST_k_4_1"
<MEAN> 25
 -1.502141e+00 1.769235e+00 -5.387774e+00 -8.891883e-01 -1.313759e+00 7.078984e-01 -9.022918e-01 -3.126090e-01 8.294120e-01 7.888944e-01 -2.366216e+00 -2.704259e+00 -1.519798e+00 4.543110e-01 1.438881e+00 3.215089e-01 -7.199271e-01 -9.739759e-02 3.059714e-01 -4.244095e-02 -6.436250e-01 -3.016895e-01 2.209666e-01 2.828744e-01 -1.090312e+00
<VARIANCE> 25
 2.354767e+01 2.798179e+01 2.650056e+01 2.016743e+01 2.173568e+01 1.909062e+01 3.155231e+01 1.805940e+01 2.128067e+01 2.152606e+01 1.675691e+01 1.657944e+01 3.240296e+00 2.086169e+00 2.842873e+00 2.522566e+00 3.489275e+00 2.280142e+00 3.581722e+00 2.920723e+00 2.565109e+00 3.412389e+00 1.863137e+00 1.427559e+00 2.138717e+00
<GCONST> 9.505679e+01
~s "ST_k_4_2"
<MEAN> 25
 9.754930e+00 7.623952e+00 -4.306965e+00 -2.482582e+00 3.075580e+00 2.210923e+00 -3.430377e+00 -3.442447e+00 -2.715635e+00 -2.247653e+00 -9.005105e-01 -2.673828e+00 -7.503667e-01 -1.006182e-01 2.828388e-01 -1.365929e+00 -3.073665e-01 1.010970e+00 8.668653e-01 -2.820290e-01 -3.414227e-01 -1.618377e-01 1.063272e+00 4.027499e-01 -3.300897e-02
<VARIANCE> 25
 7.517400e+01 8.074607e+01 8.820752e+01 6.122786e+01 1.063488e+02 5.302041e+01 4.314066e+01 6.229866e+01 4.270811e+01 5.164876e+01 6.225381e+01 2.479818e+01 5.386849e+00 4.188913e+00 8.368711e+00 6.460519e+00 6.730609e+00 6.734593e+00 5.274664e+00 4.497435e+00 4.464061e+00 3.787910e+00 3.938910e+00 2.610895e+00 3.444497e+00
<GCONST> 1.153092e+02
~s "ST_a_2_1"
<MEAN> 25
 1.960262e+01 -6.885076e+00 -3.962195e+00 -7.341334e+00 -1.846488e+00 1.804624e-01 -1.958577e+00 -6.953395e+00 -1.466868e+00 2.838613e+00 1.123127e+00 -3.815197e+00 -1.110436e-01 -4.535582e+00 9.180321e-01 -1.604408e+00 -4.552598e-01 -1.166508e+00 7.867008e-01 1.567601e+00 1.176948e+00 6.052942e-01 -6.786199e-01 -1.412926e+00 3.623471e+00
<VARIANCE> 25
 3.594131e+01 9.731158e+01 6.838468e+01 1.133811e+02 5.721923e+01 8.646860e+01 7.248219e+01 7.171500e+01 7.288799e+01 4.970097e+01 5.489447e+01 3.868990e+01 6.519119e+00 8.088900e+00 7.188928e+00 1.174251e+01 5.218128e+00 6.938933e+00 7.307134e+00 1.025700e+01 1.209603e+01 5.764854e+00 5.450029e+00 3.330956e+00 4.076350e+00
<GCONST> 1.208371e+02
~s "ST_a_2_2"
<MEAN> 25
 5.910784e+00 3.188657e-01 1.204519e+00 -3.673969e-01 6.736369e-01 -2.900908e+00 -2.352588e+00 -4.119986e-01 -5.271602e-01 -1.019293e+00 -2.047410e+00 -1.517028e-01 1.674164e+00 -2.781083e+00 1.242778e-01 -1.540789e+00 4.634483e-01 -8.887666e-01 -2.777852e-01 7.504469e-01 -3.466937e-01 2.279419e-01 -1.676569e-01 -4.946319e-01 3.247698e+00
<VARIANCE> 25
 8.541181e+01 1.260335e+02 8.331184e+01 6.241425e+01 5.131366e+01 6.570988e+01 5.204429e+01 6.019020e+01 5.250601e+01 3.589758e+01 5.147282e+01 3.518160e+01 1.347578e+01 1.145985e+01 8.282525e+00 8.674512e+00 6.239464e+00 6.634977e+00 7.290511e+00 7.587818e+00 5.392839e+00 3.488939e+00 5.173051e+00 4.101428e+00 1.552364e+01
<GCONST> 1.207858e+02
~s "ST_a_2_3"
<MEAN> 25
 -9.824592e+00 5.264620e+00 -2.433132e+00 2.667514e+00 6.535350e+00 6.410350e+00 4.384698e+00 1.704098e+00 1.757917e+00 4.465572e-01 4.469908e+00 4.195625e+00 5.015269e+00 -7.417448e-01 -2.183435e-01 -3.277324e+00 8.682067e-02 -7.353221e-01 -2.277732e-01 -9.815776e-01 -7.089205e-01 2.354531e-01 -4.724181e-01 -7.171366e-01 6.428643e+00
<VARIANCE> 25
 1.394890e+02 2.324991e+01 1.561565e+01 8.675639e+01 2.563578e+01 3.359096e+01 1.433391e+01 1.248285e+01 1.237048e+01 1.057274e+01 1.362091e+01 7.039907e+00 8.671724e+00 5.959178e+00 3.529410e+00 8.414831e+00 4.079493e+00 4.192292e+00 2.555514e+00 2.576369e+00 1.733583e+00 1.375310e+00 1.671847e+00 1.395196e+00 1.865146e+01
<GCONST> 9.932636e+01
~s "ST_a_3_1"
<MEAN> 25
 1.827467e+01 -1.310510e+01 -1.301129e+00 -8.776520e+00 -4.418755e-01 -1.778803e+00 -4.619110e-01 -4.910089e+00 -1.968792e-01 2.668160e+00 -1.160514e+00 -6.229964e+00 -1.149827e+00 -2.917635e+00 1.617831e+00 -1.767617e+00 7.875709e-01 -5.485002e-01 3.617738e-01 1.658510e+00 1.511896e+00 -4.303969e-01 -1.774806e+00 -1.183486e+00 2.444872e+00
<VARIANCE> 25
 2.565384e+01 4.672224e+01 7.119184e+01 1.003658e+02 4.609492e+01 7.310521e+01 9.195833e+01 9.086973e+01 9.588307e+01 6.409216e+01 5.929090e+01 3.663123e+01 2.965143e+00 5.745996e+00 5.152546e+00 8.707090e+00 6.953666e+00 6.163419e+00 8.960510e+00 8.881153e+00 8.441384e+00 6.196857e+00 5.376164e+00 3.744959e+00 2.890755e+00
<GCONST> 1.182650e+02
~s "ST_a_3_2"
<MEAN> 25
 1.095391e+01 -7.487769e+00 -3.620338e+00 -9.465659e+00 3.657601e+00 1.696229e+00 5.399658e-01 -1.515862e+00 6.161364e-01 1.761228e+00 -1.986143e+00 -1.520526e+00 2.582275e+00 -3.641515e+00 1.051316e+00 -2.710999e+00 2.188154e-01 -5.299132e-01 2.030939e-01 -6.601073e-01 -7.114073e-01 3.807968e-01 -1.025499e+00 -1.870561e+00 5.467083e+00
<VARIANCE> 25
 1.456963e+02 1.063185e+02 5.794047e+01 1.162059e+02 5.042865e+01 8.832977e+01 6.084626e+01 5.865844e+01 4.229629e+01 3.544868e+01 6.279118e+01 4.139559e+01 9.821142e+00 7.247259e+00 6.502197e+00 1.070140e+01 6.960549e+00 7.183417e+00 8.641266e+00 7.451806e+00 5.059539e+00 5.126148e+00 4.486181e+00 3.467452e+00 1.216576e+01
<GCONST> 1.212506e+02
~s "ST_a_3_3"
<MEAN> 25
 8.719428e+00 1.055443e+00 3.584443e+00 -7.914365e-02 -2.085651e+00 -4.784249e+00 -2.737538e+00 -1.254370e+00 -3.564774e+00 -1.610963e+00 -8.652304e-01 -2.026546e+00 -2.552551e-01 -1.450625e+00 -4.288770e-01 -1.892169e-01 -1.447656e-01 -4.186709e-01 2.132903e-01 1.102045e+00 7.541501e-01 -3.345442e-01 9.472691e-02 -2.212726e-01 7.713103e-01
<VARIANCE> 25
 9.767181e+01 1.416077e+02 1.280766e+02 7.080970e+01 7.816838e+01 7.799236e+01 4.023064e+01 5.401649e+01 7.227544e+01 3.426979e+01 5.123478e+01 3.208986e+01 4.187023e+00 6.617564e+00 9.365241e+00 5.404188e+00 6.369590e+00 4.635921e+00 6.948903e+00 7.696771e+00 7.099580e+00 3.709743e+00 3.731742e+00 3.108134e+00 5.415503e+00
<GCONST> 1.182351e+02
~s "ST_a_3_4"
<MEAN> 25
 1.414928e+01 -1.098834e+01 6.217658e+00 -6.112730e+00 4.269209e-01 -1.077320e+01 -7.058815e+00 6.776355e+00 -1.562150e+00 1.026540e-01 -7.218806e-01 -3.217707e+00 2.232456e+00 -2.666792e+00 -1.597522e-01 -1.771955e+00 -4.155971e-01 -1.231979e-01 -6.299012e-01 7.621714e-01 2.628039e-01 7.852719e-01 -5.646545e-01 -1.819381e+00 2.399949e+00
<VARIANCE> 25
 3.079289e+01 4.160941e+01 7.862418e+01 9.785172e+01 5.266262e+01 8.068386e+01 6.988570e+01 8.379583e+01 6.473146e+01 4.847698e+01 4.083804e+01 5.487097e+01 3.837830e+00 5.595753e+00 6.939254e+00 1.127403e+01 7.079247e+00 1.084747e+01 1.400474e+01 1.307827e+01 6.403741e+00 7.363918e+00 5.817125e+00 3.939318e+00 6.491094e+00
<GCONST> 1.206801e+02
~s "ST_a_4_1"
<MEAN> 25
 8.484685e+00 -1.278284e+01 2.691642e+00 -1.410202e+01 5.749234e+00 7.075277e-01 -6.113666e-01 3.212643e-01 -1.110976e+00 1.808601e+00 -1.732444e+00 -6.167114e+00 9.893036e-01 -1.454881e+00 7.750837e-01 -1.649119e-01 1.280382e-01 1.230442e-01 -7.445610e-01 -7.240561e-03 7.667200e-02 -2.545994e-01 -1.196672e+00 -1.070656e+00 1.194285e+00
<VARIANCE> 25
 9.190791e+01 7.070351e+01 2.717546e+01 9.347192e+01 5.037659e+01 5.124077e+01 6.616799e+01 4.539399e+01 6.965282e+01 4.042934e+01 4.142153e+01 4.879280e+01 3.606370e+00 2.238650e+00 1.632875e+00 5.462939e+00 4.083838e+00 7.172276e+00 5.571132e+00 4.550433e+00 9.300593e+00 4.719441e+00 2.068938e+00 2.440492e+00 4.796484e+00
<GCONST> 1.118401e+02
~s "ST_a_4_2"
<MEAN> 25
 1.343130e+01 -1.629232e+01 4.055443e+00 -1.539600e+01 -6.389362e-02 -6.573001e+00 2.868830e+00 -1.323424e+00 6.207034e+00 3.092416e+00 -7.507260e+00 -8.266094e+00 -1.212613e+00 3.485749e-01 -2.299735e-01 -3.772406e-01 7.074887e-01 -1.406025e-01 1.301330e+00 1.964719e-01 1.211491e+00 -1.591221e+00 -1.398872e+00 2.157573e-01 7.149222e-01
<VARIANCE> 25
 2.623511e+01 2.013397e+01 3.187189e+01 3.528770e+01 2.945067e+01 3.504044e+01 5.670115e+01 8.039043e+01 5.037609e+01 3.485661e+01 2.913059e+01 2.623335e+01 7.255663e-01 1.476997e+00 2.362755e+00 2.359580e+00 2.545626e+00 3.309486e+00 5.815166e+00 4.329548e+00 4.341578e+00 4.066670e+00 5.448668e+00 2.834028e+00 2.695588e-01
<GCONST> 1.001570e+02
~s "ST_a_4_3"
<MEAN> 25
 1.020320e+01 -5.879650e+00 1.381051e+00 -4.831523e+00 -7.596641e-01 -6.122946e+00 -2.211175e+00 2.724666e+00 -3.368808e-01 3.273916e-01 -5.318701e+00 -4.089194e+00 -1.610513e-01 -1.669642e-01 -3.949365e-01 -7.783971e-02 6.079988e-01 4.683286e-01 1.290021e-01 -1.159098e-01 1.137242e-01 1.982092e-01 -7.114529e-01 3.158030e-02 -4.684395e-01
<VARIANCE> 25
 9.369387e+01 1.533274e+02 6.312426e+01 1.047680e+02 5.945237e+01 8.506647e+01 4.829471e+01 7.916982e+01 5.623119e+01 4.759529e+01 3.987197e+01 3.638137e+01 1.796419e+00 2.652422e+00 3.691061e+00 3.023830e+00 3.808470e+00 3.821514e+00 3.752464e+00 3.817486e+00 3.663377e+00 4.069569e+00 4.957201e+00 3.737254e+00 1.379438e+00
<GCONST> 1.115222e+02
~s "ST_a_4_4"
<MEAN> 25
 1.464341e+01 -1.607873e+01 5.681373e+00 -1.350729e+01 4.313797e+00 -7.768573e+00 -5.162803e+00 8.618773e+00 -3.017554e+00 1.494412e-01 -5.967429e+00 -8.805593e+00 4.721030e-01 -2.551451e-01 -1.176319e+00 -3.805605e-01 8.833405e-01 1.726572e+00 8.208454e-01 -1.716792e+00 -5.549737e-02 6.823158e-01 -1.086842e+00 -1.118043e+00 1.247176e-01
<VARIANCE> 25
 2.462094e+01 3.179852e+01 4.586338e+01 5.481134e+01 3.673214e+01 4.680761e+01 5.546658e+01 1.002830e+02 5.162043e+01 4.935467e+01 4.066450e+01 3.321918e+01 1.129577e+00 1.788520e+00 2.277125e+00 2.035702e+00 2.379083e+00 2.093956e+00 5.666190e+00 3.952509e+00 4.249093e+00 2.769665e+00 3.277235e+00 3.067964e+00 1.404452e+00
<GCONST> 1.036291e+02
~s "ST_a_4_5"
<MEAN> 25
 1.430881e+01 -1.630501e+01 2.225453e+00 -1.385656e+01 4.652428e+00 -2.753099e+00 -8.248895e-01 -1.015963e+00 4.361118e-01 1.320068e+00 -6.069498e+00 -6.432887e+00 -6.249679e-02 -9.306431e-02 1.304320e-01 -1.300945e-01 2.374653e-01 -6.488205e-01 2.497120e-01 1.622602e-02 4.612292e-03 2.071523e-01 -6.649091e-01 -1.694675e-01 1.082575e-01
<VARIANCE> 25
 2.739740e+01 2.596219e+01 4.561884e+01 6.639691e+01 6.213758e+01 4.349749e+01 6.513396e+01 6.785762e+01 5.890553e+01 4.552924e+01 4.034258e+01 2.903904e+01 1.587996e+00 2.110487e+00 2.483146e+00 4.218666e+00 3.928488e+00 4.250408e+00 4.504589e+00 5.142625e+00 5.007130e+00 3.989870e+00 3.977302e+00 2.776714e+00 2.147092e+00
<GCONST> 1.074632e+02
~s "ST_n_2_1"
<MEAN> 25
 1.569867e+00 1.025526e+00 -3.452925e+00 1.805647e+00 1.155472e+00 4.321742e+00 2.671065e+00 3.261735e-02 -1.041002e+00 -2.525825e+00 -2.668277e+00 -3.071447e+00 -4.817120e-01 5.343465e-02 -2.479202e-02 -9.324748e-02 7.174280e-02 2.001385e-03 -1.116618e-01 1.892776e-02 -6.219547e-02 -2.386342e-01 1.378438e-01 1.500367e-01 -3.983271e-01
<VARIANCE> 25
 8.406252e+01 7.949445e+01 7.769960e+01 5.582284e+01 2.710237e+01 3.327702e+01 4.893786e+01 4.718927e+01 3.966319e+01 2.274319e+01 2.528066e+01 1.838838e+01 7.178587e-01 1.627204e+00 1.562820e+00 1.267550e+00 2.229581e+00 1.580036e+00 1.771398e+00 2.010917e+00 1.982203e+00 1.989544e+00 1.242886e+00 1.526749e+00 3.210413e-01
<GCONST> 9.486995e+01
~s "ST_n_2_2"
<MEAN> 25
 -7.666548e+00 3.404545e+00 -4.981195e+00 3.019897e+00 5.572978e-01 2.826423e+00 -2.071107e+00 9.309930e-01 1.986318e+00 -1.193227e+00 -4.368256e-02 1.004036e+00 5.721080e-02 1.400830e-01 -3.255633e-02 -6.938452e-02 -9.017473e-03 1.695131e-02 3.269074e-02 -3.081521e-02 -1.244941e-01 -9.791021e-02 1.579686e-02 -2.100166e-02 -1.373234e-02
<VARIANCE> 25
 4.773132e+01 1.033993e+01 1.481495e+01 1.449870e+01 1.751747e+01 1.911363e+01 2.651007e+01 2.043451e+01 1.664137e+01 1.311935e+01 1.384317e+01 1.334581e+01 1.934948e-01 4.911704e-01 7.014613e-01 7.807997e-01 1.073407e+00 1.419380e+00 1.442882e+00 1.341657e+00 1.430018e+00 1.459675e+00 1.233568e+00 1.210356e+00 9.124760e-02
<GCONST> 7.710021e+01
~s "ST_n_3_1"
<MEAN> 25
 2.050478e+00 6.502985e+00 -4.860195e-01 3.343699e+00 2.581589e+00 1.762510e+00 -3.036136e+00 -2.638251e+00 -1.929834e+00 -3.807137e+00 -2.774474e+00 -1.288351e+00 4.860701e-01 1.499504e-02 -3.793263e-01 -7.744665e-01 -1.830837e-01 4.365182e-01 3.313046e-01 -6.278379e-03 -2.318816e-01 7.958454e-02 4.659745e-01 4.288169e-01 3.204305e-01
<VARIANCE> 25
 1.515461e+02 7.964777e+01 5.768939e+01 5.933591e+01 2.641383e+01 2.910860e+01 3.844482e+01 5.261957e+01 3.276569e+01 2.935939e+01 2.630715e+01 2.230606e+01 9.250011e+00 6.360612e+00 3.224156e+00 3.064605e+00 2.185057e+00 2.650298e+00 2.211842e+00 2.519625e+00 2.212678e+00 2.200643e+00 1.910725e+00 1.866139e+00 4.686338e+00
<GCONST> 1.052232e+02
~s "ST_n_4_1"
<MEAN> 25
 1.221113e+01 7.982129e+00 -5.371623e+00 -5.124185e+00 3.156103e-03 6.093412e+00 -1.532663e+00 -3.894279e+00 -1.967316e+00 -2.125694e+00 1.966156e+00 1.244191e+00 2.983420e+00 -1.205078e+00 -6.792094e-01 -1.912863e+00 -5.901123e-01 1.704843e-01 -2.475921e-03 -5.589181e-01 -1.015130e+00 5.850800e-01 7.763525e-01 -1.988050e-01 3.001581e+00
<VARIANCE> 25
 1.424731e+02 9.020115e+01 6.286938e+01 1.024061e+02 4.373928e+01 5.421722e+01 4.069579e+01 6.235769e+01 4.128356e+01 2.409444e+01 4.030805e+01 2.690319e+01 1.579019e+01 1.128734e+01 5.626523e+00 6.866821e+00 2.939083e+00 4.581692e+00 4.059673e+00 5.825875e+00 5.087742e+00 2.235654e+00 4.137403e+00 2.537670e+00 1.002043e+01
<GCONST> 1.153678e+02
~s "ST_d_2_1"
<MEAN> 25
 1.620897e+01 1.062985e+01 -2.266847e+00 7.022052e+00 3.184624e+00 -7.367839e+00 -1.061847e+01 -3.987433e-01 5.069231e+00 -3.510541e+00 -7.646347e+00 -4.675616e+00 -5.575144e-01 1.671338e+00 6.100334e-01 -1.687001e-01 8.852890e-01 6.535870e-01 -1.069879e+00 -5.927631e-01 4.160369e-01 -7.379482e-01 -2.928138e-01 1.173157e-01 -8.947034e-01
<VARIANCE> 25
 2.020892e+01 1.020418e+02 5.502064e+01 4.296267e+01 5.169677e+01 3.026663e+01 4.438112e+01 4.388875e+01 4.629578e+01 1.987907e+01 2.987762e+01 2.059253e+01 1.737726e+00 2.375185e+01 7.015978e+00 3.991768e+00 7.183856e+00 4.986271e+00 7.175043e+00 5.343320e+00 6.236373e+00 3.781465e+00 4.626893e+00 3.803444e+00 8.281516e+00
<GCONST> 1.119431e+02
~s "ST_d_3_1"
<MEAN> 25
 1.974101e+01 -4.870894e+00 6.473010e-01 2.444438e+00 1.269377e+00 -4.410379e+00 -1.363669e+01 -9.320841e+00 -2.716144e+00 -3.777101e+00 2.228913e+00 1.383458e+00 1.562456e+00 -1.245331e+00 -6.813892e-01 -2.759679e+00 -1.047368e+00 1.081693e+00 5.683703e-01 -1.897713e+00 -3.058886e+00 4.581972e-01 2.318078e+00 8.093960e-01 2.186312e+00
<VARIANCE> 25
 1.983478e+01 4.346280e+01 7.193102e+01 1.041536e+02 9.266034e+01 1.118820e+02 6.390555e+01 8.542205e+01 6.882722e+01 5.647351e+01 5.768697e+01 4.041868e+01 2.494801e+00 2.023374e+01 1.332555e+01 9.325330e+00 1.160144e+01 1.157944e+01 9.753912e+00 7.798349e+00 6.942626e+00 5.180096e+00 7.485407e+00 5.528499e+00 6.998003e+00
<GCONST> 1.227259e+02
~s "ST_d_4_1"
<MEAN> 25
 2.461890e+01 3.893980e+00 -5.930330e+00 -1.190278e+01 -4.729301e+00 6.912666e+00 -1.068100e+00 -1.498151e+01 -1.020053e+01 6.110206e-01 3.093465e+00 8.341945e-01 1.632263e-01 -4.325409e-01 -2.781057e-01 -5.480573e-01 -6.073412e-01 5.877882e-01 1.074636e+00 -6.174734e-02 2.181795e-01 4.875153e-01 -6.542360e-01 -6.973815e-02 2.294298e-01
<VARIANCE> 25
 7.483215e+00 8.056776e+01 2.827590e+01 4.590486e+01 3.475149e+01 3.585462e+01 4.964697e+01 3.388055e+01 2.715144e+01 8.879985e+01 2.418952e+01 2.744736e+01 5.615774e-01 9.312676e+00 2.164899e+00 7.822247e+00 2.017824e+00 6.134291e+00 3.632853e+00 5.571981e+00 5.745823e+00 8.341031e+00 2.345390e+00 2.889636e+00 1.533290e+00
<GCONST> 1.045768e+02
~s "ST_g_2_1"
<MEAN> 25
 -1.835693e+00 6.832725e+00 3.180028e-01 4.763389e+00 -3.444077e-01 8.932764e-01 -3.950675e-01 -2.547425e-02 1.578236e-01 -1.693990e+00 4.228868e-01 9.801192e-01 1.179963e+00 -2.185103e-01 2.612917e-02 -7.463341e-01 1.188382e+00 -9.682018e-01 -9.102291e-01 -5.866699e-01 -1.116855e-01 -1.206067e-01 1.854179e-01 -1.469561e-01 2.817446e+00
<VARIANCE> 25
 1.692162e+02 7.915695e+01 8.782188e+01 3.395673e+01 5.961890e+01 7.305632e+01 4.858680e+01 5.153497e+01 4.574633e+01 1.900567e+01 4.314748e+01 3.402146e+01 1.467896e+01 9.004184e+00 7.692809e+00 3.997106e+00 5.864213e+00 7.460719e+00 4.758903e+00 6.268927e+00 3.789482e+00 3.435263e+00 2.881661e+00 3.143004e+00 2.446667e+01
<GCONST> 1.171655e+02
~s "ST_g_3_1"
<MEAN> 25
 1.159877e+00 7.040995e+00 1.863267e+00 4.637815e+00 6.122406e-01 -1.588515e+00 -8.916243e-01 -6.411077e-01 -7.432580e-02 -7.338015e-01 6.249294e-01 1.068760e+00 2.143977e+00 -1.442626e+00 1.084391e+00 -1.680525e+00 2.858656e-01 -1.728803e+00 -7.690732e-01 -5.512742e-01 -7.894178e-01 8.259535e-02 2.817380e-02 -4.914478e-01 5.011010e+00
<VARIANCE> 25
 7.829887e+01 7.942062e+01 9.189113e+01 4.769889e+01 5.496836e+01 5.780158e+01 4.244341e+01 5.215995e+01 4.953049e+01 2.051281e+01 3.259247e+01 2.642117e+01 2.250660e+01 1.562212e+01 6.492126e+00 6.254409e+00 5.158309e+00 1.033062e+01 5.502080e+00 5.757447e+00 5.059939e+00 3.650232e+00 5.075897e+00 4.265195e+00 3.327320e+01
<GCONST> 1.190095e+02
~s "ST_g_4_1"
<MEAN> 25
 4.199742e+00 3.610775e+00 5.861032e+00 -4.593712e-01 -1.704475e+00 -4.175348e+00 -6.639244e-01 -3.419184e+00 -2.490732e+00 -1.893522e+00 6.954826e-02 -5.347698e-02 2.235416e+00 -2.571368e+00 2.007305e+00 -1.973139e+00 -8.521305e-01 -1.872798e+00 -1.661088e-01 3.522886e-01 -1.330455e+00 -1.451909e-01 9.528722e-02 -4.465794e-01 4.835931e+00
<VARIANCE> 25
 4.320563e+01 1.336181e+02 9.589189e+01 7.030801e+01 5.800133e+01 6.083344e+01 5.606417e+01 6.184563e+01 5.963773e+01 3.596268e+01 3.384721e+01 2.863556e+01 1.559067e+01 1.471455e+01 1.019496e+01 8.215906e+00 5.616732e+00 8.712148e+00 1.098027e+01 7.021941e+00 5.762786e+00 4.035359e+00 5.275130e+00 4.270831e+00 1.984466e+01
<GCONST> 1.216394e+02
~s "ST_t_2_1"
<MEAN> 25
 9.981429e+00 -1.102204e+01 3.819635e+00 -8.917742e+00 1.365097e+00 -8.600463e+00 1.332805e+00 1.339202e+00 -4.873458e-01 3.275276e+00 -4.319683e+00 -1.821986e-01 1.472269e+00 -6.398423e-01 4.896870e-01 -5.007906e-01 1.357489e+00 -1.092766e+00 -4.165361e-01 -7.750174e-02 -4.884821e-03 1.290051e+00 -1.368888e+00 1.422553e-01 1.839754e+00
<VARIANCE> 25
 5.698017e+01 6.322614e+01 7.183762e+01 1.008484e+02 8.525335e+01 7.398956e+01 6.841428e+01 7.470133e+01 5.392425e+01 4.922227e+01 6.279480e+01 4.383979e+01 5.454688e+00 9.953352e+00 9.899273e+00 8.337573e+00 5.422532e+00 6.457726e+00 6.587021e+00 6.127144e+00 5.704973e+00 6.335116e+00 4.289775e+00 4.648345e+00 2.265023e+01
<GCONST> 1.214790e+02
~s "ST_t_3_1"
<MEAN> 25
 1.468294e+01 -1.002654e+01 2.273967e+00 -8.804078e+00 3.796023e+00 -8.368258e+00 -1.068370e+00 -1.477428e+00 9.194098e-02 6.866326e+00 -7.020628e+00 -1.770865e+00 8.067779e-01 1.990916e+00 -2.209327e+00 2.331360e+00 -4.989173e-02 1.554291e+00 -8.391692e-01 -3.208957e-02 1.231657e+00 -4.284912e-01 -8.693688e-02 -3.062783e-01 -2.484175e+00
<VARIANCE> 25
 2.576579e+01 3.824026e+01 5.411076e+01 9.716831e+01 6.264603e+01 8.177598e+01 8.082894e+01 6.792954e+01 5.236324e+01 5.175212e+01 6.742050e+01 4.370089e+01 3.321824e+00 5.846470e+00 8.039223e+00 1.002726e+01 6.445734e+00 5.943022e+00 6.520863e+00 7.291751e+00 6.590317e+00 5.753826e+00 5.767220e+00 4.267797e+00 1.156147e+01
<GCONST> 1.186024e+02
~s "ST_t_4_1"
<MEAN> 25
 1.074392e+01 1.585288e-02 -7.375753e+00 -1.932017e+00 2.558773e+00 -3.168294e+00 -4.308015e+00 1.331953e+00 5.420215e+00 1.830047e+00 -4.408862e+00 -1.423423e+00 -1.163669e+00 7.743377e-01 -5.264049e-01 -1.232459e-01 -1.801811e-01 8.490272e-01 -1.782379e-01 -6.746785e-02 2.621926e-01 -7.116507e-01 9.209499e-01 1.466655e-01 -1.337683e+00
<VARIANCE> 25
 7.353806e+01 5.671853e+01 7.375539e+01 5.537875e+01 5.209990e+01 5.208282e+01 5.351882e+01 4.565738e+01 4.287424e+01 3.182619e+01 4.568722e+01 3.028740e+01 9.658815e+00 9.330086e+00 1.330845e+01 7.588488e+00 8.926984e+00 6.684923e+00 8.031370e+00 7.779000e+00 6.809286e+00 4.959805e+00 4.721307e+00 4.181879e+00 1.524453e+01
<GCONST> 1.193227e+02
~s "ST_sil_2_1"
<MEAN> 25
 -1.022017e+01 3.199061e+00 -2.980052e+00 2.775517e+00 4.321778e-01 1.799262e+00 -1.312967e-01 8.606318e-01 2.879558e-01 -1.866665e+00 2.660539e-01 1.035839e+00 -5.161099e-02 -1.387853e-02 6.802900e-03 3.702272e-03 1.765095e-02 5.039477e-03 6.434959e-03 2.020532e-02 4.783209e-04 4.029330e-03 2.375295e-02 1.822664e-02 -2.961088e-02
<VARIANCE> 25
 9.768684e+00 5.037990e+00 1.555536e+01 1.592639e+01 1.221143e+01 1.438970e+01 1.518507e+01 1.480602e+01 1.600784e+01 1.364683e+01 1.479197e+01 1.291749e+01 1.206402e-01 2.543423e-01 4.168132e-01 6.150337e-01 8.482057e-01 9.835700e-01 1.107899e+00 1.230087e+00 1.286519e+00 1.285516e+00 1.230574e+00 1.164066e+00 5.360071e-02
<GCONST> 6.979842e+01
~s "silst"
<MEAN> 25
 -1.728210e+01 4.683449e+00 -2.614284e+00 6.701378e+00 1.914473e+00 6.484073e+00 4.439063e+00 5.246099e+00 7.083498e+00 1.631196e+00 5.729049e+00 5.295337e+00 -3.299275e-03 -5.766814e-03 2.765486e-03 2.265825e-02 2.469829e-02 8.365449e-03 -9.088639e-03 2.080134e-03 2.024022e-02 7.859644e-04 8.877334e-03 -1.247483e-03 -2.039639e-03
<VARIANCE> 25
 4.121887e+00 4.726728e+00 1.043942e+01 1.149998e+01 8.275806e+00 1.005021e+01 1.229345e+01 1.295193e+01 1.320211e+01 1.012246e+01 8.778404e+00 7.039566e+00 3.840343e-02 1.383878e-01 2.152636e-01 3.749231e-01 4.854233e-01 4.451723e-01 7.480053e-01 1.089011e+00 1.280225e+00 1.010613e+00 7.895699e-01 8.519101e-01 5.360071e-02
<GCONST> 5.965816e+01
~s "ST_sil_3_1"
<MEAN> 25
 -1.728210e+01 4.683449e+00 -2.614284e+00 6.701378e+00 1.914473e+00 6.484073e+00 4.439063e+00 5.246099e+00 7.083498e+00 1.631196e+00 5.729049e+00 5.295337e+00 -3.299275e-03 -5.766814e-03 2.765486e-03 2.265825e-02 2.469829e-02 8.365449e-03 -9.088639e-03 2.080134e-03 2.024022e-02 7.859644e-04 8.877334e-03 -1.247483e-03 -2.039639e-03
<VARIANCE> 25
 4.121887e+00 4.726728e+00 1.043942e+01 1.149998e+01 8.275806e+00 1.005021e+01 1.229345e+01 1.295193e+01 1.320211e+01 1.012246e+01 8.778404e+00 7.039566e+00 3.840343e-02 1.383878e-01 2.152636e-01 3.749231e-01 4.854233e-01 4.451723e-01 7.480053e-01 1.089011e+00 1.280225e+00 1.010613e+00 7.895699e-01 8.519101e-01 5.360071e-02
<GCONST> 5.965816e+01
~s "ST_sil_4_1"
<MEAN> 25
 -1.010859e+01 2.451464e+00 -2.299037e+00 2.803896e+00 1.218686e+00 2.609746e+00 8.854752e-01 9.157792e-01 8.006576e-01 -1.843473e+00 8.001820e-01 1.955530e+00 5.802580e-01 -9.554090e-02 8.666559e-02 -1.371404e-01 -4.788529e-02 -3.351229e-01 -2.014056e-01 -1.126162e-01 -1.750444e-01 -1.266135e-01 -3.159881e-01 -1.918614e-01 6.427358e-01
<VARIANCE> 25
 2.844563e+01 1.969229e+01 2.725517e+01 3.031342e+01 2.075068e+01 3.020636e+01 2.681881e+01 2.211982e+01 2.168682e+01 1.786644e+01 2.124847e+01 1.733348e+01 2.594172e+00 2.256309e+00 1.963861e+00 2.557227e+00 1.885936e+00 2.728638e+00 1.956622e+00 1.941029e+00 2.098902e+00 1.776376e+00 1.955685e+00 1.644142e+00 6.068750e+00
<GCONST> 9.432734e+01
~s "ST_j_2_1"
<MEAN> 25
 6.221071e+00 1.023068e+01 -8.812630e+00 -6.339810e+00 -1.749386e+00 7.000416e+00 9.089224e-01 1.180363e+00 -2.109989e+00 -4.493377e+00 -1.750864e+00 -3.292010e-01 -1.993529e+00 -4.144630e-01 7.577683e-01 1.093946e+00 -1.205507e-02 -3.642789e-01 1.616279e-01 4.543068e-01 1.177536e-01 -2.358836e-01 -2.104348e-01 -2.568006e-01 -1.335616e+00
<VARIANCE> 25
 9.462863e+01 2.911037e+01 2.749253e+01 5.263363e+01 2.221216e+01 3.712430e+01 2.726606e+01 3.663420e+01 1.540641e+01 1.513421e+01 1.450009e+01 1.883098e+01 2.194074e+00 2.075698e+00 1.753684e+00 2.413121e+00 2.781940e+00 1.764773e+00 2.355971e+00 1.781679e+00 1.393029e+00 1.315974e+00 1.332069e+00 1.365421e+00 9.756473e-01
<GCONST> 9.299218e+01
~s "ST_j_3_1"
<MEAN> 25
 -7.039307e+00 4.513924e+00 -6.854169e+00 3.213117e+00 1.548965e+00 3.355867e+00 -2.291657e-01 -9.181176e-01 -1.013817e+00 -3.821892e+00 -1.946076e+00 -8.427930e-02 -8.578181e-01 -5.836166e-01 4.052954e-02 1.665946e-01 -1.408638e-01 -2.748615e-01 -2.009653e-01 -9.349324e-02 5.681995e-02 2.640267e-01 8.155862e-02 -1.659966e-01 -4.320473e-01
<VARIANCE> 25
 5.119457e+00 6.255587e+00 1.240492e+01 1.792817e+01 1.510534e+01 1.418550e+01 1.497658e+01 1.298539e+01 1.090422e+01 1.389100e+01 1.503287e+01 2.012026e+01 1.960241e-01 4.985377e-01 6.247690e-01 1.000659e+00 1.244913e+00 9.675564e-01 1.308864e+00 9.616213e-01 1.313034e+00 1.427512e+00 1.313843e+00 1.327566e+00 5.360071e-02
<GCONST> 7.206703e+01
~s "ST_j_4_1"
<MEAN> 25
 -1.118288e+01 3.378663e+00 -4.837753e+00 3.150778e+00 3.676790e+00 5.038209e+00 -1.375529e+00 9.660358e-01 -9.029311e-01 -2.253425e+00 3.464159e-01 -1.020519e+00 -1.297712e-01 2.501460e-02 1.033834e-01 1.431377e-01 6.401945e-02 -2.432499e-02 9.256914e-03 1.499765e-01 8.648214e-02 2.834899e-02 6.080139e-02 -2.401871e-02 -1.053295e-01
<VARIANCE> 25
 3.923424e+00 3.034050e+00 1.094880e+01 2.350148e+01 1.048617e+01 3.844637e+01 1.455270e+01 1.899287e+01 1.228365e+01 1.927812e+01 1.454969e+01 1.439421e+01 1.075339e-01 2.655846e-01 4.291959e-01 5.817194e-01 6.781111e-01 9.510316e-01 1.257143e+00 1.034208e+00 1.095025e+00 1.182088e+00 1.533028e+00 1.736852e+00 5.360071e-02
<GCONST> 6.959851e+01
~s "ST_w_2_1"
<MEAN> 25
 -1.979342e+01 4.181493e+00 -4.046164e+00 6.603889e+00 5.185925e+00 8.009292e+00 1.889368e+00 6.909353e+00 8.116640e+00 2.649176e+00 6.664388e+00 5.181676e+00 6.508204e-03 1.672693e-02 2.143700e-02 2.477488e-02 2.276586e-02 -2.652512e-02 -7.694063e-02 3.596503e-02 1.116524e-01 4.429537e-02 -4.092911e-02 -7.428802e-02 -4.874619e-03
<VARIANCE> 25
 4.088409e+00 3.588785e+00 7.186140e+00 1.936426e+01 7.401371e+00 2.152875e+01 1.391181e+01 1.418093e+01 1.370615e+01 9.905149e+00 9.052666e+00 7.613243e+00 3.654580e-02 1.450887e-01 2.279590e-01 3.713221e-01 4.393752e-01 4.278946e-01 6.678374e-01 1.108293e+00 1.188225e+00 9.859251e-01 8.375720e-01 9.884482e-01 5.360071e-02
<GCONST> 6.043019e+01
~s "ST_w_3_1"
<MEAN> 25
 -1.811745e+01 5.941331e+00 -2.819915e+00 8.425883e+00 4.535624e+00 6.877362e+00 -1.138593e-02 2.573833e+00 8.882859e+00 2.795285e+00 4.505990e+00 4.604732e+00 -3.887576e-02 8.065363e-02 8.143923e-02 -3.503228e-01 -4.393303e-01 1.444572e-01 1.121827e-01 -5.667879e-01 -7.345532e-01 5.554526e-02 8.498318e-02 4.527189e-01 -1.675067e-02
<VARIANCE> 25
 5.391205e+00 3.538338e+00 8.563368e+00 1.200233e+01 9.033749e+00 1.278212e+01 1.045764e+01 8.991758e+00 6.885391e+00 4.328485e+00 3.859701e+00 4.123259e+00 3.654580e-02 5.248706e-02 1.100569e-01 3.010748e-01 5.905935e-01 3.846882e-01 1.475419e+00 1.375393e+00 5.961952e-01 6.520784e-01 2.227571e-01 2.932334e-01 5.360071e-02
<GCONST> 5.194522e+01
~s "ST_w_4_1"
<MEAN> 25
 -1.802062e+01 6.346483e+00 -2.593941e+00 5.947451e+00 1.502229e+00 7.027805e+00 3.827279e+00 3.572073e+00 3.978403e+00 1.035392e-01 4.074210e+00 4.851148e+00 2.068670e-01 -1.715902e-01 1.287033e-01 2.107109e-01 5.230429e-01 5.336280e-01 8.987186e-01 -2.100457e-01 -1.602605e+00 -1.062629e+00 2.393895e-01 -3.285711e-02 2.564394e-01
<VARIANCE> 25
 5.642426e+00 3.201668e+00 6.888815e+00 1.091554e+01 6.382141e+00 1.294546e+01 1.608454e+01 8.829650e+00 5.678432e+00 1.168461e+01 5.400091e+00 2.561481e+00 4.557858e-01 6.421877e-02 1.399841e-01 1.416722e-01 1.282749e-01 2.501019e-01 2.715041e-01 3.135454e-01 4.994161e-01 2.927684e-01 1.857294e-01 2.460654e-01 2.610924e-01
<GCONST> 4.964725e+01
~s "ST_ng_2_1"
<MEAN> 25
 1.120036e+01 -8.202402e+00 9.951347e-02 -2.280547e+00 2.562041e+00 -1.044686e+01 -5.574550e-01 6.614026e+00 4.506922e-01 2.306764e+00 -3.663822e+00 -2.410853e+00 1.458046e+00 -1.555080e+00 -1.729889e-01 -2.446269e+00 1.944027e-01 2.911462e-01 3.740604e-01 5.870062e-02 1.162580e-01 2.811656e-01 -1.110662e+00 -9.424599e-01 2.314078e+00
<VARIANCE> 25
 5.040652e+01 7.826517e+01 6.693588e+01 8.499174e+01 6.070895e+01 4.399252e+01 7.421643e+01 6.441434e+01 4.682905e+01 4.026690e+01 4.071918e+01 3.443272e+01 5.105071e+00 9.345548e+00 6.806249e+00 1.267358e+01 9.359845e+00 7.551709e+00 9.725021e+00 1.149375e+01 6.619052e+00 6.278863e+00 5.419321e+00 4.224596e+00 9.019338e+00
<GCONST> 1.203782e+02
~s "ST_ng_3_1"
<MEAN> 25
 1.399498e+01 -1.740270e+01 2.366955e+00 -1.172499e+01 1.558477e+00 -6.242209e+00 6.775497e-01 3.881052e+00 -3.730330e-01 2.758472e+00 -8.059448e+00 -5.614444e+00 3.464115e-01 -4.178147e-02 -2.918024e-01 4.472862e-01 -2.332781e-01 3.223431e-01 3.369113e-02 -2.325848e-01 -1.961521e-01 6.722629e-02 -2.000212e-01 -3.030182e-01 -1.744471e-01
<VARIANCE> 25
 2.084207e+01 2.428479e+01 2.893895e+01 7.019838e+01 5.628122e+01 4.476041e+01 3.196010e+01 4.410949e+01 3.604842e+01 4.440826e+01 2.970007e+01 2.525822e+01 2.059363e+00 2.161774e+00 2.559714e+00 8.938808e+00 6.486758e+00 4.032250e+00 3.242020e+00 5.219977e+00 3.540806e+00 4.103728e+00 2.770523e+00 2.299113e+00 3.688309e+00
<GCONST> 1.054211e+02
~s "ST_m_2_1"
<MEAN> 25
 1.513566e+01 -7.447364e+00 -1.870825e-01 -1.468088e+00 -1.145279e-01 2.542847e+00 -2.638432e+00 -3.863538e+00 -4.403660e+00 3.818963e-01 -3.028030e+00 -5.976844e+00 1.497384e-01 7.370093e-01 -1.441905e+00 1.442837e+00 3.231651e-02 5.938071e-01 6.973501e-01 -1.420481e+00 -5.170392e-01 2.195365e-01 3.815611e-02 2.295396e-01 -1.202166e+00
<VARIANCE> 25
 6.614021e+01 1.699277e+02 5.213593e+01 1.015342e+02 6.437910e+01 5.051182e+01 5.100759e+01 7.867474e+01 8.048053e+01 3.931757e+01 3.550435e+01 4.807676e+01 3.453633e+00 6.756879e+00 4.007744e+00 7.912804e+00 6.403512e+00 5.413022e+00 4.447781e+00 7.341043e+00 6.418355e+00 2.957990e+00 3.389934e+00 2.690232e+00 3.074349e+00
<GCONST> 1.156502e+02
~s "ST_m_2_2"
<MEAN> 25
 1.889230e+01 -1.326567e+01 1.308700e+00 -9.648807e+00 3.569415e+00 -1.699131e-01 -4.106727e+00 -7.734631e-01 -4.490208e+00 3.124741e+00 -4.976401e+00 -1.080503e+01 1.582924e+00 2.506767e+00 -1.435331e+00 3.595744e+00 -1.166088e+00 1.981034e+00 4.956454e-02 -3.802210e+00 -8.552299e-01 -4.467790e-01 1.593714e+00 3.723533e-01 -2.410745e+00
<VARIANCE> 25
 1.659311e+01 5.086488e+01 6.480735e+01 8.111098e+01 3.320530e+01 6.766293e+01 9.408620e+01 8.614875e+01 7.659533e+01 4.368123e+01 3.105730e+01 2.028273e+01 8.624976e-01 3.987955e+00 4.735489e+00 9.011022e+00 3.570124e+00 3.399943e+00 5.201966e+00 7.291604e+00 7.155798e+00 3.901585e+00 3.895628e+00 3.363266e+00 2.317811e+00
<GCONST> 1.103946e+02
~s "ST_ng_4_1"
<MEAN> 25
 2.161557e+01 -1.116178e+01 -1.101359e+01 1.538540e+00 -7.208036e-01 -8.129070e+00 7.581348e-01 1.263749e+00 -5.850452e-01 1.036732e+00 -8.103109e+00 -7.831326e+00 2.306727e-01 7.679873e-01 -2.613046e-01 1.011264e+00 -1.887328e-01 2.685652e-01 1.264701e-02 -2.834384e-01 1.694693e-01 -4.572659e-01 6.937606e-02 8.490627e-02 -6.763240e-01
<VARIANCE> 25
 6.951172e+00 3.159898e+01 5.792483e+01 4.399942e+01 4.385848e+01 3.575158e+01 4.843956e+01 5.845299e+01 4.316368e+01 4.554948e+01 2.790511e+01 1.453003e+01 7.216784e-01 4.584992e+00 2.798501e+00 4.781610e+00 2.971928e+00 3.001079e+00 3.625815e+00 5.159376e+00 2.578933e+00 2.139094e+00 1.917761e+00 1.271072e+00 2.442201e+00
<GCONST> 1.004764e+02
~s "ST_m_3_1"
<MEAN> 25
 1.755530e+01 -1.953221e+00 -4.957147e+00 4.179246e+00 -1.375382e+00 9.922832e-01 7.383274e-02 -9.526961e+00 -5.914033e+00 1.993131e+00 -2.206320e+00 -4.878678e+00 -2.575169e-01 2.225337e+00 -1.062859e+00 6.131937e-01 1.603804e+00 2.462120e-01 -8.459217e-01 -9.975407e-01 -7.432348e-01 -4.788948e-01 -1.942652e-02 4.425776e-01 -1.636987e+00
<VARIANCE> 25
 7.737805e+01 9.979837e+01 4.965319e+01 5.329746e+01 5.199195e+01 4.087322e+01 4.830371e+01 8.455534e+01 7.740251e+01 4.725664e+01 4.803652e+01 3.229525e+01 1.644849e+00 9.930464e+00 4.331374e+00 8.066356e+00 7.722461e+00 3.576214e+00 4.370936e+00 7.193755e+00 7.292079e+00 3.525173e+00 3.301916e+00 2.951781e+00 3.187666e+00
<GCONST> 1.141041e+02
~s "ST_m_3_2"
<MEAN> 25
 2.300716e+01 -1.921184e+00 -3.770226e+00 6.323362e+00 -2.917340e-01 1.005651e+00 -5.847362e-02 -1.472204e+01 -8.681149e+00 3.232567e+00 -2.022764e+00 -8.293365e+00 3.408161e-01 3.608530e+00 -5.493731e-01 2.033690e+00 9.246749e-01 9.100225e-01 -2.270064e-01 -2.447397e+00 -1.687722e+00 -1.001637e-01 -1.305694e-01 9.761702e-01 -2.285988e+00
<VARIANCE> 25
 6.977234e+00 4.302563e+01 9.457163e+01 7.572255e+01 5.129867e+01 2.649768e+01 8.461597e+01 7.345496e+01 8.459621e+01 4.229306e+01 3.549530e+01 2.320071e+01 1.045533e+00 3.589398e+00 5.991737e+00 1.009202e+01 6.135443e+00 3.919286e+00 5.329368e+00 1.055088e+01 4.198477e+00 4.232107e+00 4.487928e+00 2.347808e+00 1.366636e+00
<GCONST> 1.095521e+02
~s "ST_m_4_1"
<MEAN> 25
 7.427963e+00 4.251774e+00 -3.304918e+00 5.275434e+00 4.036803e+00 3.234372e+00 -2.534628e+00 -6.991552e+00 -5.573170e+00 -2.580697e+00 -1.993889e+00 -1.785660e+00 -9.758401e-01 -4.602327e-01 -6.062989e-01 -6.034453e-01 3.477268e-01 -1.516620e-01 -6.908271e-01 6.830720e-01 3.788712e-01 -5.116660e-01 1.518243e-01 3.908017e-01 -6.033214e-01
<VARIANCE> 25
 1.553026e+02 6.209933e+01 4.674099e+01 4.010429e+01 2.794472e+01 2.907906e+01 4.590334e+01 1.012876e+02 5.715348e+01 3.293853e+01 3.075390e+01 2.600778e+01 1.580845e+00 3.205861e+00 1.579280e+00 1.946569e+00 3.116725e+00 2.165383e+00 2.569362e+00 2.963735e+00 2.526251e+00 2.694079e+00 1.636556e+00 1.864696e+00 2.477136e+00
<GCONST> 1.026527e+02
~s "ST_m_4_2"
<MEAN> 25
 2.182313e+01 8.450283e+00 -3.900416e+00 2.854187e+00 5.871751e+00 6.318929e+00 -4.293483e+00 -1.857998e+01 -1.288260e+01 5.761694e-01 -1.664174e+00 -3.283702e+00 -3.646936e-01 1.333382e+00 1.012649e+00 -7.620458e-02 -2.505454e-01 4.902969e-01 1.305636e-01 -8.539371e-01 -9.235993e-01 -1.950401e-01 5.693730e-01 2.036231e-01 -6.135327e-01
<VARIANCE> 25
 8.648956e+00 2.465946e+01 4.473849e+01 4.276862e+01 4.326006e+01 1.728195e+01 7.288876e+01 4.253424e+01 3.878018e+01 3.136243e+01 2.561484e+01 2.276272e+01 3.497150e-01 1.943650e+00 2.186167e+00 1.728439e+00 2.674074e+00 1.634784e+00 2.408817e+00 3.711878e+00 2.968938e+00 2.782892e+00 2.143612e+00 1.303970e+00 5.154462e-01
<GCONST> 9.408009e+01
~s "ST_c_2_1"
<MEAN> 25
 -2.464863e+00 4.001063e+00 -5.473493e+00 1.336227e+00 -1.019257e-02 4.456014e+00 -2.319177e+00 -2.866679e+00 5.556724e-01 3.228008e+00 3.097904e+00 2.940085e-02 -1.655936e+00 -1.257212e+00 -4.827062e-01 -1.521503e-02 -3.664600e-02 2.186337e-01 8.119536e-01 3.783078e-01 -6.619560e-01 -5.719075e-01 6.316678e-02 -1.512351e-01 -8.841112e-01
<VARIANCE> 25
 2.045284e+01 2.092453e+01 7.216139e+00 1.634934e+01 1.491812e+01 9.672846e+00 2.099841e+01 1.085981e+01 1.069676e+01 1.361940e+01 8.665671e+00 7.475800e+00 1.785120e+00 9.530313e-01 4.075068e-01 1.149960e+00 2.238131e+00 1.461394e+00 1.207453e+00 1.647060e+00 4.396556e-01 9.915614e-01 6.805358e-01 5.887182e-01 5.192809e-01
<GCONST> 7.557609e+01
~s "ST_c_3_1"
<MEAN> 25
 -7.921575e+00 4.370519e-01 -7.427103e+00 4.682277e-01 1.083987e-01 7.936044e+00 3.335443e+00 -4.078971e-01 -3.118068e+00 -1.588324e+00 2.591355e+00 1.417745e+00 -2.378675e-01 2.066011e-01 3.096826e-01 4.937039e-02 -2.154008e-01 -1.454380e-02 -3.554480e-01 -2.685179e-01 -1.972816e-01 -2.994917e-01 -2.083574e-01 1.700362e-01 -1.835772e-01
<VARIANCE> 25
 3.693527e+00 1.210038e+01 1.522858e+01 1.162158e+01 6.465564e+00 1.191129e+01 1.014382e+01 1.831432e+01 1.569544e+01 1.256463e+01 1.109037e+01 8.910687e+00 3.654580e-02 2.203388e-01 3.316680e-01 4.785479e-01 8.000599e-01 6.413705e-01 1.059445e+00 9.149851e-01 1.902947e+00 1.173215e+00 1.877281e+00 5.030932e-01 5.360071e-02
<GCONST> 6.482796e+01
~s "ST_c_4_1"
<MEAN> 25
 -9.539489e+00 1.340380e+00 -4.060784e+00 2.837245e+00 -2.027863e-01 4.838648e+00 -1.005032e+00 -1.540515e+00 -1.228267e+00 -1.668965e+00 -1.208424e-01 9.028909e-01 -1.167556e-02 -4.035384e-03 3.220645e-02 -9.204175e-03 1.399732e-02 1.254601e-02 -6.525254e-02 -4.927545e-02 8.695746e-02 1.226879e-01 1.462564e-02 3.598997e-03 -1.877852e-02
<VARIANCE> 25
 6.485596e+00 1.552050e+01 2.435394e+01 8.155519e+00 9.214430e+00 1.450616e+01 1.189316e+01 1.432902e+01 1.336481e+01 1.137118e+01 1.179362e+01 1.066469e+01 1.128230e-01 2.265209e-01 4.490078e-01 3.600936e-01 6.633961e-01 1.522255e+00 9.918825e-01 8.126539e-01 1.006301e+00 1.223360e+00 1.470995e+00 1.065667e+00 5.360071e-02
<GCONST> 6.777834e+01
~s "ST_p_2_1"
<MEAN> 25
 1.953973e+01 -4.897845e+00 -2.367852e+00 -3.563489e+00 5.471724e-01 1.943857e+00 -2.978911e+00 -3.152396e+00 -3.537748e+00 2.467391e+00 -2.310205e+00 -6.087984e+00 -4.822580e-01 3.654346e+00 -2.685663e+00 3.173575e+00 6.339073e-02 1.154820e+00 1.248642e-01 1.021685e+00 1.991853e+00 -3.980068e-01 6.845819e-01 3.266467e-01 -4.346323e+00
<VARIANCE> 25
 1.835532e+01 1.694039e+02 6.585385e+01 1.123503e+02 3.765534e+01 6.803850e+01 4.414910e+01 7.646378e+01 4.395073e+01 4.706269e+01 3.360244e+01 2.643651e+01 3.529794e+00 3.672297e+00 1.337108e+01 1.087651e+01 6.906009e+00 7.055779e+00 4.657150e+00 6.735783e+00 7.032747e+00 3.835053e+00 4.146743e+00 2.048296e+00 3.247278e+00
<GCONST> 1.147808e+02
~s "ST_p_3_1"
<MEAN> 25
 1.121780e+01 6.876946e+00 -1.046489e+01 5.751082e-01 3.861540e+00 2.479918e+00 -3.859842e+00 4.426351e-01 4.924518e+00 -1.804186e-01 -2.803022e+00 -3.107590e+00 -3.168836e+00 3.110557e-01 -1.783492e-01 -5.146235e-01 -2.389501e-01 -4.949564e-01 1.981694e-01 7.876459e-01 8.526087e-01 6.168486e-02 1.871714e-01 9.674857e-01 -2.505125e+00
<VARIANCE> 25
 5.272195e+01 6.304725e+01 1.596905e+02 3.202217e+01 2.890188e+01 4.773139e+01 3.488574e+01 3.395740e+01 4.978646e+01 4.591030e+01 2.362112e+01 1.931629e+01 2.865832e+00 6.399609e+00 8.912293e+00 4.616023e+00 4.674964e+00 4.835917e+00 4.536975e+00 3.826942e+00 5.595773e+00 2.945799e+00 2.656437e+00 2.354720e+00 4.522046e+00
<GCONST> 1.095032e+02
~s "ST_p_4_1"
<MEAN> 25
 8.438654e+00 -4.531650e+00 -5.182053e-01 1.992829e+00 -2.616418e+00 -5.488647e+00 -2.597438e+00 2.047145e+00 2.756718e+00 -2.260538e-01 1.120606e+00 7.060571e-02 1.225662e+00 -3.848175e+00 4.231228e+00 -1.992073e-01 -2.248824e+00 -2.833529e+00 1.533744e-01 6.818345e-01 -1.387007e+00 -5.214989e-01 1.139387e+00 7.606462e-01 4.718040e+00
<VARIANCE> 25
 7.445115e+01 1.088379e+02 9.424374e+01 4.704475e+01 5.032195e+01 7.955281e+01 3.931161e+01 4.348369e+01 3.481856e+01 3.305313e+01 2.431297e+01 1.851156e+01 7.796690e+00 6.155924e+00 1.292459e+01 9.129635e+00 5.673654e+00 6.041742e+00 4.547673e+00 5.440640e+00 5.917269e+00 4.591300e+00 3.556110e+00 3.074522e+00 1.004777e+01
<GCONST> 1.156264e+02
~h "E"
<BEGINHMM>
<NUMSTATES> 5
<STATE> 2
~s "ST_E_2_1"
<STATE> 3
~s "ST_E_3_1"
<STATE> 4
~s "ST_E_4_1"
~t "T_E"
<ENDHMM>
~h "a"
<BEGINHMM>
<NUMSTATES> 5
<STATE> 2
~s "ST_a_2_1"
<STATE> 3
~s "ST_a_3_1"
<STATE> 4
~s "ST_a_4_5"
~t "T_a"
<ENDHMM>
~h "b"
<BEGINHMM>
<NUMSTATES> 5
<STATE> 2
~s "ST_b_2_1"
<STATE> 3
~s "ST_b_3_1"
<STATE> 4
~s "ST_b_4_1"
~t "T_b"
<ENDHMM>
~h "c"
<BEGINHMM>
<NUMSTATES> 5
<STATE> 2
~s "ST_c_2_1"
<STATE> 3
~s "ST_c_3_1"
<STATE> 4
~s "ST_c_4_1"
~t "T_c"
<ENDHMM>
~h "d"
<BEGINHMM>
<NUMSTATES> 5
<STATE> 2
~s "ST_d_2_1"
<STATE> 3
~s "ST_d_3_1"
<STATE> 4
~s "ST_d_4_1"
~t "T_d"
<ENDHMM>
~h "e"
<BEGINHMM>
<NUMSTATES> 5
<STATE> 2
~s "ST_e_2_1"
<STATE> 3
~s "ST_e_3_1"
<STATE> 4
~s "ST_e_4_1"
~t "T_e"
<ENDHMM>
~h "g"
<BEGINHMM>
<NUMSTATES> 5
<STATE> 2
~s "ST_g_2_1"
<STATE> 3
~s "ST_g_3_1"
<STATE> 4
~s "ST_g_4_1"
~t "T_g"
<ENDHMM>
~h "h"
<BEGINHMM>
<NUMSTATES> 5
<STATE> 2
~s "ST_h_2_1"
<STATE> 3
~s "ST_h_3_1"
<STATE> 4
~s "ST_h_4_1"
~t "T_h"
<ENDHMM>
~h "i"
<BEGINHMM>
<NUMSTATES> 5
<STATE> 2
~s "ST_i_2_1"
<STATE> 3
~s "ST_i_3_1"
<STATE> 4
~s "ST_i_4_1"
~t "T_i"
<ENDHMM>
~h "j"
<BEGINHMM>
<NUMSTATES> 5
<STATE> 2
~s "ST_j_2_1"
<STATE> 3
~s "ST_j_3_1"
<STATE> 4
~s "ST_j_4_1"
~t "T_j"
<ENDHMM>
~h "k"
<BEGINHMM>
<NUMSTATES> 5
<STATE> 2
~s "ST_k_2_1"
<STATE> 3
~s "ST_k_3_1"
<STATE> 4
~s "ST_k_4_1"
~t "T_k"
<ENDHMM>
~h "l"
<BEGINHMM>
<NUMSTATES> 5
<STATE> 2
~s "ST_l_2_1"
<STATE> 3
~s "ST_l_3_1"
<STATE> 4
~s "ST_l_4_1"
~t "T_l"
<ENDHMM>
~h "m"
<BEGINHMM>
<NUMSTATES> 5
<STATE> 2
~s "ST_m_2_1"
<STATE> 3
~s "ST_m_3_1"
<STATE> 4
~s "ST_m_4_1"
~t "T_m"
<ENDHMM>
~h "n"
<BEGINHMM>
<NUMSTATES> 5
<STATE> 2
~s "ST_n_2_1"
<STATE> 3
~s "ST_n_3_1"
<STATE> 4
~s "ST_n_4_1"
~t "T_n"
<ENDHMM>
~h "o"
<BEGINHMM>
<NUMSTATES> 5
<STATE> 2
~s "ST_o_2_1"
<STATE> 3
~s "ST_o_3_1"
<STATE> 4
~s "ST_o_4_1"
~t "T_o"
<ENDHMM>
~h "p"
<BEGINHMM>
<NUMSTATES> 5
<STATE> 2
~s "ST_p_2_1"
<STATE> 3
~s "ST_p_3_1"
<STATE> 4
~s "ST_p_4_1"
~t "T_p"
<ENDHMM>
~h "r"
<BEGINHMM>
<NUMSTATES> 5
<STATE> 2
~s "ST_r_2_1"
<STATE> 3
~s "ST_r_3_1"
<STATE> 4
~s "ST_r_4_1"
~t "T_r"
<ENDHMM>
~h "s"
<BEGINHMM>
<NUMSTATES> 5
<STATE> 2
~s "ST_s_2_1"
<STATE> 3
~s "ST_s_3_1"
<STATE> 4
~s "ST_s_4_1"
~t "T_s"
<ENDHMM>
~h "t"
<BEGINHMM>
<NUMSTATES> 5
<STATE> 2
~s "ST_t_2_1"
<STATE> 3
~s "ST_t_3_1"
<STATE> 4
~s "ST_t_4_1"
~t "T_t"
<ENDHMM>
~h "u"
<BEGINHMM>
<NUMSTATES> 5
<STATE> 2
~s "ST_u_2_1"
<STATE> 3
~s "ST_u_3_1"
<STATE> 4
~s "ST_u_4_1"
~t "T_u"
<ENDHMM>
~h "w"
<BEGINHMM>
<NUMSTATES> 5
<STATE> 2
~s "ST_w_2_1"
<STATE> 3
~s "ST_w_3_1"
<STATE> 4
~s "ST_w_4_1"
~t "T_w"
<ENDHMM>
~h "aw"
<BEGINHMM>
<NUMSTATES> 5
<STATE> 2
~s "ST_aw_2_1"
<STATE> 3
~s "ST_aw_3_1"
<STATE> 4
~s "ST_aw_4_1"
~t "T_aw"
<ENDHMM>
~h "ng"
<BEGINHMM>
<NUMSTATES> 5
<STATE> 2
~s "ST_ng_2_1"
<STATE> 3
~s "ST_ng_3_1"
<STATE> 4
~s "ST_ng_4_1"
~t "T_ng"
<ENDHMM>
~h "sp"
<BEGINHMM>
<NUMSTATES> 3
<STATE> 2
~s "ST_sil_3_1"
<TRANSP> 3
 0.000000e+00 8.691346e-13 1.000000e+00
 0.000000e+00 8.635275e-03 9.913648e-01
 0.000000e+00 0.000000e+00 0.000000e+00
<ENDHMM>
~h "k-i+n"
<BEGINHMM>
<NUMSTATES> 5
<STATE> 2
~s "ST_i_2_2"
<STATE> 3
~s "ST_i_3_3"
<STATE> 4
~s "ST_i_4_2"
~t "T_i"
<ENDHMM>
~h "a-k+i"
<BEGINHMM>
<NUMSTATES> 5
<STATE> 2
~s "ST_k_2_1"
<STATE> 3
~s "ST_k_3_1"
<STATE> 4
~s "ST_k_4_2"
~t "T_k"
<ENDHMM>
~h "a-m+b"
<BEGINHMM>
<NUMSTATES> 5
<STATE> 2
~s "ST_m_2_2"
<STATE> 3
~s "ST_m_3_2"
<STATE> 4
~s "ST_m_4_2"
~t "T_m"
<ENDHMM>
~h "a-m+p"
<BEGINHMM>
<NUMSTATES> 5
<STATE> 2
~s "ST_m_2_1"
<STATE> 3
~s "ST_m_3_1"
<STATE> 4
~s "ST_m_4_2"
~t "T_m"
<ENDHMM>
~h "a-r+a"
<BEGINHMM>
<NUMSTATES> 5
<STATE> 2
~s "ST_r_2_2"
<STATE> 3
~s "ST_r_3_2"
<STATE> 4
~s "ST_r_4_1"
~t "T_r"
<ENDHMM>
~h "d-u+a"
<BEGINHMM>
<NUMSTATES> 5
<STATE> 2
~s "ST_u_2_1"
<STATE> 3
~s "ST_u_3_2"
<STATE> 4
~s "ST_u_4_2"
~t "T_u"
<ENDHMM>
~h "g-a+m"
<BEGINHMM>
<NUMSTATES> 5
<STATE> 2
~s "ST_a_2_2"
<STATE> 3
~s "ST_a_3_4"
<STATE> 4
~s "ST_a_4_4"
~t "T_a"
<ENDHMM>
~h "t-a+m"
<BEGINHMM>
<NUMSTATES> 5
<STATE> 2
~s "ST_a_2_2"
<STATE> 3
~s "ST_a_3_2"
<STATE> 4
~s "ST_a_4_1"
~t "T_a"
<ENDHMM>
~h "g-i+t"
<BEGINHMM>
<NUMSTATES> 5
<STATE> 2
~s "ST_i_2_2"
<STATE> 3
~s "ST_i_3_3"
<STATE> 4
~s "ST_i_4_3"
~t "T_i"
<ENDHMM>
~h "w-a+r"
<BEGINHMM>
<NUMSTATES> 5
<STATE> 2
~s "ST_a_2_3"
<STATE> 3
~s "ST_a_3_2"
<STATE> 4
~s "ST_a_4_1"
~t "T_a"
<ENDHMM>
~h "l-i+ng"
<BEGINHMM>
<NUMSTATES> 5
<STATE> 2
~s "ST_i_2_4"
<STATE> 3
~s "ST_i_3_3"
<STATE> 4
~s "ST_i_4_2"
~t "T_i"
<ENDHMM>
~h "a+t"
<BEGINHMM>
<NUMSTATES> 5
<STATE> 2
~s "ST_a_2_2"
<STATE> 3
~s "ST_a_3_2"
<STATE> 4
~s "ST_a_4_5"
~t "T_a"
<ENDHMM>
~h "g-a"
<BEGINHMM>
<NUMSTATES> 5
<STATE> 2
~s "ST_a_2_2"
<STATE> 3
~s "ST_a_3_3"
<STATE> 4
~s "ST_a_4_3"
~t "T_a"
<ENDHMM>
~h "sil"
<BEGINHMM>
<NUMSTATES> 5
<STATE> 2
~s "ST_sil_2_1"
<STATE> 3
~s "ST_sil_3_1"
<STATE> 4
~s "ST_sil_4_1"
<TRANSP> 5
 0.000000e+00 1.000000e+00 0.000000e+00 0.000000e+00 0.000000e+00
 0.000000e+00 9.525131e-01 1.426616e-02 3.322078e-02 0.000000e+00
 0.000000e+00 0.000000e+00 9.791198e-01 2.088020e-02 0.000000e+00
 0.000000e+00 1.205144e-01 0.000000e+00 6.230732e-01 2.564124e-01
 0.000000e+00 0.000000e+00 0.000000e+00 0.000000e+00 0.000000e+00
<ENDHMM>
~h "p-e+s"
<BEGINHMM>
<NUMSTATES> 5
<STATE> 2
~s "ST_e_2_2"
<STATE> 3
~s "ST_e_3_1"
<STATE> 4
~s "ST_e_4_1"
~t "T_e"
<ENDHMM>
~h "p-i+l"
<BEGINHMM>
<NUMSTATES> 5
<STATE> 2
~s "ST_i_2_3"
<STATE> 3
~s "ST_i_3_3"
<STATE> 4
~s "ST_i_4_2"
~t "T_i"
<ENDHMM>
~h "s-a+r"
<BEGINHMM>
<NUMSTATES> 5
<STATE> 2
~s "ST_a_2_1"
<STATE> 3
~s "ST_a_3_1"
<STATE> 4
~s "ST_a_4_1"
~t "T_a"
<ENDHMM>
~h "s-e+g"
<BEGINHMM>
<NUMSTATES> 5
<STATE> 2
~s "ST_e_2_1"
<STATE> 3
~s "ST_e_3_1"
<STATE> 4
~s "ST_e_4_2"
~t "T_e"
<ENDHMM>
~h "s-i+u"
<BEGINHMM>
<NUMSTATES> 5
<STATE> 2
~s "ST_i_2_3"
<STATE> 3
~s "ST_i_3_2"
<STATE> 4
~s "ST_i_4_2"
~t "T_i"
<ENDHMM>
~h "b-a+r"
<BEGINHMM>
<NUMSTATES> 5
<STATE> 2
~s "ST_a_2_1"
<STATE> 3
~s "ST_a_3_1"
<STATE> 4
~s "ST_a_4_2"
~t "T_a"
<ENDHMM>
~h "b-i+r"
<BEGINHMM>
<NUMSTATES> 5
<STATE> 2
~s "ST_i_2_3"
<STATE> 3
~s "ST_i_3_3"
<STATE> 4
~s "ST_i_4_3"
~t "T_i"
<ENDHMM>
~h "r-a+p"
<BEGINHMM>
<NUMSTATES> 5
<STATE> 2
~s "ST_a_2_2"
<STATE> 3
~s "ST_a_3_4"
<STATE> 4
~s "ST_a_4_5"
~t "T_a"
<ENDHMM>
~h "r-n+a"
<BEGINHMM>
<NUMSTATES> 5
<STATE> 2
~s "ST_n_2_2"
<STATE> 3
~s "ST_n_3_1"
<STATE> 4
~s "ST_n_4_1"
~t "T_n"
<ENDHMM>
~h "h-i+j"
<BEGINHMM>
<NUMSTATES> 5
<STATE> 2
~s "ST_i_2_2"
<STATE> 3
~s "ST_i_3_2"
<STATE> 4
~s "ST_i_4_2"
~t "T_i"
<ENDHMM>
