~o
<STREAMINFO> 1 25
<VECSIZE> 25<NULLD><MFCC_D_N_Z_0><DIAGC>
~s "silst"
<MEAN> 25
 -1.718387e+01 4.433036e+00 -2.384833e+00 6.685584e+00 1.835640e+00 6.410091e+00 4.437340e+00 5.290571e+00 6.938566e+00 1.579697e+00 5.795963e+00 5.264105e+00 -2.460871e-03 2.301852e-04 4.223740e-03 2.157363e-02 2.476257e-02 3.632687e-03 -2.568073e-02 -5.661350e-03 3.734995e-02 1.119138e-02 4.643803e-03 -2.869063e-03 -4.095669e-03
<VARIANCE> 25
 4.822941e+00 4.693689e+00 1.050867e+01 1.160631e+01 8.648737e+00 1.038385e+01 1.245229e+01 1.323232e+01 1.308774e+01 1.013354e+01 8.798605e+00 7.140318e+00 3.819236e-02 1.380426e-01 2.149102e-01 3.752861e-01 4.868065e-01 4.387664e-01 7.446340e-01 1.109776e+00 1.258911e+00 1.000090e+00 7.932343e-01 8.496823e-01 5.360071e-02
<GCONST> 5.991270e+01
~h "E"
<BEGINHMM>
<NUMSTATES> 5
<STATE> 2
<MEAN> 25
 1.384912e+01 -2.265492e+00 -1.660740e+01 -1.424697e+00 9.947120e+00 8.926167e-01 -5.773785e+00 -8.817183e-01 -7.685620e-01 -3.327710e-01 -7.356586e+00 -5.430339e+00 -1.518126e+00 4.862567e-01 3.294163e-01 -1.697709e-01 1.497382e-01 2.896646e-01 -1.364496e-01 4.854934e-02 -1.899936e-01 -2.194524e-01 1.672038e-01 -6.686894e-02 -1.288072e+00
<VARIANCE> 25
 7.164716e+01 3.277232e+01 2.219158e+01 2.040976e+01 1.732178e+01 2.532703e+01 2.601387e+01 1.949655e+01 2.185126e+01 1.097879e+01 9.805650e+00 2.196170e+01 2.793745e+00 1.503318e+00 1.285216e+00 2.218415e+00 2.108071e+00 2.418592e+00 2.336596e+00 2.149652e+00 1.743318e+00 1.516097e+00 1.229809e+00 1.355221e+00 1.181736e+00
<GCONST> 9.036465e+01
<STATE> 3
<MEAN> 25
 -3.620049e+00 -1.800080e+00 -7.304813e+00 3.874469e-01 5.554552e+00 2.389219e+00 -5.370478e+00 -6.400457e-01 -1.214709e+00 -6.498423e-01 -2.363497e+00 -2.641560e+00 -1.240587e+00 1.272349e+00 9.039599e-01 -7.925081e-02 -8.677251e-01 2.785609e-01 6.567062e-01 -4.427865e-01 -8.477123e-01 -8.741722e-01 3.331070e-01 3.617264e-01 -1.367845e+00
<VARIANCE> 25
 1.379223e+01 2.888838e+01 1.032319e+01 1.188089e+01 1.889892e+01 1.667443e+01 1.974145e+01 1.960480e+01 1.632242e+01 2.282919e+01 1.155773e+01 1.969494e+01 7.712270e-01 1.676327e+00 1.488766e+00 9.370960e-01 1.570787e+00 1.559446e+00 1.973870e+00 2.473666e+00 2.087150e+00 2.391488e+00 1.202491e+00 2.519324e+00 3.766906e-01
<GCONST> 8.461474e+01
<STATE> 4
<MEAN> 25
 -9.753365e+00 6.586104e+00 -1.353579e+00 -6.444623e-01 2.131041e+00 2.502753e+00 -4.763148e+00 -1.167019e+00 -3.446925e+00 -3.328160e+00 -1.161391e+00 1.033581e+00 -1.295015e-01 1.627909e-01 1.847350e-01 -4.634066e-03 -1.305398e-01 6.212766e-03 2.919078e-02 -7.842662e-03 8.545330e-03 -1.288424e-02 1.771878e-02 1.173941e-01 -1.422639e-01
<VARIANCE> 25
 9.063190e+00 6.371131e+00 1.322936e+01 8.967811e+00 1.310864e+01 1.849660e+01 1.454667e+01 8.693672e+00 1.639841e+01 1.247491e+01 1.530330e+01 1.142918e+01 2.618829e-01 2.919342e-01 4.826579e-01 7.192450e-01 1.009272e+00 1.159745e+00 1.273481e+00 1.184509e+00 1.438599e+00 1.460448e+00 1.516499e+00 9.540889e-01 1.531688e-01
<GCONST> 7.177000e+01
<TRANSP> 5
 0.000000e+00 1.000000e+00 0.000000e+00 0.000000e+00 0.000000e+00
 0.000000e+00 8.055360e-01 1.944640e-01 0.000000e+00 0.000000e+00
 0.000000e+00 0.000000e+00 6.832666e-01 3.167334e-01 0.000000e+00
 0.000000e+00 0.000000e+00 0.000000e+00 9.212479e-01 7.875208e-02
 0.000000e+00 0.000000e+00 0.000000e+00 0.000000e+00 0.000000e+00
<ENDHMM>
~h "a"
<BEGINHMM>
<NUMSTATES> 5
<STATE> 2
<MEAN> 25
 3.482013e+00 -7.616592e-01 -1.375512e+00 -1.614159e+00 1.892526e+00 3.987511e-01 -3.500223e-03 -1.118956e+00 1.352092e+00 -4.504990e-01 -1.241634e+00 -8.494028e-01 1.047455e+00 -1.028604e+00 2.517588e-01 -8.561341e-01 3.340580e-01 -7.812583e-01 1.748672e-01 7.197659e-02 3.718998e-02 -1.442377e-01 -6.453041e-01 -3.359391e-01 2.324482e+00
<VARIANCE> 25
 1.946294e+02 1.282267e+02 6.258459e+01 9.755165e+01 3.909129e+01 5.827979e+01 4.592635e+01 4.927130e+01 4.208583e+01 3.060344e+01 4.685603e+01 3.680639e+01 1.077090e+01 8.172880e+00 4.990930e+00 5.737408e+00 4.075598e+00 5.525334e+00 5.395587e+00 4.201608e+00 4.462434e+00 3.084224e+00 4.081929e+00 2.999465e+00 1.638254e+01
<GCONST> 1.168488e+02
<STATE> 3
<MEAN> 25
 8.089825e+00 -2.958286e+00 -5.596610e-01 -4.002556e+00 2.120410e+00 -1.575081e+00 -3.285995e-01 -9.049855e-01 9.023280e-01 -3.786867e-01 -2.280243e+00 -1.808951e+00 1.863576e+00 -1.871144e+00 3.977248e-01 -1.619890e+00 2.259511e-01 -1.036997e+00 -1.640209e-01 1.579312e-01 -3.230560e-01 9.812787e-02 -7.687464e-01 -7.651225e-01 3.329711e+00
<VARIANCE> 25
 1.234381e+02 1.422155e+02 7.452004e+01 1.176922e+02 4.490753e+01 6.788257e+01 4.889258e+01 5.020895e+01 4.438158e+01 3.479544e+01 4.515279e+01 3.927770e+01 1.567036e+01 1.093000e+01 6.648769e+00 1.007133e+01 5.014597e+00 6.454233e+00 6.595143e+00 6.199288e+00 5.434539e+00 3.778145e+00 4.579957e+00 4.062699e+00 2.157574e+01
<GCONST> 1.210027e+02
<STATE> 4
<MEAN> 25
 1.233833e+01 -9.928115e+00 1.383851e+00 -8.974720e+00 2.855122e+00 -4.514915e+00 -1.320157e+00 6.744719e-01 -5.150416e-01 5.115067e-01 -3.642427e+00 -4.669407e+00 7.153583e-01 -1.061036e+00 -1.541999e-02 -5.195450e-01 1.237849e-01 -4.649105e-02 1.495143e-01 -1.119979e-01 -1.719603e-01 2.685814e-01 -5.640294e-01 -6.740040e-01 9.256955e-01
<VARIANCE> 25
 6.972186e+01 9.992693e+01 7.789500e+01 1.148550e+02 5.512694e+01 8.216829e+01 7.074200e+01 9.181460e+01 5.888068e+01 4.670669e+01 4.489722e+01 4.532155e+01 5.205339e+00 7.078190e+00 5.784862e+00 6.997448e+00 4.654886e+00 5.348939e+00 6.711744e+00 7.669729e+00 5.173052e+00 4.714723e+00 4.156870e+00 3.859175e+00 6.699781e+00
<GCONST> 1.189646e+02
<TRANSP> 5
 0.000000e+00 1.000000e+00 0.000000e+00 0.000000e+00 0.000000e+00
 0.000000e+00 2.366820e-01 7.633180e-01 0.000000e+00 0.000000e+00
 0.000000e+00 0.000000e+00 2.000917e-01 7.999083e-01 0.000000e+00
 0.000000e+00 0.000000e+00 0.000000e+00 5.488019e-01 4.511981e-01
 0.000000e+00 0.000000e+00 0.000000e+00 0.000000e+00 0.000000e+00
<ENDHMM>
~h "b"
<BEGINHMM>
<NUMSTATES> 5
<STATE> 2
<MEAN> 25
 1.589954e+01 6.454634e+00 2.869127e+00 -1.852225e+00 3.813169e+00 1.774201e+00 -4.568829e+00 -8.941391e+00 -8.901814e+00 -1.393792e+00 -1.586503e+00 -3.023076e+00 4.478617e-01 -1.806667e+00 1.004011e+00 -4.469912e-01 -9.705933e-01 -9.539246e-01 -6.780636e-01 1.397210e+00 1.013097e+00 1.970927e-01 2.506085e-01 -2.891203e-01 1.367836e+00
<VARIANCE> 25
 5.251850e+01 2.042118e+02 6.350858e+01 8.009583e+01 3.931104e+01 6.156803e+01 4.210739e+01 1.708038e+02 6.770920e+01 3.161832e+01 4.156148e+01 3.456506e+01 4.747349e+00 1.376508e+01 5.840749e+00 6.218701e+00 3.845191e+00 7.894401e+00 3.695901e+00 8.914585e+00 8.764334e+00 4.100132e+00 3.593691e+00 2.089682e+00 7.238091e+00
<GCONST> 1.176303e+02
<STATE> 3
<MEAN> 25
 1.608169e+01 4.028090e+00 5.803420e+00 -1.847715e+00 2.015122e+00 1.201153e-02 -5.745391e+00 -5.001876e+00 -6.843897e+00 -2.427671e+00 -1.923901e+00 -2.525629e+00 9.610827e-01 -4.075246e+00 4.445079e-01 -5.946154e-01 -1.359255e+00 -1.945143e+00 -5.126904e-01 1.530911e+00 6.863048e-01 1.072929e+00 5.262144e-01 -9.511827e-01 3.026350e+00
<VARIANCE> 25
 2.747516e+01 1.998718e+02 7.681722e+01 8.195355e+01 4.139560e+01 6.355574e+01 4.126757e+01 1.174111e+02 5.837032e+01 3.746502e+01 3.702742e+01 3.129497e+01 5.055996e+00 2.198668e+01 1.100716e+01 1.181770e+01 6.683551e+00 1.042717e+01 6.575789e+00 1.515419e+01 1.354406e+01 5.481449e+00 4.183169e+00 3.457004e+00 1.159852e+01
<GCONST> 1.222662e+02
<STATE> 4
<MEAN> 25
 1.963661e+01 -4.990362e+00 2.519789e+00 4.247415e-01 -1.115839e+00 -1.013455e+00 -2.763611e+00 -1.052861e+01 -6.921584e+00 3.564073e+00 -1.652008e+00 -8.481537e+00 -1.226310e-01 -1.232911e+00 -5.929968e-02 -4.587208e-01 -5.614008e-01 -5.509958e-01 5.313619e-01 2.203644e-01 1.073751e+00 4.627167e-01 -1.730873e-01 -1.786991e-01 1.024193e+00
<VARIANCE> 25
 1.307810e+01 1.296055e+02 5.809531e+01 1.614771e+02 4.778298e+01 6.864455e+01 8.956506e+01 1.779504e+02 1.155863e+02 4.741908e+01 4.176542e+01 2.641186e+01 2.218199e+00 1.999738e+01 5.982270e+00 1.862545e+01 5.884685e+00 6.938669e+00 7.058195e+00 1.929208e+01 1.166156e+01 6.261784e+00 5.301146e+00 3.478575e+00 1.044795e+01
<GCONST> 1.225965e+02
<TRANSP> 5
 0.000000e+00 1.000000e+00 0.000000e+00 0.000000e+00 0.000000e+00
 0.000000e+00 3.011004e-02 9.698899e-01 0.000000e+00 0.000000e+00
 0.000000e+00 0.000000e+00 2.335381e-01 7.664620e-01 0.000000e+00
 0.000000e+00 0.000000e+00 0.000000e+00 8.559301e-01 1.440699e-01
 0.000000e+00 0.000000e+00 0.000000e+00 0.000000e+00 0.000000e+00
<ENDHMM>
~h "c"
<BEGINHMM>
<NUMSTATES> 5
<STATE> 2
<MEAN> 25
 -2.088981e+00 3.910402e+00 -5.668886e+00 1.079337e+00 -1.627157e-01 4.368048e+00 -2.373388e+00 -2.648670e+00 2.776014e-01 2.874817e+00 3.102985e+00 -5.561274e-02 -1.528689e+00 -1.261306e+00 -6.086588e-01 -7.016354e-02 4.594392e-02 3.430692e-01 8.127295e-01 1.250814e-01 -6.225325e-01 -5.633653e-01 1.221834e-01 -3.954532e-02 -8.011442e-01
<VARIANCE> 25
 1.872201e+01 2.047493e+01 5.300394e+00 1.537480e+01 1.524020e+01 1.280733e+01 2.148748e+01 1.103023e+01 1.387100e+01 1.719746e+01 9.184039e+00 6.255925e+00 1.353775e+00 9.830949e-01 2.397136e-01 1.130671e+00 2.321292e+00 9.912464e-01 1.283687e+00 1.991139e+00 5.399326e-01 1.063948e+00 7.737174e-01 6.080245e-01 4.287553e-01
<GCONST> 7.516080e+01
<STATE> 3
<MEAN> 25
 -8.091883e+00 1.060317e+00 -6.756462e+00 2.526753e-01 1.298404e-01 7.903870e+00 3.539962e+00 -7.519005e-03 -3.621891e+00 -1.742456e+00 2.808554e+00 1.374272e+00 -3.077678e-01 2.022196e-01 2.394259e-01 1.788958e-01 -5.352803e-02 1.558680e-01 -7.586964e-02 -2.372731e-02 -5.017070e-02 -2.527337e-01 -9.120463e-02 1.635844e-01 -2.414030e-01
<VARIANCE> 25
 3.757452e+00 1.122445e+01 1.606650e+01 1.294577e+01 5.988112e+00 1.549030e+01 1.091514e+01 1.483784e+01 1.500054e+01 1.498787e+01 9.888618e+00 9.021319e+00 8.838986e-02 2.790007e-01 3.819239e-01 3.324208e-01 5.835559e-01 7.658888e-01 9.114654e-01 8.666262e-01 2.136839e+00 1.216055e+00 1.986977e+00 4.332811e-01 5.376160e-02
<GCONST> 6.562428e+01
<STATE> 4
<MEAN> 25
 -9.512035e+00 1.203013e+00 -4.205642e+00 2.902224e+00 -1.673489e-01 4.806631e+00 -9.301553e-01 -1.679568e+00 -1.154416e+00 -1.680744e+00 -3.812479e-02 8.610574e-01 -2.460453e-02 -2.115613e-02 2.374363e-02 -2.975652e-02 3.226710e-03 4.259948e-03 -9.356970e-02 -6.155367e-02 7.300501e-02 9.977368e-02 2.515296e-03 2.300772e-02 -2.334139e-02
<VARIANCE> 25
 6.658803e+00 1.545612e+01 2.490244e+01 7.983786e+00 9.269320e+00 1.431538e+01 1.152322e+01 1.484155e+01 1.361737e+01 1.147166e+01 1.188061e+01 1.095334e+01 1.128572e-01 2.308366e-01 4.958936e-01 3.785200e-01 6.900332e-01 1.474238e+00 1.007417e+00 8.099442e-01 9.893078e-01 1.225581e+00 1.462093e+00 1.041034e+00 5.360071e-02
<GCONST> 6.800259e+01
<TRANSP> 5
 0.000000e+00 1.000000e+00 0.000000e+00 0.000000e+00 0.000000e+00
 0.000000e+00 7.883323e-01 2.116677e-01 0.000000e+00 0.000000e+00
 0.000000e+00 0.000000e+00 7.938332e-01 2.061668e-01 0.000000e+00
 0.000000e+00 0.000000e+00 0.000000e+00 9.698726e-01 3.012744e-02
 0.000000e+00 0.000000e+00 0.000000e+00 0.000000e+00 0.000000e+00
<ENDHMM>
~h "d"
<BEGINHMM>
<NUMSTATES> 5
<STATE> 2
<MEAN> 25
 1.752393e+01 -1.366482e+00 -2.282096e-01 4.752022e+00 -9.345927e-01 -8.105068e+00 -6.706713e+00 -1.866047e-01 2.818862e+00 2.142842e-01 -5.778087e+00 -4.791066e+00 -9.931000e-02 1.558309e+00 -3.344174e-01 1.063694e+00 6.701049e-01 -1.116885e-01 -7.537652e-01 -4.805983e-01 1.822594e-01 -4.130859e-01 -6.360891e-02 1.354510e-01 -1.185582e+00
<VARIANCE> 25
 1.696026e+01 2.268520e+02 5.322631e+01 9.671509e+01 6.413966e+01 4.246371e+01 5.818618e+01 6.235480e+01 4.268256e+01 4.089985e+01 3.913951e+01 1.921135e+01 1.901148e+00 1.694525e+01 6.457698e+00 8.890224e+00 6.926143e+00 5.643024e+00 6.189957e+00 6.042159e+00 5.140191e+00 4.737629e+00 4.716529e+00 2.937142e+00 7.433245e+00
<GCONST> 1.155793e+02
<STATE> 3
<MEAN> 25
 2.138539e+01 3.177060e-01 -2.310723e+00 -2.271686e+00 6.586547e-01 -2.171662e+00 -1.093540e+01 -9.787488e+00 -5.318397e+00 -4.785744e+00 1.787965e+00 1.889226e+00 8.755580e-01 -1.604551e-01 -3.893967e-01 -2.328558e+00 -1.082334e+00 1.216981e+00 8.935981e-01 -1.094387e+00 -1.948546e+00 -9.896863e-02 1.143157e+00 7.074887e-01 1.007470e+00
<VARIANCE> 25
 1.807111e+01 9.155530e+01 6.266039e+01 1.206027e+02 6.432539e+01 9.444614e+01 6.278004e+01 6.813417e+01 8.180667e+01 4.055593e+01 4.890709e+01 3.506783e+01 2.308326e+00 1.666258e+01 1.031895e+01 7.213019e+00 7.856501e+00 9.111794e+00 7.488398e+00 7.353071e+00 7.418573e+00 5.319135e+00 7.722702e+00 4.028440e+00 6.454749e+00
<GCONST> 1.201324e+02
<STATE> 4
<MEAN> 25
 2.130068e+01 -6.901499e+00 2.692852e-01 -1.429853e+01 -5.364988e+00 2.974081e+00 -2.960361e+00 -8.856793e+00 -6.950732e+00 2.162254e+00 3.229674e+00 -1.149291e+00 -5.622224e-01 -1.702312e+00 4.448732e-01 -5.364570e-02 1.170139e-01 -4.679208e-01 2.687236e-01 6.646549e-01 1.150549e+00 1.127863e+00 -2.832860e-01 -9.524543e-01 8.612911e-01
<VARIANCE> 25
 2.038513e+01 1.264782e+02 5.361184e+01 5.730205e+01 4.205399e+01 8.218382e+01 3.995830e+01 9.435023e+01 6.820790e+01 5.591965e+01 3.973494e+01 4.299128e+01 1.098094e+00 7.552526e+00 3.463765e+00 5.099779e+00 4.288198e+00 5.834615e+00 3.270057e+00 6.844330e+00 3.928669e+00 4.335314e+00 4.622501e+00 3.680672e+00 2.266582e+00
<GCONST> 1.117067e+02
<TRANSP> 5
 0.000000e+00 1.000000e+00 0.000000e+00 0.000000e+00 0.000000e+00
 0.000000e+00 9.142892e-01 8.571073e-02 0.000000e+00 0.000000e+00
 0.000000e+00 0.000000e+00 8.864141e-01 1.135859e-01 0.000000e+00
 0.000000e+00 0.000000e+00 0.000000e+00 8.976669e-01 1.023331e-01
 0.000000e+00 0.000000e+00 0.000000e+00 0.000000e+00 0.000000e+00
<ENDHMM>
~h "e"
<BEGINHMM>
<NUMSTATES> 5
<STATE> 2
<MEAN> 25
 7.900212e+00 -5.163756e+00 1.238221e+01 -2.990869e+00 -7.099890e+00 -1.402441e+01 2.902109e+00 3.227504e+00 -6.389148e+00 6.328488e-02 -4.761664e-01 3.130782e+00 -9.052074e-01 1.296314e+00 4.390389e-01 1.969127e-01 -5.388263e-01 3.116731e-01 9.956998e-01 -8.424800e-01 -6.802925e-01 9.407635e-02 1.682865e-01 5.411870e-02 -8.769597e-01
<VARIANCE> 25
 1.479540e+02 1.132529e+02 8.875864e+01 1.273116e+02 9.293320e+01 7.176405e+01 7.875513e+01 5.722940e+01 6.984203e+01 4.309193e+01 3.683470e+01 3.619445e+01 1.100123e+01 1.042398e+01 1.038026e+01 1.352301e+01 1.267716e+01 7.646267e+00 7.181845e+00 7.856849e+00 1.081905e+01 4.972260e+00 4.526089e+00 3.881490e+00 6.355530e+00
<GCONST> 1.244236e+02
<STATE> 3
<MEAN> 25
 1.855803e+00 3.983784e+00 1.588378e+01 -2.319315e+00 -1.299216e+01 -7.244686e+00 7.458680e+00 -4.118915e+00 -7.271786e+00 -7.361188e-01 3.060534e+00 2.292274e+00 1.177411e+00 6.214619e-02 1.535820e+00 -9.212654e-02 -1.207705e+00 6.157966e-01 -5.108591e-01 -4.805650e-01 -1.316663e+00 -2.137345e-01 -8.064649e-02 -4.571205e-01 6.536731e-02
<VARIANCE> 25
 1.819707e+02 7.561550e+01 1.567140e+02 9.914655e+01 1.252403e+02 4.945929e+01 8.815295e+01 4.274043e+01 1.244796e+02 3.917749e+01 3.888096e+01 3.512452e+01 1.227240e+01 9.377785e+00 1.283566e+01 7.003642e+00 1.336923e+01 4.959762e+00 1.157168e+01 6.916585e+00 1.096628e+01 4.146295e+00 3.816053e+00 4.297119e+00 7.746488e+00
<GCONST> 1.242873e+02
<STATE> 4
<MEAN> 25
 1.082855e+01 2.147420e+00 1.896080e+01 -2.758804e+00 -1.255110e+01 -4.916619e+00 -1.245362e+00 -5.452969e+00 -1.176719e+01 -7.434763e-01 3.735783e-02 -2.396151e+00 3.416299e-02 1.520347e-01 -6.445513e-01 1.634232e-01 4.382465e-01 -1.353499e-01 -3.135918e-01 -1.969421e-02 4.230386e-01 1.268435e-02 -7.006532e-02 -3.543147e-02 -1.837799e-01
<VARIANCE> 25
 3.221413e+01 1.021178e+02 1.604031e+02 1.192854e+02 1.059402e+02 1.047510e+02 1.140283e+02 9.568893e+01 1.106816e+02 5.690359e+01 4.494566e+01 4.084413e+01 2.602614e+00 1.193312e+01 1.306612e+01 1.052490e+01 8.567956e+00 7.264201e+00 9.485715e+00 8.939595e+00 1.089035e+01 4.679254e+00 4.586685e+00 4.063325e+00 9.600486e+00
<GCONST> 1.248288e+02
<TRANSP> 5
 0.000000e+00 1.000000e+00 0.000000e+00 0.000000e+00 0.000000e+00
 0.000000e+00 8.195075e-01 1.804925e-01 0.000000e+00 0.000000e+00
 0.000000e+00 0.000000e+00 7.875974e-01 2.124026e-01 0.000000e+00
 0.000000e+00 0.000000e+00 0.000000e+00 9.140161e-01 8.598385e-02
 0.000000e+00 0.000000e+00 0.000000e+00 0.000000e+00 0.000000e+00
<ENDHMM>
~h "g"
<BEGINHMM>
<NUMSTATES> 5
<STATE> 2
<MEAN> 25
 -3.527888e+00 1.949539e+00 -6.087054e-01 2.618406e+00 5.411628e-02 3.430573e-01 1.423991e+00 1.236497e+00 1.109745e+00 -3.177399e-01 1.776868e+00 1.688492e+00 -1.064989e-01 -6.301162e-02 -8.549104e-01 -3.379091e-01 9.262437e-01 5.122873e-02 -2.693506e-02 -4.278403e-02 -3.373430e-02 -6.959397e-01 2.084823e-01 2.023607e-01 6.688725e-01
<VARIANCE> 25
 2.154283e+02 7.318011e+01 1.002691e+02 6.281034e+01 5.606133e+01 1.093305e+02 4.116394e+01 5.144129e+01 4.822982e+01 1.971076e+01 4.012770e+01 3.063914e+01 5.173681e+00 3.780156e+00 4.728253e+00 2.249480e+00 3.290236e+00 4.030094e+00 3.517476e+00 4.553563e+00 4.848022e+00 2.595832e+00 3.151434e+00 1.918141e+00 8.222749e+00
<GCONST> 1.118454e+02
<STATE> 3
<MEAN> 25
 -4.191148e+00 1.713019e+00 -1.200173e+00 2.511605e+00 2.658100e-01 2.080707e-01 1.435487e+00 1.323394e+00 1.363287e+00 -1.578746e+00 1.094657e+00 2.130800e+00 1.176870e+00 -5.026519e-01 -7.134318e-02 -8.974409e-01 6.793365e-01 -1.012198e+00 -4.526398e-01 -1.376075e-01 -9.009660e-02 -1.927167e-01 -3.529404e-01 -1.949323e-01 2.632034e+00
<VARIANCE> 25
 1.843490e+02 6.957505e+01 8.103176e+01 5.782079e+01 4.166862e+01 9.925288e+01 4.126056e+01 4.789218e+01 3.465934e+01 1.957495e+01 2.956530e+01 2.842809e+01 7.266103e+00 3.957904e+00 3.933208e+00 2.838240e+00 2.619193e+00 6.464757e+00 2.979237e+00 4.382426e+00 3.311430e+00 2.231754e+00 3.157321e+00 2.135530e+00 1.682267e+01
<GCONST> 1.109299e+02
<STATE> 4
<MEAN> 25
 -7.018888e+00 1.752529e+00 -3.184099e+00 1.787221e+00 6.713191e-01 6.351033e-01 4.119998e-01 9.477892e-01 8.978060e-01 -1.261335e+00 9.100987e-01 1.825398e+00 5.392299e-01 3.622652e-02 1.916519e-01 -1.277685e-01 -1.175861e-02 -3.125562e-01 -2.998798e-01 -5.772854e-02 -3.069789e-01 -3.918601e-02 -1.960638e-01 -3.068426e-01 6.138234e-01
<VARIANCE> 25
 6.147833e+01 2.697154e+01 4.395789e+01 3.273267e+01 2.254342e+01 3.809693e+01 2.256845e+01 2.909613e+01 2.526537e+01 1.668734e+01 2.043903e+01 1.789627e+01 4.629855e+00 2.230839e+00 1.861404e+00 2.121262e+00 1.841114e+00 3.315862e+00 1.893416e+00 2.076877e+00 1.600883e+00 1.735138e+00 1.975274e+00 1.681018e+00 1.123382e+01
<GCONST> 9.734813e+01
<TRANSP> 5
 0.000000e+00 1.000000e+00 0.000000e+00 0.000000e+00 0.000000e+00
 0.000000e+00 2.378337e-02 9.762167e-01 0.000000e+00 0.000000e+00
 0.000000e+00 0.000000e+00 8.568654e-02 9.143135e-01 0.000000e+00
 0.000000e+00 0.000000e+00 0.000000e+00 7.182965e-01 2.817035e-01
 0.000000e+00 0.000000e+00 0.000000e+00 0.000000e+00 0.000000e+00
<ENDHMM>
~h "h"
<BEGINHMM>
<NUMSTATES> 5
<STATE> 2
<MEAN> 25
 -2.479070e+00 4.529172e+00 -4.783870e+00 -1.653152e+00 8.718411e-01 5.170970e+00 2.878149e+00 1.495681e+00 -8.609811e-01 -1.003715e+00 2.220781e-01 2.307402e+00 -6.169204e-03 -2.159891e-01 6.374537e-01 -4.249893e-01 -1.957075e-01 -6.368952e-01 -1.277957e-01 2.733654e-01 -7.056798e-02 -2.456626e-01 -5.045393e-01 -4.488562e-01 5.975336e-01
<VARIANCE> 25
 1.045219e+02 2.333678e+01 9.183617e+01 9.377689e+01 1.956947e+01 7.178775e+01 2.685327e+01 2.673574e+01 2.491200e+01 1.361785e+01 1.937237e+01 1.352114e+01 3.666341e+00 1.479723e+00 2.775124e+00 3.231061e+00 1.905619e+00 2.741039e+00 2.477182e+00 1.574575e+00 1.936822e+00 1.136331e+00 1.687473e+00 1.420260e+00 8.240086e+00
<GCONST> 9.869692e+01
<STATE> 3
<MEAN> 25
 3.802955e-01 8.385626e+00 -4.897584e+00 -3.253291e+00 -2.040204e+00 2.958485e+00 1.182180e+00 8.593237e-02 -2.752310e-01 -3.524356e+00 -6.387445e-01 8.673251e-03 -8.031042e-01 3.752292e-01 6.004051e-01 3.619823e-01 -3.990605e-01 2.224711e-01 6.461159e-03 5.684995e-02 2.092205e-01 -1.679709e-01 8.936972e-02 -2.175809e-01 -9.432938e-01
<VARIANCE> 25
 1.183300e+02 5.124505e+01 5.960112e+01 5.602567e+01 1.935074e+01 2.020335e+01 1.655452e+01 2.204643e+01 1.849316e+01 2.366597e+01 1.691037e+01 1.510853e+01 9.134650e-01 6.173277e-01 1.943818e+00 1.762385e+00 8.528374e-01 1.819402e+00 1.854618e+00 1.509930e+00 1.780904e+00 1.304631e+00 1.261171e+00 1.079181e+00 1.315279e+00
<GCONST> 8.981638e+01
<STATE> 4
<MEAN> 25
 -6.935441e+00 4.191266e+00 -2.062336e+00 2.435131e+00 -1.397027e+00 1.884156e+00 -1.265073e+00 6.289580e-01 6.794449e-01 -1.064342e+00 -3.454491e-01 -1.361824e-01 -1.025730e-01 -1.575879e-01 -2.132452e-02 1.235672e-01 -6.489323e-03 1.354699e-01 -1.742372e-02 -8.132118e-02 -2.860188e-02 8.213773e-02 1.009919e-01 5.015121e-02 -1.024593e-01
<VARIANCE> 25
 2.150380e+01 1.343398e+01 2.808290e+01 1.441654e+01 1.131612e+01 2.137214e+01 1.725854e+01 1.847848e+01 2.044914e+01 1.547094e+01 1.286029e+01 1.365641e+01 5.509807e-01 3.981462e-01 1.018049e+00 8.177421e-01 6.826418e-01 1.185513e+00 1.203612e+00 1.280735e+00 1.986018e+00 1.264098e+00 1.405202e+00 1.423423e+00 4.853548e-01
<GCONST> 7.920667e+01
<TRANSP> 5
 0.000000e+00 1.000000e+00 0.000000e+00 0.000000e+00 0.000000e+00
 0.000000e+00 5.753433e-01 4.246567e-01 0.000000e+00 0.000000e+00
 0.000000e+00 0.000000e+00 3.568121e-01 6.431879e-01 0.000000e+00
 0.000000e+00 0.000000e+00 0.000000e+00 7.546615e-01 2.453385e-01
 0.000000e+00 0.000000e+00 0.000000e+00 0.000000e+00 0.000000e+00
<ENDHMM>
~h "i"
<BEGINHMM>
<NUMSTATES> 5
<STATE> 2
<MEAN> 25
 1.174887e+01 -1.984249e+00 1.440773e+01 -1.609800e+00 -8.588467e+00 -9.332239e+00 4.479178e-01 -3.467478e+00 -8.916288e+00 -4.332505e-01 -1.388079e-01 -1.140246e+00 2.323540e-01 -9.605375e-01 -4.288940e-02 -7.152109e-02 -2.320300e-02 -4.803323e-01 -2.721845e-02 3.222604e-01 1.789535e-01 2.614518e-01 -2.753607e-01 -7.943666e-02 8.102272e-01
<VARIANCE> 25
 4.243877e+01 1.218461e+02 1.627410e+02 1.288879e+02 1.275412e+02 1.427769e+02 1.164221e+02 1.118973e+02 1.129530e+02 7.088604e+01 5.868266e+01 4.560146e+01 3.985708e+00 1.267034e+01 1.239986e+01 1.005329e+01 1.176483e+01 1.011679e+01 1.155631e+01 1.229383e+01 1.145272e+01 6.150068e+00 5.997409e+00 4.039483e+00 8.578861e+00
<GCONST> 1.286881e+02
<STATE> 3
<MEAN> 25
 1.824951e+01 -8.250362e+00 -1.195304e+00 2.313483e-02 -1.176590e+00 -3.974247e+00 -1.380567e+00 -6.172954e+00 -2.463442e+00 2.948294e+00 -3.691449e+00 -5.182817e+00 4.898420e-02 -7.915039e-02 -6.684551e-01 -1.852871e-01 5.790964e-01 5.798976e-01 -1.811472e-01 3.462368e-01 1.835293e-01 -2.011776e-01 -3.105404e-01 -2.721151e-01 -1.816995e-01
<VARIANCE> 25
 3.460823e+01 9.196458e+01 7.816435e+01 1.275016e+02 6.985688e+01 9.812106e+01 8.426899e+01 1.328413e+02 9.840678e+01 4.843389e+01 4.337213e+01 4.316938e+01 2.463299e+00 7.976925e+00 7.101484e+00 1.087503e+01 8.356203e+00 6.412076e+00 7.379982e+00 1.222623e+01 7.668810e+00 5.580322e+00 5.088180e+00 3.617209e+00 4.521466e+00
<GCONST> 1.213657e+02
<STATE> 4
<MEAN> 25
 1.336887e+01 -1.132438e+01 7.545096e+00 -6.887622e+00 -3.336910e+00 -6.843418e+00 1.082236e+00 2.090150e+00 -3.171787e+00 -1.696879e+00 -4.339007e+00 -3.085372e+00 -2.361888e-01 6.949324e-01 2.315178e-01 6.839961e-03 -1.468061e-01 5.418228e-02 8.904316e-02 -2.464163e-01 -1.265977e-01 1.881729e-01 1.826724e-01 3.441159e-01 -5.340210e-01
<VARIANCE> 25
 2.934034e+01 1.011055e+02 1.288598e+02 7.727599e+01 9.194498e+01 1.105516e+02 7.136578e+01 8.235818e+01 8.098064e+01 5.931883e+01 5.367821e+01 3.466652e+01 1.419239e+00 2.089037e+00 3.926200e+00 3.859292e+00 4.250451e+00 3.886693e+00 4.501692e+00 4.556739e+00 4.508797e+00 3.759256e+00 3.531360e+00 2.431921e+00 1.588693e+00
<GCONST> 1.121338e+02
<TRANSP> 5
 0.000000e+00 1.000000e+00 0.000000e+00 0.000000e+00 0.000000e+00
 0.000000e+00 8.201596e-01 1.798404e-01 0.000000e+00 0.000000e+00
 0.000000e+00 0.000000e+00 7.497445e-01 2.502556e-01 0.000000e+00
 0.000000e+00 0.000000e+00 0.000000e+00 7.981463e-01 2.018537e-01
 0.000000e+00 0.000000e+00 0.000000e+00 0.000000e+00 0.000000e+00
<ENDHMM>
~h "j"
<BEGINHMM>
<NUMSTATES> 5
<STATE> 2
<MEAN> 25
 -3.472362e+00 6.318357e+00 -6.421811e+00 -1.150349e+00 6.249124e-01 7.020699e+00 -6.910375e-01 2.678586e+00 -1.495220e+00 -4.683061e+00 -2.083243e+00 -6.948096e-01 -1.441776e+00 -9.110326e-01 4.394153e-02 7.458013e-01 5.169170e-01 -6.581207e-02 -2.662471e-01 1.132552e-01 1.661922e-01 7.798960e-02 -1.628252e-01 -3.021528e-01 -7.568313e-01
<VARIANCE> 25
 2.152819e+01 2.918709e+01 2.266472e+01 3.403776e+01 1.509601e+01 3.899763e+01 2.742841e+01 3.031128e+01 1.574509e+01 1.852012e+01 1.296760e+01 2.182086e+01 1.623385e+00 1.805331e+00 1.466073e+00 1.638215e+00 1.626042e+00 1.507950e+00 1.941758e+00 8.811161e-01 1.446245e+00 1.416497e+00 1.425819e+00 1.599555e+00 4.414883e-01
<GCONST> 8.756945e+01
<STATE> 3
<MEAN> 25
 -7.597072e+00 4.067272e+00 -6.686285e+00 3.481183e+00 1.504044e+00 3.286692e+00 -7.453436e-01 -1.072150e+00 -1.142818e+00 -4.024228e+00 -2.682634e+00 -6.279434e-01 -7.730798e-01 -5.143240e-01 4.087226e-02 1.250514e-01 -1.694251e-01 -3.664175e-01 -3.301145e-01 -1.991894e-01 1.961757e-02 2.507243e-01 1.952524e-01 -1.329451e-01 -3.868011e-01
<VARIANCE> 25
 4.099782e+00 4.762772e+00 1.167370e+01 1.854367e+01 1.547039e+01 1.444260e+01 1.248330e+01 1.223698e+01 1.036604e+01 1.309249e+01 1.389672e+01 1.980120e+01 1.678160e-01 4.099758e-01 5.656347e-01 9.154002e-01 1.203070e+00 9.179724e-01 1.439390e+00 1.055612e+00 1.391931e+00 1.524884e+00 1.206730e+00 1.113448e+00 5.360071e-02
<GCONST> 7.056676e+01
<STATE> 4
<MEAN> 25
 -1.147297e+01 3.183360e+00 -4.888176e+00 4.735176e+00 3.621284e+00 3.768235e+00 -1.814651e+00 1.080869e+00 -6.918228e-01 -3.165881e+00 2.634175e-01 -6.546651e-01 -1.219065e-01 2.502992e-02 1.329473e-01 1.001878e-01 8.736321e-02 2.842434e-02 -3.612732e-02 4.849751e-02 1.366466e-01 1.224702e-01 9.731686e-02 8.088549e-02 -8.849140e-02
<VARIANCE> 25
 6.916683e+00 3.941647e+00 1.064109e+01 2.455773e+01 1.540274e+01 2.904188e+01 1.325966e+01 1.673460e+01 1.321282e+01 1.611460e+01 1.378207e+01 1.370274e+01 1.191548e-01 3.100140e-01 5.217233e-01 8.469776e-01 8.283755e-01 9.768522e-01 1.222314e+00 1.131911e+00 1.187679e+00 1.121137e+00 1.466173e+00 1.707663e+00 5.360071e-02
<GCONST> 7.120128e+01
<TRANSP> 5
 0.000000e+00 1.000000e+00 0.000000e+00 0.000000e+00 0.000000e+00
 0.000000e+00 7.789735e-01 2.210265e-01 0.000000e+00 0.000000e+00
 0.000000e+00 0.000000e+00 7.547790e-01 2.452209e-01 0.000000e+00
 0.000000e+00 0.000000e+00 0.000000e+00 9.167634e-01 8.323660e-02
 0.000000e+00 0.000000e+00 0.000000e+00 0.000000e+00 0.000000e+00
<ENDHMM>
~h "k"
<BEGINHMM>
<NUMSTATES> 5
<STATE> 2
<MEAN> 25
 1.600445e+01 -7.396805e+00 1.431642e+00 -1.375088e+00 -1.048552e+00 -3.197449e+00 1.361229e+00 -1.724469e+00 -3.301049e+00 9.682716e-01 -4.924807e+00 -4.333354e+00 -6.003987e-01 1.913716e+00 -1.046410e+00 1.305709e+00 3.328190e-01 3.966540e-01 -4.102163e-01 4.531279e-02 7.241442e-01 -3.828010e-02 2.090350e-01 3.466418e-01 -2.435480e+00
<VARIANCE> 25
 3.848676e+01 1.019055e+02 1.356981e+02 9.931648e+01 1.261988e+02 7.419868e+01 6.572717e+01 8.848383e+01 6.459516e+01 6.428354e+01 5.819021e+01 6.119857e+01 3.297898e+00 7.500038e+00 1.042143e+01 9.356833e+00 9.340814e+00 7.235915e+00 7.866319e+00 9.765017e+00 6.323913e+00 5.162898e+00 4.751733e+00 4.581165e+00 6.744703e+00
<GCONST> 1.228703e+02
<STATE> 3
<MEAN> 25
 1.210287e+01 5.933585e-01 -6.956498e+00 -6.080080e-01 4.034168e+00 2.775736e-01 -3.599185e+00 -6.020708e-01 2.033936e+00 4.052267e-01 -4.018905e+00 -3.703961e+00 -2.865861e+00 2.045141e+00 3.533838e-01 -5.665805e-01 -4.199703e-01 9.588542e-01 -3.456575e-01 -4.497901e-02 -6.217930e-02 -2.654547e-01 6.842875e-01 5.065339e-01 -3.288475e+00
<VARIANCE> 25
 6.241236e+01 7.294675e+01 1.032198e+02 5.868327e+01 6.889240e+01 4.302895e+01 4.390425e+01 5.250720e+01 5.371673e+01 3.944750e+01 3.108034e+01 2.332915e+01 4.739973e+00 4.938588e+00 8.471406e+00 4.357124e+00 1.085448e+01 5.751204e+00 7.619762e+00 5.979106e+00 4.714419e+00 3.773373e+00 2.980956e+00 2.798829e+00 4.732775e+00
<GCONST> 1.143310e+02
<STATE> 4
<MEAN> 25
 4.575212e+00 6.105667e+00 -8.490984e-01 -3.322274e-01 -1.417991e+00 -2.433619e-01 -2.312783e+00 -1.971861e+00 -1.632603e+00 -1.303268e+00 -3.116682e+00 -3.021735e+00 -1.175137e+00 3.428657e-01 7.074244e-01 1.811553e-01 -1.117870e-01 -8.036803e-02 3.685138e-02 -1.102984e-02 -3.609693e-01 3.157356e-02 3.289980e-01 2.117524e-01 -9.221087e-01
<VARIANCE> 25
 9.116215e+01 9.899540e+01 6.291344e+01 4.254973e+01 4.279142e+01 2.838033e+01 3.823870e+01 3.455317e+01 3.236452e+01 3.414741e+01 2.827619e+01 1.882395e+01 2.470793e+00 2.919717e+00 4.687586e+00 3.056339e+00 3.982759e+00 3.042571e+00 3.810748e+00 2.609192e+00 2.861526e+00 2.870870e+00 2.260642e+00 1.624084e+00 2.027630e+00
<GCONST> 1.040635e+02
<TRANSP> 5
 0.000000e+00 1.000000e+00 0.000000e+00 0.000000e+00 0.000000e+00
 0.000000e+00 6.485455e-01 3.514545e-01 0.000000e+00 0.000000e+00
 0.000000e+00 0.000000e+00 4.738968e-01 5.261033e-01 0.000000e+00
 0.000000e+00 0.000000e+00 0.000000e+00 6.248178e-01 3.751822e-01
 0.000000e+00 0.000000e+00 0.000000e+00 0.000000e+00 0.000000e+00
<ENDHMM>
~h "l"
<BEGINHMM>
<NUMSTATES> 5
<STATE> 2
<MEAN> 25
 1.354967e+01 -7.664383e+00 4.354747e+00 -6.361619e+00 -1.954347e+00 -4.889435e+00 -5.107558e+00 -5.348855e+00 4.732115e+00 -5.382783e-01 -2.453600e+00 -2.851228e+00 1.108846e+00 -5.523215e-01 1.268658e+00 9.822657e-01 -1.534987e+00 4.943138e-01 -1.061569e+00 -7.023797e-01 -1.183637e+00 5.641631e-01 6.258343e-01 -3.707365e-01 4.274835e-01
<VARIANCE> 25
 6.282141e+01 7.746635e+01 1.140233e+02 9.378437e+01 6.200149e+01 8.688017e+01 1.169591e+02 1.244132e+02 1.338183e+02 8.201739e+01 4.990848e+01 4.003313e+01 4.625907e+00 8.094175e+00 1.177858e+01 9.426673e+00 8.433064e+00 1.008847e+01 1.712959e+01 1.088210e+01 1.102490e+01 8.441255e+00 6.152045e+00 3.987695e+00 9.258406e+00
<GCONST> 1.267579e+02
<STATE> 3
<MEAN> 25
 1.649111e+01 -1.020752e+01 1.224977e+01 -3.378529e-01 -1.321862e+01 -6.761097e+00 -3.930581e+00 -5.091088e+00 -3.285377e+00 1.094297e+00 -1.936598e+00 -6.897115e-01 -2.045366e-01 5.649436e-01 1.248332e+00 -2.053817e-01 -1.063863e+00 -2.813114e-02 9.342856e-01 7.889242e-02 -1.998990e+00 4.449015e-01 3.749384e-01 1.310264e-01 -2.355654e-01
<VARIANCE> 25
 2.219105e+01 2.760237e+01 1.024379e+02 8.811448e+01 7.459872e+01 7.808202e+01 1.365815e+02 9.367175e+01 9.336650e+01 5.938300e+01 6.114499e+01 4.703310e+01 1.004206e+00 3.414350e+00 5.400211e+00 7.686062e+00 6.102040e+00 7.598164e+00 7.836537e+00 8.265268e+00 6.569410e+00 6.362361e+00 5.357467e+00 4.019104e+00 1.873218e+00
<GCONST> 1.165791e+02
<STATE> 4
<MEAN> 25
 1.498694e+01 4.803085e+00 1.596591e+01 -4.505110e+00 -1.289516e+01 -8.015425e-01 -1.736537e+00 -8.049039e+00 -1.460107e+01 9.301413e-01 1.578610e+00 -6.666822e-01 1.984393e-01 1.629351e+00 -1.656651e+00 9.752733e-01 1.127142e+00 2.336304e-01 -2.183791e-01 -6.954838e-01 5.556996e-01 -5.689055e-01 -6.414780e-02 -5.890642e-02 -1.294304e+00
<VARIANCE> 25
 3.061355e+01 1.181390e+02 1.511518e+02 9.044848e+01 1.008290e+02 9.945381e+01 1.207028e+02 1.360367e+02 7.426985e+01 8.393989e+01 5.226666e+01 2.697149e+01 2.382117e+00 1.018017e+01 8.850792e+00 7.280678e+00 8.977291e+00 1.117736e+01 9.374828e+00 1.287477e+01 7.220006e+00 6.913287e+00 3.776774e+00 2.506962e+00 2.909386e+00
<GCONST> 1.225538e+02
<TRANSP> 5
 0.000000e+00 1.000000e+00 0.000000e+00 0.000000e+00 0.000000e+00
 0.000000e+00 6.497535e-01 3.502466e-01 0.000000e+00 0.000000e+00
 0.000000e+00 0.000000e+00 8.433748e-01 1.566252e-01 0.000000e+00
 0.000000e+00 0.000000e+00 0.000000e+00 8.543183e-01 1.456817e-01
 0.000000e+00 0.000000e+00 0.000000e+00 0.000000e+00 0.000000e+00
<ENDHMM>
~h "m"
<BEGINHMM>
<NUMSTATES> 5
<STATE> 2
<MEAN> 25
 1.303621e+01 -2.388637e+00 -2.048191e-01 -9.529945e-01 1.965122e+00 -3.838077e-01 -1.507776e+00 -3.485487e+00 -3.923191e+00 -1.316455e+00 -3.451456e+00 -4.533187e+00 -8.865006e-02 2.637281e-01 -9.291161e-01 4.878524e-01 7.688570e-01 7.568586e-01 -2.685019e-02 -7.979805e-01 -4.943697e-01 -1.200833e-01 -2.459129e-01 -1.703187e-01 -8.163401e-01
<VARIANCE> 25
 1.009974e+02 1.858195e+02 7.219008e+01 9.712053e+01 3.902713e+01 5.076081e+01 4.721814e+01 9.309094e+01 5.824858e+01 4.375787e+01 2.918331e+01 3.869822e+01 3.506209e+00 5.752824e+00 3.513976e+00 2.771448e+00 3.020312e+00 3.380716e+00 3.000732e+00 3.978029e+00 4.755153e+00 2.262307e+00 2.438299e+00 2.249942e+00 2.383293e+00
<GCONST> 1.105243e+02
<STATE> 3
<MEAN> 25
 1.597116e+01 -5.890731e+00 -2.675921e+00 -2.522136e+00 2.399536e+00 -2.125623e-01 -9.793415e-01 -3.900987e+00 -4.957119e+00 9.969010e-01 -3.909804e+00 -6.332946e+00 -2.185871e-02 1.084110e+00 -5.838364e-01 9.964339e-02 8.583245e-01 9.757159e-01 -4.003560e-01 -7.109849e-01 -6.839972e-01 -1.779633e-01 5.833416e-02 2.850643e-01 -9.720888e-01
<VARIANCE> 25
 9.739721e+01 1.492054e+02 7.284374e+01 1.038236e+02 5.119361e+01 4.385671e+01 6.510328e+01 1.168023e+02 5.797160e+01 5.411921e+01 4.131631e+01 4.677047e+01 1.819234e+00 6.678368e+00 3.155317e+00 2.946094e+00 3.067910e+00 2.796899e+00 2.632082e+00 4.228531e+00 3.449752e+00 2.074160e+00 2.455654e+00 1.875959e+00 2.101476e+00
<GCONST> 1.102567e+02
<STATE> 4
<MEAN> 25
 1.867530e+01 6.315166e+00 -4.304106e+00 -2.010284e-01 6.005794e+00 4.860435e+00 -4.762968e+00 -1.207389e+01 -9.399669e+00 -1.620293e+00 -1.629448e+00 -2.922208e+00 -5.789707e-01 1.171258e+00 4.966207e-01 2.050169e-01 7.699893e-02 3.152172e-01 -1.280272e-01 -4.589596e-01 -2.684679e-01 -2.205475e-01 2.765375e-01 4.541538e-01 -9.588987e-01
<VARIANCE> 25
 7.113415e+01 9.009052e+01 5.580873e+01 4.470347e+01 3.398296e+01 2.997386e+01 4.727333e+01 9.912889e+01 5.554367e+01 2.910240e+01 2.857703e+01 2.528218e+01 2.207857e+00 6.046726e+00 4.373466e+00 3.390989e+00 3.323056e+00 2.706344e+00 2.890528e+00 6.357275e+00 5.066391e+00 2.688856e+00 2.293576e+00 1.968101e+00 2.508018e+00
<GCONST> 1.073177e+02
<TRANSP> 5
 0.000000e+00 1.000000e+00 0.000000e+00 0.000000e+00 0.000000e+00
 0.000000e+00 2.756222e-01 7.243778e-01 0.000000e+00 0.000000e+00
 0.000000e+00 0.000000e+00 2.979920e-01 7.020081e-01 0.000000e+00
 0.000000e+00 0.000000e+00 0.000000e+00 7.335668e-01 2.664333e-01
 0.000000e+00 0.000000e+00 0.000000e+00 0.000000e+00 0.000000e+00
<ENDHMM>
~h "n"
<BEGINHMM>
<NUMSTATES> 5
<STATE> 2
<MEAN> 25
 -6.379000e+00 2.779520e+00 -3.988065e+00 2.901762e+00 6.653432e-01 3.082755e+00 -8.179212e-01 7.107502e-01 9.305627e-01 -1.551579e+00 -3.951741e-01 8.613019e-02 -1.265394e-01 5.949830e-02 -4.417028e-02 -1.293334e-01 -4.102948e-02 -8.103291e-03 2.598883e-02 5.115585e-02 -7.045326e-02 -6.470510e-02 4.410189e-02 5.113688e-02 -1.122356e-01
<VARIANCE> 25
 6.223037e+01 2.445335e+01 2.858657e+01 2.009888e+01 1.832434e+01 2.149427e+01 3.133492e+01 2.275717e+01 2.259196e+01 1.607030e+01 1.782726e+01 1.767764e+01 6.196328e-01 9.062466e-01 1.125532e+00 9.795968e-01 1.231236e+00 1.461567e+00 1.432026e+00 1.608958e+00 1.558213e+00 1.551429e+00 1.255395e+00 1.331981e+00 2.975453e-01
<GCONST> 8.494877e+01
<STATE> 3
<MEAN> 25
 1.455421e+00 5.153177e+00 -2.888908e+00 1.046409e+00 1.821240e+00 2.421133e+00 -2.262277e+00 -1.740229e+00 -6.881976e-01 -2.726420e+00 -1.101627e+00 -4.613132e-01 1.997667e+00 5.248301e-01 -2.447416e-01 -1.568339e+00 -6.301652e-01 4.830043e-01 2.693202e-01 -3.208684e-01 -3.576646e-01 1.840256e-01 6.282234e-01 5.462813e-01 1.425779e+00
<VARIANCE> 25
 1.669837e+02 7.022304e+01 5.017617e+01 4.084520e+01 3.103270e+01 4.029259e+01 3.942458e+01 4.738026e+01 3.896672e+01 2.673439e+01 2.999419e+01 2.434477e+01 1.355559e+01 6.527217e+00 3.504358e+00 4.216005e+00 2.319588e+00 3.696069e+00 2.731205e+00 3.706712e+00 3.231189e+00 2.653998e+00 2.813904e+00 2.159364e+00 7.086310e+00
<GCONST> 1.086983e+02
<STATE> 4
<MEAN> 25
 1.011276e+01 5.212726e+00 -4.111604e+00 -5.467529e+00 -7.265112e-01 5.434373e+00 -1.605073e+00 -3.686338e+00 -2.043211e+00 -1.426877e+00 1.986452e+00 1.062172e+00 1.880889e+00 -1.290105e+00 -1.371428e-01 -1.703788e+00 -4.427812e-01 5.028722e-02 3.586096e-02 -1.534282e-01 -6.721590e-01 4.805804e-01 5.394855e-01 -7.363283e-02 2.348514e+00
<VARIANCE> 25
 1.809760e+02 1.094889e+02 6.549384e+01 8.113303e+01 4.384748e+01 5.164048e+01 3.663469e+01 5.196680e+01 5.539159e+01 2.635420e+01 4.443930e+01 2.355438e+01 1.409051e+01 1.165795e+01 5.958957e+00 7.568703e+00 3.173742e+00 4.047007e+00 4.329930e+00 5.031028e+00 7.647809e+00 2.585701e+00 4.770636e+00 2.323458e+00 1.125008e+01
<GCONST> 1.162901e+02
<TRANSP> 5
 0.000000e+00 1.000000e+00 0.000000e+00 0.000000e+00 0.000000e+00
 0.000000e+00 8.350542e-01 1.649459e-01 0.000000e+00 0.000000e+00
 0.000000e+00 0.000000e+00 2.877721e-01 7.122278e-01 0.000000e+00
 0.000000e+00 0.000000e+00 0.000000e+00 4.155665e-01 5.844334e-01
 0.000000e+00 0.000000e+00 0.000000e+00 0.000000e+00 0.000000e+00
<ENDHMM>
~h "o"
<BEGINHMM>
<NUMSTATES> 5
<STATE> 2
<MEAN> 25
 1.352854e+01 -5.376323e+00 -4.004025e+00 -1.411464e+01 5.676154e+00 3.189385e-01 -1.913712e+00 -2.684026e+00 -3.345868e+00 3.063288e+00 3.158439e+00 -2.309816e+00 7.226724e-01 1.881840e-01 -3.729725e-01 -2.338269e-01 1.677163e-01 -6.764625e-02 -3.850459e-02 -2.137538e-01 1.791006e-01 3.871610e-01 -3.374604e-01 -4.486074e-02 3.598840e-01
<VARIANCE> 25
 6.999873e+01 7.126007e+01 1.007467e+02 1.002262e+02 1.242655e+02 1.272697e+02 1.061097e+02 7.157476e+01 7.862767e+01 6.204416e+01 8.085140e+01 3.162995e+01 6.540584e+00 9.990763e+00 1.308132e+01 1.146913e+01 1.532046e+01 1.361373e+01 1.282419e+01 7.701380e+00 9.395644e+00 6.888668e+00 8.519103e+00 4.116550e+00 1.460425e+01
<GCONST> 1.281573e+02
<STATE> 3
<MEAN> 25
 1.724165e+01 5.324423e+00 -1.303024e+01 -7.632894e+00 4.133884e+00 3.379570e+00 -4.304595e+00 -2.487156e+00 1.502651e+00 4.459403e+00 2.220748e-01 -2.045703e+00 -2.489759e+00 1.835713e+00 -1.006920e+00 3.936796e-01 -1.333552e+00 8.769739e-01 4.903690e-01 2.721343e-01 4.188321e-01 -9.513003e-01 1.264673e+00 7.841080e-01 -3.757070e+00
<VARIANCE> 25
 3.105849e+01 2.293346e+01 6.047613e+01 2.893763e+01 2.192704e+01 2.735551e+01 4.124264e+01 1.506969e+01 3.136401e+01 2.210054e+01 3.180019e+01 1.834949e+01 4.167357e+00 3.268950e+00 1.084462e+01 4.385682e+00 5.411558e+00 4.660225e+00 7.709504e+00 3.347534e+00 5.067886e+00 2.640939e+00 5.814325e+00 2.301895e+00 3.504533e+00
<GCONST> 1.051161e+02
<STATE> 4
<MEAN> 25
 3.553719e-01 5.950431e+00 -6.207701e+00 -5.340652e+00 -3.576479e+00 1.869096e-01 -1.243544e+00 -2.662188e-01 -1.402439e-01 6.838783e-01 1.695981e+00 4.010213e-01 -1.750180e+00 -1.966795e+00 1.859349e+00 5.906116e-01 -1.517687e-01 -1.591534e+00 7.189133e-01 5.960983e-01 -1.819202e-01 -1.103392e-01 -1.222941e-01 6.905623e-01 5.229450e-01
<VARIANCE> 25
 3.276888e+01 9.676957e+00 4.089165e+01 2.408376e+01 1.877843e+01 1.787700e+01 2.252659e+01 1.955363e+01 2.257057e+01 1.801625e+01 1.859440e+01 1.411108e+01 6.007468e+00 5.017369e+00 3.893445e+00 2.756091e+00 4.743428e+00 3.830661e+00 3.059906e+00 3.605022e+00 2.984025e+00 4.186533e+00 2.235875e+00 2.909071e+00 1.231418e+01
<GCONST> 1.000683e+02
<TRANSP> 5
 0.000000e+00 1.000000e+00 0.000000e+00 0.000000e+00 0.000000e+00
 0.000000e+00 9.249679e-01 7.503211e-02 0.000000e+00 0.000000e+00
 0.000000e+00 0.000000e+00 7.239636e-01 2.760364e-01 0.000000e+00
 0.000000e+00 0.000000e+00 0.000000e+00 7.498834e-01 2.501166e-01
 0.000000e+00 0.000000e+00 0.000000e+00 0.000000e+00 0.000000e+00
<ENDHMM>
~h "p"
<BEGINHMM>
<NUMSTATES> 5
<STATE> 2
<MEAN> 25
 1.579874e+01 -1.081798e+01 2.191418e+00 -8.861865e+00 2.917742e+00 1.513306e+00 -5.127065e+00 5.673640e-01 -1.329156e+00 1.917912e+00 -2.971577e+00 -6.098197e+00 9.022506e-01 1.597553e+00 -2.262090e+00 2.699008e+00 -5.270378e-01 8.369205e-01 2.096879e-01 -1.165223e-01 4.616241e-01 4.822011e-01 6.889233e-01 -5.718708e-02 -2.201970e+00
<VARIANCE> 25
 4.303656e+01 1.097450e+02 5.609674e+01 1.303930e+02 5.244282e+01 6.041195e+01 5.629156e+01 5.140125e+01 4.691296e+01 3.513415e+01 3.371185e+01 3.093585e+01 5.144418e+00 1.211647e+01 1.049467e+01 1.319909e+01 6.705788e+00 9.402716e+00 6.168565e+00 5.504963e+00 8.127444e+00 3.504198e+00 5.148779e+00 2.870166e+00 1.433613e+01
<GCONST> 1.191308e+02
<STATE> 3
<MEAN> 25
 1.267428e+01 1.212691e+00 -1.314128e+01 6.945596e-01 3.082304e+00 7.083330e-01 -3.381413e+00 7.550864e-01 5.633813e+00 2.632684e+00 -2.065577e+00 -3.636847e+00 -1.237627e+00 -4.728037e-01 6.125652e-01 -2.220803e-01 -8.137252e-01 -1.136240e+00 5.656311e-01 5.291052e-02 3.550805e-01 1.835538e-01 4.757942e-01 9.858271e-01 -1.834947e-01
<VARIANCE> 25
 5.466388e+01 7.130875e+01 8.456798e+01 4.188364e+01 3.421134e+01 4.038861e+01 4.507429e+01 4.211601e+01 4.966486e+01 3.047502e+01 2.757460e+01 2.381004e+01 8.047052e+00 1.474090e+01 1.861039e+01 7.645019e+00 5.973040e+00 6.213046e+00 5.508248e+00 4.286829e+00 7.247768e+00 3.567711e+00 3.761265e+00 3.072620e+00 2.004168e+01
<GCONST> 1.161838e+02
<STATE> 4
<MEAN> 25
 1.312747e+01 -8.544051e+00 2.239557e+00 -1.576614e+00 -2.683300e+00 -5.741050e+00 -3.569791e+00 5.971441e-01 1.128474e-01 1.817939e+00 1.069922e+00 1.645154e-01 1.002159e+00 -2.443541e+00 3.224576e+00 -6.136202e-01 -1.276438e+00 -2.334259e+00 -1.752602e-01 5.364527e-01 -9.041769e-01 -6.170671e-01 4.852597e-01 1.805899e-01 4.296803e+00
<VARIANCE> 25
 6.945746e+01 7.132042e+01 8.348708e+01 8.989732e+01 5.069890e+01 7.407597e+01 6.056552e+01 5.222113e+01 6.419688e+01 5.009481e+01 3.136482e+01 2.398656e+01 1.120492e+01 1.272867e+01 1.415402e+01 1.219583e+01 7.600611e+00 7.447594e+00 5.554878e+00 5.631301e+00 7.701912e+00 5.993347e+00 3.775822e+00 3.599282e+00 1.706973e+01
<GCONST> 1.212367e+02
<TRANSP> 5
 0.000000e+00 1.000000e+00 0.000000e+00 0.000000e+00 0.000000e+00
 0.000000e+00 7.157084e-01 2.842917e-01 0.000000e+00 0.000000e+00
 0.000000e+00 0.000000e+00 6.668860e-01 3.331141e-01 0.000000e+00
 0.000000e+00 0.000000e+00 0.000000e+00 6.522556e-01 3.477445e-01
 0.000000e+00 0.000000e+00 0.000000e+00 0.000000e+00 0.000000e+00
<ENDHMM>
~h "r"
<BEGINHMM>
<NUMSTATES> 5
<STATE> 2
<MEAN> 25
 1.089943e+01 -7.812146e+00 -8.931160e-04 -6.174540e+00 3.856616e-01 -3.633195e+00 6.276126e-01 -2.066702e+00 2.974791e+00 9.938820e-01 -5.195052e+00 -4.730289e+00 -1.176174e-02 1.136142e-02 -5.549076e-02 -1.418029e-02 -4.605743e-02 3.588551e-01 -2.217301e-01 -9.145325e-02 -1.408444e-01 -3.795477e-01 1.369001e-01 -1.661642e-01 -2.149001e-01
<VARIANCE> 25
 8.921992e+01 1.165659e+02 6.125146e+01 1.131320e+02 4.960255e+01 5.880786e+01 7.990595e+01 7.743848e+01 6.711314e+01 4.330214e+01 3.801695e+01 3.503411e+01 2.893494e+00 2.462651e+00 2.170424e+00 2.504805e+00 2.216488e+00 2.389406e+00 2.452576e+00 2.761311e+00 3.047394e+00 2.319803e+00 2.257491e+00 2.100057e+00 2.007533e+00
<GCONST> 1.073632e+02
<STATE> 3
<MEAN> 25
 1.040624e+01 -6.853376e+00 -8.289397e-02 -5.099311e+00 -2.650404e-01 -1.841977e+00 -5.964590e-01 -2.591769e+00 2.499758e+00 6.708151e-01 -4.094800e+00 -4.229909e+00 -2.337000e-01 2.202010e-01 -9.979317e-02 3.343050e-01 -1.642013e-02 3.057229e-01 -4.805826e-01 1.768180e-01 1.678680e-02 -4.417942e-01 4.201968e-01 8.530363e-02 -8.574649e-01
<VARIANCE> 25
 1.127822e+02 1.452716e+02 6.724284e+01 1.081848e+02 4.548216e+01 5.714354e+01 6.955695e+01 8.902929e+01 7.657419e+01 3.954202e+01 3.954095e+01 3.697798e+01 1.813323e+00 3.270960e+00 2.734229e+00 3.828224e+00 3.269935e+00 3.604800e+00 3.042279e+00 2.835885e+00 3.516891e+00 2.378587e+00 2.468426e+00 1.910186e+00 2.970546e+00
<GCONST> 1.099545e+02
<STATE> 4
<MEAN> 25
 1.446349e+01 -8.438255e+00 -2.286149e+00 -1.560081e+00 -9.533286e-03 -2.012151e+00 -2.339617e+00 -8.273125e-01 1.534729e+00 2.483456e-01 -3.302710e+00 -4.705819e+00 -8.976330e-02 1.099565e+00 -4.232096e-01 9.443663e-01 2.045079e-01 2.363791e-01 -4.672239e-01 1.101359e-01 -2.267567e-01 -2.282523e-01 2.987456e-01 4.287260e-01 -1.475070e+00
<VARIANCE> 25
 8.534543e+01 1.258133e+02 8.815817e+01 1.057659e+02 5.837506e+01 5.734942e+01 6.274621e+01 6.809621e+01 5.857766e+01 3.831756e+01 3.228091e+01 2.999301e+01 3.320150e+00 7.083734e+00 6.485042e+00 1.046166e+01 6.033425e+00 6.183205e+00 6.590037e+00 6.063762e+00 5.188000e+00 3.872823e+00 3.510574e+00 2.850596e+00 4.723377e+00
<GCONST> 1.169748e+02
<TRANSP> 5
 0.000000e+00 1.000000e+00 0.000000e+00 0.000000e+00 0.000000e+00
 0.000000e+00 2.964934e-01 7.035065e-01 0.000000e+00 0.000000e+00
 0.000000e+00 0.000000e+00 1.964712e-01 8.035288e-01 0.000000e+00
 0.000000e+00 0.000000e+00 0.000000e+00 6.831339e-01 3.168660e-01
 0.000000e+00 0.000000e+00 0.000000e+00 0.000000e+00 0.000000e+00
<ENDHMM>
~h "s"
<BEGINHMM>
<NUMSTATES> 5
<STATE> 2
<MEAN> 25
 1.622366e+01 -4.609575e+00 2.284469e+00 -5.915994e+00 8.999419e-02 -3.793941e+00 -4.650164e+00 -3.871704e+00 -1.844739e+00 1.486371e+00 -3.878371e+00 -6.665328e-01 -3.620549e-01 8.674866e-01 2.914971e-01 -6.344863e-01 1.361697e+00 -1.020893e-01 -4.483801e-01 4.207165e-02 2.581514e-01 1.510693e-01 -1.340070e-02 4.063192e-01 4.504226e-01
<VARIANCE> 25
 7.341838e+01 1.093265e+02 1.096890e+02 9.674403e+01 8.439376e+01 1.003778e+02 9.478508e+01 1.399027e+02 9.156668e+01 5.537496e+01 7.442664e+01 4.522020e+01 1.374059e+01 1.142405e+01 1.079420e+01 1.338423e+01 1.268557e+01 9.061704e+00 9.735529e+00 1.642937e+01 1.205493e+01 6.369596e+00 5.529039e+00 4.119273e+00 8.553664e+00
<GCONST> 1.288583e+02
<STATE> 3
<MEAN> 25
 -3.620659e+00 3.997878e+00 5.942716e+00 -1.026080e+01 1.060717e+01 -7.717904e+00 -2.688734e+00 3.146031e+00 2.019661e+00 -9.908795e-02 -3.999491e-01 2.005204e+00 -3.581391e+00 1.393339e+00 -5.237292e-01 -3.830246e-01 1.078573e+00 2.361214e-01 7.581691e-01 7.397888e-01 7.810354e-01 -3.591197e-01 5.616868e-01 4.160699e-01 -3.846629e-01
<VARIANCE> 25
 1.950471e+02 9.846239e+01 8.098479e+01 9.538019e+01 1.086765e+02 7.922923e+01 1.319941e+02 8.202708e+01 6.425278e+01 4.212618e+01 6.197669e+01 3.442539e+01 1.320425e+01 8.768675e+00 8.892895e+00 7.809106e+00 1.053632e+01 7.669073e+00 7.481901e+00 6.949288e+00 5.943398e+00 4.881681e+00 5.679827e+00 3.308786e+00 2.192785e+00
<GCONST> 1.231034e+02
<STATE> 4
<MEAN> 25
 -4.914724e+00 9.410245e-01 6.596892e+00 -7.208446e+00 5.910109e+00 -9.824839e+00 -8.222799e-01 4.399576e+00 3.070957e+00 -1.331089e+00 -6.184846e-01 3.887431e+00 3.700632e+00 -1.946980e+00 7.700419e-01 1.113907e+00 -1.968320e+00 -7.429874e-01 -5.094979e-01 -7.779179e-01 -1.142771e+00 1.481463e-01 -3.423165e-01 -1.643102e-01 2.808792e-01
<VARIANCE> 25
 1.938220e+02 7.074950e+01 1.442703e+02 8.945496e+01 8.570620e+01 7.230373e+01 8.305411e+01 7.420776e+01 8.946344e+01 4.258088e+01 5.759697e+01 4.050472e+01 1.704413e+01 7.192331e+00 1.218205e+01 1.252207e+01 1.006549e+01 8.635684e+00 8.094487e+00 7.183969e+00 1.079690e+01 5.781175e+00 5.634971e+00 4.393108e+00 4.240766e+00
<GCONST> 1.255487e+02
<TRANSP> 5
 0.000000e+00 1.000000e+00 0.000000e+00 0.000000e+00 0.000000e+00
 0.000000e+00 6.931298e-01 3.068702e-01 0.000000e+00 0.000000e+00
 0.000000e+00 0.000000e+00 7.597539e-01 2.402461e-01 0.000000e+00
 0.000000e+00 0.000000e+00 0.000000e+00 7.217227e-01 2.782774e-01
 0.000000e+00 0.000000e+00 0.000000e+00 0.000000e+00 0.000000e+00
<ENDHMM>
~h "t"
<BEGINHMM>
<NUMSTATES> 5
<STATE> 2
<MEAN> 25
 8.500738e+00 -7.350049e+00 3.109794e+00 -7.648148e+00 1.965514e+00 -7.694279e+00 -4.275304e-02 -3.211617e-02 -2.836514e-02 2.997146e+00 -2.390139e+00 1.102322e-01 1.320882e+00 -1.535123e+00 4.370500e-01 -1.050096e+00 9.733047e-01 -9.595316e-01 -1.034665e-01 -3.405168e-02 4.570262e-01 8.845545e-01 -1.005698e+00 -2.609401e-01 2.626335e+00
<VARIANCE> 25
 5.810654e+01 9.253846e+01 1.049383e+02 1.137599e+02 9.739019e+01 1.062524e+02 7.937733e+01 7.403250e+01 6.594103e+01 5.906731e+01 5.771383e+01 4.544157e+01 8.614015e+00 1.227602e+01 1.536539e+01 1.258816e+01 1.055882e+01 8.888103e+00 7.400958e+00 8.235596e+00 6.947069e+00 6.941528e+00 6.681457e+00 5.017927e+00 2.202708e+01
<GCONST> 1.270450e+02
<STATE> 3
<MEAN> 25
 1.505363e+01 -1.172721e+01 1.481924e+00 -9.815681e+00 4.044889e+00 -7.723177e+00 -9.080698e-01 -9.145138e-01 1.771510e+00 6.187164e+00 -8.587999e+00 -2.583920e+00 8.762670e-01 1.232392e+00 -1.362245e+00 1.650542e+00 -2.457211e-01 1.256471e+00 -1.051553e+00 1.377735e-01 6.560928e-01 -3.040980e-01 -4.176738e-02 -3.361653e-01 -1.685558e+00
<VARIANCE> 25
 2.547294e+01 4.271797e+01 4.750382e+01 1.015380e+02 5.660157e+01 6.498145e+01 6.650757e+01 6.720177e+01 5.222775e+01 4.691273e+01 6.151588e+01 4.324043e+01 3.178061e+00 6.498475e+00 7.558320e+00 9.488612e+00 6.153812e+00 7.047615e+00 6.385611e+00 6.517191e+00 6.777731e+00 6.782403e+00 5.400877e+00 5.117406e+00 1.011584e+01
<GCONST> 1.179857e+02
<STATE> 4
<MEAN> 25
 1.201434e+01 -2.349889e+00 -5.193974e+00 -3.349332e+00 2.420886e+00 -2.574132e+00 -5.427886e+00 6.667855e-01 5.505706e+00 1.589321e+00 -3.597450e+00 -1.493164e+00 -7.083069e-01 5.144840e-01 -1.267716e-01 -8.160169e-02 -5.031941e-01 6.968657e-01 -6.825705e-02 -1.532475e-01 -1.571868e-02 -7.920462e-01 8.631448e-01 9.722424e-02 -7.689468e-01
<VARIANCE> 25
 5.910413e+01 8.191525e+01 9.769325e+01 7.695908e+01 5.215686e+01 5.546815e+01 7.730681e+01 5.704676e+01 4.670548e+01 3.802848e+01 4.568752e+01 3.559237e+01 8.289721e+00 9.334366e+00 1.675006e+01 9.056520e+00 7.223945e+00 8.007652e+00 8.860917e+00 7.585439e+00 7.782600e+00 4.836620e+00 4.414332e+00 4.510191e+00 1.724934e+01
<GCONST> 1.216982e+02
<TRANSP> 5
 0.000000e+00 1.000000e+00 0.000000e+00 0.000000e+00 0.000000e+00
 0.000000e+00 6.308959e-01 3.691040e-01 0.000000e+00 0.000000e+00
 0.000000e+00 0.000000e+00 6.793915e-01 3.206085e-01 0.000000e+00
 0.000000e+00 0.000000e+00 0.000000e+00 6.529225e-01 3.470775e-01
 0.000000e+00 0.000000e+00 0.000000e+00 0.000000e+00 0.000000e+00
<ENDHMM>
~h "u"
<BEGINHMM>
<NUMSTATES> 5
<STATE> 2
<MEAN> 25
 2.007454e+01 6.116549e+00 -1.042075e+01 -7.134561e+00 2.476372e+00 6.718000e+00 -4.641371e+00 -9.858621e+00 -4.085453e+00 1.991067e+00 9.394599e-01 -1.211511e+00 -1.610073e+00 2.486600e+00 -4.644063e-01 -3.967018e-01 3.362752e-01 7.783104e-01 8.470756e-01 7.169275e-01 8.125377e-02 -1.252372e+00 4.442377e-01 9.902018e-01 -2.387265e+00
<VARIANCE> 25
 3.759753e+01 7.442509e+01 6.232816e+01 5.106017e+01 4.029678e+01 4.262940e+01 4.707148e+01 8.510062e+01 6.719747e+01 2.608807e+01 2.918425e+01 2.878515e+01 3.671490e+00 3.841444e+00 7.421867e+00 6.979670e+00 6.580714e+00 5.385301e+00 5.175428e+00 4.591095e+00 6.054334e+00 2.828645e+00 3.309868e+00 2.212450e+00 2.332994e+00
<GCONST> 1.109044e+02
<STATE> 3
<MEAN> 25
 1.188980e+01 1.118917e+01 -6.364493e+00 -6.836050e+00 -4.277580e-01 4.528725e+00 -8.101603e-01 -3.833406e+00 -4.368256e+00 -3.437647e+00 -6.641198e-01 -2.385344e-01 -1.979336e+00 1.145437e-02 9.955842e-01 9.143028e-01 -3.709994e-01 -6.242923e-01 2.270274e-01 6.267191e-01 4.789437e-01 -3.458085e-01 -3.271812e-01 -1.458062e-01 -1.346086e+00
<VARIANCE> 25
 7.379250e+01 7.872112e+01 5.580806e+01 8.569346e+01 4.114681e+01 5.887261e+01 2.548974e+01 5.162589e+01 4.448093e+01 3.077850e+01 2.275970e+01 2.677438e+01 2.517359e+00 1.732663e+00 2.592895e+00 2.535690e+00 2.494508e+00 2.648421e+00 1.884398e+00 2.680779e+00 2.584526e+00 1.229720e+00 1.683535e+00 1.201727e+00 1.389611e+00
<GCONST> 1.007498e+02
<STATE> 4
<MEAN> 25
 2.092089e-01 5.304425e+00 -3.157196e+00 -1.583902e+00 9.815425e-01 2.437198e-01 -1.280617e+00 -1.057242e+00 6.935695e-01 -7.161962e-01 -7.023377e-01 -4.486105e-01 -1.086679e+00 -1.304719e+00 2.720609e-01 4.299226e-01 1.836213e-01 -6.611584e-01 2.743383e-01 1.891788e-01 1.248436e-01 -1.274137e-01 1.047437e-01 1.660082e-01 1.077141e-01
<VARIANCE> 25
 8.062903e+01 7.365450e+01 5.350884e+01 6.059720e+01 3.398013e+01 3.961280e+01 3.468521e+01 4.098280e+01 3.734156e+01 2.248174e+01 1.945444e+01 2.510266e+01 7.252806e+00 3.427249e+00 3.698360e+00 2.660161e+00 2.458702e+00 3.223085e+00 3.118110e+00 3.253396e+00 2.590743e+00 1.898568e+00 1.931864e+00 2.176804e+00 7.422643e+00
<GCONST> 1.050288e+02
<TRANSP> 5
 0.000000e+00 1.000000e+00 0.000000e+00 0.000000e+00 0.000000e+00
 0.000000e+00 6.664647e-01 3.335353e-01 0.000000e+00 0.000000e+00
 0.000000e+00 0.000000e+00 7.017055e-01 2.982945e-01 0.000000e+00
 0.000000e+00 0.000000e+00 0.000000e+00 5.847807e-01 4.152192e-01
 0.000000e+00 0.000000e+00 0.000000e+00 0.000000e+00 0.000000e+00
<ENDHMM>
~h "w"
<BEGINHMM>
<NUMSTATES> 5
<STATE> 2
<MEAN> 25
 -1.866960e+01 5.058966e+00 -4.073957e+00 6.739577e+00 3.969336e+00 7.268472e+00 2.936236e+00 5.860371e+00 8.112511e+00 2.403409e+00 6.016762e+00 5.238857e+00 5.310455e-03 8.223401e-03 -8.685701e-04 1.750156e-02 1.285360e-02 -2.870093e-02 -4.111355e-02 6.521991e-02 1.333035e-01 4.972863e-02 -1.745521e-02 -4.371394e-02 -4.251190e-03
<VARIANCE> 25
 4.400718e+00 4.373415e+00 7.371085e+00 1.555426e+01 8.604280e+00 1.616979e+01 1.324055e+01 1.373328e+01 1.319156e+01 9.818851e+00 9.889868e+00 7.625237e+00 3.654580e-02 1.451984e-01 2.256964e-01 3.630713e-01 4.256882e-01 4.620133e-01 6.836640e-01 1.054988e+00 1.198554e+00 1.015669e+00 8.688541e-01 9.658548e-01 5.360071e-02
<GCONST> 6.037313e+01
<STATE> 3
<MEAN> 25
 -1.841191e+01 5.682066e+00 -3.093753e+00 8.064672e+00 4.625752e+00 7.316252e+00 1.865128e-01 3.776642e+00 9.112202e+00 2.688170e+00 4.770947e+00 4.503632e+00 -4.667147e-02 6.785077e-02 1.399806e-01 -2.686941e-01 -3.161103e-01 1.882310e-01 8.013642e-02 -5.758359e-01 -7.903056e-01 -5.990767e-02 -1.123820e-02 2.851118e-01 -1.758050e-02
<VARIANCE> 25
 5.155463e+00 3.734483e+00 9.186057e+00 1.329083e+01 9.045295e+00 1.503038e+01 1.368062e+01 1.906025e+01 7.912973e+00 4.288779e+00 4.032128e+00 4.575184e+00 3.654580e-02 5.248706e-02 1.140824e-01 3.266654e-01 6.442064e-01 3.570458e-01 1.468631e+00 1.334025e+00 6.045876e-01 6.920802e-01 2.741001e-01 4.611356e-01 5.360071e-02
<GCONST> 5.441579e+01
<STATE> 4
<MEAN> 25
 -1.798491e+01 6.374468e+00 -2.433839e+00 5.834156e+00 1.382571e+00 7.486444e+00 4.392910e+00 3.890162e+00 3.741914e+00 -1.697043e-01 3.693718e+00 5.056211e+00 2.651726e-01 -1.716918e-01 8.610865e-02 2.661209e-01 5.467094e-01 5.021768e-01 8.990685e-01 -1.859906e-01 -1.581830e+00 -1.024549e+00 2.390237e-01 7.349420e-03 2.871333e-01
<VARIANCE> 25
 4.684342e+00 3.169705e+00 6.149984e+00 1.058675e+01 6.393282e+00 1.351523e+01 1.466054e+01 8.850688e+00 4.811940e+00 1.157558e+01 4.610823e+00 2.664966e+00 4.885161e-01 6.864564e-02 1.373248e-01 1.198208e-01 1.425000e-01 2.434282e-01 2.634588e-01 2.649888e-01 5.036049e-01 2.931756e-01 1.905564e-01 2.216400e-01 2.880313e-01
<GCONST> 4.882640e+01
<TRANSP> 5
 0.000000e+00 1.000000e+00 0.000000e+00 0.000000e+00 0.000000e+00
 0.000000e+00 9.721076e-01 2.789239e-02 0.000000e+00 0.000000e+00
 0.000000e+00 0.000000e+00 7.768375e-01 2.231625e-01 0.000000e+00
 0.000000e+00 0.000000e+00 0.000000e+00 4.024296e-01 5.975704e-01
 0.000000e+00 0.000000e+00 0.000000e+00 0.000000e+00 0.000000e+00
<ENDHMM>
~h "aw"
<BEGINHMM>
<NUMSTATES> 5
<STATE> 2
<MEAN> 25
 -9.990411e+00 3.354780e+00 -5.681991e+00 4.229604e+00 1.422684e+00 2.240357e+00 1.059515e+00 7.134750e-01 3.180672e+00 -1.761185e+00 -6.166640e-01 -2.782479e-01 1.931406e-03 5.655324e-03 -1.477820e-02 -4.138746e-02 -4.885270e-02 3.264051e-03 3.868720e-02 7.926123e-02 6.001736e-02 -2.960200e-03 -2.470683e-02 7.452658e-03 -3.608270e-05
<VARIANCE> 25
 4.112868e+00 2.888040e+00 8.029737e+00 8.023118e+00 1.015469e+01 1.233333e+01 1.231119e+01 1.429853e+01 1.635131e+01 1.480552e+01 1.108139e+01 1.114007e+01 1.060537e-01 1.885516e-01 3.433244e-01 5.027602e-01 6.029406e-01 9.793180e-01 1.106903e+00 1.139350e+00 1.193588e+00 1.350999e+00 1.176973e+00 1.162991e+00 5.360071e-02
<GCONST> 6.479496e+01
<STATE> 3
<MEAN> 25
 -1.298232e+01 2.724946e+00 -5.298526e+00 4.991074e+00 3.862861e+00 2.110422e+00 -1.308476e+00 2.433178e+00 2.318950e+00 -1.387967e+00 2.419452e-02 6.350065e-01 4.984176e-02 1.508784e-02 -7.693244e-03 -7.283845e-02 -6.915927e-03 -4.802794e-01 -5.043149e-01 -2.256744e-01 -3.119424e-01 -3.676099e-01 1.931202e-02 3.364992e-01 8.619580e-02
<VARIANCE> 25
 1.163777e+01 3.331357e+00 1.051711e+01 1.632630e+01 2.512906e+01 2.698100e+01 1.611246e+01 1.228240e+01 1.820936e+01 9.363949e+00 2.123033e+01 1.434835e+01 1.412095e-01 2.133927e-01 5.157613e-01 6.524651e-01 1.024307e+00 1.051262e+00 1.078660e+00 1.387096e+00 9.248398e-01 1.244704e+00 1.921890e+00 1.342292e+00 6.205191e-02
<GCONST> 7.160950e+01
<STATE> 4
<MEAN> 25
 -5.024189e+00 5.994202e+00 -2.416146e+00 4.367562e+00 -9.195029e-01 -1.468413e-01 -5.014420e+00 6.875753e-01 2.047170e+00 -1.304253e+00 1.943468e-01 1.979491e+00 6.980386e-02 4.295098e-02 1.056129e-01 -1.716644e-03 8.199723e-02 3.950238e-03 -3.716937e-02 -2.312908e-01 -1.301800e-01 -6.203226e-02 -1.144229e-01 -5.980400e-02 7.062629e-02
<VARIANCE> 25
 4.871141e+01 4.975265e+01 3.592794e+01 1.836168e+01 3.148846e+01 5.157949e+01 3.018203e+01 2.229291e+01 1.533442e+01 1.444933e+01 1.340628e+01 9.620383e+00 6.895757e+00 6.848163e+00 3.354727e+00 1.808519e+00 2.683855e+00 3.640084e+00 4.092773e+00 1.767567e+00 1.813902e+00 1.331920e+00 1.406146e+00 1.151233e+00 4.600474e+00
<GCONST> 9.720211e+01
<TRANSP> 5
 0.000000e+00 1.000000e+00 0.000000e+00 0.000000e+00 0.000000e+00
 0.000000e+00 9.641445e-01 3.585556e-02 0.000000e+00 0.000000e+00
 0.000000e+00 0.000000e+00 6.784891e-01 3.215108e-01 0.000000e+00
 0.000000e+00 0.000000e+00 0.000000e+00 7.720918e-01 2.279082e-01
 0.000000e+00 0.000000e+00 0.000000e+00 0.000000e+00 0.000000e+00
<ENDHMM>
~h "ng"
<BEGINHMM>
<NUMSTATES> 5
<STATE> 2
<MEAN> 25
 1.209926e+01 -9.352560e+00 1.114331e+00 -3.857866e+00 2.790617e+00 -9.688090e+00 -8.085688e-01 5.418938e+00 -9.206321e-01 1.402251e+00 -4.445881e+00 -2.734096e+00 6.236609e-01 -2.135512e+00 -8.431341e-02 -2.101077e+00 7.025792e-01 -1.545977e-01 4.998207e-01 1.532923e-02 7.076840e-02 4.677482e-01 -1.403641e+00 -7.455570e-01 2.276041e+00
<VARIANCE> 25
 4.809026e+01 1.128164e+02 6.158563e+01 1.034111e+02 4.673312e+01 3.380625e+01 6.251078e+01 5.737819e+01 5.794237e+01 3.805851e+01 3.705896e+01 3.018007e+01 6.440792e+00 1.277355e+01 5.500371e+00 1.157216e+01 8.387959e+00 5.738902e+00 8.739238e+00 9.874651e+00 6.727306e+00 5.452679e+00 4.177943e+00 3.662527e+00 6.698847e+00
<GCONST> 1.187008e+02
<STATE> 3
<MEAN> 25
 1.454306e+01 -1.729473e+01 2.167495e+00 -1.043446e+01 1.006962e+00 -5.877674e+00 8.788147e-01 3.858339e+00 -9.118291e-01 2.874107e+00 -8.187123e+00 -5.950839e+00 4.701012e-01 1.329058e-01 -3.503695e-01 8.497650e-01 -5.336574e-01 4.236182e-01 7.375053e-02 -4.076587e-01 -5.100144e-02 9.194435e-02 -1.326130e-01 -2.206576e-01 -4.337243e-01
<VARIANCE> 25
 1.975524e+01 2.447286e+01 3.201355e+01 7.184646e+01 5.374477e+01 4.079882e+01 3.164424e+01 4.167582e+01 3.911926e+01 4.938704e+01 3.254572e+01 2.538126e+01 1.728202e+00 2.880492e+00 2.489942e+00 9.047686e+00 5.558459e+00 3.388936e+00 3.003817e+00 4.821402e+00 3.214079e+00 4.389187e+00 2.936437e+00 2.603182e+00 4.242999e+00
<GCONST> 1.054834e+02
<STATE> 4
<MEAN> 25
 2.179971e+01 -9.150550e+00 -9.277684e+00 4.277855e+00 -2.514332e+00 -7.377689e+00 7.751752e-01 -6.094770e-01 -9.697036e-01 2.991534e-01 -8.455463e+00 -6.616699e+00 -5.169809e-04 1.239396e+00 2.216578e-03 6.901688e-01 -8.475433e-02 2.636496e-01 -1.546554e-01 -3.040179e-01 5.055023e-02 -7.492046e-01 1.464857e-01 3.004092e-01 -8.255770e-01
<VARIANCE> 25
 6.479541e+00 4.962373e+01 7.139851e+01 4.601402e+01 6.032244e+01 3.557322e+01 4.552636e+01 8.078745e+01 4.405635e+01 5.186637e+01 3.006900e+01 2.227805e+01 9.332795e-01 6.645404e+00 3.767249e+00 4.286921e+00 4.724137e+00 3.533321e+00 3.756626e+00 6.032433e+00 2.858304e+00 2.463818e+00 1.833539e+00 1.576395e+00 2.598921e+00
<GCONST> 1.044507e+02
<TRANSP> 5
 0.000000e+00 1.000000e+00 0.000000e+00 0.000000e+00 0.000000e+00
 0.000000e+00 7.834539e-01 2.165461e-01 0.000000e+00 0.000000e+00
 0.000000e+00 0.000000e+00 9.085615e-01 9.143852e-02 0.000000e+00
 0.000000e+00 0.000000e+00 0.000000e+00 8.713660e-01 1.286340e-01
 0.000000e+00 0.000000e+00 0.000000e+00 0.000000e+00 0.000000e+00
<ENDHMM>
~h "sp"
<BEGINHMM>
<NUMSTATES> 3
<STATE> 2
~s "silst"
<TRANSP> 3
 0.000000e+00 8.761731e-03 9.912383e-01
 0.000000e+00 4.623007e-01 5.376992e-01
 0.000000e+00 0.000000e+00 0.000000e+00
<ENDHMM>
~h "sil"
<BEGINHMM>
<NUMSTATES> 5
<STATE> 2
<MEAN> 25
 -1.005875e+01 3.388578e+00 -2.957353e+00 2.916996e+00 3.911235e-01 1.746900e+00 -8.208628e-02 6.908997e-01 9.893243e-02 -2.020228e+00 9.959087e-02 9.726897e-01 -6.618263e-02 -2.571928e-02 5.409578e-04 7.646579e-03 3.384121e-02 1.661473e-02 1.448116e-02 3.350033e-02 2.103812e-02 9.920152e-03 3.372646e-02 2.517243e-02 -3.576509e-02
<VARIANCE> 25
 9.404446e+00 4.744993e+00 1.484350e+01 1.464106e+01 1.189654e+01 1.339736e+01 1.448860e+01 1.381123e+01 1.520400e+01 1.335353e+01 1.442885e+01 1.254033e+01 1.095180e-01 2.364713e-01 3.984579e-01 5.880317e-01 8.285003e-01 9.588004e-01 1.072694e+00 1.180857e+00 1.217092e+00 1.250908e+00 1.207260e+00 1.129711e+00 5.360071e-02
<GCONST> 6.871419e+01
<STATE> 3
~s "silst"
<STATE> 4
<MEAN> 25
 -1.108646e+01 2.540056e+00 -2.911042e+00 2.247254e+00 1.017166e+00 2.395022e+00 -2.670564e-01 1.470129e+00 1.119395e+00 -1.412091e+00 9.719142e-01 1.527909e+00 1.167073e-01 -1.122479e-02 4.648798e-02 -2.662703e-02 -8.923852e-02 -9.758448e-02 -5.750905e-02 -8.114143e-02 -2.228583e-01 -1.443597e-01 -9.528071e-02 -5.317827e-02 1.186563e-01
<VARIANCE> 25
 2.014424e+01 1.257300e+01 2.215566e+01 2.617477e+01 1.828318e+01 2.693048e+01 2.445132e+01 2.194600e+01 2.101785e+01 1.677001e+01 1.754355e+01 1.631445e+01 9.077196e-01 1.030555e+00 1.102259e+00 1.505136e+00 1.434561e+00 1.583111e+00 1.635375e+00 1.733606e+00 1.994857e+00 1.701433e+00 1.532478e+00 1.525014e+00 1.112564e+00
<GCONST> 8.632996e+01
<TRANSP> 5
 0.000000e+00 1.000000e+00 0.000000e+00 0.000000e+00 0.000000e+00
 0.000000e+00 9.174134e-01 1.724786e-02 6.533878e-02 0.000000e+00
 0.000000e+00 0.000000e+00 9.754266e-01 2.457343e-02 0.000000e+00
 0.000000e+00 2.163647e-01 0.000000e+00 6.001356e-01 1.834998e-01
 0.000000e+00 0.000000e+00 0.000000e+00 0.000000e+00 0.000000e+00
<ENDHMM>
