~o
<STREAMINFO> 1 25
<VECSIZE> 25<NULLD><MFCC_D_N_Z_0><DIAGC>
~h "E"
<BEGINHMM>
<NUMSTATES> 5
<STATE> 2
<MEAN> 25
 1.224136e+01 -2.391374e+00 -1.533589e+01 -1.060497e+00 9.473305e+00 1.271621e+00 -5.973908e+00 -1.212875e+00 -8.289284e-01 -9.850489e-02 -7.032423e+00 -5.466288e+00 -1.372540e+00 5.923231e-01 3.284495e-01 -5.518740e-02 9.156740e-02 3.254650e-01 -5.579105e-02 -1.567732e-01 -2.123163e-01 -8.891772e-02 1.290411e-01 -1.638305e-01 -1.219829e+00
<VARIANCE> 25
 8.969405e+01 3.557251e+01 3.580629e+01 1.938040e+01 2.347523e+01 2.337610e+01 2.570307e+01 2.113414e+01 2.097777e+01 1.231212e+01 1.391668e+01 2.036754e+01 2.478412e+00 1.747030e+00 1.485611e+00 2.176867e+00 2.295374e+00 2.240230e+00 2.233298e+00 2.430156e+00 1.926344e+00 1.381359e+00 1.286631e+00 1.270759e+00 9.279805e-01
<GCONST> 9.172726e+01
<STATE> 3
<MEAN> 25
 -2.747177e+00 -1.849868e+00 -7.008788e+00 8.846258e-01 4.736270e+00 2.451513e+00 -4.496046e+00 -9.403487e-01 -1.623678e+00 7.057506e-02 -2.762152e+00 -3.154064e+00 -1.167130e+00 1.126894e+00 8.475538e-01 -1.534545e-01 -7.813811e-01 2.398047e-01 6.148155e-01 -3.947316e-01 -1.076728e+00 -8.843830e-01 3.203521e-01 3.327152e-01 -1.201209e+00
<VARIANCE> 25
 4.873285e+01 3.736224e+01 1.401945e+01 1.477361e+01 3.081077e+01 1.426804e+01 2.165061e+01 1.796704e+01 2.200187e+01 2.088346e+01 1.577042e+01 1.806891e+01 8.508685e-01 1.117773e+00 1.990225e+00 9.148504e-01 1.853284e+00 1.362722e+00 2.238944e+00 2.214675e+00 1.932392e+00 2.548669e+00 1.484468e+00 3.037594e+00 3.206024e-01
<GCONST> 8.765865e+01
<STATE> 4
<MEAN> 25
 -9.555111e+00 6.433970e+00 -1.399084e+00 -6.339322e-01 2.077477e+00 2.504466e+00 -4.734429e+00 -1.180275e+00 -3.425046e+00 -3.234632e+00 -1.218741e+00 9.836973e-01 -1.346981e-01 1.657697e-01 1.856475e-01 -2.125125e-02 -1.179774e-01 2.164759e-02 3.105712e-02 -1.941542e-02 6.389067e-03 -3.291645e-02 1.952861e-02 1.210983e-01 -1.409160e-01
<VARIANCE> 25
 1.391379e+01 8.331942e+00 1.348332e+01 9.261082e+00 1.290290e+01 1.762920e+01 1.537942e+01 9.217932e+00 1.619434e+01 1.298019e+01 1.565192e+01 1.209798e+01 2.790181e-01 3.218628e-01 4.574478e-01 6.952273e-01 1.006935e+00 1.150970e+00 1.210413e+00 1.195371e+00 1.430801e+00 1.427700e+00 1.517798e+00 9.389660e-01 1.663733e-01
<GCONST> 7.273637e+01
<TRANSP> 5
 0.000000e+00 1.000000e+00 0.000000e+00 0.000000e+00 0.000000e+00
 0.000000e+00 8.186334e-01 1.813666e-01 0.000000e+00 0.000000e+00
 0.000000e+00 0.000000e+00 5.716795e-01 4.283206e-01 0.000000e+00
 0.000000e+00 0.000000e+00 0.000000e+00 9.208564e-01 7.914356e-02
 0.000000e+00 0.000000e+00 0.000000e+00 0.000000e+00 0.000000e+00
<ENDHMM>
~h "a"
<BEGINHMM>
<NUMSTATES> 5
<STATE> 2
<MEAN> 25
 4.282098e+00 -1.076379e+00 -2.087696e+00 -1.563052e+00 2.250931e+00 3.374112e-01 2.898572e-01 -8.725375e-01 1.435240e+00 -6.105179e-01 -1.574955e+00 -1.187460e+00 8.104632e-01 -4.284740e-01 -4.893780e-03 -6.662018e-01 3.403205e-01 -5.473096e-01 9.066868e-02 -1.337096e-01 -1.704891e-01 -1.886052e-01 -4.198286e-01 -2.230436e-01 1.762503e+00
<VARIANCE> 25
 2.042783e+02 1.200769e+02 6.421235e+01 1.008766e+02 4.062535e+01 6.423154e+01 4.538728e+01 5.051233e+01 4.299995e+01 2.935163e+01 4.881168e+01 3.520754e+01 9.638083e+00 6.208008e+00 4.427416e+00 4.976615e+00 3.350227e+00 5.413502e+00 4.612796e+00 3.557437e+00 3.832151e+00 2.804011e+00 3.755841e+00 2.795575e+00 1.749106e+01
<GCONST> 1.154922e+02
<STATE> 3
<MEAN> 25
 7.292308e+00 -2.293170e+00 -1.832067e+00 -3.160310e+00 2.303231e+00 -1.185155e+00 -2.994936e-01 -9.404023e-01 7.551371e-01 -8.377811e-01 -2.445262e+00 -1.856663e+00 1.416346e+00 -9.632694e-01 2.499035e-01 -1.076480e+00 6.405190e-02 -7.964155e-01 -1.430797e-01 -1.581264e-01 -4.304972e-01 1.102091e-01 -4.823759e-01 -4.779390e-01 2.251456e+00
<VARIANCE> 25
 1.524126e+02 1.271811e+02 7.425096e+01 1.057907e+02 4.437972e+01 6.416734e+01 4.999544e+01 5.299699e+01 4.460498e+01 3.201773e+01 4.319513e+01 3.455730e+01 1.354612e+01 8.288579e+00 5.160065e+00 7.364958e+00 3.633857e+00 6.080864e+00 5.045426e+00 4.778806e+00 4.637664e+00 3.122402e+00 4.033491e+00 3.266365e+00 2.156263e+01
<GCONST> 1.181558e+02
<STATE> 4
<MEAN> 25
 1.024126e+01 -6.202973e+00 -3.791157e-01 -6.345897e+00 2.336757e+00 -3.655423e+00 -8.146112e-01 -4.136285e-01 1.897845e-01 -4.445621e-02 -3.406236e+00 -3.336920e+00 9.222659e-01 -8.553408e-01 1.273151e-01 -6.067113e-01 -2.833096e-02 -1.710007e-01 -5.731665e-02 -1.112514e-01 -3.543067e-01 3.415617e-01 -3.219877e-01 -5.012545e-01 8.680798e-01
<VARIANCE> 25
 1.019466e+02 1.194007e+02 8.110872e+01 1.049586e+02 4.397478e+01 7.905358e+01 6.086279e+01 7.325351e+01 5.128960e+01 4.156045e+01 4.197786e+01 4.049493e+01 8.155873e+00 7.730239e+00 5.756934e+00 6.860188e+00 3.911609e+00 4.891418e+00 6.051504e+00 6.212001e+00 4.992506e+00 3.657451e+00 3.641857e+00 3.468353e+00 9.294645e+00
<GCONST> 1.181310e+02
<TRANSP> 5
 0.000000e+00 1.000000e+00 0.000000e+00 0.000000e+00 0.000000e+00
 0.000000e+00 1.972943e-01 8.027057e-01 0.000000e+00 0.000000e+00
 0.000000e+00 0.000000e+00 1.518971e-01 8.481029e-01 0.000000e+00
 0.000000e+00 0.000000e+00 0.000000e+00 3.809725e-01 6.190274e-01
 0.000000e+00 0.000000e+00 0.000000e+00 0.000000e+00 0.000000e+00
<ENDHMM>
~h "b"
<BEGINHMM>
<NUMSTATES> 5
<STATE> 2
<MEAN> 25
 1.129712e+01 9.478751e-01 2.478752e+00 -2.456264e+00 2.271878e+00 -1.849671e+00 -2.898371e+00 -1.433580e+00 -5.327266e+00 -1.305306e+00 -1.639588e+00 -2.709723e+00 1.579132e+00 -9.375455e-02 5.361499e-01 -3.612396e-01 3.691417e-02 4.087952e-02 -9.540404e-01 -7.487330e-02 -1.676570e-01 -6.829733e-02 4.684838e-02 -1.979673e-01 1.205795e+00
<VARIANCE> 25
 1.050772e+02 2.039338e+02 6.835618e+01 1.017027e+02 3.486085e+01 5.035957e+01 4.120429e+01 1.365608e+02 6.223446e+01 2.893877e+01 3.115874e+01 4.953720e+01 6.960732e+00 1.337795e+01 4.807085e+00 6.852003e+00 3.143035e+00 6.072289e+00 4.598969e+00 8.253225e+00 5.157910e+00 3.833968e+00 3.615916e+00 3.199336e+00 9.643304e+00
<GCONST> 1.180228e+02
<STATE> 3
<MEAN> 25
 1.381983e+01 1.359973e+00 3.846134e+00 -2.704240e+00 1.984393e+00 -1.820758e+00 -4.634984e+00 -1.531099e+00 -4.845199e+00 -1.622988e+00 -1.996162e+00 -2.472294e+00 2.052183e+00 -1.484132e+00 4.509867e-01 -2.848142e-01 -2.377037e-01 -7.691628e-01 -1.186428e+00 1.676089e-01 -5.132785e-01 1.739046e-01 2.515186e-01 -6.633236e-01 2.239744e+00
<VARIANCE> 25
 5.524883e+01 2.202046e+02 7.274369e+01 1.014263e+02 4.252007e+01 6.555295e+01 4.913689e+01 1.286362e+02 6.648992e+01 3.150784e+01 3.235812e+01 4.308295e+01 6.827732e+00 1.965251e+01 8.167092e+00 9.418062e+00 5.770817e+00 1.006264e+01 6.371652e+00 1.033910e+01 6.544432e+00 4.251565e+00 3.409818e+00 4.567773e+00 1.454385e+01
<GCONST> 1.220715e+02
<STATE> 4
<MEAN> 25
 1.856988e+01 -5.567868e+00 2.490433e+00 -2.543157e+00 7.940472e-01 -1.732327e+00 -4.709133e+00 -6.157640e+00 -6.508314e+00 1.839401e+00 -2.252883e+00 -7.977973e+00 2.044412e-01 -6.105731e-01 -3.613027e-01 -8.415634e-02 -2.261312e-01 -2.402245e-01 3.734848e-01 -2.369750e-01 4.997193e-01 3.277805e-01 -1.129380e-01 -1.938501e-01 6.548398e-01
<VARIANCE> 25
 2.228483e+01 1.493917e+02 6.571394e+01 1.505862e+02 5.087388e+01 7.614463e+01 7.508205e+01 2.163308e+02 9.738039e+01 4.779401e+01 4.227018e+01 3.437899e+01 2.524214e+00 1.815391e+01 5.653176e+00 1.669499e+01 5.755127e+00 7.353335e+00 6.841253e+00 1.769565e+01 9.593512e+00 5.706448e+00 5.298425e+00 3.884396e+00 1.040788e+01
<GCONST> 1.232250e+02
<TRANSP> 5
 0.000000e+00 1.000000e+00 0.000000e+00 0.000000e+00 0.000000e+00
 0.000000e+00 5.191889e-02 9.480811e-01 0.000000e+00 0.000000e+00
 0.000000e+00 0.000000e+00 1.493926e-01 8.506074e-01 0.000000e+00
 0.000000e+00 0.000000e+00 0.000000e+00 8.941122e-01 1.058878e-01
 0.000000e+00 0.000000e+00 0.000000e+00 0.000000e+00 0.000000e+00
<ENDHMM>
~h "c"
<BEGINHMM>
<NUMSTATES> 5
<STATE> 2
<MEAN> 25
 -2.224355e+00 4.033429e+00 -5.571681e+00 9.044175e-01 1.847202e-01 4.383805e+00 -2.722139e+00 -2.680761e+00 3.743851e-02 2.830533e+00 3.113784e+00 -3.061904e-01 -1.357587e+00 -1.117710e+00 -5.474215e-01 -1.124902e-01 -5.050206e-02 2.856107e-01 8.168865e-01 1.160554e-01 -5.740761e-01 -5.224140e-01 1.569934e-01 -3.717689e-02 -7.013952e-01
<VARIANCE> 25
 1.886890e+01 2.066673e+01 5.385609e+00 1.581712e+01 1.489427e+01 1.359535e+01 2.134793e+01 1.157686e+01 1.385979e+01 1.874917e+01 9.782959e+00 5.977193e+00 8.458164e-01 6.476997e-01 1.936672e-01 1.177841e+00 2.353631e+00 9.943624e-01 1.261382e+00 2.051420e+00 5.572814e-01 1.053352e+00 7.851244e-01 6.461233e-01 2.754836e-01
<GCONST> 7.402789e+01
<STATE> 3
<MEAN> 25
 -8.095348e+00 9.114488e-01 -6.754218e+00 2.889605e-01 1.361310e-01 7.585089e+00 3.457846e+00 -2.855074e-02 -3.386345e+00 -1.816993e+00 2.710062e+00 9.902614e-01 -3.495491e-01 1.652726e-01 2.202539e-01 1.198502e-01 -1.934707e-02 2.254225e-01 1.773411e-02 6.940967e-02 -1.770498e-01 -2.359278e-01 2.910583e-02 1.511375e-01 -2.739861e-01
<VARIANCE> 25
 3.844470e+00 1.126629e+01 1.617024e+01 1.484950e+01 5.899121e+00 1.792381e+01 1.280657e+01 1.596872e+01 1.501037e+01 1.549137e+01 1.008083e+01 9.310320e+00 1.109195e-01 3.335533e-01 4.120977e-01 3.052755e-01 6.201645e-01 8.760407e-01 1.026825e+00 9.734410e-01 1.849511e+00 1.344807e+00 1.684304e+00 4.091855e-01 7.391818e-02
<GCONST> 6.712247e+01
<STATE> 4
<MEAN> 25
 -9.495520e+00 1.225303e+00 -4.238487e+00 2.846974e+00 -1.674715e-01 4.892828e+00 -8.626781e-01 -1.616228e+00 -1.221258e+00 -1.643059e+00 2.531764e-02 9.157983e-01 -2.235799e-02 -1.547559e-02 2.817180e-02 -1.543442e-02 8.012656e-03 7.993354e-03 -1.027479e-01 -7.641349e-02 7.670746e-02 8.713059e-02 -2.102444e-02 2.277637e-02 -2.279329e-02
<VARIANCE> 25
 6.616208e+00 1.542352e+01 2.478457e+01 7.907914e+00 9.250194e+00 1.434261e+01 1.168711e+01 1.483378e+01 1.386366e+01 1.144661e+01 1.199815e+01 1.082612e+01 1.099200e-01 2.276952e-01 4.920346e-01 3.857934e-01 6.956597e-01 1.456433e+00 1.009016e+00 8.181534e-01 1.049144e+00 1.225278e+00 1.504346e+00 1.035381e+00 5.360071e-02
<GCONST> 6.806741e+01
<TRANSP> 5
 0.000000e+00 1.000000e+00 0.000000e+00 0.000000e+00 0.000000e+00
 0.000000e+00 7.729262e-01 2.270739e-01 0.000000e+00 0.000000e+00
 0.000000e+00 0.000000e+00 7.724903e-01 2.275098e-01 0.000000e+00
 0.000000e+00 0.000000e+00 0.000000e+00 9.704757e-01 2.952427e-02
 0.000000e+00 0.000000e+00 0.000000e+00 0.000000e+00 0.000000e+00
<ENDHMM>
~h "d"
<BEGINHMM>
<NUMSTATES> 5
<STATE> 2
<MEAN> 25
 1.795106e+01 -5.348886e+00 1.538490e+00 5.244137e-01 -2.233807e+00 -5.130471e+00 -5.087608e+00 -2.199964e+00 1.773660e+00 9.408519e-01 -4.341707e+00 -5.686198e+00 -9.085274e-02 2.847052e-01 -1.403921e-01 4.547673e-01 9.315054e-02 -3.814476e-01 -4.239668e-01 3.256633e-01 5.276896e-01 -2.526534e-01 -1.122955e-01 6.124941e-02 -3.404662e-01
<VARIANCE> 25
 1.686572e+01 2.159718e+02 5.080323e+01 1.317119e+02 6.193575e+01 5.535279e+01 5.904479e+01 9.540531e+01 6.875490e+01 3.945047e+01 4.478960e+01 2.276890e+01 1.740169e+00 1.912334e+01 5.335536e+00 1.034816e+01 7.124447e+00 4.850402e+00 5.495435e+00 7.872614e+00 6.760833e+00 4.299442e+00 5.012292e+00 2.713619e+00 8.773094e+00
<GCONST> 1.175427e+02
<STATE> 3
<MEAN> 25
 2.108480e+01 1.583801e+00 -2.413684e+00 -2.951882e+00 1.883347e-01 -3.012586e+00 -9.981764e+00 -7.992081e+00 -5.055396e+00 -4.808610e+00 7.356943e-01 1.613095e+00 6.009089e-01 -4.942009e-01 -1.507370e-01 -1.686130e+00 -7.857245e-01 8.918960e-01 4.960815e-01 -8.647913e-01 -1.403975e+00 -2.405380e-02 9.985153e-01 5.072285e-01 9.396118e-01
<VARIANCE> 25
 1.737521e+01 1.096832e+02 5.760841e+01 1.412121e+02 6.597409e+01 8.764927e+01 6.288435e+01 7.361223e+01 9.260450e+01 4.101495e+01 5.424828e+01 3.584326e+01 2.113612e+00 1.675276e+01 8.971942e+00 7.198517e+00 7.437414e+00 8.567339e+00 7.358244e+00 7.081864e+00 7.551524e+00 5.132039e+00 6.650460e+00 3.854109e+00 6.003199e+00
<GCONST> 1.199574e+02
<STATE> 4
<MEAN> 25
 2.079930e+01 -8.136768e+00 1.612053e-01 -1.294088e+01 -4.393175e+00 3.278093e+00 -3.641277e+00 -9.953682e+00 -4.336258e+00 2.656515e+00 2.820579e+00 -2.025347e+00 -5.302188e-01 -9.429573e-01 9.272423e-02 -1.069665e-01 3.209595e-01 -3.351342e-01 3.376251e-01 5.179904e-01 1.046632e+00 9.761404e-01 -4.609383e-01 -6.890214e-01 4.664208e-01
<VARIANCE> 25
 2.211520e+01 1.040970e+02 5.806619e+01 6.448521e+01 5.393967e+01 8.033258e+01 6.116721e+01 9.898994e+01 9.149354e+01 4.745966e+01 4.556467e+01 4.424289e+01 1.676913e+00 9.210921e+00 5.141537e+00 6.762662e+00 5.364862e+00 6.394045e+00 4.209361e+00 7.534425e+00 5.362109e+00 5.028969e+00 5.214183e+00 4.476303e+00 3.360057e+00
<GCONST> 1.159190e+02
<TRANSP> 5
 0.000000e+00 1.000000e+00 0.000000e+00 0.000000e+00 0.000000e+00
 0.000000e+00 9.427490e-01 5.725105e-02 0.000000e+00 0.000000e+00
 0.000000e+00 0.000000e+00 9.051195e-01 9.488048e-02 0.000000e+00
 0.000000e+00 0.000000e+00 0.000000e+00 8.989406e-01 1.010594e-01
 0.000000e+00 0.000000e+00 0.000000e+00 0.000000e+00 0.000000e+00
<ENDHMM>
~h "e"
<BEGINHMM>
<NUMSTATES> 5
<STATE> 2
<MEAN> 25
 6.253388e+00 -4.000385e+00 1.327766e+01 -3.397401e+00 -7.129104e+00 -1.334493e+01 3.631254e+00 2.499850e+00 -5.967761e+00 -1.046982e-01 -1.324679e-01 2.855444e+00 -4.191610e-01 1.080336e+00 6.600292e-01 2.785381e-01 -8.168373e-01 3.419229e-01 7.772652e-01 -8.071879e-01 -8.163306e-01 1.438501e-01 1.058113e-01 -5.524816e-02 -6.995229e-01
<VARIANCE> 25
 1.680654e+02 1.203326e+02 9.886603e+01 1.208489e+02 1.003854e+02 7.083926e+01 7.495625e+01 5.690658e+01 7.469348e+01 4.476244e+01 3.644683e+01 3.893406e+01 1.271947e+01 1.081562e+01 1.156670e+01 1.321944e+01 1.381919e+01 7.168171e+00 7.863164e+00 7.427009e+00 1.084884e+01 5.008004e+00 4.211697e+00 4.040148e+00 6.548094e+00
<GCONST> 1.251755e+02
<STATE> 3
<MEAN> 25
 4.407076e+00 3.188195e+00 1.592532e+01 -1.630721e+00 -1.368416e+01 -7.393394e+00 6.354475e+00 -3.928226e+00 -8.125973e+00 -7.601120e-01 2.260025e+00 1.126635e+00 8.918998e-01 1.506107e-01 9.875322e-01 -2.054088e-03 -9.006371e-01 5.251521e-01 -4.584677e-01 -5.287590e-01 -9.882966e-01 -1.865426e-01 1.358059e-02 -3.442513e-01 -8.570425e-02
<VARIANCE> 25
 1.809843e+02 8.826194e+01 1.641661e+02 1.189267e+02 1.176990e+02 5.955834e+01 8.808261e+01 5.039994e+01 1.217603e+02 4.438719e+01 3.892662e+01 4.175455e+01 1.040145e+01 9.970317e+00 1.181592e+01 8.312821e+00 1.207464e+01 5.190663e+00 1.051421e+01 6.711021e+00 1.124286e+01 4.312036e+00 3.901623e+00 4.669811e+00 7.389569e+00
<GCONST> 1.251538e+02
<STATE> 4
<MEAN> 25
 1.094334e+01 2.209743e+00 1.741113e+01 -1.202777e+00 -1.147641e+01 -6.178070e+00 -5.570039e-01 -5.847095e+00 -1.114353e+01 -1.101194e+00 9.361386e-02 -1.944925e+00 3.916690e-02 4.254338e-02 -5.447851e-01 1.005962e-01 4.666724e-01 -1.671512e-01 -3.129964e-01 5.363893e-02 3.930328e-01 4.368549e-02 -1.048011e-01 8.098147e-03 -6.487733e-02
<VARIANCE> 25
 3.510412e+01 1.079280e+02 1.614139e+02 1.199347e+02 1.063151e+02 1.185636e+02 1.239784e+02 1.016313e+02 1.086870e+02 5.603234e+01 4.630223e+01 4.239642e+01 2.685052e+00 1.171786e+01 1.270902e+01 9.550872e+00 8.351975e+00 7.896604e+00 1.004634e+01 9.534462e+00 1.067852e+01 4.959253e+00 4.856546e+00 3.642058e+00 9.354382e+00
<GCONST> 1.253146e+02
<TRANSP> 5
 0.000000e+00 1.000000e+00 0.000000e+00 0.000000e+00 0.000000e+00
 0.000000e+00 8.515625e-01 1.484375e-01 0.000000e+00 0.000000e+00
 0.000000e+00 0.000000e+00 7.862926e-01 2.137073e-01 0.000000e+00
 0.000000e+00 0.000000e+00 0.000000e+00 9.310307e-01 6.896934e-02
 0.000000e+00 0.000000e+00 0.000000e+00 0.000000e+00 0.000000e+00
<ENDHMM>
~h "g"
<BEGINHMM>
<NUMSTATES> 5
<STATE> 2
<MEAN> 25
 -4.503113e+00 1.499167e+00 -9.190578e-01 3.007053e+00 2.749766e-01 6.988031e-01 2.013223e+00 1.368299e+00 1.775078e+00 7.207570e-02 2.209731e+00 2.102859e+00 1.641150e-01 -2.517704e-01 -6.569934e-01 -4.218504e-01 6.921887e-01 -2.554884e-01 3.355011e-03 2.269127e-02 -7.546266e-02 -7.910387e-01 8.515197e-02 9.872776e-02 9.836374e-01
<VARIANCE> 25
 2.213732e+02 5.926969e+01 9.450381e+01 6.332242e+01 5.713739e+01 1.195649e+02 3.925036e+01 5.043532e+01 4.870673e+01 1.989415e+01 3.663834e+01 2.992230e+01 4.951199e+00 2.789562e+00 4.268898e+00 2.626859e+00 2.964069e+00 4.295397e+00 3.004857e+00 4.437045e+00 5.043777e+00 2.638667e+00 3.248809e+00 2.039143e+00 9.002446e+00
<GCONST> 1.112754e+02
<STATE> 3
<MEAN> 25
 -4.162410e+00 1.208163e+00 -1.359736e+00 2.351006e+00 5.867171e-02 -7.016852e-02 2.055421e+00 1.454580e+00 1.545807e+00 -1.223712e+00 9.720020e-01 2.044681e+00 1.085480e+00 -3.739337e-01 -1.225580e-01 -8.241775e-01 5.695241e-01 -9.523005e-01 -3.601426e-01 -9.215704e-02 -1.728764e-01 -3.053653e-01 -3.735186e-01 -1.949779e-01 2.081075e+00
<VARIANCE> 25
 1.953949e+02 6.163225e+01 7.920735e+01 6.644615e+01 4.636573e+01 1.082280e+02 4.337177e+01 5.092181e+01 3.583582e+01 2.251980e+01 2.878353e+01 2.998390e+01 5.928413e+00 2.485397e+00 3.152690e+00 2.856992e+00 2.672498e+00 5.598625e+00 2.425892e+00 3.737721e+00 3.133577e+00 2.106867e+00 3.014541e+00 1.919880e+00 1.389141e+01
<GCONST> 1.096591e+02
<STATE> 4
<MEAN> 25
 -7.319433e+00 1.674624e+00 -4.292614e+00 1.981152e+00 6.304095e-01 1.159935e+00 4.796786e-01 7.323963e-01 1.338438e+00 -1.519423e+00 8.786350e-01 1.952855e+00 4.197674e-01 -4.982588e-02 3.667609e-02 -1.457582e-01 6.826073e-03 -2.500553e-01 -2.450837e-01 2.815844e-02 -2.041635e-01 -5.324337e-02 -2.207442e-01 -2.432695e-01 4.485163e-01
<VARIANCE> 25
 5.390413e+01 2.104276e+01 4.118145e+01 2.969847e+01 2.112256e+01 3.776073e+01 2.069141e+01 2.533502e+01 2.174905e+01 1.573345e+01 1.820714e+01 1.600382e+01 3.178343e+00 1.305729e+00 1.458090e+00 1.681836e+00 1.616237e+00 2.527712e+00 1.609282e+00 1.836374e+00 1.437986e+00 1.520730e+00 1.727638e+00 1.497560e+00 8.283690e+00
<GCONST> 9.320174e+01
<TRANSP> 5
 0.000000e+00 1.000000e+00 0.000000e+00 0.000000e+00 0.000000e+00
 0.000000e+00 6.474336e-02 9.352567e-01 0.000000e+00 0.000000e+00
 0.000000e+00 0.000000e+00 6.925139e-02 9.307486e-01 0.000000e+00
 0.000000e+00 0.000000e+00 0.000000e+00 7.726231e-01 2.273769e-01
 0.000000e+00 0.000000e+00 0.000000e+00 0.000000e+00 0.000000e+00
<ENDHMM>
~h "h"
<BEGINHMM>
<NUMSTATES> 5
<STATE> 2
<MEAN> 25
 -1.683098e+00 4.790138e+00 -5.048313e+00 -2.004649e+00 4.762428e-01 5.224486e+00 2.835373e+00 1.534299e+00 -8.013961e-01 -1.188780e+00 1.848519e-01 2.314607e+00 -4.149646e-02 -1.570762e-01 6.815048e-01 -2.826551e-01 -2.538034e-01 -6.488598e-01 -5.268975e-02 2.579718e-01 -9.577648e-02 -2.904813e-01 -5.527357e-01 -4.144155e-01 5.181241e-01
<VARIANCE> 25
 1.138312e+02 2.643854e+01 8.992896e+01 9.369964e+01 2.000666e+01 7.312488e+01 2.719567e+01 2.697382e+01 2.727228e+01 1.320148e+01 1.944765e+01 1.345701e+01 3.603692e+00 1.631116e+00 2.711359e+00 3.178382e+00 1.873741e+00 2.753040e+00 2.415439e+00 1.631334e+00 2.115217e+00 1.122058e+00 1.650110e+00 1.427473e+00 8.236145e+00
<GCONST> 9.910173e+01
<STATE> 3
<MEAN> 25
 1.338626e+00 7.929013e+00 -4.881354e+00 -3.062890e+00 -2.099577e+00 2.810664e+00 1.401911e+00 -1.731591e-01 -7.750063e-01 -3.769810e+00 -9.721084e-01 2.853421e-01 -8.011922e-01 4.410452e-01 5.422632e-01 2.946954e-01 -4.391703e-01 1.492514e-01 -1.377344e-02 -8.126242e-02 1.072188e-02 -2.322623e-01 1.667027e-02 -2.241327e-01 -9.364654e-01
<VARIANCE> 25
 1.264410e+02 4.261580e+01 6.049648e+01 4.931649e+01 2.168298e+01 2.378890e+01 1.912744e+01 2.242544e+01 1.686769e+01 2.315544e+01 1.585005e+01 1.249669e+01 8.956059e-01 6.344383e-01 1.518649e+00 1.559024e+00 1.126569e+00 1.703015e+00 1.844990e+00 1.390563e+00 1.793340e+00 1.316566e+00 1.136321e+00 9.411080e-01 1.266064e+00
<GCONST> 8.915561e+01
<STATE> 4
<MEAN> 25
 -6.765749e+00 4.435076e+00 -2.241026e+00 2.203200e+00 -1.327941e+00 1.796318e+00 -1.598509e+00 5.313267e-01 4.934298e-01 -1.407906e+00 -3.223543e-01 -5.827814e-02 -1.150851e-01 -9.460225e-02 9.634122e-04 1.469582e-01 -7.566459e-03 1.095669e-01 -1.997097e-02 -7.463796e-02 -2.610148e-02 9.868967e-02 1.102685e-01 1.674066e-02 -1.465380e-01
<VARIANCE> 25
 2.525563e+01 1.564905e+01 2.824042e+01 1.591507e+01 1.216017e+01 2.040788e+01 1.877617e+01 1.780174e+01 1.997466e+01 1.550066e+01 1.263044e+01 1.333780e+01 5.899051e-01 4.536235e-01 1.021946e+00 8.752457e-01 7.195204e-01 1.139362e+00 1.295081e+00 1.241711e+00 1.799668e+00 1.258983e+00 1.347964e+00 1.356321e+00 5.796131e-01
<GCONST> 7.994485e+01
<TRANSP> 5
 0.000000e+00 1.000000e+00 0.000000e+00 0.000000e+00 0.000000e+00
 0.000000e+00 5.863507e-01 4.136492e-01 0.000000e+00 0.000000e+00
 0.000000e+00 0.000000e+00 3.682216e-01 6.317784e-01 0.000000e+00
 0.000000e+00 0.000000e+00 0.000000e+00 7.612814e-01 2.387187e-01
 0.000000e+00 0.000000e+00 0.000000e+00 0.000000e+00 0.000000e+00
<ENDHMM>
~h "i"
<BEGINHMM>
<NUMSTATES> 5
<STATE> 2
<MEAN> 25
 1.390562e+01 -4.469063e+00 1.016692e+01 -3.082798e+00 -5.986060e+00 -6.774240e+00 7.000500e-02 -4.466999e+00 -7.391303e+00 9.980258e-01 -6.426117e-01 -2.552422e+00 1.287316e-01 -6.600372e-01 -1.428776e-01 1.457638e-01 4.046214e-02 -2.595834e-01 1.486098e-02 1.784912e-01 9.962577e-02 2.050881e-01 -2.353697e-01 -1.461373e-01 4.040637e-01
<VARIANCE> 25
 4.144102e+01 1.209117e+02 1.902769e+02 1.401842e+02 1.503172e+02 1.430335e+02 1.115471e+02 1.182921e+02 1.084492e+02 6.467435e+01 5.599463e+01 4.562711e+01 3.240622e+00 1.107551e+01 1.078781e+01 9.549816e+00 1.266468e+01 9.377673e+00 1.155838e+01 1.191673e+01 9.891465e+00 5.925504e+00 5.464686e+00 4.153494e+00 7.439609e+00
<GCONST> 1.279405e+02
<STATE> 3
<MEAN> 25
 1.758148e+01 -8.248132e+00 -1.065844e+00 -8.970848e-01 -7.833620e-01 -3.976667e+00 -2.291267e+00 -4.524730e+00 -2.642135e+00 2.232977e+00 -3.880893e+00 -4.798735e+00 2.088596e-02 1.867096e-02 -7.668340e-01 -3.172362e-01 6.726797e-01 6.882145e-01 -2.210241e-01 3.654078e-01 3.427513e-01 -3.255037e-01 -2.692033e-01 -1.489849e-01 -2.074312e-01
<VARIANCE> 25
 4.107876e+01 9.914082e+01 8.700300e+01 1.252598e+02 8.360421e+01 1.070758e+02 7.765018e+01 1.416014e+02 9.314246e+01 4.956024e+01 4.754911e+01 4.551640e+01 2.630191e+00 8.536288e+00 7.598617e+00 1.015993e+01 8.053190e+00 6.521272e+00 6.727861e+00 1.080779e+01 7.279382e+00 5.100849e+00 4.918143e+00 3.706595e+00 4.833297e+00
<GCONST> 1.218758e+02
<STATE> 4
<MEAN> 25
 1.415085e+01 -1.029688e+01 4.980071e+00 -5.248028e+00 -2.936532e+00 -6.346255e+00 7.700413e-01 1.029913e+00 -2.448753e+00 -1.375913e+00 -3.961789e+00 -3.287974e+00 -3.195650e-01 7.139433e-01 4.243679e-02 8.185343e-02 4.623087e-02 3.234417e-02 6.499302e-02 -9.040151e-02 -2.091727e-02 -3.280789e-03 1.346295e-01 3.140739e-01 -6.059247e-01
<VARIANCE> 25
 3.619505e+01 1.072353e+02 1.277808e+02 8.166120e+01 9.435685e+01 1.059131e+02 6.814027e+01 8.450305e+01 7.767336e+01 5.877779e+01 4.967943e+01 3.610269e+01 1.902145e+00 3.126700e+00 4.461394e+00 4.543242e+00 4.795595e+00 4.174599e+00 4.841906e+00 4.647535e+00 4.610205e+00 3.808234e+00 3.640665e+00 2.578461e+00 2.286147e+00
<GCONST> 1.140841e+02
<TRANSP> 5
 0.000000e+00 1.000000e+00 0.000000e+00 0.000000e+00 0.000000e+00
 0.000000e+00 8.315391e-01 1.684609e-01 0.000000e+00 0.000000e+00
 0.000000e+00 0.000000e+00 6.791296e-01 3.208705e-01 0.000000e+00
 0.000000e+00 0.000000e+00 0.000000e+00 7.939245e-01 2.060756e-01
 0.000000e+00 0.000000e+00 0.000000e+00 0.000000e+00 0.000000e+00
<ENDHMM>
~h "j"
<BEGINHMM>
<NUMSTATES> 5
<STATE> 2
<MEAN> 25
 -4.354143e+00 5.130262e+00 -7.238732e+00 -1.971394e+00 6.208866e-01 8.186847e+00 -2.311826e-03 3.527598e+00 -1.698327e+00 -4.133624e+00 -2.181314e+00 -9.108323e-01 -1.309978e+00 -9.359533e-01 -8.280650e-02 5.028033e-01 3.308169e-01 -7.427815e-02 -2.814360e-02 2.473161e-01 1.217479e-01 2.625442e-02 -1.138266e-01 -2.762664e-01 -6.365258e-01
<VARIANCE> 25
 1.191485e+01 1.755928e+01 1.715826e+01 3.772121e+01 1.635901e+01 3.702576e+01 3.248014e+01 3.161612e+01 1.760975e+01 1.763753e+01 1.301577e+01 1.651873e+01 1.305778e+00 1.513478e+00 1.198985e+00 1.514106e+00 1.591604e+00 1.305360e+00 1.938866e+00 8.354565e-01 1.310426e+00 1.585176e+00 1.439050e+00 1.697154e+00 3.305707e-01
<GCONST> 8.522093e+01
<STATE> 3
<MEAN> 25
 -7.630609e+00 4.000372e+00 -6.625333e+00 3.246023e+00 1.338116e+00 3.657086e+00 -7.283835e-01 -6.722474e-01 -1.191714e+00 -4.111156e+00 -2.757159e+00 -6.451824e-01 -7.297907e-01 -4.794749e-01 3.936181e-02 1.377928e-01 -1.109046e-01 -3.382155e-01 -3.438923e-01 -1.764258e-01 1.155689e-02 2.308580e-01 1.952181e-01 -1.414494e-01 -3.704171e-01
<VARIANCE> 25
 3.977170e+00 4.655938e+00 1.207298e+01 2.021548e+01 1.559671e+01 1.701177e+01 1.365507e+01 1.413227e+01 1.053051e+01 1.302355e+01 1.373574e+01 2.022748e+01 2.003821e-01 4.212611e-01 5.715345e-01 9.326795e-01 1.220523e+00 9.047889e-01 1.441330e+00 1.098670e+00 1.311408e+00 1.428196e+00 1.150075e+00 1.122151e+00 5.360071e-02
<GCONST> 7.116882e+01
<STATE> 4
<MEAN> 25
 -1.031353e+01 3.304676e+00 -4.945491e+00 3.822723e+00 2.701746e+00 3.815869e+00 -1.933679e+00 8.373491e-01 -7.159172e-01 -2.805711e+00 -4.514336e-01 -6.777148e-01 -1.267353e-01 7.765915e-03 8.839957e-02 1.135185e-01 1.072209e-01 2.310392e-02 -2.534314e-02 6.358662e-02 1.407986e-01 1.200551e-01 8.127800e-02 6.123168e-02 -9.231627e-02
<VARIANCE> 25
 5.681004e+00 4.276685e+00 1.078028e+01 2.335626e+01 1.906096e+01 2.349862e+01 1.614233e+01 1.587015e+01 1.424415e+01 1.510697e+01 1.144356e+01 1.279246e+01 1.046995e-01 2.719325e-01 4.800221e-01 7.101998e-01 8.140939e-01 9.658581e-01 1.199386e+00 1.168002e+00 1.147537e+00 1.180120e+00 1.236674e+00 1.564271e+00 5.360071e-02
<GCONST> 7.017265e+01
<TRANSP> 5
 0.000000e+00 1.000000e+00 0.000000e+00 0.000000e+00 0.000000e+00
 0.000000e+00 7.635474e-01 2.364526e-01 0.000000e+00 0.000000e+00
 0.000000e+00 0.000000e+00 7.513309e-01 2.486691e-01 0.000000e+00
 0.000000e+00 0.000000e+00 0.000000e+00 9.213154e-01 7.868464e-02
 0.000000e+00 0.000000e+00 0.000000e+00 0.000000e+00 0.000000e+00
<ENDHMM>
~h "k"
<BEGINHMM>
<NUMSTATES> 5
<STATE> 2
<MEAN> 25
 1.582375e+01 -7.340235e+00 -1.884567e+00 -2.819098e+00 1.441232e+00 -3.162781e+00 2.824172e-01 -1.921268e+00 -1.904810e+00 1.554953e+00 -4.182440e+00 -4.968272e+00 -8.228762e-01 1.640336e+00 -4.862862e-01 7.414072e-01 1.754655e-01 5.250793e-01 -2.714464e-01 -1.439494e-01 4.527458e-01 1.493633e-01 1.342676e-01 4.036904e-01 -2.212502e+00
<VARIANCE> 25
 5.507734e+01 9.594459e+01 9.389312e+01 1.011702e+02 9.365292e+01 5.863474e+01 5.647037e+01 6.948718e+01 5.316651e+01 5.789900e+01 5.415969e+01 6.715356e+01 4.707476e+00 8.441302e+00 7.954709e+00 9.118914e+00 9.085893e+00 6.830754e+00 6.993611e+00 7.938074e+00 5.733668e+00 4.487753e+00 3.624985e+00 4.577848e+00 8.752912e+00
<GCONST> 1.211326e+02
<STATE> 3
<MEAN> 25
 1.244142e+01 -8.862069e-01 -5.420950e+00 -2.073901e+00 2.264856e+00 -6.736972e-01 -1.783128e+00 -2.165467e+00 1.140204e+00 5.333424e-01 -4.167685e+00 -3.680283e+00 -2.107852e+00 1.639405e+00 3.936495e-01 -4.048859e-01 -4.105693e-01 6.008718e-01 -4.153389e-01 1.051280e-01 1.435274e-02 -3.033115e-01 3.658331e-01 4.750291e-01 -2.548383e+00
<VARIANCE> 25
 7.573876e+01 9.919678e+01 9.024846e+01 8.375260e+01 7.052644e+01 4.520522e+01 5.138382e+01 5.468755e+01 4.507256e+01 4.707443e+01 3.852195e+01 2.825583e+01 5.458855e+00 5.679523e+00 7.170619e+00 4.548522e+00 1.014735e+01 5.863926e+00 6.259527e+00 6.418979e+00 3.876664e+00 3.861515e+00 3.075478e+00 2.718248e+00 6.208950e+00
<GCONST> 1.158162e+02
<STATE> 4
<MEAN> 25
 2.856242e+00 3.798094e+00 -9.215862e-01 -3.416109e-01 -1.267022e+00 -7.444804e-01 -1.335122e+00 -1.772670e+00 -1.590470e+00 -1.248499e+00 -3.217427e+00 -2.618048e+00 -8.437541e-01 3.383415e-01 5.890164e-01 1.508614e-01 -4.653832e-02 2.635238e-02 -1.244640e-01 5.961788e-02 -2.558231e-01 -3.291956e-02 1.491137e-01 1.802414e-01 -7.855488e-01
<VARIANCE> 25
 9.588683e+01 8.505243e+01 5.237220e+01 4.628368e+01 3.394505e+01 2.535416e+01 3.342442e+01 2.968350e+01 2.778241e+01 2.815501e+01 2.420216e+01 1.990653e+01 2.569402e+00 2.747133e+00 3.593502e+00 2.730714e+00 3.351187e+00 2.527926e+00 3.019143e+00 2.364313e+00 2.598665e+00 2.394799e+00 2.057351e+00 1.702636e+00 2.322611e+00
<GCONST> 1.015084e+02
<TRANSP> 5
 0.000000e+00 1.000000e+00 0.000000e+00 0.000000e+00 0.000000e+00
 0.000000e+00 5.536526e-01 4.463474e-01 0.000000e+00 0.000000e+00
 0.000000e+00 0.000000e+00 3.288912e-01 6.711087e-01 0.000000e+00
 0.000000e+00 0.000000e+00 0.000000e+00 7.092434e-01 2.907566e-01
 0.000000e+00 0.000000e+00 0.000000e+00 0.000000e+00 0.000000e+00
<ENDHMM>
~h "l"
<BEGINHMM>
<NUMSTATES> 5
<STATE> 2
<MEAN> 25
 1.525615e+01 -7.104166e+00 3.119618e+00 -5.299701e+00 -1.712089e+00 -2.097629e+00 -3.853890e+00 -6.895226e+00 2.005087e+00 1.302438e+00 -2.510550e+00 -3.963100e+00 4.119086e-01 -7.432522e-01 9.322032e-01 5.354234e-01 -1.307325e+00 -1.208365e-01 -3.322404e-01 -1.439091e-01 -2.048843e-01 3.991178e-01 1.965868e-01 -6.787764e-02 4.709074e-01
<VARIANCE> 25
 4.938955e+01 1.147449e+02 9.462581e+01 1.174765e+02 6.588511e+01 7.666224e+01 9.860748e+01 1.096909e+02 1.278836e+02 7.138525e+01 5.022722e+01 4.220240e+01 3.973873e+00 1.163081e+01 1.046675e+01 9.653648e+00 8.487307e+00 8.189841e+00 1.150230e+01 1.057104e+01 1.181052e+01 8.013920e+00 6.179477e+00 4.095251e+00 8.899705e+00
<GCONST> 1.259583e+02
<STATE> 3
<MEAN> 25
 1.621806e+01 -1.004415e+01 1.081468e+01 -8.427269e-01 -1.235131e+01 -4.932977e+00 -2.830813e+00 -6.460034e+00 -2.365575e+00 1.118905e+00 -2.110343e+00 -1.231432e+00 -1.034174e-01 4.468512e-01 1.327890e+00 -1.108262e-01 -1.240198e+00 2.920748e-02 8.434854e-01 -1.291754e-01 -1.785997e+00 2.909029e-01 4.074892e-01 4.928784e-02 -1.520365e-01
<VARIANCE> 25
 2.700124e+01 5.014290e+01 1.046752e+02 8.583109e+01 9.273189e+01 8.619257e+01 1.397090e+02 1.049290e+02 1.125602e+02 5.988421e+01 6.404738e+01 4.684242e+01 1.347665e+00 5.076042e+00 7.061689e+00 7.555524e+00 7.386241e+00 8.584051e+00 9.184209e+00 1.011694e+01 7.172646e+00 6.526731e+00 5.874456e+00 3.767297e+00 3.095286e+00
<GCONST> 1.203165e+02
<STATE> 4
<MEAN> 25
 1.413089e+01 3.390651e-01 1.449817e+01 -4.166669e+00 -1.026702e+01 -3.934641e+00 -2.014704e+00 -4.158604e+00 -1.150934e+01 7.054639e-01 -1.812320e-01 -1.114494e+00 -6.374361e-02 5.621490e-01 -7.825332e-01 2.670419e-01 6.521456e-01 -5.110363e-02 3.810790e-02 -5.073832e-02 9.421404e-02 -1.153803e-01 -6.694187e-02 2.584577e-03 -4.741545e-01
<VARIANCE> 25
 3.018347e+01 1.560876e+02 1.537034e+02 1.017407e+02 1.149425e+02 1.056031e+02 1.156608e+02 1.406590e+02 9.682373e+01 7.932929e+01 7.030926e+01 3.614456e+01 2.507934e+00 1.364381e+01 8.351387e+00 9.587855e+00 9.542336e+00 1.056074e+01 9.993679e+00 1.362046e+01 8.807794e+00 7.466658e+00 5.017262e+00 3.129219e+00 4.716215e+00
<GCONST> 1.258830e+02
<TRANSP> 5
 0.000000e+00 1.000000e+00 0.000000e+00 0.000000e+00 0.000000e+00
 0.000000e+00 7.937989e-01 2.062011e-01 0.000000e+00 0.000000e+00
 0.000000e+00 0.000000e+00 7.803411e-01 2.196589e-01 0.000000e+00
 0.000000e+00 0.000000e+00 0.000000e+00 9.143202e-01 8.567978e-02
 0.000000e+00 0.000000e+00 0.000000e+00 0.000000e+00 0.000000e+00
<ENDHMM>
~h "m"
<BEGINHMM>
<NUMSTATES> 5
<STATE> 2
<MEAN> 25
 5.680608e+00 2.174196e+00 -7.958763e-01 7.501447e-01 1.507635e+00 -9.958899e-02 -9.582863e-01 -1.897335e+00 -2.129817e+00 -2.054841e+00 -2.167859e+00 -1.836697e+00 -3.137482e-01 -9.753573e-02 -4.719304e-01 2.066568e-01 4.410704e-01 3.723315e-01 7.415673e-02 -7.837413e-02 -1.031695e-01 -3.261345e-02 -1.913988e-01 -1.256311e-01 -5.700769e-01
<VARIANCE> 25
 1.600975e+02 1.371779e+02 7.394659e+01 7.195016e+01 3.076389e+01 4.949139e+01 4.039423e+01 7.390663e+01 4.714839e+01 3.213190e+01 2.712068e+01 3.238178e+01 3.377575e+00 4.405557e+00 2.908301e+00 2.361796e+00 2.498823e+00 2.958553e+00 2.873495e+00 4.138977e+00 3.895053e+00 1.883956e+00 1.852625e+00 2.035453e+00 2.341177e+00
<GCONST> 1.072285e+02
<STATE> 3
<MEAN> 25
 1.089981e+01 -4.439877e-01 -1.275545e+00 -7.765834e-01 2.776644e+00 -4.259323e-01 -1.982063e+00 -3.134885e+00 -3.882437e+00 -1.433821e+00 -2.641332e+00 -3.097384e+00 -1.771689e-01 8.335817e-02 -4.427901e-01 -8.412702e-02 5.639020e-01 5.238452e-01 -8.975057e-02 -1.268671e-01 -4.054743e-01 -7.689766e-02 7.195411e-02 8.649383e-02 -4.616498e-01
<VARIANCE> 25
 1.474455e+02 1.565929e+02 7.770628e+01 9.228400e+01 3.990363e+01 6.013044e+01 4.915700e+01 1.073353e+02 5.683263e+01 4.248400e+01 3.553218e+01 4.347320e+01 2.950812e+00 6.295651e+00 3.542283e+00 2.763499e+00 2.889963e+00 3.095358e+00 2.937046e+00 4.222020e+00 3.363834e+00 2.001185e+00 2.258318e+00 1.892235e+00 3.032701e+00
<GCONST> 1.107384e+02
<STATE> 4
<MEAN> 25
 1.378685e+01 3.973519e+00 -2.919844e+00 -4.945633e-01 4.721145e+00 2.482706e+00 -3.459691e+00 -7.321954e+00 -7.140110e+00 -2.319952e+00 -1.865715e+00 -2.209033e+00 -3.805279e-01 4.688011e-01 2.518823e-01 -1.797816e-01 1.034169e-01 1.920978e-01 -8.819191e-02 7.301129e-02 -1.836364e-01 -5.589181e-02 1.846038e-01 2.467574e-01 -4.924768e-01
<VARIANCE> 25
 1.403644e+02 1.238695e+02 6.492773e+01 6.279824e+01 3.312913e+01 4.664390e+01 3.781546e+01 1.164382e+02 6.344651e+01 3.064056e+01 3.075878e+01 3.348968e+01 4.039012e+00 6.772572e+00 4.033357e+00 4.151172e+00 3.288972e+00 3.100801e+00 3.078084e+00 5.552157e+00 4.623836e+00 2.607499e+00 2.522003e+00 1.897897e+00 4.336341e+00
<GCONST> 1.110766e+02
<TRANSP> 5
 0.000000e+00 1.000000e+00 0.000000e+00 0.000000e+00 0.000000e+00
 0.000000e+00 4.509815e-01 5.490185e-01 0.000000e+00 0.000000e+00
 0.000000e+00 0.000000e+00 2.020977e-01 7.979024e-01 0.000000e+00
 0.000000e+00 0.000000e+00 0.000000e+00 4.915169e-01 5.084831e-01
 0.000000e+00 0.000000e+00 0.000000e+00 0.000000e+00 0.000000e+00
<ENDHMM>
~h "n"
<BEGINHMM>
<NUMSTATES> 5
<STATE> 2
<MEAN> 25
 -6.808676e+00 2.659433e+00 -4.250740e+00 2.838209e+00 5.392627e-01 3.281658e+00 -4.826851e-01 8.852745e-01 1.004604e+00 -1.572123e+00 -4.112876e-01 3.157414e-01 -1.386283e-01 4.762048e-02 -5.047428e-02 -1.536174e-01 -8.265936e-02 2.177335e-03 4.571140e-02 3.277504e-02 -4.012979e-02 -5.055177e-02 5.955226e-02 3.750551e-02 -9.404776e-02
<VARIANCE> 25
 5.240112e+01 2.782394e+01 2.855543e+01 2.097932e+01 1.739783e+01 2.059754e+01 2.833934e+01 1.901495e+01 1.978148e+01 1.602696e+01 1.742000e+01 1.847701e+01 1.179692e+00 1.044063e+00 1.291247e+00 1.222163e+00 1.251060e+00 1.519389e+00 1.426339e+00 1.625694e+00 1.552657e+00 1.505154e+00 1.336727e+00 1.321635e+00 4.724384e-01
<GCONST> 8.614735e+01
<STATE> 3
<MEAN> 25
 8.654808e-01 3.873935e+00 -2.710395e+00 -2.828432e-01 1.432402e+00 2.678052e+00 -1.036385e+00 -8.398334e-01 1.778203e-01 -2.465204e+00 -4.302569e-01 -2.332258e-01 1.611674e+00 4.712613e-01 -4.031459e-01 -1.598250e+00 -5.724954e-01 5.295236e-01 3.402703e-01 -3.097557e-01 -2.111527e-01 1.965013e-01 6.957052e-01 4.397617e-01 1.221995e+00
<VARIANCE> 25
 1.561792e+02 9.941015e+01 5.386113e+01 5.470065e+01 3.136340e+01 3.945415e+01 3.543582e+01 3.895795e+01 3.076345e+01 2.633413e+01 3.020037e+01 2.692919e+01 1.626587e+01 6.229078e+00 3.654070e+00 4.767783e+00 2.756754e+00 3.281314e+00 2.975506e+00 3.645054e+00 3.059628e+00 2.338330e+00 3.010681e+00 2.181288e+00 8.516100e+00
<GCONST> 1.093886e+02
<STATE> 4
<MEAN> 25
 8.463989e+00 2.846467e+00 -4.034461e+00 -4.609327e+00 -3.330607e-01 4.060425e+00 -2.481933e-01 -2.242536e+00 -6.542245e-01 -1.579463e+00 8.943672e-01 7.159078e-02 1.544042e+00 -6.985523e-01 -2.554032e-01 -1.426779e+00 -4.113217e-01 -5.478316e-02 2.872569e-01 -2.203037e-01 -5.004788e-01 3.624796e-01 3.193923e-01 4.653257e-02 1.808709e+00
<VARIANCE> 25
 1.681162e+02 1.421421e+02 5.396189e+01 8.255621e+01 3.616917e+01 5.113334e+01 3.428289e+01 4.324495e+01 4.015449e+01 2.629628e+01 4.606678e+01 2.805259e+01 1.487104e+01 9.635365e+00 5.802239e+00 7.846342e+00 3.478476e+00 3.701219e+00 3.862840e+00 3.999324e+00 4.777575e+00 2.110158e+00 4.141798e+00 2.535719e+00 1.175061e+01
<GCONST> 1.145828e+02
<TRANSP> 5
 0.000000e+00 1.000000e+00 0.000000e+00 0.000000e+00 0.000000e+00
 0.000000e+00 8.474532e-01 1.525468e-01 0.000000e+00 0.000000e+00
 0.000000e+00 0.000000e+00 2.714815e-01 7.285185e-01 0.000000e+00
 0.000000e+00 0.000000e+00 0.000000e+00 3.257089e-01 6.742911e-01
 0.000000e+00 0.000000e+00 0.000000e+00 0.000000e+00 0.000000e+00
<ENDHMM>
~h "o"
<BEGINHMM>
<NUMSTATES> 5
<STATE> 2
<MEAN> 25
 1.388023e+01 -4.903622e+00 -5.011876e+00 -1.395640e+01 5.418697e+00 1.798558e+00 -2.182525e+00 -3.288480e+00 -1.889012e+00 3.064619e+00 1.999759e+00 -2.367955e+00 5.062008e-01 4.304563e-01 -4.577398e-01 1.301634e-01 -4.328695e-02 6.024011e-02 6.290574e-03 -1.563369e-02 1.845757e-01 2.787568e-01 -2.009044e-01 -3.160775e-02 -2.340396e-01
<VARIANCE> 25
 7.310741e+01 7.523247e+01 9.621705e+01 9.542246e+01 8.611059e+01 1.072741e+02 9.085500e+01 5.566348e+01 7.422076e+01 6.052158e+01 8.103240e+01 3.163343e+01 7.316012e+00 9.699356e+00 1.195182e+01 1.118621e+01 1.019504e+01 1.163336e+01 1.039122e+01 6.190144e+00 8.207268e+00 6.717230e+00 8.822417e+00 3.961141e+00 1.591823e+01
<GCONST> 1.260315e+02
<STATE> 3
<MEAN> 25
 1.488813e+01 3.579304e+00 -1.175006e+01 -8.591180e+00 3.919831e+00 3.077094e+00 -3.332939e+00 -1.830107e+00 1.760620e-01 2.751384e+00 8.261574e-01 -1.680773e+00 -2.272030e+00 1.368072e+00 -2.013991e-01 2.750592e-02 -9.296943e-01 7.054285e-01 2.033662e-01 1.409792e-01 1.214841e-01 -6.239707e-01 7.846241e-01 6.247907e-01 -2.953565e+00
<VARIANCE> 25
 6.953799e+01 3.242333e+01 8.255475e+01 4.092418e+01 2.978658e+01 3.288066e+01 3.927435e+01 1.430147e+01 3.587449e+01 2.642669e+01 3.953101e+01 2.015324e+01 6.560691e+00 3.144900e+00 8.878308e+00 4.473804e+00 4.888522e+00 4.807944e+00 5.595592e+00 2.735694e+00 4.056859e+00 3.100834e+00 4.896705e+00 2.715984e+00 5.699343e+00
<GCONST> 1.080000e+02
<STATE> 4
<MEAN> 25
 7.657850e-01 5.463294e+00 -5.860188e+00 -5.498712e+00 -2.948613e+00 4.500341e-02 -1.405760e+00 -2.728789e-01 -1.599515e-01 7.626389e-01 1.148049e+00 9.501517e-02 -1.525978e+00 -1.544555e+00 1.808087e+00 5.698575e-01 -4.796989e-01 -1.174865e+00 6.368749e-01 3.945893e-01 -1.840371e-01 7.885827e-03 4.132247e-02 5.620735e-01 3.557200e-01
<VARIANCE> 25
 4.316080e+01 1.397057e+01 5.602861e+01 2.694680e+01 2.277288e+01 1.945987e+01 2.378679e+01 1.800655e+01 2.237034e+01 1.741384e+01 1.908178e+01 1.686037e+01 6.391849e+00 4.963811e+00 3.499724e+00 2.712925e+00 4.957664e+00 3.504910e+00 2.853691e+00 3.531376e+00 3.171510e+00 3.735459e+00 2.133931e+00 2.168530e+00 1.121783e+01
<GCONST> 1.008559e+02
<TRANSP> 5
 0.000000e+00 1.000000e+00 0.000000e+00 0.000000e+00 0.000000e+00
 0.000000e+00 9.143967e-01 8.560325e-02 0.000000e+00 0.000000e+00
 0.000000e+00 0.000000e+00 7.163532e-01 2.836468e-01 0.000000e+00
 0.000000e+00 0.000000e+00 0.000000e+00 7.559558e-01 2.440442e-01
 0.000000e+00 0.000000e+00 0.000000e+00 0.000000e+00 0.000000e+00
<ENDHMM>
~h "p"
<BEGINHMM>
<NUMSTATES> 5
<STATE> 2
<MEAN> 25
 1.380292e+01 -9.692595e+00 -4.100899e-01 -7.148391e+00 3.232923e+00 3.109966e-01 -4.580795e+00 7.598327e-01 5.729413e-01 1.598709e+00 -2.235470e+00 -3.834018e+00 1.346107e+00 6.241384e-01 -1.592434e+00 1.347692e+00 -6.160325e-02 5.655589e-01 2.271395e-01 -8.999057e-02 4.501035e-01 5.813522e-01 2.833051e-01 -3.134763e-01 -4.462439e-01
<VARIANCE> 25
 5.852757e+01 1.095589e+02 7.210349e+01 1.101170e+02 5.183305e+01 6.176567e+01 6.162746e+01 5.320249e+01 4.935600e+01 3.579984e+01 3.175611e+01 3.751526e+01 7.694974e+00 1.515372e+01 1.384342e+01 1.682229e+01 6.243537e+00 9.235893e+00 7.062709e+00 4.977100e+00 7.945986e+00 3.989428e+00 5.472741e+00 3.641904e+00 2.474679e+01
<GCONST> 1.218999e+02
<STATE> 3
<MEAN> 25
 1.344028e+01 -3.540037e+00 -9.310571e+00 -1.749537e+00 3.163782e+00 -5.603434e-01 -2.193433e+00 2.856075e-01 3.690002e+00 2.753062e+00 -2.121274e+00 -2.688800e+00 -2.353193e-01 -5.755897e-01 7.877758e-01 -4.364708e-01 -6.379818e-01 -1.052511e+00 6.306813e-01 -2.253881e-01 -1.236791e-02 2.788347e-01 2.247045e-01 4.565695e-01 8.107933e-01
<VARIANCE> 25
 5.295182e+01 1.071816e+02 1.289338e+02 7.186143e+01 5.435240e+01 4.670638e+01 4.967535e+01 4.599446e+01 6.929395e+01 3.301738e+01 3.353200e+01 3.622880e+01 8.059176e+00 1.542794e+01 1.868847e+01 1.067110e+01 6.290273e+00 7.161321e+00 5.928868e+00 4.682988e+00 7.275480e+00 4.014165e+00 4.020821e+00 3.832118e+00 2.322321e+01
<GCONST> 1.206403e+02
<STATE> 4
<MEAN> 25
 1.312803e+01 -6.200528e+00 3.151287e-01 -5.367631e+00 7.729685e-01 -3.200368e+00 -3.168796e+00 -9.317825e-01 -6.417751e-01 2.979883e+00 -4.447838e-01 -9.929760e-01 7.321036e-02 -1.019727e+00 1.638835e+00 -3.677973e-01 -6.150820e-01 -1.038670e+00 -4.091486e-03 2.977533e-01 -1.640407e-01 -4.404902e-01 2.724808e-01 -5.133860e-03 1.856038e+00
<VARIANCE> 25
 7.309906e+01 1.146798e+02 9.686807e+01 1.112519e+02 6.586377e+01 7.095189e+01 5.563510e+01 4.709341e+01 6.952658e+01 5.249503e+01 3.611966e+01 3.106441e+01 1.074598e+01 1.352307e+01 1.329782e+01 1.208797e+01 8.358415e+00 8.914533e+00 5.296699e+00 4.818736e+00 6.844128e+00 5.871782e+00 3.422651e+00 3.821617e+00 2.260556e+01
<GCONST> 1.228040e+02
<TRANSP> 5
 0.000000e+00 1.000000e+00 0.000000e+00 0.000000e+00 0.000000e+00
 0.000000e+00 7.061245e-01 2.938755e-01 0.000000e+00 0.000000e+00
 0.000000e+00 0.000000e+00 6.474702e-01 3.525297e-01 0.000000e+00
 0.000000e+00 0.000000e+00 0.000000e+00 7.893680e-01 2.106321e-01
 0.000000e+00 0.000000e+00 0.000000e+00 0.000000e+00 0.000000e+00
<ENDHMM>
~h "r"
<BEGINHMM>
<NUMSTATES> 5
<STATE> 2
<MEAN> 25
 1.189989e+01 -3.071485e+00 -1.981876e+00 -3.064642e+00 1.606594e+00 -1.324128e+00 -4.645964e-01 -4.224454e+00 -2.876287e-01 8.519363e-01 -3.023374e+00 -3.491817e+00 -3.741875e-03 4.732902e-01 -2.966452e-02 -1.404275e-01 1.785274e-02 5.746044e-01 -2.548976e-01 -3.556975e-01 -4.162679e-01 -2.284045e-01 2.914430e-01 -1.111903e-01 -5.333483e-01
<VARIANCE> 25
 1.185113e+02 1.334271e+02 7.252502e+01 9.802010e+01 4.803795e+01 6.427510e+01 7.960869e+01 8.940334e+01 7.772863e+01 3.796201e+01 3.879612e+01 3.102049e+01 4.423877e+00 4.486889e+00 3.451617e+00 3.574686e+00 3.018471e+00 2.935279e+00 2.993595e+00 3.213493e+00 3.186807e+00 2.472280e+00 2.777380e+00 2.462729e+00 3.437057e+00
<GCONST> 1.116407e+02
<STATE> 3
<MEAN> 25
 1.162869e+01 -1.666142e+00 -1.751926e+00 -2.516812e+00 1.181992e+00 4.106897e-01 -7.023988e-01 -4.921187e+00 -1.153326e+00 6.138743e-01 -2.564763e+00 -3.220300e+00 -4.436798e-01 5.001003e-01 2.685518e-01 1.378562e-01 -2.428801e-02 5.381876e-01 -3.300585e-01 -5.106073e-03 -2.484381e-01 -3.974504e-01 2.731622e-01 1.172408e-01 -9.704225e-01
<VARIANCE> 25
 1.292750e+02 1.478982e+02 6.933315e+01 9.799001e+01 4.255484e+01 6.511986e+01 7.679370e+01 1.046608e+02 8.889652e+01 3.467469e+01 4.104472e+01 3.193008e+01 2.630974e+00 4.940768e+00 3.843436e+00 3.930339e+00 3.496938e+00 3.388418e+00 3.158782e+00 3.062803e+00 3.787277e+00 2.507396e+00 2.853836e+00 1.899816e+00 3.561102e+00
<GCONST> 1.119929e+02
<STATE> 4
<MEAN> 25
 1.460260e+01 -6.126316e+00 -1.966479e+00 -2.177160e+00 1.346565e+00 -5.173747e-01 -2.476605e+00 -2.840614e+00 -1.199751e-01 9.953497e-02 -2.930312e+00 -4.293392e+00 -2.435793e-01 3.985220e-01 -1.951292e-03 3.323940e-01 1.668259e-01 1.173998e-02 -3.329355e-01 3.213161e-01 2.297113e-02 -2.742093e-01 1.450377e-01 2.928141e-01 -7.650430e-01
<VARIANCE> 25
 9.430564e+01 1.598531e+02 8.337748e+01 1.058179e+02 5.443618e+01 5.899359e+01 6.703582e+01 1.050508e+02 7.493343e+01 3.863901e+01 3.705067e+01 3.150257e+01 2.865163e+00 8.045994e+00 6.024385e+00 8.375347e+00 5.103848e+00 5.420040e+00 5.803376e+00 5.710025e+00 5.539974e+00 3.757357e+00 3.305012e+00 2.896909e+00 5.246344e+00
<GCONST> 1.174522e+02
<TRANSP> 5
 0.000000e+00 1.000000e+00 0.000000e+00 0.000000e+00 0.000000e+00
 0.000000e+00 2.204490e-01 7.795510e-01 0.000000e+00 0.000000e+00
 0.000000e+00 0.000000e+00 2.420380e-01 7.579620e-01 0.000000e+00
 0.000000e+00 0.000000e+00 0.000000e+00 6.047154e-01 3.952845e-01
 0.000000e+00 0.000000e+00 0.000000e+00 0.000000e+00 0.000000e+00
<ENDHMM>
~h "s"
<BEGINHMM>
<NUMSTATES> 5
<STATE> 2
<MEAN> 25
 1.437833e+01 -3.797962e+00 2.040115e+00 -5.650218e+00 1.106730e+00 -3.732045e+00 -3.469265e+00 -3.862646e+00 -9.776811e-01 1.299394e+00 -3.621650e+00 -1.881089e+00 -3.260373e-01 2.245942e-01 2.107124e-01 -6.359243e-01 9.736545e-01 -1.829739e-02 -4.286837e-01 1.462351e-01 4.045426e-01 6.796151e-02 -7.798499e-02 2.701384e-01 4.703267e-01
<VARIANCE> 25
 1.023363e+02 1.408107e+02 9.646680e+01 1.014464e+02 8.610661e+01 9.373804e+01 8.969204e+01 1.362535e+02 1.000661e+02 5.641237e+01 6.145234e+01 4.885572e+01 1.491193e+01 1.329624e+01 1.053879e+01 1.345719e+01 1.233339e+01 8.266279e+00 8.748985e+00 1.477719e+01 1.150921e+01 6.510258e+00 5.877124e+00 4.489686e+00 8.135407e+00
<GCONST> 1.291803e+02
<STATE> 3
<MEAN> 25
 1.085045e+00 4.086576e-01 4.827762e+00 -9.636500e+00 8.468454e+00 -6.117203e+00 -2.577443e+00 1.542998e+00 2.449401e+00 7.009317e-01 -3.007612e+00 1.272625e+00 -2.176301e+00 8.003113e-01 -1.346833e-01 -4.825488e-01 8.113440e-01 2.198541e-01 2.340878e-01 5.302277e-01 4.044992e-01 -1.310601e-01 3.177977e-01 3.760189e-01 -2.924171e-01
<VARIANCE> 25
 2.377854e+02 1.116184e+02 8.794169e+01 9.977283e+01 1.179549e+02 7.770657e+01 1.339005e+02 9.424092e+01 7.169318e+01 4.937836e+01 9.087959e+01 3.946051e+01 1.821383e+01 9.727360e+00 1.071033e+01 8.351640e+00 1.115783e+01 8.080880e+00 7.799911e+00 8.437413e+00 7.309453e+00 5.608473e+00 6.969519e+00 3.875216e+00 3.509118e+00
<GCONST> 1.267601e+02
<STATE> 4
<MEAN> 25
 4.172945e-02 -9.162173e-01 6.407187e+00 -7.685012e+00 5.534806e+00 -7.985960e+00 -2.444474e+00 3.236207e+00 1.597782e+00 -5.187054e-01 -1.623768e+00 2.807581e+00 1.655046e+00 -7.792646e-01 1.282860e-01 1.010900e+00 -1.342403e+00 -5.130672e-01 -3.387477e-02 -3.256725e-01 -6.712894e-01 -8.256512e-02 5.753004e-03 -1.099013e-01 -5.791514e-02
<VARIANCE> 25
 2.277884e+02 8.278074e+01 1.401975e+02 9.255457e+01 1.094633e+02 9.247253e+01 9.525681e+01 9.322855e+01 9.821474e+01 4.963383e+01 7.221403e+01 4.243367e+01 2.230103e+01 1.061093e+01 1.253387e+01 1.238937e+01 1.077027e+01 9.632718e+00 9.358381e+00 9.494225e+00 1.162705e+01 6.380312e+00 6.813636e+00 4.348787e+00 5.365952e+00
<GCONST> 1.291121e+02
<TRANSP> 5
 0.000000e+00 1.000000e+00 0.000000e+00 0.000000e+00 0.000000e+00
 0.000000e+00 7.617532e-01 2.382468e-01 0.000000e+00 0.000000e+00
 0.000000e+00 0.000000e+00 7.120413e-01 2.879587e-01 0.000000e+00
 0.000000e+00 0.000000e+00 0.000000e+00 7.857661e-01 2.142338e-01
 0.000000e+00 0.000000e+00 0.000000e+00 0.000000e+00 0.000000e+00
<ENDHMM>
~h "t"
<BEGINHMM>
<NUMSTATES> 5
<STATE> 2
<MEAN> 25
 1.042597e+01 -6.747985e+00 3.276725e+00 -8.531597e+00 2.226763e+00 -6.144730e+00 -5.946916e-01 -1.610875e+00 -1.283160e+00 3.733619e+00 -2.577063e+00 -1.433761e+00 9.409931e-01 -1.120168e+00 1.465301e-01 -4.626893e-01 4.730632e-01 -5.908659e-01 -4.282019e-02 -3.835043e-02 4.650632e-01 5.015218e-01 -7.211098e-01 -2.528355e-01 1.748624e+00
<VARIANCE> 25
 5.838012e+01 1.051677e+02 1.460838e+02 1.163168e+02 9.521039e+01 1.044354e+02 8.037363e+01 7.550206e+01 9.349423e+01 5.856253e+01 6.636676e+01 4.372711e+01 7.589253e+00 1.332935e+01 1.594691e+01 1.263869e+01 9.884455e+00 9.923240e+00 7.936358e+00 7.940370e+00 9.178791e+00 7.104555e+00 6.832730e+00 5.000917e+00 2.090736e+01
<GCONST> 1.283077e+02
<STATE> 3
<MEAN> 25
 1.414283e+01 -1.030718e+01 2.483053e-01 -7.890029e+00 3.576344e+00 -6.578054e+00 -1.427244e+00 1.722723e-02 2.545807e+00 4.566710e+00 -7.424303e+00 -2.925749e+00 6.227028e-01 7.343710e-01 -8.722202e-01 9.337312e-01 2.842008e-02 8.492160e-01 -8.839608e-01 3.362601e-01 5.347096e-01 -2.883002e-01 -3.329685e-02 -3.008507e-01 -9.802183e-01
<VARIANCE> 25
 3.782684e+01 7.002843e+01 6.979815e+01 1.096541e+02 6.364482e+01 7.050591e+01 7.736395e+01 6.705309e+01 5.947663e+01 5.133556e+01 4.983540e+01 4.129451e+01 4.676111e+00 9.125027e+00 1.110328e+01 1.135383e+01 6.688813e+00 8.117607e+00 7.696534e+00 7.198268e+00 7.725466e+00 6.587846e+00 5.194674e+00 4.851758e+00 1.461347e+01
<GCONST> 1.218263e+02
<STATE> 4
<MEAN> 25
 1.236842e+01 -5.877395e+00 -2.322259e+00 -4.372818e+00 1.629403e+00 -3.674922e+00 -4.291881e+00 3.347353e-01 4.143608e+00 1.744909e+00 -3.831146e+00 -2.032640e+00 -1.884459e-01 5.345588e-01 -1.639649e-01 2.167676e-01 -3.835530e-01 6.661601e-01 -2.532299e-01 -3.072364e-01 4.234332e-02 -6.171663e-01 7.075655e-01 4.815583e-02 -5.346451e-01
<VARIANCE> 25
 6.036718e+01 8.420162e+01 1.110993e+02 8.636036e+01 5.702109e+01 6.420969e+01 7.949581e+01 5.754822e+01 5.163292e+01 4.239323e+01 4.460485e+01 3.680836e+01 7.577365e+00 7.969012e+00 1.566828e+01 9.230026e+00 6.758139e+00 7.867026e+00 8.848477e+00 7.113645e+00 7.328487e+00 4.384293e+00 4.095021e+00 4.163170e+00 1.617797e+01
<GCONST> 1.216582e+02
<TRANSP> 5
 0.000000e+00 1.000000e+00 0.000000e+00 0.000000e+00 0.000000e+00
 0.000000e+00 7.457214e-01 2.542786e-01 0.000000e+00 0.000000e+00
 0.000000e+00 0.000000e+00 6.345917e-01 3.654083e-01 0.000000e+00
 0.000000e+00 0.000000e+00 0.000000e+00 6.969481e-01 3.030519e-01
 0.000000e+00 0.000000e+00 0.000000e+00 0.000000e+00 0.000000e+00
<ENDHMM>
~h "u"
<BEGINHMM>
<NUMSTATES> 5
<STATE> 2
<MEAN> 25
 1.799244e+01 6.882665e+00 -9.321750e+00 -7.638422e+00 2.990424e+00 6.519105e+00 -4.364712e+00 -8.485831e+00 -3.600400e+00 7.896134e-01 7.784550e-01 -7.243465e-01 -1.929059e+00 1.816831e+00 -1.685460e-01 1.076775e-01 1.435532e-02 4.263744e-01 8.479840e-01 5.956495e-01 8.021663e-02 -1.098754e+00 3.311542e-01 7.249964e-01 -2.147621e+00
<VARIANCE> 25
 6.607941e+01 8.107059e+01 7.070790e+01 5.613338e+01 4.535196e+01 5.324482e+01 4.252923e+01 8.290211e+01 6.360127e+01 2.777819e+01 2.657561e+01 2.966344e+01 4.077731e+00 3.549692e+00 6.283913e+00 5.919836e+00 5.379044e+00 4.786645e+00 4.044103e+00 4.446835e+00 5.667552e+00 2.401882e+00 3.066034e+00 2.241260e+00 2.472232e+00
<GCONST> 1.107934e+02
<STATE> 3
<MEAN> 25
 1.027011e+01 9.889072e+00 -6.295240e+00 -6.947695e+00 2.300012e-01 3.517470e+00 -1.178680e+00 -3.618050e+00 -3.301035e+00 -2.786249e+00 -4.068027e-01 -1.330891e-01 -1.982576e+00 9.155430e-03 8.256826e-01 8.633235e-01 -3.456316e-01 -5.872011e-01 3.076638e-01 6.075714e-01 4.098231e-01 -3.536299e-01 -2.535490e-01 -1.706316e-02 -1.306224e+00
<VARIANCE> 25
 1.051853e+02 8.887617e+01 4.995953e+01 7.824902e+01 4.921021e+01 6.443561e+01 3.020173e+01 5.328400e+01 4.984087e+01 3.291372e+01 2.581466e+01 2.758354e+01 2.639274e+00 2.107881e+00 2.788979e+00 2.499800e+00 2.639684e+00 2.691272e+00 2.094778e+00 2.951917e+00 2.724277e+00 1.373257e+00 1.796623e+00 1.384229e+00 1.439768e+00
<GCONST> 1.028128e+02
<STATE> 4
<MEAN> 25
 9.915543e-02 5.330495e+00 -3.649847e+00 -1.590904e+00 9.977769e-01 4.917325e-01 -8.600281e-01 -1.561587e+00 2.342966e-01 -1.333631e+00 -4.808938e-01 5.902898e-02 -8.712131e-01 -1.046436e+00 4.029381e-01 5.527784e-01 4.885058e-02 -6.668624e-01 1.570126e-01 2.945257e-01 1.259631e-01 -8.933397e-02 6.571530e-02 1.084942e-02 -8.448002e-02
<VARIANCE> 25
 9.839123e+01 7.883715e+01 4.642274e+01 5.872956e+01 3.411221e+01 4.591111e+01 3.307312e+01 4.149545e+01 4.123729e+01 2.519116e+01 2.023833e+01 2.475499e+01 6.949819e+00 3.244812e+00 3.465764e+00 2.663427e+00 2.520165e+00 3.198856e+00 2.981652e+00 3.099018e+00 2.519035e+00 1.973558e+00 2.215823e+00 1.889935e+00 5.948274e+00
<GCONST> 1.050251e+02
<TRANSP> 5
 0.000000e+00 1.000000e+00 0.000000e+00 0.000000e+00 0.000000e+00
 0.000000e+00 5.930825e-01 4.069174e-01 0.000000e+00 0.000000e+00
 0.000000e+00 0.000000e+00 6.696145e-01 3.303855e-01 0.000000e+00
 0.000000e+00 0.000000e+00 0.000000e+00 6.059567e-01 3.940434e-01
 0.000000e+00 0.000000e+00 0.000000e+00 0.000000e+00 0.000000e+00
<ENDHMM>
~h "w"
<BEGINHMM>
<NUMSTATES> 5
<STATE> 2
<MEAN> 25
 -1.826674e+01 5.158006e+00 -3.707517e+00 6.704834e+00 3.360676e+00 6.990593e+00 3.197201e+00 5.792858e+00 8.045592e+00 2.327761e+00 5.835295e+00 5.261251e+00 4.613853e-03 -2.994414e-03 -1.361016e-02 9.867646e-03 1.053707e-02 -2.598085e-02 -2.258699e-02 3.804527e-02 1.099419e-01 6.388480e-02 -7.667974e-03 -3.843603e-02 2.509210e-04
<VARIANCE> 25
 4.835715e+00 4.201219e+00 7.855125e+00 1.366700e+01 9.096966e+00 1.515437e+01 1.298169e+01 1.336892e+01 1.243426e+01 9.805081e+00 1.002979e+01 7.683884e+00 3.654580e-02 1.441059e-01 2.229810e-01 3.629478e-01 4.103360e-01 4.520766e-01 6.863745e-01 1.065922e+00 1.233223e+00 1.035399e+00 9.041542e-01 9.687269e-01 5.360071e-02
<GCONST> 6.029318e+01
<STATE> 3
<MEAN> 25
 -1.853655e+01 5.613389e+00 -3.170849e+00 8.267263e+00 4.567765e+00 7.029833e+00 6.390372e-01 3.942133e+00 9.088588e+00 2.682895e+00 4.966028e+00 4.534388e+00 -4.384804e-02 7.748897e-02 1.556261e-01 -2.201324e-01 -2.116726e-01 2.037602e-01 1.003465e-01 -4.879330e-01 -7.993535e-01 -2.066419e-01 -9.759187e-02 1.850792e-01 -2.129890e-02
<VARIANCE> 25
 5.573891e+00 4.058938e+00 9.132830e+00 1.238624e+01 1.040477e+01 1.532940e+01 1.466106e+01 1.889927e+01 9.377302e+00 5.247966e+00 5.112219e+00 5.093081e+00 3.654580e-02 5.248706e-02 1.139339e-01 3.198029e-01 6.903535e-01 3.488481e-01 1.353205e+00 1.300150e+00 6.764297e-01 7.782726e-01 3.555920e-01 5.037572e-01 5.360071e-02
<GCONST> 5.593169e+01
<STATE> 4
<MEAN> 25
 -1.807588e+01 6.279003e+00 -2.336524e+00 5.784325e+00 1.501870e+00 7.749177e+00 4.758468e+00 4.216725e+00 3.632904e+00 -5.983790e-01 3.629588e+00 5.116546e+00 3.081131e-01 -1.774609e-01 5.894617e-02 2.818617e-01 5.506874e-01 4.909837e-01 8.931696e-01 -1.623150e-01 -1.499620e+00 -1.007903e+00 2.251805e-01 3.337265e-02 3.169605e-01
<VARIANCE> 25
 4.647316e+00 3.086351e+00 6.238475e+00 1.094905e+01 6.502157e+00 1.296954e+01 1.394853e+01 8.222840e+00 4.959567e+00 1.062929e+01 4.506487e+00 2.687918e+00 5.238848e-01 7.356135e-02 1.375798e-01 1.184933e-01 1.580995e-01 2.540613e-01 2.622666e-01 2.607818e-01 4.455520e-01 2.999130e-01 1.926881e-01 2.088036e-01 3.114302e-01
<GCONST> 4.880836e+01
<TRANSP> 5
 0.000000e+00 1.000000e+00 0.000000e+00 0.000000e+00 0.000000e+00
 0.000000e+00 9.759055e-01 2.409453e-02 0.000000e+00 0.000000e+00
 0.000000e+00 0.000000e+00 8.024282e-01 1.975718e-01 0.000000e+00
 0.000000e+00 0.000000e+00 0.000000e+00 3.352082e-01 6.647918e-01
 0.000000e+00 0.000000e+00 0.000000e+00 0.000000e+00 0.000000e+00
<ENDHMM>
~h "aw"
<BEGINHMM>
<NUMSTATES> 5
<STATE> 2
<MEAN> 25
 -1.010988e+01 3.366879e+00 -5.394904e+00 4.127427e+00 1.328433e+00 2.191072e+00 7.352542e-01 8.188781e-01 2.845047e+00 -1.723050e+00 -4.613226e-01 -1.430132e-01 5.702538e-03 4.643428e-03 -8.367778e-03 -4.364549e-02 -4.957579e-02 -2.055487e-03 3.127042e-02 5.853278e-02 2.817711e-02 -8.052817e-03 -1.057475e-02 3.757766e-03 2.195480e-03
<VARIANCE> 25
 4.190867e+00 2.785769e+00 8.718896e+00 8.501622e+00 1.038115e+01 1.375493e+01 1.382136e+01 1.425052e+01 1.724381e+01 1.495583e+01 1.155117e+01 1.148016e+01 1.103587e-01 1.967162e-01 3.300474e-01 5.154063e-01 6.003768e-01 9.790014e-01 1.141019e+00 1.094831e+00 1.231647e+00 1.369920e+00 1.269016e+00 1.171598e+00 5.360071e-02
<GCONST> 6.547775e+01
<STATE> 3
<MEAN> 25
 -1.136774e+01 2.783669e+00 -5.816494e+00 4.039327e+00 2.317742e+00 3.008168e+00 -9.151793e-01 2.481690e+00 1.718903e+00 -1.549676e+00 1.687183e-01 3.311880e-01 1.188161e-01 5.514070e-02 -1.441173e-02 -1.463262e-01 -1.461468e-01 -4.184130e-01 -5.987476e-01 -2.918596e-01 -2.668801e-01 -3.887950e-01 -1.593298e-02 3.154498e-01 1.035742e-01
<VARIANCE> 25
 9.805249e+00 4.216816e+00 1.148613e+01 1.486375e+01 2.239371e+01 2.152900e+01 1.572574e+01 1.296499e+01 2.100142e+01 9.479991e+00 2.260846e+01 1.320349e+01 2.209472e-01 1.992773e-01 5.686739e-01 6.766478e-01 8.951246e-01 1.140204e+00 1.384389e+00 1.366267e+00 1.398023e+00 1.190886e+00 1.610482e+00 1.450994e+00 8.618691e-02
<GCONST> 7.278440e+01
<STATE> 4
<MEAN> 25
 -5.014133e+00 5.985054e+00 -2.513326e+00 4.315380e+00 -1.050162e+00 -1.216366e-01 -4.997188e+00 7.003865e-01 2.000897e+00 -1.193230e+00 1.602402e-01 1.755182e+00 4.966048e-02 4.737543e-02 1.200151e-01 -1.691711e-02 2.421277e-02 1.099285e-02 -5.540516e-02 -2.316243e-01 -9.942331e-02 -7.176709e-02 -1.003107e-01 -4.503873e-02 6.121019e-02
<VARIANCE> 25
 4.833854e+01 4.958182e+01 3.595175e+01 1.853192e+01 2.891129e+01 5.074065e+01 3.005796e+01 2.112582e+01 1.539346e+01 1.383901e+01 1.392521e+01 1.021953e+01 6.894745e+00 6.868658e+00 3.405740e+00 1.826669e+00 2.712454e+00 3.669306e+00 4.081819e+00 1.758909e+00 1.851918e+00 1.243805e+00 1.422084e+00 1.223873e+00 4.599401e+00
<GCONST> 9.716373e+01
<TRANSP> 5
 0.000000e+00 1.000000e+00 0.000000e+00 0.000000e+00 0.000000e+00
 0.000000e+00 9.661106e-01 3.388930e-02 0.000000e+00 0.000000e+00
 0.000000e+00 0.000000e+00 5.547099e-01 4.452901e-01 0.000000e+00
 0.000000e+00 0.000000e+00 0.000000e+00 7.722914e-01 2.277086e-01
 0.000000e+00 0.000000e+00 0.000000e+00 0.000000e+00 0.000000e+00
<ENDHMM>
~h "ng"
<BEGINHMM>
<NUMSTATES> 5
<STATE> 2
<MEAN> 25
 1.263843e+01 -1.058852e+01 1.854324e+00 -6.537521e+00 2.850051e+00 -9.646875e+00 -6.119494e-01 4.511321e+00 -7.554090e-01 1.133048e+00 -5.688141e+00 -3.910794e+00 4.799081e-01 -1.867946e+00 -9.757390e-02 -1.575317e+00 8.094475e-01 -1.042562e-01 1.758856e-01 1.730544e-01 -8.630355e-02 4.862784e-01 -1.070584e+00 -4.978303e-01 1.705563e+00
<VARIANCE> 25
 3.935371e+01 9.991257e+01 5.236597e+01 1.197153e+02 4.560064e+01 3.358363e+01 5.157083e+01 5.643396e+01 6.192904e+01 3.880237e+01 3.155431e+01 2.679322e+01 4.907069e+00 1.032863e+01 4.736001e+00 1.159356e+01 7.063676e+00 4.508089e+00 6.620725e+00 7.653565e+00 6.288683e+00 4.921963e+00 3.504266e+00 2.600534e+00 6.467743e+00
<GCONST> 1.156279e+02
<STATE> 3
<MEAN> 25
 1.510314e+01 -1.687364e+01 1.228153e+00 -9.303609e+00 8.100979e-01 -6.261040e+00 1.154766e+00 3.773425e+00 -1.136124e+00 3.383527e+00 -8.211271e+00 -5.982168e+00 4.594500e-01 1.301963e-01 -3.533512e-01 8.914874e-01 -5.568763e-01 3.169481e-01 1.082110e-01 -4.056353e-01 -5.202381e-02 8.004078e-02 -9.318311e-02 -2.689650e-01 -4.212496e-01
<VARIANCE> 25
 2.060781e+01 2.789854e+01 4.198301e+01 7.657736e+01 5.285098e+01 4.451651e+01 3.365974e+01 4.477061e+01 4.272291e+01 4.550373e+01 3.192685e+01 2.409968e+01 1.666123e+00 3.165951e+00 2.608582e+00 9.172414e+00 5.613335e+00 3.286911e+00 3.140134e+00 4.879386e+00 3.270686e+00 4.288598e+00 2.796362e+00 2.597460e+00 4.324566e+00
<GCONST> 1.062466e+02
<STATE> 4
<MEAN> 25
 2.137459e+01 -8.436808e+00 -8.055988e+00 4.238355e+00 -2.528961e+00 -7.131810e+00 2.782752e-01 -1.539493e-01 -1.115379e+00 -4.900558e-01 -8.538798e+00 -6.406955e+00 -3.263000e-02 1.511563e+00 1.226130e-01 6.285404e-01 -2.005331e-01 3.603031e-01 -1.080850e-01 -5.097070e-01 5.025312e-02 -7.252468e-01 1.150258e-01 3.779644e-01 -9.823418e-01
<VARIANCE> 25
 9.892532e+00 6.474876e+01 8.237827e+01 5.157394e+01 5.927380e+01 3.366903e+01 4.346561e+01 8.290475e+01 4.549865e+01 5.861184e+01 3.188970e+01 2.468849e+01 1.140090e+00 7.334329e+00 3.973538e+00 4.676637e+00 4.565636e+00 3.380842e+00 3.482727e+00 6.452773e+00 2.973719e+00 2.576817e+00 2.021224e+00 1.846412e+00 2.732226e+00
<GCONST> 1.063626e+02
<TRANSP> 5
 0.000000e+00 1.000000e+00 0.000000e+00 0.000000e+00 0.000000e+00
 0.000000e+00 8.083172e-01 1.916828e-01 0.000000e+00 0.000000e+00
 0.000000e+00 0.000000e+00 9.051135e-01 9.488647e-02 0.000000e+00
 0.000000e+00 0.000000e+00 0.000000e+00 8.628110e-01 1.371890e-01
 0.000000e+00 0.000000e+00 0.000000e+00 0.000000e+00 0.000000e+00
<ENDHMM>
~h "sil"
<BEGINHMM>
<NUMSTATES> 5
<STATE> 2
<MEAN> 25
 -1.005998e+01 3.391796e+00 -2.766532e+00 2.963748e+00 3.445233e-01 1.835407e+00 -2.634633e-02 7.175262e-01 5.683041e-02 -2.066685e+00 8.726990e-02 9.578481e-01 -7.181779e-02 -2.889541e-02 9.411409e-03 9.504002e-03 3.119567e-02 1.544573e-02 1.786483e-02 3.485582e-02 1.105853e-02 -1.220480e-04 3.168713e-02 3.273116e-02 -3.599683e-02
<VARIANCE> 25
 9.482681e+00 5.063279e+00 1.382033e+01 1.543335e+01 1.235190e+01 1.404341e+01 1.477680e+01 1.417743e+01 1.496684e+01 1.356177e+01 1.453939e+01 1.278685e+01 1.300940e-01 2.718359e-01 4.346317e-01 6.292889e-01 8.615826e-01 9.894536e-01 1.112479e+00 1.195671e+00 1.255765e+00 1.272692e+00 1.242238e+00 1.166711e+00 5.360071e-02
<GCONST> 6.962113e+01
<STATE> 3
<MEAN> 25
 -1.702369e+01 4.288712e+00 -2.445705e+00 6.485704e+00 1.936307e+00 6.278896e+00 4.250541e+00 5.158611e+00 6.652174e+00 1.432793e+00 5.646512e+00 5.100335e+00 -2.960448e-03 -7.088161e-04 3.015691e-03 2.231082e-02 2.820647e-02 3.960643e-03 -3.395278e-02 -6.727129e-05 4.764215e-02 1.633080e-02 5.083566e-03 -2.589555e-03 -5.002689e-03
<VARIANCE> 25
 6.321921e+00 4.869063e+00 1.092864e+01 1.288727e+01 9.099001e+00 1.163942e+01 1.357138e+01 1.388512e+01 1.468883e+01 1.061978e+01 9.739534e+00 7.804389e+00 3.980014e-02 1.428183e-01 2.265845e-01 3.952457e-01 5.125332e-01 4.645406e-01 7.431090e-01 1.124856e+00 1.250348e+00 1.009371e+00 7.983075e-01 8.644419e-01 5.360071e-02
<GCONST> 6.134184e+01
<STATE> 4
<MEAN> 25
 -1.180422e+01 2.899927e+00 -3.213427e+00 2.354803e+00 1.327640e+00 1.917521e+00 -7.067987e-01 1.536536e+00 1.266309e+00 -1.200046e+00 1.131235e+00 1.502962e+00 9.323931e-02 1.315265e-02 3.076160e-02 -2.058690e-02 -8.337346e-02 -6.385353e-02 -3.034950e-02 -5.948356e-02 -1.685989e-01 -1.037486e-01 -5.171464e-02 -4.954235e-02 8.019421e-02
<VARIANCE> 25
 1.788387e+01 9.901419e+00 2.045523e+01 2.401222e+01 1.556256e+01 2.429076e+01 2.180177e+01 1.956400e+01 2.013292e+01 1.597561e+01 1.761550e+01 1.513578e+01 6.202243e-01 6.528833e-01 7.591255e-01 1.049221e+00 1.152091e+00 1.275677e+00 1.473176e+00 1.598078e+00 1.755447e+00 1.570833e+00 1.350795e+00 1.315347e+00 5.120322e-01
<GCONST> 8.169969e+01
<TRANSP> 5
 0.000000e+00 1.000000e+00 0.000000e+00 0.000000e+00 0.000000e+00
 0.000000e+00 9.591075e-01 4.089253e-02 0.000000e+00 0.000000e+00
 0.000000e+00 0.000000e+00 9.451910e-01 5.480904e-02 0.000000e+00
 0.000000e+00 0.000000e+00 0.000000e+00 7.982776e-01 2.017224e-01
 0.000000e+00 0.000000e+00 0.000000e+00 0.000000e+00 0.000000e+00
<ENDHMM>
