~o
<STREAMINFO> 1 25
<VECSIZE> 25<NULLD><MFCC_D_N_Z_0><DIAGC>
~h "E"
<BEGINHMM>
<NUMSTATES> 5
<STATE> 2
<MEAN> 25
 9.734501e+00 -2.103019e+00 -1.369203e+01 -6.694019e-01 9.038196e+00 1.109229e+00 -4.509245e+00 -1.785706e+00 -2.050923e+00 1.299841e-01 -6.594561e+00 -4.971216e+00 -1.235847e+00 7.459515e-01 3.476116e-01 -1.341404e-01 -3.662576e-01 3.040947e-01 1.134295e-01 -2.843613e-01 -2.949509e-01 -2.743949e-01 8.352084e-02 -1.989562e-01 -1.178425e+00
<VARIANCE> 25
 1.140284e+02 2.522434e+01 4.094970e+01 1.742579e+01 2.202237e+01 1.580989e+01 1.866346e+01 2.056780e+01 1.823403e+01 1.879470e+01 1.852874e+01 1.936428e+01 2.013713e+00 1.385485e+00 1.444636e+00 1.778868e+00 2.083014e+00 2.111852e+00 2.115241e+00 2.537426e+00 2.191947e+00 1.718470e+00 1.433644e+00 1.301974e+00 5.981869e-01
<GCONST> 9.057214e+01
<STATE> 3
<MEAN> 25
 -1.577671e+00 -5.782127e-01 -7.838911e+00 4.469352e-01 4.670066e+00 2.068131e+00 -4.070526e+00 -6.807342e-01 -2.346667e+00 -5.613456e-01 -2.591492e+00 -3.146573e+00 -1.089982e+00 1.008547e+00 4.353308e-01 -3.248137e-01 -6.313286e-01 2.380616e-01 5.025810e-01 -5.158474e-01 -7.140679e-01 -4.586466e-01 2.245949e-01 2.559503e-01 -1.128262e+00
<VARIANCE> 25
 6.528905e+01 3.668105e+01 2.391432e+01 1.711271e+01 2.403645e+01 1.322401e+01 1.649288e+01 1.624602e+01 2.595223e+01 2.816160e+01 1.385386e+01 2.576764e+01 9.309863e-01 7.701982e-01 8.120300e-01 5.354244e-01 1.199992e+00 1.283486e+00 2.406665e+00 1.742110e+00 1.578189e+00 2.207331e+00 1.537963e+00 2.096559e+00 4.643035e-01
<GCONST> 8.591788e+01
<STATE> 4
<MEAN> 25
 -9.393809e+00 6.116009e+00 -1.790411e+00 -6.223693e-01 2.008325e+00 2.271008e+00 -4.687014e+00 -1.183177e+00 -3.187785e+00 -2.991847e+00 -1.304445e+00 8.904502e-01 -1.625920e-01 2.001761e-01 1.781899e-01 -1.165612e-02 -1.190303e-01 4.834864e-02 3.643187e-02 -5.329667e-03 5.119876e-02 -1.994684e-02 5.551707e-02 1.095030e-01 -1.837515e-01
<VARIANCE> 25
 1.650856e+01 1.161068e+01 1.712289e+01 9.464133e+00 1.220444e+01 1.758889e+01 1.495584e+01 9.855581e+00 1.648103e+01 1.539069e+01 1.545866e+01 1.387566e+01 2.993822e-01 4.047004e-01 4.431599e-01 6.904449e-01 1.033307e+00 1.149382e+00 1.138601e+00 1.189131e+00 1.417954e+00 1.359846e+00 1.487317e+00 9.132693e-01 2.098897e-01
<GCONST> 7.413892e+01
<TRANSP> 5
 0.000000e+00 1.000000e+00 0.000000e+00 0.000000e+00 0.000000e+00
 0.000000e+00 7.495218e-01 2.504783e-01 0.000000e+00 0.000000e+00
 0.000000e+00 0.000000e+00 3.960308e-01 6.039692e-01 0.000000e+00
 0.000000e+00 0.000000e+00 0.000000e+00 9.149383e-01 8.506173e-02
 0.000000e+00 0.000000e+00 0.000000e+00 0.000000e+00 0.000000e+00
<ENDHMM>
~h "a"
<BEGINHMM>
<NUMSTATES> 5
<STATE> 2
<MEAN> 25
 3.917434e+00 -6.512525e-01 -2.508924e+00 -1.128368e+00 1.924069e+00 4.265524e-01 -6.865048e-02 -5.537123e-01 7.494659e-01 -5.527787e-01 -1.213934e+00 -1.191290e+00 6.010380e-01 -2.958014e-01 1.092693e-01 -5.091078e-01 1.594220e-01 -3.846035e-01 -6.016862e-02 -1.545901e-01 -2.363729e-01 -1.213267e-01 -1.805157e-01 -2.010437e-01 1.273672e+00
<VARIANCE> 25
 2.071772e+02 1.135596e+02 6.862946e+01 9.378816e+01 4.116769e+01 6.761752e+01 4.452645e+01 5.611077e+01 4.741967e+01 2.988434e+01 4.665231e+01 3.550129e+01 8.230573e+00 5.147189e+00 4.193324e+00 4.677599e+00 3.273427e+00 4.921147e+00 4.091588e+00 3.709699e+00 3.425779e+00 2.739882e+00 3.235499e+00 2.467210e+00 1.521899e+01
<GCONST> 1.144671e+02
<STATE> 3
<MEAN> 25
 5.365945e+00 -1.183635e+00 -2.111151e+00 -1.978004e+00 1.811838e+00 -5.749941e-01 -4.441128e-01 -7.200392e-01 3.927137e-01 -6.630733e-01 -1.816184e+00 -1.622238e+00 7.545235e-01 -5.311190e-01 1.267716e-01 -5.986498e-01 -1.760935e-02 -4.284818e-01 -1.507088e-01 -2.200055e-01 -3.044888e-01 7.052469e-02 -2.025912e-01 -2.681708e-01 1.265082e+00
<VARIANCE> 25
 1.755198e+02 1.189518e+02 7.146358e+01 9.564011e+01 4.196234e+01 6.283456e+01 4.740561e+01 6.135112e+01 5.107901e+01 3.123645e+01 4.060931e+01 3.422452e+01 9.874894e+00 6.092305e+00 3.966023e+00 5.669750e+00 3.283062e+00 5.404013e+00 4.389446e+00 4.146749e+00 3.817089e+00 2.865937e+00 3.465749e+00 2.845568e+00 1.755712e+01
<GCONST> 1.157216e+02
<STATE> 4
<MEAN> 25
 7.358944e+00 -3.088877e+00 -1.653186e+00 -3.688745e+00 1.689412e+00 -1.637396e+00 -6.019257e-01 -8.435686e-01 -1.177730e-01 -2.897553e-01 -2.283341e+00 -2.213516e+00 7.925249e-01 -5.154145e-01 8.532612e-02 -5.028729e-01 -5.856583e-02 -8.450682e-02 -7.782685e-02 -1.688420e-01 -2.963721e-01 1.833788e-01 -1.830818e-01 -3.031765e-01 7.751408e-01
<VARIANCE> 25
 1.463491e+02 1.205465e+02 7.495290e+01 9.401920e+01 4.324096e+01 6.689552e+01 5.345693e+01 6.961132e+01 5.195753e+01 3.787464e+01 3.873125e+01 3.615361e+01 9.230605e+00 7.082752e+00 4.395616e+00 6.106719e+00 3.626234e+00 4.678858e+00 4.936046e+00 4.935897e+00 4.183727e+00 3.076934e+00 3.412937e+00 3.201424e+00 1.220031e+01
<GCONST> 1.165485e+02
<TRANSP> 5
 0.000000e+00 1.000000e+00 0.000000e+00 0.000000e+00 0.000000e+00
 0.000000e+00 2.410288e-01 7.589712e-01 0.000000e+00 0.000000e+00
 0.000000e+00 0.000000e+00 2.275783e-01 7.724217e-01 0.000000e+00
 0.000000e+00 0.000000e+00 0.000000e+00 3.261011e-01 6.738989e-01
 0.000000e+00 0.000000e+00 0.000000e+00 0.000000e+00 0.000000e+00
<ENDHMM>
~h "b"
<BEGINHMM>
<NUMSTATES> 5
<STATE> 2
<MEAN> 25
 5.125639e+00 7.782731e-01 -8.558570e-01 -1.504092e+00 1.518298e+00 -6.349410e-01 -2.265071e+00 -7.512510e-02 -2.772704e+00 -1.446665e+00 -5.520867e-01 -1.983948e+00 9.571614e-01 -1.179272e-02 3.844101e-01 -2.473550e-01 1.956027e-01 -1.746722e-01 -4.450834e-01 -3.832137e-01 -4.774154e-01 3.564378e-02 -1.519717e-02 -1.949936e-01 1.062661e+00
<VARIANCE> 25
 1.911140e+02 1.261147e+02 6.197395e+01 7.820359e+01 2.903331e+01 4.581815e+01 4.095530e+01 8.979182e+01 5.106826e+01 2.988711e+01 2.343741e+01 4.659640e+01 4.954714e+00 8.699064e+00 3.811446e+00 6.255809e+00 2.582828e+00 5.377687e+00 3.934252e+00 6.497688e+00 3.251052e+00 2.683635e+00 2.963584e+00 2.896510e+00 1.093143e+01
<GCONST> 1.137677e+02
<STATE> 3
<MEAN> 25
 8.666249e+00 5.938066e-01 2.127247e-01 -1.765653e+00 1.911652e+00 -1.518345e+00 -3.307177e+00 -1.040451e+00 -3.784535e+00 -1.136832e+00 -1.055415e+00 -2.385736e+00 1.566672e+00 -4.452613e-01 4.520127e-01 -2.933094e-01 -8.772636e-02 -6.049494e-01 -4.708915e-01 -3.129369e-01 -4.825584e-01 3.881174e-02 -7.197165e-02 -3.616723e-01 1.880470e+00
<VARIANCE> 25
 1.601536e+02 1.514428e+02 6.922181e+01 8.909084e+01 3.524796e+01 6.104100e+01 4.937534e+01 1.079332e+02 5.382967e+01 3.422279e+01 2.627880e+01 4.816121e+01 6.117777e+00 1.252664e+01 5.812386e+00 7.265350e+00 3.395072e+00 7.323776e+00 4.878142e+00 8.426656e+00 3.810373e+00 3.281116e+00 2.857259e+00 3.853089e+00 1.580958e+01
<GCONST> 1.183842e+02
<STATE> 4
<MEAN> 25
 1.596030e+01 -3.869769e+00 1.494301e+00 -3.009374e+00 1.716060e+00 -1.991931e+00 -5.165037e+00 -3.586332e+00 -5.643933e+00 4.576761e-01 -2.077139e+00 -6.469418e+00 7.219543e-01 -5.667840e-01 -1.408381e-01 -1.660721e-01 -8.419533e-02 -2.920387e-01 5.585920e-02 -2.158064e-01 -1.288511e-01 2.579359e-01 -1.034450e-01 -1.676145e-01 9.700379e-01
<VARIANCE> 25
 7.009546e+01 1.638904e+02 6.880276e+01 1.159120e+02 4.035178e+01 7.351360e+01 5.767846e+01 1.740814e+02 6.951671e+01 4.708916e+01 3.563666e+01 5.005977e+01 3.674577e+00 1.808757e+01 6.980672e+00 1.374111e+01 4.475861e+00 7.255504e+00 5.642995e+00 1.494141e+01 6.368936e+00 4.881627e+00 3.782256e+00 4.097447e+00 1.236117e+01
<GCONST> 1.224371e+02
<TRANSP> 5
 0.000000e+00 1.000000e+00 0.000000e+00 0.000000e+00 0.000000e+00
 0.000000e+00 1.874666e-01 8.125334e-01 0.000000e+00 0.000000e+00
 0.000000e+00 0.000000e+00 1.640455e-01 8.359545e-01 0.000000e+00
 0.000000e+00 0.000000e+00 0.000000e+00 7.275832e-01 2.724168e-01
 0.000000e+00 0.000000e+00 0.000000e+00 0.000000e+00 0.000000e+00
<ENDHMM>
~h "c"
<BEGINHMM>
<NUMSTATES> 5
<STATE> 2
<MEAN> 25
 -4.261477e+00 4.049118e+00 -5.633806e+00 6.378388e-01 -4.444727e-01 3.165241e+00 -1.343355e+00 -2.327185e+00 -1.280503e+00 1.002956e+00 3.018034e+00 2.776423e-01 -1.045683e+00 -7.799885e-01 -2.551686e-01 -4.292601e-02 -2.679227e-01 2.260705e-01 6.999217e-01 2.653053e-01 -3.438449e-01 -4.935020e-01 2.979799e-01 1.445874e-01 -5.809317e-01
<VARIANCE> 25
 2.140932e+01 2.084655e+01 7.457961e+00 1.345073e+01 1.450807e+01 1.963720e+01 2.066546e+01 1.262105e+01 1.109119e+01 2.069861e+01 1.195888e+01 9.733947e+00 5.901774e-01 6.475666e-01 3.511125e-01 9.865415e-01 1.950747e+00 9.968911e-01 1.256725e+00 1.551600e+00 6.137125e-01 1.351163e+00 1.259110e+00 6.787842e-01 1.544091e-01
<GCONST> 7.516392e+01
<STATE> 3
<MEAN> 25
 -8.655348e+00 1.861559e+00 -5.898726e+00 1.884298e+00 -5.158578e-01 4.010939e+00 2.075976e+00 -9.028652e-01 -2.221477e+00 -1.632080e+00 3.557610e+00 1.352753e+00 -4.466627e-01 -7.818358e-02 1.394786e-01 2.496388e-01 2.656211e-01 4.010236e-01 2.873688e-01 1.239418e-01 -1.899736e-01 -1.446821e-01 2.260039e-01 1.166757e-01 -3.001020e-01
<VARIANCE> 25
 6.865670e+00 1.843141e+01 1.906047e+01 1.357496e+01 1.068585e+01 2.947703e+01 1.741046e+01 1.669086e+01 1.200182e+01 1.468940e+01 1.642168e+01 1.463883e+01 1.869893e-01 3.437231e-01 3.958734e-01 4.157397e-01 8.151426e-01 8.159454e-01 1.616846e+00 9.654766e-01 1.094602e+00 1.456909e+00 2.055093e+00 6.393057e-01 1.027780e-01
<GCONST> 7.237534e+01
<STATE> 4
<MEAN> 25
 -1.029183e+01 2.469271e+00 -3.991749e+00 3.305085e+00 -4.338017e-02 3.936541e+00 4.976704e-01 -1.261882e+00 -9.638695e-01 -1.990382e+00 4.740565e-01 8.036512e-01 -2.300000e-02 -3.892456e-03 2.528468e-02 2.146458e-02 3.538195e-02 2.420316e-02 -3.872687e-02 -2.579827e-02 6.505138e-02 1.816599e-02 -6.030045e-02 -2.508296e-02 -1.630410e-02
<VARIANCE> 25
 7.289803e+00 1.588561e+01 1.906490e+01 8.576090e+00 8.652063e+00 1.677056e+01 1.435967e+01 1.382911e+01 1.277134e+01 1.292689e+01 1.278673e+01 9.386781e+00 1.009873e-01 1.996085e-01 4.229951e-01 4.320423e-01 7.257239e-01 1.227698e+00 9.688552e-01 9.490044e-01 1.072420e+00 1.240456e+00 1.477961e+00 8.683100e-01 5.360071e-02
<GCONST> 6.776393e+01
<TRANSP> 5
 0.000000e+00 1.000000e+00 0.000000e+00 0.000000e+00 0.000000e+00
 0.000000e+00 7.756007e-01 2.243993e-01 0.000000e+00 0.000000e+00
 0.000000e+00 0.000000e+00 6.624365e-01 3.375635e-01 0.000000e+00
 0.000000e+00 0.000000e+00 0.000000e+00 9.797835e-01 2.021653e-02
 0.000000e+00 0.000000e+00 0.000000e+00 0.000000e+00 0.000000e+00
<ENDHMM>
~h "d"
<BEGINHMM>
<NUMSTATES> 5
<STATE> 2
<MEAN> 25
 1.801077e+01 -4.520347e+00 1.664102e+00 -1.822565e+00 -3.462017e-01 -4.057770e+00 -5.911048e+00 -2.876708e+00 -1.326692e+00 4.525735e-01 -3.978302e+00 -5.302625e+00 1.458552e-01 -1.379112e-01 -1.722292e-01 9.147960e-02 -1.819200e-01 -1.783260e-01 -1.256331e-01 5.050700e-03 2.628626e-01 -6.012324e-02 -8.950250e-03 4.539248e-02 1.156752e-01
<VARIANCE> 25
 2.248950e+01 1.942084e+02 6.273827e+01 1.395462e+02 5.874566e+01 6.897261e+01 5.089955e+01 1.454534e+02 9.087508e+01 3.923140e+01 4.892676e+01 3.304961e+01 1.781531e+00 1.901024e+01 5.782654e+00 1.171198e+01 6.083694e+00 5.984380e+00 5.582212e+00 1.148401e+01 6.651471e+00 4.668844e+00 5.889415e+00 2.844737e+00 8.772438e+00
<GCONST> 1.201094e+02
<STATE> 3
<MEAN> 25
 2.005340e+01 -1.341055e+00 -8.709775e-01 -2.628370e+00 -1.231615e+00 -3.320435e+00 -6.670021e+00 -5.950210e+00 -2.961422e+00 -1.331203e+00 -1.376419e+00 -1.791828e+00 1.929063e-01 -2.191231e-01 -1.239366e-01 -5.839545e-01 -1.434882e-01 2.772748e-01 1.141936e-01 -3.623658e-01 -3.940077e-01 5.003332e-02 3.646624e-01 1.984122e-01 3.565497e-01
<VARIANCE> 25
 2.132062e+01 1.648067e+02 6.240150e+01 1.445799e+02 5.800446e+01 7.953053e+01 7.954775e+01 9.251677e+01 9.057453e+01 5.503997e+01 6.117748e+01 4.148890e+01 1.951565e+00 1.652650e+01 7.354342e+00 8.267614e+00 6.048524e+00 6.901757e+00 6.302201e+00 7.405829e+00 7.335618e+00 5.350458e+00 6.396168e+00 3.695273e+00 6.613976e+00
<GCONST> 1.207905e+02
<STATE> 4
<MEAN> 25
 1.934169e+01 -5.789985e+00 -1.738060e+00 -9.170777e+00 -1.129868e+00 1.124345e+00 -3.178656e+00 -7.536757e+00 -2.984617e+00 2.078630e+00 9.028648e-01 -2.218504e+00 -1.915836e-01 -2.305479e-01 -6.931402e-02 -1.865868e-01 1.096554e-01 -3.202044e-02 1.995406e-01 1.662875e-01 2.458401e-01 3.019828e-01 -8.612910e-02 -1.338277e-01 1.313979e-01
<VARIANCE> 25
 3.517184e+01 1.102907e+02 6.710303e+01 1.469655e+02 8.061451e+01 9.303320e+01 9.212633e+01 8.617171e+01 8.658569e+01 6.576685e+01 6.741122e+01 4.247580e+01 3.350161e+00 1.023634e+01 6.345660e+00 8.023122e+00 7.170083e+00 7.849423e+00 6.397706e+00 7.006553e+00 7.581579e+00 6.623084e+00 6.631554e+00 4.149980e+00 5.874516e+00
<GCONST> 1.222159e+02
<TRANSP> 5
 0.000000e+00 1.000000e+00 0.000000e+00 0.000000e+00 0.000000e+00
 0.000000e+00 9.520658e-01 4.793427e-02 0.000000e+00 0.000000e+00
 0.000000e+00 0.000000e+00 8.951119e-01 1.048881e-01 0.000000e+00
 0.000000e+00 0.000000e+00 0.000000e+00 9.570099e-01 4.299017e-02
 0.000000e+00 0.000000e+00 0.000000e+00 0.000000e+00 0.000000e+00
<ENDHMM>
~h "e"
<BEGINHMM>
<NUMSTATES> 5
<STATE> 2
<MEAN> 25
 8.691570e+00 -3.154136e+00 1.324085e+01 -2.833641e+00 -8.467218e+00 -1.062153e+01 3.238313e+00 -2.310901e-01 -7.408983e+00 -1.613497e-01 -2.854761e-01 8.151474e-01 -1.208130e-01 6.192867e-01 4.884852e-01 1.580412e-01 -6.816460e-01 2.535493e-01 4.243220e-01 -5.168040e-01 -5.207322e-01 -3.713262e-03 6.007185e-02 -1.243320e-01 -3.863714e-01
<VARIANCE> 25
 1.329742e+02 1.247888e+02 1.308538e+02 1.248111e+02 1.189749e+02 9.248669e+01 8.727214e+01 9.233198e+01 1.042095e+02 4.803975e+01 4.383522e+01 5.089998e+01 1.000230e+01 1.266675e+01 1.169233e+01 1.246565e+01 1.242995e+01 7.856930e+00 8.899680e+00 9.030150e+00 1.196743e+01 5.211186e+00 4.440301e+00 4.447349e+00 7.548233e+00
<GCONST> 1.278229e+02
<STATE> 3
<MEAN> 25
 8.419301e+00 5.676690e-04 1.403001e+01 -1.813191e+00 -1.058778e+01 -7.689613e+00 3.420020e+00 -3.727174e+00 -8.430672e+00 -4.163059e-01 5.046294e-01 -6.004541e-01 1.852297e-01 3.597193e-01 8.956145e-02 8.821186e-02 -3.262882e-01 3.755379e-01 -1.296779e-01 -4.835954e-01 -2.164861e-01 -1.402481e-02 7.547046e-03 -1.205814e-01 -2.416438e-01
<VARIANCE> 25
 1.379999e+02 1.098972e+02 1.753179e+02 1.279965e+02 1.269800e+02 9.436816e+01 9.788858e+01 9.432753e+01 1.207289e+02 4.992217e+01 4.381085e+01 4.844405e+01 8.037821e+00 1.092584e+01 1.160260e+01 1.022507e+01 1.085013e+01 6.889284e+00 8.902408e+00 8.250832e+00 1.051194e+01 4.802643e+00 4.267001e+00 4.280916e+00 7.113942e+00
<GCONST> 1.271295e+02
<STATE> 4
<MEAN> 25
 1.080187e+01 1.742701e+00 1.483067e+01 -1.018646e+00 -9.872644e+00 -6.800092e+00 2.507429e-01 -5.514694e+00 -9.636005e+00 -7.163151e-01 -1.786206e-01 -1.774094e+00 6.996106e-02 1.806253e-02 -2.860674e-01 1.043805e-02 2.660479e-01 -8.616568e-02 -2.068806e-01 3.989798e-02 2.015822e-01 3.766714e-02 -6.870224e-02 8.982033e-03 -2.199006e-02
<VARIANCE> 25
 6.454515e+01 1.142261e+02 1.790563e+02 1.193197e+02 1.173279e+02 1.214576e+02 1.271277e+02 1.005825e+02 1.111588e+02 5.432724e+01 4.599315e+01 4.317236e+01 3.853679e+00 1.113860e+01 1.237278e+01 9.485855e+00 8.869426e+00 8.065234e+00 1.004269e+01 9.260978e+00 1.025498e+01 5.021513e+00 4.641090e+00 3.479238e+00 8.709386e+00
<GCONST> 1.263576e+02
<TRANSP> 5
 0.000000e+00 1.000000e+00 0.000000e+00 0.000000e+00 0.000000e+00
 0.000000e+00 8.417740e-01 1.582260e-01 0.000000e+00 0.000000e+00
 0.000000e+00 0.000000e+00 7.960539e-01 2.039461e-01 0.000000e+00
 0.000000e+00 0.000000e+00 0.000000e+00 9.416352e-01 5.836489e-02
 0.000000e+00 0.000000e+00 0.000000e+00 0.000000e+00 0.000000e+00
<ENDHMM>
~h "g"
<BEGINHMM>
<NUMSTATES> 5
<STATE> 2
<MEAN> 25
 -4.721038e+00 1.667332e+00 -1.306718e+00 2.782935e+00 9.771995e-01 9.653120e-01 1.844101e+00 9.204984e-01 1.844276e+00 -3.166169e-02 1.961557e+00 2.193431e+00 2.954705e-01 -3.244852e-01 -5.019480e-01 -5.150867e-01 3.339813e-01 -3.574396e-01 -1.268681e-01 5.846577e-02 -1.179712e-01 -5.638655e-01 -4.599594e-02 -4.190364e-03 9.811707e-01
<VARIANCE> 25
 2.109167e+02 5.257355e+01 9.261258e+01 6.822643e+01 5.145052e+01 1.147305e+02 4.180935e+01 4.782012e+01 5.460746e+01 1.794271e+01 3.832784e+01 2.748165e+01 3.942048e+00 2.663943e+00 3.507372e+00 2.712045e+00 2.672821e+00 4.363585e+00 2.657906e+00 3.654066e+00 4.467099e+00 2.746787e+00 2.734636e+00 1.720835e+00 8.626934e+00
<GCONST> 1.096874e+02
<STATE> 3
<MEAN> 25
 -3.783833e+00 1.337936e+00 -1.784370e+00 1.679093e+00 2.690914e-01 -2.311552e-01 1.442472e+00 7.206991e-01 1.400367e+00 -7.820663e-01 9.593252e-01 2.058171e+00 4.948372e-01 -1.109069e-01 -2.666086e-01 -4.339067e-01 2.190618e-01 -3.515053e-01 -3.001058e-01 -2.690508e-02 -1.903604e-01 -3.380573e-01 -2.499296e-01 -2.365139e-01 7.691071e-01
<VARIANCE> 25
 1.773169e+02 5.320535e+01 8.097869e+01 6.064809e+01 4.439789e+01 9.731643e+01 3.811401e+01 5.135949e+01 4.172042e+01 2.081419e+01 3.123656e+01 2.767442e+01 3.916155e+00 2.269713e+00 2.919786e+00 2.529443e+00 2.594157e+00 4.377313e+00 2.070616e+00 2.736167e+00 3.257775e+00 2.127007e+00 2.626971e+00 1.685661e+00 8.699343e+00
<GCONST> 1.070130e+02
<STATE> 4
<MEAN> 25
 -5.738202e+00 1.439297e+00 -3.787135e+00 1.858616e+00 7.961668e-01 8.849805e-01 5.715863e-01 3.445824e-01 1.274623e+00 -1.631840e+00 6.574100e-01 1.969721e+00 5.036376e-01 -5.230137e-02 5.972370e-02 -2.463699e-01 1.130283e-01 -2.447254e-01 -2.169319e-01 3.886203e-02 -1.950299e-01 -6.741811e-02 -2.441368e-01 -2.740594e-01 5.893277e-01
<VARIANCE> 25
 1.017766e+02 3.148664e+01 5.755990e+01 4.109394e+01 2.994732e+01 6.099463e+01 2.809767e+01 3.695074e+01 2.869518e+01 1.736441e+01 2.349044e+01 2.027760e+01 3.443960e+00 1.680302e+00 1.870976e+00 1.546846e+00 1.981647e+00 2.726885e+00 1.854867e+00 2.233083e+00 1.596573e+00 1.518924e+00 1.981888e+00 1.402377e+00 7.675142e+00
<GCONST> 9.849333e+01
<TRANSP> 5
 0.000000e+00 1.000000e+00 0.000000e+00 0.000000e+00 0.000000e+00
 0.000000e+00 1.707806e-01 8.292194e-01 0.000000e+00 0.000000e+00
 0.000000e+00 0.000000e+00 1.799570e-01 8.200430e-01 0.000000e+00
 0.000000e+00 0.000000e+00 0.000000e+00 5.461246e-01 4.538753e-01
 0.000000e+00 0.000000e+00 0.000000e+00 0.000000e+00 0.000000e+00
<ENDHMM>
~h "h"
<BEGINHMM>
<NUMSTATES> 5
<STATE> 2
<MEAN> 25
 -7.933002e-01 5.958539e+00 -5.721639e+00 -2.106044e+00 -2.742649e-01 4.309304e+00 2.418226e+00 6.185697e-01 -9.607786e-01 -1.695898e+00 -2.361737e-01 1.260335e+00 -2.403038e-01 -8.792419e-03 6.165830e-01 -9.674433e-02 -2.709427e-01 -4.910461e-01 1.308140e-01 2.461337e-01 -2.195508e-01 -3.234698e-01 -2.725099e-01 -2.627223e-01 1.503855e-01
<VARIANCE> 25
 1.203425e+02 2.451705e+01 8.383862e+01 8.569406e+01 2.204376e+01 6.565746e+01 3.077800e+01 2.972923e+01 2.509613e+01 1.682180e+01 1.949046e+01 1.341647e+01 2.736600e+00 1.419373e+00 2.127049e+00 2.763563e+00 1.778400e+00 2.559306e+00 2.040993e+00 1.489532e+00 2.288299e+00 1.160662e+00 1.516396e+00 1.317441e+00 6.180463e+00
<GCONST> 9.777027e+01
<STATE> 3
<MEAN> 25
 -2.087918e+00 7.285981e+00 -3.725623e+00 -1.078007e+00 -7.270249e-01 3.627755e+00 1.041684e+00 1.463715e-01 -7.330106e-01 -2.860663e+00 -1.149627e+00 5.372193e-01 -6.757801e-01 1.850975e-01 4.038238e-01 2.281175e-01 -2.752975e-01 3.320602e-02 8.995278e-02 2.208257e-02 -3.896393e-02 -2.748252e-01 2.149346e-02 -2.141784e-02 -6.338198e-01
<VARIANCE> 25
 1.030879e+02 2.492680e+01 5.603151e+01 4.649894e+01 2.356555e+01 3.580732e+01 2.563283e+01 2.889175e+01 2.036780e+01 2.194432e+01 1.661038e+01 1.505107e+01 9.401096e-01 6.415425e-01 1.204994e+00 1.457597e+00 1.031383e+00 1.699337e+00 1.939729e+00 1.330132e+00 1.892593e+00 1.402161e+00 1.322849e+00 1.233602e+00 1.263491e+00
<GCONST> 8.989925e+01
<STATE> 4
<MEAN> 25
 -6.460045e+00 4.774920e+00 -2.728898e+00 1.487278e+00 -1.103464e+00 3.306190e+00 -1.715567e+00 3.880306e-01 -3.009787e-01 -1.750074e+00 -1.978084e-01 5.846385e-01 -1.207817e-01 -8.578069e-02 1.038635e-01 1.776172e-01 -3.486772e-02 -1.486413e-02 -6.854057e-02 -8.994520e-03 3.472018e-02 -7.688750e-03 4.502644e-02 6.663032e-03 -1.062821e-01
<VARIANCE> 25
 3.572229e+01 1.459367e+01 2.514112e+01 2.052958e+01 1.331183e+01 2.376430e+01 2.356521e+01 1.877550e+01 2.080665e+01 1.637111e+01 1.410692e+01 1.560611e+01 8.642310e-01 5.600291e-01 8.584672e-01 1.024966e+00 7.862855e-01 1.222781e+00 1.507206e+00 1.186895e+00 1.692887e+00 1.404851e+00 1.483689e+00 1.555311e+00 1.092419e+00
<GCONST> 8.300358e+01
<TRANSP> 5
 0.000000e+00 1.000000e+00 0.000000e+00 0.000000e+00 0.000000e+00
 0.000000e+00 5.529170e-01 4.470830e-01 0.000000e+00 0.000000e+00
 0.000000e+00 0.000000e+00 3.612612e-01 6.387389e-01 0.000000e+00
 0.000000e+00 0.000000e+00 0.000000e+00 7.768917e-01 2.231083e-01
 0.000000e+00 0.000000e+00 0.000000e+00 0.000000e+00 0.000000e+00
<ENDHMM>
~h "i"
<BEGINHMM>
<NUMSTATES> 5
<STATE> 2
<MEAN> 25
 1.490070e+01 -6.177847e+00 6.379449e+00 -3.741749e+00 -3.632046e+00 -5.032549e+00 -4.957016e-01 -3.762686e+00 -5.371240e+00 9.485627e-01 -2.005246e+00 -3.480584e+00 4.768047e-02 -3.115290e-01 -7.534643e-02 2.039002e-01 9.321091e-02 -1.210242e-01 5.390835e-03 9.448066e-02 1.159894e-02 9.022371e-02 -1.780296e-01 -1.171280e-01 1.217637e-01
<VARIANCE> 25
 4.732649e+01 1.336872e+02 1.998495e+02 1.323322e+02 1.328072e+02 1.255199e+02 9.439207e+01 1.206328e+02 1.046511e+02 6.191349e+01 5.389827e+01 4.247156e+01 3.102721e+00 9.935719e+00 9.209443e+00 8.859808e+00 1.017063e+01 8.156978e+00 9.350290e+00 1.009957e+01 8.249674e+00 5.349713e+00 4.965632e+00 3.745952e+00 6.800997e+00
<GCONST> 1.258802e+02
<STATE> 3
<MEAN> 25
 1.563235e+01 -6.745147e+00 1.677119e+00 -2.770313e+00 -2.033324e+00 -4.165706e+00 -1.381667e+00 -2.486191e+00 -3.510972e+00 7.614378e-01 -2.912507e+00 -3.592928e+00 -8.149018e-02 1.315897e-01 -5.396205e-01 -1.751754e-01 3.945705e-01 3.687402e-01 -9.576143e-02 1.901803e-01 2.770633e-01 -1.092772e-01 -9.298965e-02 6.866897e-03 -2.293235e-01
<VARIANCE> 25
 4.963476e+01 1.277612e+02 1.421024e+02 1.122481e+02 1.076420e+02 1.146601e+02 7.372217e+01 1.231288e+02 9.246673e+01 5.545426e+01 5.259867e+01 4.108450e+01 2.976520e+00 8.029351e+00 7.191998e+00 8.365702e+00 8.078068e+00 6.475434e+00 6.665621e+00 8.656663e+00 6.790279e+00 4.709354e+00 4.633172e+00 3.551733e+00 5.507070e+00
<GCONST> 1.223893e+02
<STATE> 4
<MEAN> 25
 1.453712e+01 -7.135478e+00 2.426931e+00 -4.246080e+00 -2.209045e+00 -4.908668e+00 -4.202980e-01 -8.859327e-01 -2.700613e+00 -5.653186e-01 -2.935896e+00 -3.217681e+00 -3.172333e-01 4.942599e-01 -2.028266e-01 1.812120e-02 1.594899e-01 9.357791e-02 4.707919e-02 -9.288654e-02 1.537592e-01 -3.139299e-02 5.412653e-02 1.839719e-01 -5.206051e-01
<VARIANCE> 25
 4.988629e+01 1.308602e+02 1.428486e+02 9.151665e+01 9.015792e+01 1.116480e+02 6.584730e+01 9.674179e+01 7.743610e+01 5.409422e+01 4.914257e+01 3.409563e+01 2.697032e+00 5.035875e+00 5.716862e+00 6.040458e+00 5.767505e+00 4.968174e+00 5.358357e+00 5.762243e+00 5.301849e+00 3.966195e+00 3.960611e+00 2.754026e+00 3.963449e+00
<GCONST> 1.176978e+02
<TRANSP> 5
 0.000000e+00 1.000000e+00 0.000000e+00 0.000000e+00 0.000000e+00
 0.000000e+00 7.974523e-01 2.025477e-01 0.000000e+00 0.000000e+00
 0.000000e+00 0.000000e+00 6.255460e-01 3.744541e-01 0.000000e+00
 0.000000e+00 0.000000e+00 0.000000e+00 7.387366e-01 2.612635e-01
 0.000000e+00 0.000000e+00 0.000000e+00 0.000000e+00 0.000000e+00
<ENDHMM>
~h "j"
<BEGINHMM>
<NUMSTATES> 5
<STATE> 2
<MEAN> 25
 -5.210456e+00 4.562964e+00 -7.256883e+00 -4.094388e-01 9.916937e-01 6.656097e+00 -4.956371e-01 2.855243e+00 -7.237561e-01 -4.047441e+00 -1.898002e+00 -9.096242e-01 -1.165864e+00 -7.063095e-01 3.861124e-02 4.269650e-01 1.836029e-01 -1.072662e-01 -4.638971e-02 2.088439e-01 4.793306e-02 -1.018803e-01 -1.958960e-01 -1.790854e-01 -6.110320e-01
<VARIANCE> 25
 9.381531e+00 1.677474e+01 1.801713e+01 4.139402e+01 1.548629e+01 3.575935e+01 2.889401e+01 2.984361e+01 1.430827e+01 1.887374e+01 1.408091e+01 1.561316e+01 8.715541e-01 1.239430e+00 1.154962e+00 1.426519e+00 1.572326e+00 1.106258e+00 1.891743e+00 7.795951e-01 1.259790e+00 1.386464e+00 1.334274e+00 1.248438e+00 2.506578e-01
<GCONST> 8.289079e+01
<STATE> 3
<MEAN> 25
 -7.719211e+00 3.969747e+00 -6.437846e+00 3.047511e+00 1.245362e+00 3.970529e+00 -2.023093e-01 5.294651e-01 -4.167556e-01 -3.579624e+00 -2.088924e+00 -7.115369e-01 -6.030666e-01 -3.461792e-01 4.268952e-02 2.005527e-01 -7.583769e-04 -1.710005e-01 -2.109017e-01 -1.284194e-01 9.725738e-03 1.459202e-01 8.938031e-02 -9.211559e-02 -3.255030e-01
<VARIANCE> 25
 5.459712e+00 5.714015e+00 1.597748e+01 2.625881e+01 1.525878e+01 2.459181e+01 1.517766e+01 1.997573e+01 1.253808e+01 1.622883e+01 1.611050e+01 1.848687e+01 3.227207e-01 5.920843e-01 5.895011e-01 9.942732e-01 1.154471e+00 9.049708e-01 1.251320e+00 1.129738e+00 1.235214e+00 1.502308e+00 1.117395e+00 1.273828e+00 8.289042e-02
<GCONST> 7.476214e+01
<STATE> 4
<MEAN> 25
 -9.943348e+00 3.456537e+00 -5.298955e+00 3.964279e+00 2.493750e+00 3.220268e+00 -5.035134e-01 7.699732e-01 6.667686e-01 -2.458365e+00 -7.156216e-01 -5.540011e-01 -1.261842e-01 -2.017592e-02 5.317551e-02 6.367685e-02 7.694018e-02 5.611822e-03 -3.791117e-02 3.127653e-02 6.843054e-02 5.793345e-02 5.877625e-02 5.224137e-03 -7.327342e-02
<VARIANCE> 25
 5.556554e+00 3.887120e+00 9.649423e+00 1.782838e+01 1.588961e+01 1.826111e+01 1.762696e+01 1.556868e+01 1.779291e+01 1.564680e+01 1.183117e+01 1.278834e+01 1.558953e-01 2.941363e-01 4.660315e-01 7.015232e-01 7.843807e-01 1.029976e+00 1.197974e+00 1.168999e+00 1.140509e+00 1.335040e+00 1.236210e+00 1.387814e+00 5.360071e-02
<GCONST> 7.005793e+01
<TRANSP> 5
 0.000000e+00 1.000000e+00 0.000000e+00 0.000000e+00 0.000000e+00
 0.000000e+00 7.046952e-01 2.953048e-01 0.000000e+00 0.000000e+00
 0.000000e+00 0.000000e+00 6.370937e-01 3.629063e-01 0.000000e+00
 0.000000e+00 0.000000e+00 0.000000e+00 9.467295e-01 5.327054e-02
 0.000000e+00 0.000000e+00 0.000000e+00 0.000000e+00 0.000000e+00
<ENDHMM>
~h "k"
<BEGINHMM>
<NUMSTATES> 5
<STATE> 2
<MEAN> 25
 1.349047e+01 -5.063508e+00 -1.872493e+00 -3.951099e+00 9.268670e-01 -2.544882e+00 -3.797032e-01 -1.919017e+00 -1.545872e+00 8.393587e-01 -3.756346e+00 -3.478056e+00 -6.405748e-01 6.905375e-01 -4.890300e-04 2.612709e-01 -9.327802e-02 6.430509e-02 -1.461497e-01 -2.995764e-01 1.515526e-01 -1.015275e-02 -1.118583e-02 1.281544e-01 -9.546453e-01
<VARIANCE> 25
 8.455090e+01 1.362037e+02 9.914416e+01 8.986679e+01 6.928703e+01 5.624922e+01 5.127402e+01 5.590014e+01 4.795365e+01 5.659467e+01 4.630817e+01 4.321492e+01 5.435138e+00 8.512456e+00 7.500290e+00 7.520679e+00 7.240626e+00 6.026906e+00 5.714201e+00 5.705275e+00 5.198956e+00 4.488521e+00 3.302638e+00 3.675197e+00 9.450908e+00
<GCONST> 1.191495e+02
<STATE> 3
<MEAN> 25
 1.131239e+01 -2.029529e+00 -2.892203e+00 -2.777262e+00 2.601328e-01 -1.857865e+00 -8.400775e-01 -2.714535e+00 -4.028780e-01 2.253577e-02 -3.919076e+00 -2.981047e+00 -1.006778e+00 7.836300e-01 2.755504e-01 1.944317e-01 -1.445296e-01 2.074185e-01 -3.404174e-01 1.919297e-02 1.651520e-01 -1.217021e-01 6.681154e-02 7.505865e-02 -1.159299e+00
<VARIANCE> 25
 9.919514e+01 1.302939e+02 9.413414e+01 8.359476e+01 6.056508e+01 5.051507e+01 5.143032e+01 5.100040e+01 4.610775e+01 4.915852e+01 4.401166e+01 3.488589e+01 5.186746e+00 6.002350e+00 6.113213e+00 4.940696e+00 6.295576e+00 5.148450e+00 5.207467e+00 4.657806e+00 3.795191e+00 3.756010e+00 3.071311e+00 3.094292e+00 6.991358e+00
<GCONST> 1.157119e+02
<STATE> 4
<MEAN> 25
 5.149853e+00 1.146055e+00 -1.092986e+00 -4.023264e-01 -8.471677e-01 -1.203823e+00 -9.316151e-01 -2.235633e+00 -1.648061e+00 -1.000685e+00 -3.576473e+00 -2.568027e+00 -7.297186e-01 3.512402e-01 3.885141e-01 1.300381e-01 1.142335e-01 1.265312e-01 -1.821748e-01 1.805705e-01 -6.512315e-02 1.258215e-02 1.150063e-01 1.263994e-01 -7.780076e-01
<VARIANCE> 25
 1.110103e+02 9.446934e+01 7.038908e+01 6.399556e+01 3.847818e+01 3.647815e+01 3.768535e+01 3.242586e+01 3.193585e+01 3.039824e+01 2.872469e+01 2.529252e+01 3.271041e+00 3.860392e+00 4.251140e+00 3.323669e+00 3.880636e+00 3.062810e+00 3.381983e+00 3.032964e+00 2.885805e+00 2.481208e+00 2.398882e+00 2.083794e+00 3.724394e+00
<GCONST> 1.063192e+02
<TRANSP> 5
 0.000000e+00 1.000000e+00 0.000000e+00 0.000000e+00 0.000000e+00
 0.000000e+00 4.721152e-01 5.278848e-01 0.000000e+00 0.000000e+00
 0.000000e+00 0.000000e+00 3.574370e-01 6.425630e-01 0.000000e+00
 0.000000e+00 0.000000e+00 0.000000e+00 5.965396e-01 4.034604e-01
 0.000000e+00 0.000000e+00 0.000000e+00 0.000000e+00 0.000000e+00
<ENDHMM>
~h "l"
<BEGINHMM>
<NUMSTATES> 5
<STATE> 2
<MEAN> 25
 1.530987e+01 -6.413355e+00 4.239711e+00 -4.803672e+00 -2.453284e+00 -2.287487e+00 -3.071109e+00 -6.372812e+00 -1.213226e+00 1.453987e+00 -2.107167e+00 -3.672787e+00 2.497723e-01 -3.743949e-01 6.368262e-01 2.393007e-01 -7.638920e-01 -9.982386e-02 -2.820843e-02 -6.752913e-02 -2.086991e-01 1.122143e-01 -1.613236e-01 -1.355916e-02 1.800773e-01
<VARIANCE> 25
 4.626446e+01 1.268290e+02 1.168515e+02 1.282970e+02 1.127709e+02 7.841337e+01 9.968433e+01 1.130043e+02 1.201676e+02 6.518683e+01 5.034579e+01 4.335624e+01 3.712997e+00 1.308554e+01 1.013207e+01 1.183309e+01 9.688894e+00 8.307224e+00 9.402473e+00 1.046023e+01 1.022284e+01 7.445863e+00 5.327245e+00 3.820757e+00 8.894063e+00
<GCONST> 1.264882e+02
<STATE> 3
<MEAN> 25
 1.550220e+01 -6.415984e+00 7.690048e+00 -3.609857e+00 -6.604410e+00 -3.675587e+00 -1.990162e+00 -5.701049e+00 -3.037398e+00 2.439362e-01 -2.335551e+00 -2.862924e+00 -1.058997e-02 5.273170e-02 3.442622e-01 8.611903e-02 -3.704886e-01 -1.679221e-01 2.165658e-01 9.141488e-02 -3.232267e-01 -8.385020e-02 -1.112440e-02 4.122488e-02 2.477600e-02
<VARIANCE> 25
 3.881206e+01 1.345207e+02 1.288719e+02 1.126084e+02 1.348117e+02 9.074210e+01 1.112028e+02 1.198215e+02 1.251339e+02 6.606834e+01 5.735506e+01 4.389310e+01 2.650178e+00 1.175809e+01 9.195384e+00 1.005820e+01 9.489268e+00 8.492350e+00 9.612456e+00 1.055706e+01 9.328378e+00 6.866695e+00 5.491862e+00 3.709608e+00 6.448853e+00
<GCONST> 1.258637e+02
<STATE> 4
<MEAN> 25
 1.447172e+01 -4.547037e+00 9.240667e+00 -4.594025e+00 -5.300977e+00 -5.061134e+00 -1.930042e+00 -3.290017e+00 -5.881746e+00 8.623718e-02 -2.357310e+00 -2.345989e+00 -8.097805e-02 1.033471e-01 -2.529217e-01 2.554055e-02 2.197437e-01 -6.168479e-02 3.811841e-02 1.720144e-01 1.601206e-02 -5.701094e-02 2.154410e-02 -4.213535e-03 -5.705335e-02
<VARIANCE> 25
 3.670430e+01 1.493349e+02 1.408279e+02 1.162032e+02 1.389580e+02 1.004550e+02 1.058912e+02 1.290612e+02 1.200572e+02 6.772382e+01 6.522776e+01 4.414306e+01 3.103263e+00 1.208543e+01 8.041606e+00 1.017867e+01 9.995851e+00 8.524613e+00 9.417856e+00 1.196825e+01 8.890122e+00 6.618863e+00 5.285460e+00 3.654886e+00 5.532908e+00
<GCONST> 1.262402e+02
<TRANSP> 5
 0.000000e+00 1.000000e+00 0.000000e+00 0.000000e+00 0.000000e+00
 0.000000e+00 8.422121e-01 1.577879e-01 0.000000e+00 0.000000e+00
 0.000000e+00 0.000000e+00 8.221393e-01 1.778607e-01 0.000000e+00
 0.000000e+00 0.000000e+00 0.000000e+00 9.565573e-01 4.344271e-02
 0.000000e+00 0.000000e+00 0.000000e+00 0.000000e+00 0.000000e+00
<ENDHMM>
~h "m"
<BEGINHMM>
<NUMSTATES> 5
<STATE> 2
<MEAN> 25
 4.455268e+00 1.502172e+00 -3.037642e+00 5.749725e-01 1.557137e+00 3.656110e-01 -7.138525e-01 -1.147160e+00 -1.081188e+00 -1.642297e+00 -1.599828e+00 -1.239880e+00 -1.495034e-01 -7.437473e-02 -3.795835e-01 9.323306e-03 1.852311e-01 1.363293e-01 -2.244847e-02 1.083143e-01 -9.916255e-02 -1.396886e-01 -1.254703e-01 -1.679600e-01 -3.479049e-01
<VARIANCE> 25
 1.743974e+02 1.026906e+02 7.102119e+01 6.806210e+01 3.016267e+01 5.061534e+01 3.857142e+01 7.089812e+01 4.714836e+01 3.143265e+01 2.856060e+01 3.121636e+01 5.177000e+00 4.244781e+00 2.954716e+00 3.060837e+00 2.520800e+00 2.932447e+00 2.898704e+00 4.244292e+00 3.829956e+00 1.953304e+00 2.062767e+00 2.282974e+00 4.127843e+00
<GCONST> 1.083440e+02
<STATE> 3
<MEAN> 25
 6.810110e+00 6.861576e-01 -2.742650e+00 -1.444124e-01 2.000745e+00 3.868073e-01 -1.125322e+00 -1.278120e+00 -2.039040e+00 -1.689754e+00 -1.850819e+00 -1.697739e+00 -2.560831e-01 -3.154968e-02 -2.472734e-01 -1.443834e-01 2.041233e-01 2.265747e-01 -9.169029e-02 1.431232e-02 -1.744225e-01 -2.947755e-02 3.366955e-03 -7.582866e-02 -4.489834e-01
<VARIANCE> 25
 1.838845e+02 1.133369e+02 7.691217e+01 7.792662e+01 3.486464e+01 5.397326e+01 4.037626e+01 8.336015e+01 5.711274e+01 3.500983e+01 3.492987e+01 3.603605e+01 3.889991e+00 5.529408e+00 3.476609e+00 3.082626e+00 2.837166e+00 2.981187e+00 3.003498e+00 4.014032e+00 3.375553e+00 2.175459e+00 2.342190e+00 2.114308e+00 4.136016e+00
<GCONST> 1.100683e+02
<STATE> 4
<MEAN> 25
 7.828990e+00 1.559597e+00 -2.627778e+00 -5.601420e-01 2.456827e+00 1.191109e+00 -1.469013e+00 -2.685216e+00 -3.102005e+00 -2.094361e+00 -1.904859e+00 -1.515639e+00 -2.200429e-01 7.421385e-02 1.388049e-01 -2.292238e-01 8.712735e-02 6.100326e-02 -1.521858e-01 -3.489687e-02 -2.008244e-01 -5.609192e-03 1.015501e-01 1.054237e-01 -2.042910e-01
<VARIANCE> 25
 1.789342e+02 1.141784e+02 6.578320e+01 6.641917e+01 3.503968e+01 4.888440e+01 3.739791e+01 8.347720e+01 5.782804e+01 3.340940e+01 3.128821e+01 3.585653e+01 4.685552e+00 6.656231e+00 4.217681e+00 4.670485e+00 2.928848e+00 3.413892e+00 3.270034e+00 5.276945e+00 3.781283e+00 2.617241e+00 2.759360e+00 2.187981e+00 6.757767e+00
<GCONST> 1.119073e+02
<TRANSP> 5
 0.000000e+00 1.000000e+00 0.000000e+00 0.000000e+00 0.000000e+00
 0.000000e+00 3.742013e-01 6.257986e-01 0.000000e+00 0.000000e+00
 0.000000e+00 0.000000e+00 2.372753e-01 7.627247e-01 0.000000e+00
 0.000000e+00 0.000000e+00 0.000000e+00 3.403505e-01 6.596496e-01
 0.000000e+00 0.000000e+00 0.000000e+00 0.000000e+00 0.000000e+00
<ENDHMM>
~h "n"
<BEGINHMM>
<NUMSTATES> 5
<STATE> 2
<MEAN> 25
 -5.601905e+00 2.269084e+00 -3.877022e+00 2.506758e+00 6.655802e-01 3.083680e+00 -9.591324e-01 7.963400e-01 8.798090e-01 -1.293291e+00 6.277469e-02 3.695776e-01 -6.148261e-02 4.101413e-02 -1.177526e-01 -1.966886e-01 -7.946133e-02 1.108713e-01 6.001679e-02 1.715201e-02 5.043754e-02 -5.519398e-02 9.772237e-02 5.752660e-02 -4.916474e-02
<VARIANCE> 25
 8.670060e+01 4.306945e+01 2.857700e+01 3.249558e+01 1.927442e+01 2.309140e+01 3.053592e+01 2.047389e+01 2.061020e+01 1.798626e+01 1.915584e+01 2.061911e+01 2.746916e+00 1.837450e+00 1.785598e+00 2.005509e+00 1.369044e+00 1.595319e+00 1.754850e+00 1.861090e+00 1.727651e+00 1.635739e+00 1.584073e+00 1.460410e+00 1.654689e+00
<GCONST> 9.267685e+01
<STATE> 3
<MEAN> 25
 1.357079e+00 2.489788e+00 -3.543091e+00 -3.509603e-01 1.037134e+00 3.260289e+00 -6.266589e-01 -2.689165e-01 8.019085e-01 -1.715086e+00 -3.514658e-01 -4.230772e-01 9.189930e-01 9.884189e-02 -3.271134e-01 -8.943333e-01 -3.881541e-01 1.703183e-01 2.121386e-01 -2.618138e-01 -1.189811e-01 1.623324e-02 2.967902e-01 2.177374e-01 7.186968e-01
<VARIANCE> 25
 1.490415e+02 1.047319e+02 4.773920e+01 6.410204e+01 2.887556e+01 3.800030e+01 3.282803e+01 3.550134e+01 2.875710e+01 2.254273e+01 2.955732e+01 2.638690e+01 1.254097e+01 5.255723e+00 3.368855e+00 5.147336e+00 2.430947e+00 3.052076e+00 2.495593e+00 3.135422e+00 2.947938e+00 1.980849e+00 2.795042e+00 2.074441e+00 8.094943e+00
<GCONST> 1.075399e+02
<STATE> 4
<MEAN> 25
 7.062850e+00 1.671620e-01 -3.730444e+00 -3.359922e+00 4.741007e-02 3.016569e+00 -1.359767e-01 -1.304431e+00 9.282219e-02 -1.707537e+00 -2.547969e-01 -9.147197e-01 8.273116e-01 -3.245058e-01 -2.475503e-01 -8.600972e-01 -3.246861e-01 -1.196008e-01 2.469588e-01 -2.004309e-01 -3.647221e-01 1.169866e-01 1.298409e-01 1.115710e-01 9.203838e-01
<VARIANCE> 25
 1.663322e+02 1.544158e+02 5.336979e+01 8.676834e+01 3.434597e+01 5.020653e+01 3.678321e+01 3.963776e+01 3.589127e+01 2.873646e+01 4.586017e+01 2.947019e+01 1.211553e+01 7.742459e+00 4.928221e+00 7.128831e+00 3.385327e+00 3.970317e+00 3.453212e+00 3.770808e+00 4.080773e+00 2.286199e+00 3.683715e+00 2.545414e+00 9.411152e+00
<GCONST> 1.134047e+02
<TRANSP> 5
 0.000000e+00 1.000000e+00 0.000000e+00 0.000000e+00 0.000000e+00
 0.000000e+00 7.668490e-01 2.331510e-01 0.000000e+00 0.000000e+00
 0.000000e+00 0.000000e+00 4.380516e-01 5.619484e-01 0.000000e+00
 0.000000e+00 0.000000e+00 0.000000e+00 4.311253e-01 5.688747e-01
 0.000000e+00 0.000000e+00 0.000000e+00 0.000000e+00 0.000000e+00
<ENDHMM>
~h "o"
<BEGINHMM>
<NUMSTATES> 5
<STATE> 2
<MEAN> 25
 1.313689e+01 -3.276280e+00 -5.722295e+00 -1.149698e+01 5.173353e+00 2.276831e-01 -2.335703e+00 -2.485466e+00 -8.640012e-01 3.817710e+00 -1.752365e-02 -1.999804e+00 -8.779854e-03 5.055326e-01 -4.001732e-01 1.438473e-01 -1.935631e-03 1.271911e-01 -6.044655e-02 1.914084e-01 1.194054e-01 9.310986e-02 -7.517827e-02 9.845996e-03 -5.808548e-01
<VARIANCE> 25
 8.389636e+01 7.986595e+01 9.651720e+01 1.013267e+02 6.904370e+01 8.165022e+01 5.806734e+01 3.696562e+01 4.504020e+01 4.382025e+01 6.717680e+01 3.370020e+01 8.922576e+00 9.764978e+00 1.115275e+01 1.084119e+01 9.132344e+00 9.139011e+00 7.309997e+00 4.878443e+00 4.896638e+00 5.052433e+00 8.306548e+00 4.576447e+00 1.869507e+01
<GCONST> 1.226017e+02
<STATE> 3
<MEAN> 25
 1.127485e+01 1.283332e-01 -7.064610e+00 -7.893828e+00 2.426514e+00 -6.533697e-01 -2.439361e+00 -9.632606e-01 4.110559e-01 2.354255e+00 -9.624652e-01 -2.061325e+00 -1.507956e+00 7.488396e-01 -8.272263e-02 1.251011e-01 -5.926823e-01 1.467673e-01 -4.590411e-02 2.500513e-01 -8.696559e-02 -2.737502e-01 3.590017e-01 3.426933e-02 -2.020148e+00
<VARIANCE> 25
 8.072983e+01 6.635545e+01 1.052898e+02 5.536763e+01 4.425167e+01 4.527272e+01 4.102265e+01 2.209907e+01 3.473300e+01 3.338504e+01 4.448537e+01 3.039288e+01 7.911003e+00 4.793712e+00 8.485013e+00 5.363147e+00 5.646944e+00 6.213566e+00 4.708565e+00 3.294000e+00 3.769236e+00 3.686296e+00 4.825478e+00 3.907056e+00 9.915667e+00
<GCONST> 1.134963e+02
<STATE> 4
<MEAN> 25
 4.212797e+00 2.197230e+00 -5.447320e+00 -5.898049e+00 -5.030254e-01 -1.024725e+00 -2.357183e+00 -8.378297e-02 1.529434e-01 1.368374e+00 -2.720461e-01 -1.518152e+00 -8.973638e-01 -7.121916e-01 1.098577e+00 3.428594e-01 -2.719088e-01 -3.679004e-01 4.057373e-01 9.547286e-03 -2.480928e-01 3.017634e-02 2.300905e-01 2.909984e-01 -8.771367e-02
<VARIANCE> 25
 8.533414e+01 5.241702e+01 8.518138e+01 3.763944e+01 3.910500e+01 2.712773e+01 2.734701e+01 1.927213e+01 2.743633e+01 2.188454e+01 2.987274e+01 2.966814e+01 6.322387e+00 4.661458e+00 5.571993e+00 3.551409e+00 5.086883e+00 4.369078e+00 3.386160e+00 3.529715e+00 3.440218e+00 3.750051e+00 2.689298e+00 2.709415e+00 9.471851e+00
<GCONST> 1.075866e+02
<TRANSP> 5
 0.000000e+00 1.000000e+00 0.000000e+00 0.000000e+00 0.000000e+00
 0.000000e+00 8.781387e-01 1.218613e-01 0.000000e+00 0.000000e+00
 0.000000e+00 0.000000e+00 5.889390e-01 4.110610e-01 0.000000e+00
 0.000000e+00 0.000000e+00 0.000000e+00 6.536556e-01 3.463444e-01
 0.000000e+00 0.000000e+00 0.000000e+00 0.000000e+00 0.000000e+00
<ENDHMM>
~h "p"
<BEGINHMM>
<NUMSTATES> 5
<STATE> 2
<MEAN> 25
 1.195771e+01 -6.449882e+00 -2.061565e+00 -5.036271e+00 2.230557e+00 -3.629918e-01 -2.690325e+00 -9.708064e-01 6.673281e-01 1.254659e+00 -2.100820e+00 -2.135777e+00 1.211103e+00 3.116833e-01 -2.891148e-01 3.470807e-01 4.134903e-02 9.246838e-02 -5.698599e-03 -1.404029e-01 1.150350e-01 4.255299e-01 2.122587e-01 -1.980811e-01 2.783167e-01
<VARIANCE> 25
 8.653168e+01 1.325742e+02 9.881665e+01 9.206653e+01 5.582172e+01 7.136267e+01 5.921335e+01 6.682269e+01 5.777853e+01 4.505683e+01 3.163418e+01 3.476011e+01 1.061850e+01 1.335814e+01 1.453754e+01 1.426733e+01 6.663147e+00 8.048420e+00 6.307811e+00 5.006148e+00 7.164438e+00 4.339581e+00 4.402676e+00 3.517621e+00 2.301994e+01
<GCONST> 1.228879e+02
<STATE> 3
<MEAN> 25
 1.304547e+01 -4.786395e+00 -2.446346e+00 -4.642779e+00 2.399154e+00 -8.566346e-01 -2.331643e+00 -1.266750e+00 6.707587e-01 1.742879e+00 -1.541564e+00 -1.777756e+00 3.030472e-01 -9.645872e-02 4.745106e-01 -2.196610e-01 -2.487660e-01 -5.352503e-01 1.832066e-01 -1.566216e-01 -1.316231e-01 1.388583e-01 1.123165e-01 1.370739e-02 5.153477e-01
<VARIANCE> 25
 7.521862e+01 1.374187e+02 1.343322e+02 9.493194e+01 6.208121e+01 7.055476e+01 5.670287e+01 6.419752e+01 6.901997e+01 4.436813e+01 3.470460e+01 3.824039e+01 9.877287e+00 1.332527e+01 1.536685e+01 1.140525e+01 6.837112e+00 8.130991e+00 6.181586e+00 5.171120e+00 7.496001e+00 4.391398e+00 4.047003e+00 3.568524e+00 2.103627e+01
<GCONST> 1.231854e+02
<STATE> 4
<MEAN> 25
 1.301018e+01 -4.877388e+00 -1.588249e-01 -6.214420e+00 1.656904e+00 -2.341915e+00 -2.908887e+00 -2.001834e+00 -1.192511e+00 2.414190e+00 -9.379922e-01 -1.336725e+00 -1.887466e-01 -2.920348e-01 6.381248e-01 -1.051420e-01 -3.556154e-01 -5.646456e-01 1.104018e-01 1.306570e-01 -8.471007e-02 -1.494328e-01 1.325086e-01 4.658179e-02 7.224833e-01
<VARIANCE> 25
 8.296198e+01 1.306536e+02 1.194482e+02 1.034023e+02 6.141405e+01 7.782524e+01 5.805160e+01 6.458415e+01 7.037225e+01 4.658229e+01 3.377066e+01 3.580213e+01 1.109345e+01 1.223401e+01 1.245025e+01 1.079273e+01 7.112991e+00 7.753789e+00 5.727479e+00 5.301906e+00 6.999281e+00 4.744816e+00 3.683860e+00 3.558770e+00 1.961455e+01
<GCONST> 1.228406e+02
<TRANSP> 5
 0.000000e+00 1.000000e+00 0.000000e+00 0.000000e+00 0.000000e+00
 0.000000e+00 6.578162e-01 3.421839e-01 0.000000e+00 0.000000e+00
 0.000000e+00 0.000000e+00 6.852607e-01 3.147392e-01 0.000000e+00
 0.000000e+00 0.000000e+00 0.000000e+00 8.772119e-01 1.227882e-01
 0.000000e+00 0.000000e+00 0.000000e+00 0.000000e+00 0.000000e+00
<ENDHMM>
~h "r"
<BEGINHMM>
<NUMSTATES> 5
<STATE> 2
<MEAN> 25
 1.015779e+01 -9.666428e-01 -2.068635e+00 -2.662143e+00 2.107235e+00 -4.368348e-01 -1.809553e+00 -2.765258e+00 -1.444337e+00 9.698680e-02 -1.928911e+00 -2.932514e+00 1.945224e-01 3.185094e-01 6.831990e-02 -2.075875e-01 -2.223735e-02 5.368447e-01 -1.559424e-01 -2.892540e-01 -1.886410e-01 -1.952496e-01 1.076879e-01 -1.881386e-01 -1.924455e-01
<VARIANCE> 25
 1.398196e+02 1.468714e+02 7.297806e+01 8.312496e+01 4.573116e+01 6.448109e+01 6.790364e+01 1.030587e+02 6.567143e+01 3.402837e+01 3.637273e+01 3.462870e+01 6.088890e+00 6.234447e+00 4.391413e+00 5.090455e+00 3.372748e+00 3.838797e+00 3.915075e+00 3.911895e+00 3.776662e+00 2.690908e+00 2.724693e+00 2.832032e+00 7.016430e+00
<GCONST> 1.146239e+02
<STATE> 3
<MEAN> 25
 1.036882e+01 -6.299669e-01 -1.678626e+00 -2.767615e+00 1.854426e+00 3.867756e-01 -1.994941e+00 -2.865187e+00 -1.579946e+00 -1.169061e-01 -1.842906e+00 -3.053029e+00 -6.956309e-02 2.959146e-01 3.166867e-01 -2.072129e-02 -8.735978e-02 3.935567e-01 -1.686596e-01 -4.587964e-02 -1.595180e-01 -2.160074e-01 5.472604e-02 -5.549867e-02 -5.114945e-01
<VARIANCE> 25
 1.383576e+02 1.681551e+02 7.419701e+01 9.447343e+01 4.443607e+01 6.798315e+01 6.752030e+01 1.086277e+02 6.891142e+01 3.377867e+01 3.799630e+01 3.706372e+01 5.024868e+00 6.731006e+00 4.762610e+00 4.934564e+00 3.753856e+00 4.321794e+00 4.046076e+00 4.123709e+00 4.191556e+00 2.966273e+00 2.790495e+00 2.728818e+00 6.144119e+00
<GCONST> 1.154183e+02
<STATE> 4
<MEAN> 25
 1.233945e+01 -2.958499e+00 -1.112218e+00 -2.622336e+00 1.630015e+00 -3.179072e-01 -2.354593e+00 -2.447163e+00 -1.410178e+00 -2.221141e-01 -2.457051e+00 -3.732529e+00 -1.000789e-01 5.277900e-02 1.908861e-01 2.273498e-01 -3.712826e-02 8.056863e-02 -1.865802e-01 1.077804e-01 1.491669e-02 -1.539334e-01 1.463133e-02 7.696357e-02 -3.432583e-01
<VARIANCE> 25
 1.153742e+02 1.832302e+02 8.422274e+01 1.038827e+02 5.168815e+01 6.371232e+01 6.425421e+01 1.070328e+02 7.050370e+01 3.614587e+01 4.250330e+01 3.692360e+01 4.609137e+00 7.924206e+00 5.700389e+00 7.500358e+00 4.555792e+00 5.156320e+00 4.914843e+00 5.657724e+00 5.227931e+00 3.416873e+00 3.049920e+00 2.996220e+00 6.615086e+00
<GCONST> 1.179397e+02
<TRANSP> 5
 0.000000e+00 1.000000e+00 0.000000e+00 0.000000e+00 0.000000e+00
 0.000000e+00 2.549301e-01 7.450699e-01 0.000000e+00 0.000000e+00
 0.000000e+00 0.000000e+00 2.701910e-01 7.298089e-01 0.000000e+00
 0.000000e+00 0.000000e+00 0.000000e+00 4.800858e-01 5.199142e-01
 0.000000e+00 0.000000e+00 0.000000e+00 0.000000e+00 0.000000e+00
<ENDHMM>
~h "s"
<BEGINHMM>
<NUMSTATES> 5
<STATE> 2
<MEAN> 25
 1.218515e+01 -4.050135e+00 3.086715e+00 -5.887747e+00 2.013447e+00 -4.559506e+00 -2.572038e+00 -3.030296e+00 -9.643328e-01 1.501459e+00 -3.057795e+00 -2.082524e+00 -1.211567e-01 -7.302703e-02 1.936150e-01 -4.194288e-01 4.163003e-01 -2.278388e-03 -4.804846e-02 -8.911181e-02 2.265831e-01 1.912223e-01 -1.393709e-01 1.073292e-01 3.391814e-01
<VARIANCE> 25
 1.389578e+02 1.354599e+02 1.114000e+02 1.235163e+02 1.010144e+02 8.950961e+01 9.998988e+01 1.343531e+02 1.129881e+02 4.602703e+01 6.458114e+01 5.480251e+01 1.431177e+01 1.343550e+01 1.035698e+01 1.264021e+01 1.124664e+01 7.847010e+00 9.281864e+00 1.291391e+01 1.097197e+01 5.624856e+00 6.134957e+00 4.215614e+00 8.634604e+00
<GCONST> 1.295938e+02
<STATE> 3
<MEAN> 25
 8.556759e+00 -2.831915e+00 4.592579e+00 -6.918537e+00 3.095490e+00 -4.752897e+00 -2.411450e+00 -2.154127e+00 -7.479630e-01 1.472384e+00 -3.066426e+00 -9.395419e-01 -2.912483e-01 -7.974356e-04 1.699192e-01 -9.951243e-02 1.012143e-01 -9.150047e-03 1.704339e-02 1.159719e-01 -1.525899e-01 6.226762e-02 5.342091e-02 5.985716e-02 -8.858182e-03
<VARIANCE> 25
 2.090074e+02 1.245842e+02 1.203588e+02 1.333045e+02 1.188574e+02 8.751254e+01 1.087715e+02 1.384071e+02 1.174051e+02 4.953644e+01 7.468842e+01 5.179541e+01 1.478183e+01 1.096820e+01 1.096287e+01 1.190080e+01 1.113199e+01 7.688328e+00 8.693545e+00 1.123115e+01 1.062230e+01 5.703863e+00 6.516215e+00 4.111103e+00 6.522825e+00
<GCONST> 1.298532e+02
<STATE> 4
<MEAN> 25
 7.409030e+00 -2.958938e+00 6.241806e+00 -6.344828e+00 1.296017e+00 -6.512023e+00 -2.449969e+00 -3.877865e-01 -1.872086e+00 1.179571e+00 -2.142646e+00 -8.110559e-02 4.284062e-01 -1.561147e-01 -7.568127e-02 4.954068e-01 -5.505279e-01 -2.122782e-01 2.003156e-01 5.625071e-02 -2.737888e-01 -5.703261e-02 -4.184430e-03 -5.041674e-02 -8.801579e-02
<VARIANCE> 25
 1.873492e+02 1.038567e+02 1.451774e+02 1.190280e+02 1.406459e+02 1.015630e+02 1.067842e+02 1.244327e+02 1.282600e+02 5.330330e+01 6.786502e+01 5.114009e+01 1.546766e+01 1.088060e+01 1.206962e+01 1.183506e+01 1.161567e+01 8.635598e+00 9.204314e+00 1.058704e+01 1.167585e+01 6.099416e+00 6.291898e+00 4.220898e+00 7.357358e+00
<GCONST> 1.304396e+02
<TRANSP> 5
 0.000000e+00 1.000000e+00 0.000000e+00 0.000000e+00 0.000000e+00
 0.000000e+00 8.040292e-01 1.959708e-01 0.000000e+00 0.000000e+00
 0.000000e+00 0.000000e+00 7.563584e-01 2.436416e-01 0.000000e+00
 0.000000e+00 0.000000e+00 0.000000e+00 8.846266e-01 1.153734e-01
 0.000000e+00 0.000000e+00 0.000000e+00 0.000000e+00 0.000000e+00
<ENDHMM>
~h "t"
<BEGINHMM>
<NUMSTATES> 5
<STATE> 2
<MEAN> 25
 1.187029e+01 -6.656156e+00 1.285348e+00 -7.532093e+00 1.714491e+00 -4.375759e+00 -7.142358e-01 -1.658125e+00 -6.784228e-01 3.000494e+00 -2.815386e+00 -2.842529e+00 5.887274e-01 -4.382790e-01 -1.744593e-01 7.071133e-02 1.836927e-01 -1.419842e-01 -1.392449e-01 -7.247418e-03 3.484141e-01 1.543054e-01 -1.926256e-01 -1.656478e-01 5.954559e-01
<VARIANCE> 25
 6.472735e+01 9.968912e+01 1.434872e+02 1.117392e+02 8.490221e+01 9.764746e+01 8.126079e+01 8.744926e+01 1.010755e+02 5.408675e+01 6.539722e+01 4.407921e+01 7.384376e+00 1.214868e+01 1.397549e+01 1.155470e+01 8.265530e+00 9.329879e+00 9.343703e+00 8.645729e+00 9.312901e+00 6.211022e+00 6.247778e+00 4.692649e+00 1.997974e+01
<GCONST> 1.276148e+02
<STATE> 3
<MEAN> 25
 1.269378e+01 -7.417839e+00 1.940513e-02 -5.967549e+00 1.797470e+00 -4.881036e+00 -1.930679e+00 -3.669186e-01 1.380356e+00 2.505336e+00 -3.812302e+00 -3.087065e+00 1.756305e-01 1.262393e-01 -2.173033e-01 1.775956e-01 1.986370e-01 1.433618e-01 -4.361500e-01 1.836566e-01 2.489180e-01 -4.369348e-02 -1.442810e-02 2.678155e-02 -1.776748e-01
<VARIANCE> 25
 5.626298e+01 9.563859e+01 1.214868e+02 9.769134e+01 7.847979e+01 8.586751e+01 8.297648e+01 7.272975e+01 7.490522e+01 5.165084e+01 5.515080e+01 3.980345e+01 7.026052e+00 1.078349e+01 1.302277e+01 1.094960e+01 7.575299e+00 8.469127e+00 8.565767e+00 7.806071e+00 8.353927e+00 5.714972e+00 5.237931e+00 4.249963e+00 1.828049e+01
<GCONST> 1.249210e+02
<STATE> 4
<MEAN> 25
 1.213793e+01 -6.614151e+00 2.932981e-01 -5.092269e+00 9.882157e-01 -5.022848e+00 -2.900210e+00 1.255274e-01 1.462545e+00 1.448705e+00 -3.211763e+00 -2.561565e+00 -2.535930e-01 3.508588e-01 -1.821088e-01 9.460783e-02 -3.175569e-02 3.486662e-01 -1.155633e-01 -1.132135e-01 9.790244e-02 -1.998510e-01 2.146651e-01 9.775463e-02 -3.805790e-01
<VARIANCE> 25
 6.065627e+01 8.605811e+01 1.326370e+02 8.776349e+01 7.204332e+01 7.845162e+01 7.801648e+01 6.502885e+01 6.333817e+01 4.752750e+01 4.788903e+01 3.650286e+01 7.728432e+00 8.123874e+00 1.288991e+01 9.342209e+00 7.066708e+00 7.997243e+00 8.164860e+00 7.027594e+00 7.310526e+00 5.036684e+00 4.605074e+00 3.726374e+00 1.445876e+01
<GCONST> 1.226518e+02
<TRANSP> 5
 0.000000e+00 1.000000e+00 0.000000e+00 0.000000e+00 0.000000e+00
 0.000000e+00 7.906021e-01 2.093979e-01 0.000000e+00 0.000000e+00
 0.000000e+00 0.000000e+00 6.695964e-01 3.304036e-01 0.000000e+00
 0.000000e+00 0.000000e+00 0.000000e+00 6.871582e-01 3.128418e-01
 0.000000e+00 0.000000e+00 0.000000e+00 0.000000e+00 0.000000e+00
<ENDHMM>
~h "u"
<BEGINHMM>
<NUMSTATES> 5
<STATE> 2
<MEAN> 25
 1.071209e+01 4.172099e+00 -4.595773e+00 -6.193890e+00 2.357680e+00 2.705234e+00 -3.101361e+00 -4.694059e+00 -1.781605e+00 2.725561e-01 -1.474404e-01 -1.043714e+00 -1.744090e+00 6.973787e-01 -1.217467e-01 2.984754e-01 -3.167207e-02 2.503871e-01 4.402767e-01 2.445331e-01 2.840412e-01 -5.775040e-01 1.787497e-01 2.644094e-01 -1.445752e+00
<VARIANCE> 25
 1.462899e+02 1.202139e+02 7.473742e+01 7.385136e+01 5.216080e+01 7.028545e+01 5.317661e+01 7.462139e+01 5.343517e+01 3.486675e+01 3.255555e+01 3.327861e+01 4.407787e+00 4.360505e+00 4.838692e+00 4.959773e+00 3.943317e+00 4.915194e+00 3.385873e+00 4.246052e+00 4.562732e+00 2.452192e+00 3.453782e+00 1.941738e+00 3.273253e+00
<GCONST> 1.126163e+02
<STATE> 3
<MEAN> 25
 7.130465e+00 4.671427e+00 -3.972238e+00 -5.226367e+00 2.270602e+00 2.403575e+00 -2.177925e+00 -3.766386e+00 -1.440283e+00 -5.762346e-01 -4.514609e-01 -5.688843e-01 -1.484947e+00 7.526292e-02 1.938684e-01 5.072146e-01 -7.460316e-02 -2.372981e-01 3.806991e-01 4.437546e-01 2.276458e-01 -3.718345e-01 -9.426901e-02 1.448915e-01 -1.132562e+00
<VARIANCE> 25
 1.612281e+02 1.133609e+02 6.614965e+01 8.221228e+01 5.093915e+01 6.858394e+01 5.161451e+01 6.921613e+01 4.859356e+01 3.436700e+01 3.072984e+01 3.414921e+01 4.189664e+00 3.875826e+00 4.246629e+00 3.500090e+00 3.504730e+00 3.675582e+00 3.242756e+00 3.997136e+00 3.487616e+00 2.099074e+00 2.717671e+00 1.847554e+00 3.023471e+00
<GCONST> 1.103927e+02
<STATE> 4
<MEAN> 25
 4.267104e+00 4.081506e+00 -2.783021e+00 -4.075091e+00 2.422034e+00 8.820112e-01 -1.614251e+00 -2.567347e+00 -1.121769e+00 -1.027201e+00 -9.512430e-01 -1.938375e-01 -7.558272e-01 -4.143324e-01 3.494029e-01 4.649578e-01 -3.110686e-02 -5.298957e-01 1.587760e-01 4.357716e-01 1.047677e-01 -1.762147e-01 -1.764536e-01 1.067384e-01 -5.490495e-01
<VARIANCE> 25
 1.457882e+02 1.046419e+02 5.475656e+01 8.381727e+01 4.713875e+01 6.781412e+01 4.907063e+01 6.002750e+01 4.312154e+01 3.481909e+01 2.735280e+01 3.005368e+01 9.541435e+00 4.200832e+00 4.245655e+00 3.526491e+00 3.608082e+00 4.020587e+00 3.611854e+00 3.990811e+00 2.965524e+00 2.424893e+00 2.798174e+00 2.400028e+00 5.831811e+00
<GCONST> 1.114756e+02
<TRANSP> 5
 0.000000e+00 1.000000e+00 0.000000e+00 0.000000e+00 0.000000e+00
 0.000000e+00 4.575673e-01 5.424327e-01 0.000000e+00 0.000000e+00
 0.000000e+00 0.000000e+00 4.594991e-01 5.405009e-01 0.000000e+00
 0.000000e+00 0.000000e+00 0.000000e+00 5.466750e-01 4.533250e-01
 0.000000e+00 0.000000e+00 0.000000e+00 0.000000e+00 0.000000e+00
<ENDHMM>
~h "w"
<BEGINHMM>
<NUMSTATES> 5
<STATE> 2
<MEAN> 25
 -1.825163e+01 5.158661e+00 -3.690211e+00 6.687792e+00 3.351084e+00 6.942970e+00 3.138268e+00 5.704347e+00 8.041276e+00 2.314427e+00 5.768825e+00 5.237183e+00 3.087508e-03 -4.485261e-03 -1.025678e-02 4.528351e-03 7.550558e-03 -1.990722e-02 -2.857987e-02 6.974474e-03 8.102336e-02 7.265598e-02 -1.675960e-03 -2.558086e-02 3.121695e-04
<VARIANCE> 25
 4.798152e+00 4.198753e+00 7.981665e+00 1.375454e+01 9.317492e+00 1.521740e+01 1.332754e+01 1.376051e+01 1.236084e+01 9.566804e+00 9.850458e+00 7.703074e+00 3.654580e-02 1.421003e-01 2.203749e-01 3.604069e-01 4.102851e-01 4.566394e-01 7.003495e-01 1.100807e+00 1.217769e+00 1.005149e+00 8.873266e-01 9.619678e-01 5.360071e-02
<GCONST> 6.030580e+01
<STATE> 3
<MEAN> 25
 -1.861898e+01 5.482352e+00 -3.209818e+00 8.140293e+00 4.112967e+00 6.671449e+00 1.166617e+00 4.156784e+00 8.766398e+00 2.791754e+00 5.405930e+00 4.633304e+00 -4.144445e-02 7.593746e-02 1.403680e-01 -1.494090e-01 -1.289158e-01 2.015320e-01 1.779029e-01 -3.141347e-01 -7.087305e-01 -3.151634e-01 -1.418079e-01 6.722342e-02 -1.826455e-02
<VARIANCE> 25
 6.454893e+00 4.528591e+00 8.410800e+00 1.278492e+01 1.172079e+01 1.497266e+01 1.437923e+01 1.751011e+01 1.119957e+01 6.916726e+00 7.180196e+00 5.343801e+00 3.654580e-02 7.016447e-02 1.192523e-01 3.311835e-01 6.561320e-01 3.630880e-01 1.178370e+00 1.154902e+00 9.987624e-01 9.179491e-01 4.654780e-01 5.607790e-01 5.360071e-02
<GCONST> 5.801298e+01
<STATE> 4
<MEAN> 25
 -1.839392e+01 5.996775e+00 -2.461119e+00 6.113670e+00 2.140433e+00 7.974136e+00 4.569150e+00 4.416883e+00 4.171883e+00 -6.513727e-01 3.829580e+00 5.048865e+00 3.199774e-01 -1.654886e-01 6.337351e-02 1.684875e-01 3.821974e-01 3.729134e-01 9.298903e-01 -4.618308e-02 -1.434118e+00 -9.789650e-01 1.717914e-01 6.474597e-02 3.239290e-01
<VARIANCE> 25
 6.540047e+00 3.722790e+00 7.183350e+00 1.247132e+01 7.562420e+00 1.363628e+01 1.652645e+01 7.876127e+00 8.897467e+00 1.028719e+01 5.369033e+00 3.279306e+00 5.318063e-01 7.801899e-02 1.538000e-01 2.528510e-01 5.353811e-01 4.060467e-01 3.361866e-01 3.551201e-01 4.778090e-01 3.468259e-01 2.502587e-01 2.272020e-01 3.209881e-01
<GCONST> 5.464243e+01
<TRANSP> 5
 0.000000e+00 1.000000e+00 0.000000e+00 0.000000e+00 0.000000e+00
 0.000000e+00 9.759806e-01 2.401935e-02 0.000000e+00 0.000000e+00
 0.000000e+00 0.000000e+00 7.851941e-01 2.148059e-01 0.000000e+00
 0.000000e+00 0.000000e+00 0.000000e+00 3.029877e-01 6.970122e-01
 0.000000e+00 0.000000e+00 0.000000e+00 0.000000e+00 0.000000e+00
<ENDHMM>
~h "aw"
<BEGINHMM>
<NUMSTATES> 5
<STATE> 2
<MEAN> 25
 -1.024611e+01 3.334926e+00 -5.213440e+00 4.074388e+00 1.369242e+00 2.512086e+00 9.872019e-02 7.896350e-01 2.386289e+00 -2.015719e+00 -3.828279e-01 -1.442313e-01 3.767841e-03 -1.043251e-03 -9.441871e-03 -3.838603e-02 -4.986393e-02 -7.531928e-03 2.001810e-02 2.528343e-02 1.223726e-02 4.052570e-03 -1.040261e-02 1.032187e-02 4.933570e-04
<VARIANCE> 25
 4.702678e+00 2.983073e+00 1.004095e+01 9.990144e+00 1.194519e+01 1.714738e+01 1.512426e+01 1.478908e+01 1.867339e+01 1.518690e+01 1.214726e+01 1.168721e+01 1.407927e-01 2.362795e-01 3.676345e-01 5.340204e-01 6.226895e-01 1.017114e+00 1.205087e+00 1.078293e+00 1.270438e+00 1.330083e+00 1.309028e+00 1.183853e+00 5.360071e-02
<GCONST> 6.734225e+01
<STATE> 3
<MEAN> 25
 -1.056520e+01 3.261901e+00 -5.167264e+00 3.862366e+00 1.204589e+00 2.780320e+00 -8.670414e-01 1.314681e+00 1.408159e+00 -1.592250e+00 -2.045033e-01 4.162942e-02 9.273195e-02 4.600299e-03 -7.922380e-02 -1.069003e-01 -7.278779e-02 -2.390752e-01 -2.804206e-01 -7.326793e-02 9.514283e-03 -2.042944e-02 -2.850216e-03 1.769884e-01 7.708488e-02
<VARIANCE> 25
 1.007441e+01 7.053591e+00 1.360481e+01 1.290306e+01 1.373490e+01 2.029738e+01 1.841394e+01 1.405898e+01 2.128833e+01 1.216724e+01 1.500332e+01 1.188752e+01 3.236756e-01 2.104165e-01 5.413808e-01 6.565353e-01 8.641843e-01 1.194010e+00 1.420542e+00 1.286254e+00 1.329645e+00 1.267506e+00 1.393316e+00 1.285760e+00 1.225761e-01
<GCONST> 7.322483e+01
<STATE> 4
<MEAN> 25
 -6.358160e+00 6.440970e+00 -3.834131e+00 4.021642e+00 -6.235561e-01 -1.128489e+00 -3.695487e+00 2.651311e-01 2.394700e+00 -1.479709e+00 -7.424828e-02 1.530837e+00 -2.429337e-02 -4.287289e-02 5.998745e-02 -8.595663e-02 -3.630690e-02 -3.325113e-02 -1.190965e-01 -9.132111e-02 1.245287e-02 -6.724648e-02 -4.803853e-02 5.448739e-02 2.004757e-02
<VARIANCE> 25
 4.468156e+01 2.963824e+01 3.233664e+01 1.727720e+01 3.137895e+01 4.287012e+01 3.088042e+01 2.015238e+01 1.637757e+01 1.392574e+01 1.520533e+01 1.227989e+01 4.814730e+00 3.931128e+00 3.056884e+00 1.612199e+00 2.541360e+00 3.827991e+00 4.065566e+00 1.622657e+00 1.952909e+00 1.188291e+00 1.507720e+00 1.377557e+00 1.417160e+00
<GCONST> 9.437681e+01
<TRANSP> 5
 0.000000e+00 1.000000e+00 0.000000e+00 0.000000e+00 0.000000e+00
 0.000000e+00 9.565455e-01 4.345457e-02 0.000000e+00 0.000000e+00
 0.000000e+00 0.000000e+00 6.532360e-01 3.467640e-01 0.000000e+00
 0.000000e+00 0.000000e+00 0.000000e+00 7.638990e-01 2.361010e-01
 0.000000e+00 0.000000e+00 0.000000e+00 0.000000e+00 0.000000e+00
<ENDHMM>
~h "ng"
<BEGINHMM>
<NUMSTATES> 5
<STATE> 2
<MEAN> 25
 1.446755e+01 -1.185780e+01 1.010241e+00 -6.158726e+00 1.250862e+00 -7.917068e+00 2.078789e-01 2.696230e+00 -1.508695e+00 1.936631e+00 -6.185121e+00 -5.259327e+00 2.355411e-01 -9.987587e-01 -1.734861e-01 -1.463545e-01 1.660489e-01 1.702146e-02 8.871313e-02 1.905971e-01 8.878089e-03 5.482819e-01 -4.835217e-01 -2.292474e-01 4.155072e-01
<VARIANCE> 25
 3.063848e+01 1.060141e+02 5.353633e+01 1.224043e+02 6.529166e+01 5.129029e+01 4.547087e+01 6.413069e+01 6.358319e+01 4.698318e+01 3.457436e+01 2.882138e+01 3.116202e+00 9.862685e+00 4.031614e+00 1.175013e+01 7.932456e+00 4.709074e+00 5.485965e+00 7.397120e+00 5.563889e+00 4.924864e+00 3.555559e+00 2.299717e+00 6.407724e+00
<GCONST> 1.156977e+02
<STATE> 3
<MEAN> 25
 1.619427e+01 -1.413994e+01 -3.552918e-01 -5.938256e+00 3.531975e-01 -7.072614e+00 1.020388e+00 2.527216e+00 -1.468742e+00 2.967916e+00 -7.504291e+00 -5.865867e+00 2.899277e-01 2.401649e-01 -2.254959e-01 5.721297e-01 -4.106850e-01 2.606938e-01 9.118421e-02 -3.559933e-01 -1.759921e-02 -3.794885e-02 -1.159426e-01 -1.144822e-01 -3.457393e-01
<VARIANCE> 25
 2.574528e+01 5.748360e+01 6.688940e+01 9.969092e+01 5.984985e+01 4.789162e+01 4.218252e+01 6.166560e+01 5.102638e+01 5.067535e+01 3.813580e+01 2.666572e+01 1.864518e+00 5.598932e+00 3.209870e+00 9.189162e+00 6.078486e+00 3.586134e+00 4.115048e+00 6.238370e+00 3.976962e+00 4.418033e+00 3.429302e+00 2.753887e+00 4.998224e+00
<GCONST> 1.114363e+02
<STATE> 4
<MEAN> 25
 1.810294e+01 -9.067089e+00 -2.087991e+00 -6.471639e-01 -2.193468e+00 -5.901785e+00 2.398040e-01 9.764856e-01 -1.729721e+00 -3.965130e-01 -8.720490e+00 -5.096474e+00 2.082917e-02 1.175884e+00 1.548542e-01 5.170015e-01 -2.423887e-01 3.204468e-01 -1.118216e-01 -4.030060e-01 -1.005543e-01 -4.198868e-01 -3.129231e-02 1.797314e-01 -8.469847e-01
<VARIANCE> 25
 2.487628e+01 1.345909e+02 9.637054e+01 9.588330e+01 6.069151e+01 4.064111e+01 4.373613e+01 7.644589e+01 4.628950e+01 6.069500e+01 3.476037e+01 3.981068e+01 1.494926e+00 7.259605e+00 3.637458e+00 6.261277e+00 5.653379e+00 3.658334e+00 3.691439e+00 6.265591e+00 3.274870e+00 3.445945e+00 2.755481e+00 2.656240e+00 3.621506e+00
<GCONST> 1.116744e+02
<TRANSP> 5
 0.000000e+00 1.000000e+00 0.000000e+00 0.000000e+00 0.000000e+00
 0.000000e+00 8.540669e-01 1.459332e-01 0.000000e+00 0.000000e+00
 0.000000e+00 0.000000e+00 7.954521e-01 2.045479e-01 0.000000e+00
 0.000000e+00 0.000000e+00 0.000000e+00 9.054707e-01 9.452935e-02
 0.000000e+00 0.000000e+00 0.000000e+00 0.000000e+00 0.000000e+00
<ENDHMM>
~h "sil"
<BEGINHMM>
<NUMSTATES> 5
<STATE> 2
<MEAN> 25
 -1.108873e+01 3.687705e+00 -2.629176e+00 3.936958e+00 4.489018e-01 2.343764e+00 8.333930e-01 9.736031e-01 7.195617e-01 -1.830150e+00 9.992775e-01 1.628364e+00 -1.148871e-01 -6.265913e-02 1.142778e-02 6.999847e-02 1.094250e-01 6.276572e-02 3.166854e-02 6.656958e-02 1.166211e-02 -5.190051e-02 4.926835e-02 5.562689e-02 -5.800711e-02
<VARIANCE> 25
 1.337642e+01 5.312445e+00 1.157759e+01 1.593423e+01 1.147122e+01 1.564415e+01 1.676635e+01 1.387473e+01 1.402649e+01 1.272697e+01 1.465464e+01 1.239720e+01 1.377067e-01 2.701073e-01 3.853484e-01 6.154098e-01 9.179900e-01 9.253685e-01 1.046863e+00 1.061618e+00 1.130610e+00 1.111106e+00 1.030933e+00 9.898989e-01 5.360071e-02
<GCONST> 6.898833e+01
<STATE> 3
<MEAN> 25
 -1.528500e+01 4.006852e+00 -2.728476e+00 4.968179e+00 1.972848e+00 5.186342e+00 2.878355e+00 4.070215e+00 4.398768e+00 -1.279337e-01 3.671150e+00 3.729666e+00 -1.670485e-03 -4.821927e-03 -2.777345e-02 -6.616945e-02 -4.008524e-02 -5.853073e-02 -1.434888e-02 1.018382e-01 1.307880e-01 9.625337e-02 4.439718e-03 -1.926114e-02 6.245077e-05
<VARIANCE> 25
 1.431611e+01 4.913347e+00 1.270720e+01 1.839749e+01 1.043404e+01 1.644960e+01 1.847424e+01 1.735811e+01 2.323047e+01 1.224848e+01 1.760705e+01 1.403599e+01 6.808658e-02 1.819490e-01 3.282488e-01 4.578215e-01 5.724844e-01 6.620056e-01 8.327051e-01 1.220889e+00 1.322656e+00 1.001625e+00 9.885884e-01 9.970299e-01 5.360071e-02
<GCONST> 6.783186e+01
<STATE> 4
<MEAN> 25
 -1.252942e+01 3.449139e+00 -2.861428e+00 3.959945e+00 9.399111e-01 3.415703e+00 1.174870e+00 2.627468e+00 3.081013e+00 -8.734414e-02 2.372267e+00 2.584541e+00 1.686194e-02 1.459913e-02 2.778411e-02 1.366151e-02 -1.137652e-02 -8.429412e-03 -3.968425e-02 -8.478814e-02 -6.769086e-02 -3.139918e-02 -6.293762e-03 -3.109708e-03 1.282135e-02
<VARIANCE> 25
 2.248076e+01 6.581086e+00 1.607523e+01 1.981437e+01 1.258314e+01 1.984318e+01 2.054488e+01 2.051622e+01 2.940181e+01 1.758379e+01 2.269300e+01 1.602670e+01 2.290883e-01 3.274601e-01 4.462370e-01 6.694413e-01 7.678993e-01 8.663568e-01 1.094311e+00 1.315240e+00 1.427386e+00 1.398340e+00 1.175689e+00 1.177606e+00 2.096428e-01
<GCONST> 7.602832e+01
<TRANSP> 5
 0.000000e+00 1.000000e+00 0.000000e+00 0.000000e+00 0.000000e+00
 0.000000e+00 9.323049e-01 6.769512e-02 0.000000e+00 0.000000e+00
 0.000000e+00 0.000000e+00 9.221183e-01 7.788166e-02 0.000000e+00
 0.000000e+00 0.000000e+00 0.000000e+00 9.514681e-01 4.853193e-02
 0.000000e+00 0.000000e+00 0.000000e+00 0.000000e+00 0.000000e+00
<ENDHMM>
