~o
<STREAMINFO> 1 25
<VECSIZE> 25<NULLD><MFCC_D_N_Z_0><DIAGC>
~h "proto"
<BEGINHMM>
<NUMSTATES> 5
<STATE> 2
<MEAN> 25
 -2.964554e-08 1.914291e-08 2.536341e-08 -4.913052e-08 5.599714e-09 -2.153736e-08 4.641934e-08 -8.386902e-09 -5.067614e-09 -3.179928e-09 6.537222e-09 2.223416e-08 2.565427e-02 -8.256213e-03 -2.611366e-03 -1.128769e-02 7.455558e-04 -1.768923e-02 -1.911912e-02 -8.987673e-03 -1.520425e-02 -1.008265e-02 -1.678249e-02 -1.596917e-02 2.664544e-02
<VARIANCE> 25
 2.196170e+02 8.869798e+01 9.482846e+01 8.518073e+01 6.126781e+01 7.317194e+01 5.324511e+01 6.702861e+01 6.968383e+01 3.416077e+01 4.171331e+01 3.583238e+01 3.654580e+00 5.248706e+00 4.609818e+00 4.910780e+00 4.229969e+00 3.983405e+00 4.137674e+00 4.652722e+00 4.393474e+00 3.028573e+00 2.883493e+00 2.326544e+00 5.360071e+00
<GCONST> 1.145198e+02
<STATE> 3
<MEAN> 25
 -2.964554e-08 1.914291e-08 2.536341e-08 -4.913052e-08 5.599714e-09 -2.153736e-08 4.641934e-08 -8.386902e-09 -5.067614e-09 -3.179928e-09 6.537222e-09 2.223416e-08 2.565427e-02 -8.256213e-03 -2.611366e-03 -1.128769e-02 7.455558e-04 -1.768923e-02 -1.911912e-02 -8.987673e-03 -1.520425e-02 -1.008265e-02 -1.678249e-02 -1.596917e-02 2.664544e-02
<VARIANCE> 25
 2.196170e+02 8.869798e+01 9.482846e+01 8.518073e+01 6.126781e+01 7.317194e+01 5.324511e+01 6.702861e+01 6.968383e+01 3.416077e+01 4.171331e+01 3.583238e+01 3.654580e+00 5.248706e+00 4.609818e+00 4.910780e+00 4.229969e+00 3.983405e+00 4.137674e+00 4.652722e+00 4.393474e+00 3.028573e+00 2.883493e+00 2.326544e+00 5.360071e+00
<GCONST> 1.145198e+02
<STATE> 4
<MEAN> 25
 -2.964554e-08 1.914291e-08 2.536341e-08 -4.913052e-08 5.599714e-09 -2.153736e-08 4.641934e-08 -8.386902e-09 -5.067614e-09 -3.179928e-09 6.537222e-09 2.223416e-08 2.565427e-02 -8.256213e-03 -2.611366e-03 -1.128769e-02 7.455558e-04 -1.768923e-02 -1.911912e-02 -8.987673e-03 -1.520425e-02 -1.008265e-02 -1.678249e-02 -1.596917e-02 2.664544e-02
<VARIANCE> 25
 2.196170e+02 8.869798e+01 9.482846e+01 8.518073e+01 6.126781e+01 7.317194e+01 5.324511e+01 6.702861e+01 6.968383e+01 3.416077e+01 4.171331e+01 3.583238e+01 3.654580e+00 5.248706e+00 4.609818e+00 4.910780e+00 4.229969e+00 3.983405e+00 4.137674e+00 4.652722e+00 4.393474e+00 3.028573e+00 2.883493e+00 2.326544e+00 5.360071e+00
<GCONST> 1.145198e+02
<TRANSP> 5
 0.000000e+00 1.000000e+00 0.000000e+00 0.000000e+00 0.000000e+00
 0.000000e+00 6.000000e-01 4.000000e-01 0.000000e+00 0.000000e+00
 0.000000e+00 0.000000e+00 6.000000e-01 4.000000e-01 0.000000e+00
 0.000000e+00 0.000000e+00 0.000000e+00 7.000000e-01 3.000000e-01
 0.000000e+00 0.000000e+00 0.000000e+00 0.000000e+00 0.000000e+00
<ENDHMM>
