~o
<STREAMINFO> 1 25
<VECSIZE> 25<NULLD><MFCC_D_N_Z_0><DIAGC>
~t "T_E"
<TRANSP> 5
 0.000000e+00 1.000000e+00 0.000000e+00 0.000000e+00 0.000000e+00
 0.000000e+00 8.112833e-01 1.887167e-01 0.000000e+00 0.000000e+00
 0.000000e+00 0.000000e+00 7.807173e-01 2.192827e-01 0.000000e+00
 0.000000e+00 0.000000e+00 0.000000e+00 9.209720e-01 7.902802e-02
 0.000000e+00 0.000000e+00 0.000000e+00 0.000000e+00 0.000000e+00
~t "T_a"
<TRANSP> 5
 0.000000e+00 1.000000e+00 0.000000e+00 0.000000e+00 0.000000e+00
 0.000000e+00 3.309905e-01 6.690094e-01 0.000000e+00 0.000000e+00
 0.000000e+00 0.000000e+00 4.844778e-01 5.155222e-01 0.000000e+00
 0.000000e+00 0.000000e+00 0.000000e+00 6.827129e-01 3.172871e-01
 0.000000e+00 0.000000e+00 0.000000e+00 0.000000e+00 0.000000e+00
~t "T_b"
<TRANSP> 5
 0.000000e+00 1.000000e+00 0.000000e+00 0.000000e+00 0.000000e+00
 0.000000e+00 4.063855e-01 5.936145e-01 0.000000e+00 0.000000e+00
 0.000000e+00 0.000000e+00 1.437348e-01 8.562652e-01 0.000000e+00
 0.000000e+00 0.000000e+00 0.000000e+00 7.867163e-02 9.213284e-01
 0.000000e+00 0.000000e+00 0.000000e+00 0.000000e+00 0.000000e+00
~t "T_c"
<TRANSP> 5
 0.000000e+00 1.000000e+00 0.000000e+00 0.000000e+00 0.000000e+00
 0.000000e+00 8.290167e-01 1.709832e-01 0.000000e+00 0.000000e+00
 0.000000e+00 0.000000e+00 8.173456e-01 1.826544e-01 0.000000e+00
 0.000000e+00 0.000000e+00 0.000000e+00 9.687468e-01 3.125320e-02
 0.000000e+00 0.000000e+00 0.000000e+00 0.000000e+00 0.000000e+00
~t "T_d"
<TRANSP> 5
 0.000000e+00 1.000000e+00 0.000000e+00 0.000000e+00 0.000000e+00
 0.000000e+00 8.556146e-01 1.443854e-01 0.000000e+00 0.000000e+00
 0.000000e+00 0.000000e+00 8.035623e-01 1.964377e-01 0.000000e+00
 0.000000e+00 0.000000e+00 0.000000e+00 8.157104e-01 1.842897e-01
 0.000000e+00 0.000000e+00 0.000000e+00 0.000000e+00 0.000000e+00
~t "T_e"
<TRANSP> 5
 0.000000e+00 1.000000e+00 0.000000e+00 0.000000e+00 0.000000e+00
 0.000000e+00 7.716907e-01 2.283093e-01 0.000000e+00 0.000000e+00
 0.000000e+00 0.000000e+00 6.609798e-01 3.390202e-01 0.000000e+00
 0.000000e+00 0.000000e+00 0.000000e+00 8.136938e-01 1.863062e-01
 0.000000e+00 0.000000e+00 0.000000e+00 0.000000e+00 0.000000e+00
~t "T_g"
<TRANSP> 5
 0.000000e+00 1.000000e+00 0.000000e+00 0.000000e+00 0.000000e+00
 0.000000e+00 4.453673e-02 9.554633e-01 0.000000e+00 0.000000e+00
 0.000000e+00 0.000000e+00 1.018046e-02 9.898195e-01 0.000000e+00
 0.000000e+00 0.000000e+00 0.000000e+00 3.567749e-01 6.432251e-01
 0.000000e+00 0.000000e+00 0.000000e+00 0.000000e+00 0.000000e+00
~t "T_h"
<TRANSP> 5
 0.000000e+00 1.000000e+00 0.000000e+00 0.000000e+00 0.000000e+00
 0.000000e+00 3.896757e-01 6.103243e-01 0.000000e+00 0.000000e+00
 0.000000e+00 0.000000e+00 1.644974e-01 8.355026e-01 0.000000e+00
 0.000000e+00 0.000000e+00 0.000000e+00 5.717151e-01 4.282850e-01
 0.000000e+00 0.000000e+00 0.000000e+00 0.000000e+00 0.000000e+00
~t "T_i"
<TRANSP> 5
 0.000000e+00 1.000000e+00 0.000000e+00 0.000000e+00 0.000000e+00
 0.000000e+00 8.313476e-01 1.686523e-01 0.000000e+00 0.000000e+00
 0.000000e+00 0.000000e+00 7.243629e-01 2.756371e-01 0.000000e+00
 0.000000e+00 0.000000e+00 0.000000e+00 7.632568e-01 2.367432e-01
 0.000000e+00 0.000000e+00 0.000000e+00 0.000000e+00 0.000000e+00
~t "T_j"
<TRANSP> 5
 0.000000e+00 1.000000e+00 0.000000e+00 0.000000e+00 0.000000e+00
 0.000000e+00 9.144005e-01 8.559942e-02 0.000000e+00 0.000000e+00
 0.000000e+00 0.000000e+00 7.975860e-01 2.024140e-01 0.000000e+00
 0.000000e+00 0.000000e+00 0.000000e+00 8.497409e-01 1.502591e-01
 0.000000e+00 0.000000e+00 0.000000e+00 0.000000e+00 0.000000e+00
~t "T_k"
<TRANSP> 5
 0.000000e+00 1.000000e+00 0.000000e+00 0.000000e+00 0.000000e+00
 0.000000e+00 6.445648e-01 3.554352e-01 0.000000e+00 0.000000e+00
 0.000000e+00 0.000000e+00 5.658507e-01 4.341494e-01 0.000000e+00
 0.000000e+00 0.000000e+00 0.000000e+00 6.406484e-01 3.593516e-01
 0.000000e+00 0.000000e+00 0.000000e+00 0.000000e+00 0.000000e+00
~t "T_l"
<TRANSP> 5
 0.000000e+00 1.000000e+00 0.000000e+00 0.000000e+00 0.000000e+00
 0.000000e+00 7.218198e-01 2.781802e-01 0.000000e+00 0.000000e+00
 0.000000e+00 0.000000e+00 8.185580e-01 1.814420e-01 0.000000e+00
 0.000000e+00 0.000000e+00 0.000000e+00 7.656755e-01 2.343244e-01
 0.000000e+00 0.000000e+00 0.000000e+00 0.000000e+00 0.000000e+00
~t "T_m"
<TRANSP> 5
 0.000000e+00 1.000000e+00 0.000000e+00 0.000000e+00 0.000000e+00
 0.000000e+00 5.509522e-01 4.490478e-01 0.000000e+00 0.000000e+00
 0.000000e+00 0.000000e+00 6.081532e-01 3.918468e-01 0.000000e+00
 0.000000e+00 0.000000e+00 0.000000e+00 7.108900e-01 2.891101e-01
 0.000000e+00 0.000000e+00 0.000000e+00 0.000000e+00 0.000000e+00
~t "T_n"
<TRANSP> 5
 0.000000e+00 1.000000e+00 0.000000e+00 0.000000e+00 0.000000e+00
 0.000000e+00 8.190163e-01 1.809837e-01 0.000000e+00 0.000000e+00
 0.000000e+00 0.000000e+00 4.283426e-01 5.716574e-01 0.000000e+00
 0.000000e+00 0.000000e+00 0.000000e+00 4.696841e-01 5.303159e-01
 0.000000e+00 0.000000e+00 0.000000e+00 0.000000e+00 0.000000e+00
~t "T_o"
<TRANSP> 5
 0.000000e+00 1.000000e+00 0.000000e+00 0.000000e+00 0.000000e+00
 0.000000e+00 9.011181e-01 9.888190e-02 0.000000e+00 0.000000e+00
 0.000000e+00 0.000000e+00 7.567561e-01 2.432440e-01 0.000000e+00
 0.000000e+00 0.000000e+00 0.000000e+00 7.659034e-01 2.340966e-01
 0.000000e+00 0.000000e+00 0.000000e+00 0.000000e+00 0.000000e+00
~t "T_p"
<TRANSP> 5
 0.000000e+00 1.000000e+00 0.000000e+00 0.000000e+00 0.000000e+00
 0.000000e+00 6.642976e-01 3.357024e-01 0.000000e+00 0.000000e+00
 0.000000e+00 0.000000e+00 6.893370e-01 3.106630e-01 0.000000e+00
 0.000000e+00 0.000000e+00 0.000000e+00 7.041749e-01 2.958251e-01
 0.000000e+00 0.000000e+00 0.000000e+00 0.000000e+00 0.000000e+00
~t "T_r"
<TRANSP> 5
 0.000000e+00 1.000000e+00 0.000000e+00 0.000000e+00 0.000000e+00
 0.000000e+00 5.582092e-01 4.417907e-01 0.000000e+00 0.000000e+00
 0.000000e+00 0.000000e+00 4.202715e-01 5.797285e-01 0.000000e+00
 0.000000e+00 0.000000e+00 0.000000e+00 6.738191e-01 3.261809e-01
 0.000000e+00 0.000000e+00 0.000000e+00 0.000000e+00 0.000000e+00
~t "T_s"
<TRANSP> 5
 0.000000e+00 1.000000e+00 0.000000e+00 0.000000e+00 0.000000e+00
 0.000000e+00 7.330838e-01 2.669161e-01 0.000000e+00 0.000000e+00
 0.000000e+00 0.000000e+00 8.132424e-01 1.867576e-01 0.000000e+00
 0.000000e+00 0.000000e+00 0.000000e+00 7.119513e-01 2.880487e-01
 0.000000e+00 0.000000e+00 0.000000e+00 0.000000e+00 0.000000e+00
~t "T_t"
<TRANSP> 5
 0.000000e+00 1.000000e+00 0.000000e+00 0.000000e+00 0.000000e+00
 0.000000e+00 3.409988e-01 6.590012e-01 0.000000e+00 0.000000e+00
 0.000000e+00 0.000000e+00 4.951182e-01 5.048818e-01 0.000000e+00
 0.000000e+00 0.000000e+00 0.000000e+00 6.380485e-01 3.619515e-01
 0.000000e+00 0.000000e+00 0.000000e+00 0.000000e+00 0.000000e+00
~t "T_u"
<TRANSP> 5
 0.000000e+00 1.000000e+00 0.000000e+00 0.000000e+00 0.000000e+00
 0.000000e+00 6.764613e-01 3.235387e-01 0.000000e+00 0.000000e+00
 0.000000e+00 0.000000e+00 7.515965e-01 2.484036e-01 0.000000e+00
 0.000000e+00 0.000000e+00 0.000000e+00 6.792650e-01 3.207350e-01
 0.000000e+00 0.000000e+00 0.000000e+00 0.000000e+00 0.000000e+00
~t "T_w"
<TRANSP> 5
 0.000000e+00 1.000000e+00 0.000000e+00 0.000000e+00 0.000000e+00
 0.000000e+00 9.499332e-01 5.006677e-02 0.000000e+00 0.000000e+00
 0.000000e+00 0.000000e+00 7.293462e-01 2.706538e-01 0.000000e+00
 0.000000e+00 0.000000e+00 0.000000e+00 4.698193e-01 5.301807e-01
 0.000000e+00 0.000000e+00 0.000000e+00 0.000000e+00 0.000000e+00
~t "T_aw"
<TRANSP> 5
 0.000000e+00 1.000000e+00 0.000000e+00 0.000000e+00 0.000000e+00
 0.000000e+00 9.499305e-01 5.006951e-02 0.000000e+00 0.000000e+00
 0.000000e+00 0.000000e+00 9.083704e-01 9.162955e-02 0.000000e+00
 0.000000e+00 0.000000e+00 0.000000e+00 7.515996e-01 2.484004e-01
 0.000000e+00 0.000000e+00 0.000000e+00 0.000000e+00 0.000000e+00
~t "T_ng"
<TRANSP> 5
 0.000000e+00 1.000000e+00 0.000000e+00 0.000000e+00 0.000000e+00
 0.000000e+00 6.807465e-01 3.192535e-01 0.000000e+00 0.000000e+00
 0.000000e+00 0.000000e+00 9.075122e-01 9.248786e-02 0.000000e+00
 0.000000e+00 0.000000e+00 0.000000e+00 8.351457e-01 1.648543e-01
 0.000000e+00 0.000000e+00 0.000000e+00 0.000000e+00 0.000000e+00
~s "ST_s_2_1"
<MEAN> 25
 1.186355e+01 -2.804821e+00 6.954394e+00 -9.972816e+00 5.180021e+00 -6.754354e+00 -4.831127e+00 -3.190395e-01 -2.696342e+00 2.694750e+00 -3.833273e+00 1.749162e+00 -3.725278e+00 2.814330e+00 -9.031320e-02 -3.986103e-01 2.423954e+00 -4.208478e-01 6.438703e-01 6.918993e-01 8.218045e-01 -4.859797e-01 7.249680e-01 8.354197e-02 -3.863534e-01
<VARIANCE> 25
 9.116531e+01 8.828781e+01 9.851107e+01 1.117423e+02 1.210746e+02 9.917957e+01 1.540776e+02 1.308105e+02 8.293112e+01 5.243147e+01 7.534650e+01 4.457973e+01 1.348154e+01 8.351171e+00 9.452323e+00 1.429301e+01 1.438829e+01 8.047556e+00 1.195754e+01 1.415354e+01 1.023469e+01 6.707870e+00 6.082530e+00 4.134949e+00 3.156485e+00
<GCONST> 1.281643e+02
~s "ST_s_3_1"
<MEAN> 25
 -1.432094e+01 7.677253e+00 4.542013e+00 -7.379220e+00 6.270018e+00 -8.006453e+00 4.514154e+00 3.063585e+00 3.926935e+00 -1.293615e+00 2.408455e+00 3.657649e+00 -2.106404e+00 -2.666876e-01 -3.103276e-01 -1.111821e-01 -2.093509e-01 3.163267e-01 4.254035e-01 3.618578e-02 6.219267e-01 3.495465e-02 4.012879e-01 4.667866e-01 -3.995067e-01
<VARIANCE> 25
 3.663469e+01 5.363431e+01 8.946056e+01 8.230741e+01 1.048647e+02 6.557024e+01 8.317332e+01 5.615346e+01 5.804367e+01 3.768658e+01 3.953447e+01 3.372548e+01 9.317582e+00 6.371527e+00 5.452826e+00 4.712514e+00 4.797461e+00 4.959566e+00 4.614740e+00 4.508369e+00 4.356823e+00 3.956888e+00 3.645356e+00 2.953590e+00 1.284184e+00
<GCONST> 1.136136e+02
~s "ST_s_4_1"
<MEAN> 25
 -4.667823e+00 2.788430e-01 1.137652e+01 -8.489465e+00 2.866012e+00 -1.023109e+01 1.526214e+00 2.844506e+00 1.219438e+00 -5.805008e-01 3.116090e-01 4.461844e+00 5.839847e+00 -1.664285e+00 2.389055e+00 8.059334e-01 -2.310611e+00 -5.125231e-01 -1.412360e+00 -5.424630e-01 -2.801740e+00 2.160408e-01 -8.636817e-01 -6.365421e-01 5.477294e-01
<VARIANCE> 25
 1.372511e+02 6.175257e+01 1.587303e+02 6.584890e+01 1.067306e+02 5.678605e+01 8.939188e+01 6.867539e+01 9.333672e+01 3.518693e+01 5.214974e+01 3.416597e+01 8.139162e+00 5.452930e+00 1.553040e+01 1.219376e+01 1.080142e+01 9.041837e+00 7.791716e+00 7.263548e+00 1.184573e+01 5.687744e+00 5.172121e+00 4.419522e+00 5.515208e+00
<GCONST> 1.239618e+02
~s "ST_i_2_1"
<MEAN> 25
 1.566819e+01 -1.386853e+01 1.703922e+00 -3.946084e+00 1.044784e+00 -1.606388e+00 -1.534351e+00 -2.604524e+00 1.232674e+00 -3.215152e-02 -2.221156e+00 -7.260439e+00 1.182282e+00 1.024266e+00 -3.795152e-01 3.999571e+00 -2.601210e+00 9.337954e-01 -7.046260e-01 -7.011086e-02 -1.341816e+00 -5.387396e-02 5.058507e-01 5.422439e-01 -2.401302e+00
<VARIANCE> 25
 1.532775e+01 4.901561e+01 3.423568e+01 9.087215e+01 7.121059e+01 8.274429e+01 4.589569e+01 8.908260e+01 1.174604e+02 4.439808e+01 3.818063e+01 2.950091e+01 1.798288e+00 4.537532e+00 5.151942e+00 9.684717e+00 3.763330e+00 6.104065e+00 6.426531e+00 1.018844e+01 4.644556e+00 4.628980e+00 4.002587e+00 4.069324e+00 3.894336e+00
<GCONST> 1.137379e+02
~s "ST_i_2_2"
<MEAN> 25
 8.568253e+00 2.232719e+00 2.068049e+01 -3.923729e+00 -1.008142e+01 -5.903997e+00 -4.731168e-01 -4.063822e+00 -1.106140e+01 -1.081348e+00 1.982430e-01 -1.485008e+00 5.549448e-01 -4.345424e-02 5.684377e-01 6.053161e-02 -4.201604e-01 -5.633600e-01 -1.796172e-01 2.650908e-01 -5.361518e-01 4.457540e-02 -6.524591e-02 -1.304910e-01 5.345340e-01
<VARIANCE> 25
 3.652632e+01 1.047496e+02 1.424834e+02 1.341453e+02 1.049590e+02 1.292834e+02 1.218188e+02 1.014672e+02 1.152874e+02 7.590656e+01 5.483004e+01 4.994712e+01 3.973513e+00 1.204454e+01 1.661824e+01 1.032910e+01 9.276451e+00 9.273300e+00 9.396837e+00 1.010146e+01 1.101058e+01 5.778531e+00 5.938615e+00 4.150858e+00 1.132485e+01
<GCONST> 1.277909e+02
~s "ST_i_2_3"
<MEAN> 25
 1.196795e+01 -5.750047e+00 2.631024e+01 -5.234333e+00 -1.819669e+01 -9.342875e+00 -2.143479e+00 -1.627935e-01 -1.913119e+01 -9.986116e-01 3.818559e+00 -3.516769e-01 8.927767e-01 -1.461798e+00 -1.128063e+00 1.008562e-01 -3.528488e-01 -7.986358e-01 -7.391963e-01 4.033407e-01 6.197509e-01 3.452748e-01 -3.654729e-01 9.201518e-02 9.306226e-01
<VARIANCE> 25
 1.616865e+01 3.622122e+01 6.219754e+01 9.420023e+01 9.656867e+01 5.261791e+01 1.060638e+02 6.080696e+01 6.593095e+01 2.653104e+01 3.367130e+01 3.883818e+01 2.169165e+00 2.465908e+00 1.182645e+01 8.841187e+00 8.261708e+00 6.187159e+00 5.845240e+00 6.212201e+00 1.307422e+01 3.632467e+00 3.884159e+00 3.575012e+00 1.170673e+00
<GCONST> 1.134453e+02
~s "ST_i_2_4"
<MEAN> 25
 1.416680e+01 1.168625e+01 6.714890e+00 2.707057e+00 -5.497171e+00 -5.648646e+00 -3.009457e+00 -6.207798e+00 -7.529067e+00 -4.231685e+00 -1.841336e-01 3.953707e-01 -2.284552e+00 -5.005626e+00 -1.346077e-01 9.208908e-01 2.013361e+00 -2.567521e+00 2.651507e-01 3.463732e+00 1.110468e+00 8.228328e-01 -7.586921e-01 -1.138484e-02 1.743390e+00
<VARIANCE> 25
 3.384961e+01 2.074102e+02 3.819678e+01 5.905487e+01 5.142220e+01 7.351797e+01 5.785817e+01 6.973440e+01 2.685205e+01 3.681157e+01 2.423403e+01 1.952060e+01 2.204355e+00 2.723725e+01 4.790254e+00 1.023768e+01 9.706203e+00 1.062700e+01 1.381755e+01 6.149843e+00 5.614294e+00 8.173563e+00 3.873567e+00 2.911243e+00 7.627540e+00
<GCONST> 1.174674e+02
~s "ST_i_3_1"
<MEAN> 25
 2.105704e+01 -9.844975e+00 -1.703617e+00 5.229941e+00 -1.923272e+00 -1.633470e+00 -5.104994e-01 -9.265058e+00 -5.219975e+00 3.409225e+00 -4.431369e+00 -7.734623e+00 -3.257032e-01 -7.942284e-01 6.093810e-01 -1.119381e+00 7.128569e-01 -3.509845e-01 2.966838e-01 8.861003e-01 -2.011124e-01 -4.172723e-01 -6.141525e-01 -1.207310e-01 8.985988e-01
<VARIANCE> 25
 1.309016e+01 8.599899e+01 5.709114e+01 7.370969e+01 6.031956e+01 3.550465e+01 6.972440e+01 1.199199e+02 7.883292e+01 4.697935e+01 3.942994e+01 4.044485e+01 1.931858e+00 9.294325e+00 5.124062e+00 9.069454e+00 7.062770e+00 3.804302e+00 7.335917e+00 1.403247e+01 5.119466e+00 5.093955e+00 4.068775e+00 4.323740e+00 2.922658e+00
<GCONST> 1.154630e+02
~s "ST_i_3_2"
<MEAN> 25
 1.885760e+01 -7.064934e+00 -1.071048e+00 -1.115517e+00 -3.730745e+00 -8.365740e+00 6.952277e-01 -5.317148e+00 -4.276769e+00 4.038618e+00 -3.597286e+00 -3.143280e+00 5.243465e-01 4.626228e-01 -1.757630e+00 -9.430685e-02 9.186426e-01 1.381969e+00 -1.930388e-02 -8.270054e-01 2.858716e-01 6.616521e-01 -3.397700e-01 -5.162362e-01 -6.168389e-01
<VARIANCE> 25
 2.212969e+01 7.167416e+01 1.208142e+02 1.297115e+02 7.141151e+01 1.510443e+02 1.371165e+02 1.362237e+02 8.521381e+01 6.563176e+01 3.657726e+01 3.625695e+01 1.542779e+00 3.655816e+00 7.002467e+00 7.006004e+00 6.915768e+00 6.945136e+00 8.600357e+00 9.869462e+00 7.553570e+00 6.370241e+00 4.674293e+00 3.627971e+00 1.556198e+00
<GCONST> 1.189987e+02
~s "ST_i_3_3"
<MEAN> 25
 1.335820e+01 -5.934001e+00 7.400343e+00 1.140416e+00 -6.874693e+00 -1.274412e+01 -1.016744e+00 5.347335e-01 -4.187500e+00 6.538212e-03 -1.715456e+00 1.454370e-01 1.043135e-01 -3.093808e-01 -2.771482e+00 1.042596e-01 1.921407e+00 -1.253466e-01 -5.008956e-01 -2.159896e-02 2.581412e+00 -1.571761e-01 -8.021196e-01 8.353496e-02 -3.448362e-02
<VARIANCE> 25
 4.217654e+01 9.288518e+01 1.353278e+02 1.030570e+02 1.461596e+02 1.243664e+02 9.956235e+01 1.091303e+02 9.338687e+01 7.189507e+01 5.454362e+01 3.603465e+01 2.479784e+00 1.017248e+01 6.179961e+00 1.010019e+01 1.023907e+01 6.949295e+00 9.995866e+00 1.535722e+01 9.702157e+00 6.708376e+00 5.552812e+00 2.936615e+00 7.215332e+00
<GCONST> 1.248636e+02
~s "ST_i_4_1"
<MEAN> 25
 1.299016e+01 -1.515518e+01 1.338984e+01 -8.776006e+00 -5.841776e+00 -7.663891e+00 3.966549e+00 3.650005e+00 -4.741706e+00 -3.493608e+00 -3.968667e+00 -2.365572e+00 -2.740903e-01 7.585636e-01 1.199280e+00 -2.296221e-01 -9.087731e-01 -4.371801e-01 8.154543e-03 -2.801692e-01 -4.465832e-01 4.777448e-01 6.465681e-01 4.863715e-01 -1.628528e-01
<VARIANCE> 25
 1.497486e+01 2.964037e+01 7.567281e+01 5.887867e+01 1.213407e+02 1.025472e+02 6.751782e+01 5.833263e+01 7.105430e+01 5.063099e+01 5.464019e+01 2.880380e+01 4.342776e-01 7.664019e-01 1.765602e+00 1.997862e+00 2.709028e+00 2.829949e+00 4.303205e+00 3.216089e+00 3.090774e+00 3.435651e+00 2.768262e+00 2.235711e+00 2.576911e-01
<GCONST> 1.013553e+02
~s "ST_i_4_2"
<MEAN> 25
 1.411153e+01 -3.946598e+00 1.807449e-01 -1.916852e+00 -1.501230e+00 -5.810171e+00 -4.286999e+00 -9.742469e-01 -1.343530e+00 1.895339e-01 -2.764852e+00 -3.613530e+00 3.616732e-02 1.130293e+00 -1.533775e+00 -7.588756e-01 1.103535e+00 1.459195e+00 -6.934265e-01 -7.382861e-01 6.296301e-01 7.270415e-02 1.024811e-01 -6.930286e-02 -8.941203e-01
<VARIANCE> 25
 5.750956e+01 1.295569e+02 1.380428e+02 9.807959e+01 7.658917e+01 1.009421e+02 8.273298e+01 1.135281e+02 1.028782e+02 5.256185e+01 4.271085e+01 4.026286e+01 2.022020e+00 4.979096e+00 4.843043e+00 5.075121e+00 5.666183e+00 6.140690e+00 4.467463e+00 7.906574e+00 4.628506e+00 5.318291e+00 3.733545e+00 2.826334e+00 2.428687e+00
<GCONST> 1.175947e+02
~s "ST_i_4_3"
<MEAN> 25
 1.292036e+01 -1.133068e+01 6.723157e+00 -6.596580e+00 -1.102633e+00 -1.927792e+01 2.156194e+00 3.016762e+00 -1.848103e+00 1.909056e+00 -6.839976e+00 -1.108140e+00 2.231068e-01 -4.617042e-01 -1.509130e+00 -2.566440e-02 1.354161e+00 4.456727e-01 4.897367e-01 1.102784e-01 6.140862e-01 8.016117e-04 -1.281413e+00 -4.173897e-01 -2.504096e-01
<VARIANCE> 25
 1.790636e+01 3.959459e+01 6.285635e+01 1.157650e+02 6.900738e+01 1.313215e+02 8.875717e+01 9.748800e+01 9.663131e+01 3.719131e+01 5.426142e+01 5.674672e+01 8.561640e-01 1.596337e+00 3.236270e+00 2.316583e+00 2.588161e+00 3.618391e+00 4.729745e+00 4.423594e+00 5.864323e+00 4.205063e+00 4.538390e+00 2.121211e+00 5.875375e-01
<GCONST> 1.083427e+02
~s "ST_E_2_1"
<MEAN> 25
 1.402742e+01 -2.750972e+00 -1.601764e+01 -1.310340e+00 9.677703e+00 6.262164e-01 -5.046589e+00 -2.558715e-01 -9.615219e-01 -6.775768e-01 -7.248722e+00 -5.413053e+00 -1.681216e+00 4.608601e-01 3.321773e-01 -1.113126e-01 1.959130e-01 4.701760e-01 -4.085619e-02 -5.337179e-02 -1.263860e-01 -9.844911e-02 4.930839e-02 -8.328114e-02 -1.481859e+00
<VARIANCE> 25
 6.584254e+01 3.320332e+01 2.683702e+01 2.326669e+01 1.626446e+01 2.806469e+01 3.282793e+01 1.982099e+01 1.950305e+01 1.293743e+01 1.093973e+01 1.956577e+01 3.101872e+00 1.946557e+00 1.139525e+00 2.327281e+00 1.748395e+00 2.572265e+00 2.466202e+00 1.824095e+00 1.846466e+00 1.322587e+00 1.265418e+00 1.207604e+00 1.904683e+00
<GCONST> 9.131390e+01
~s "ST_E_3_1"
<MEAN> 25
 -3.628489e+00 -1.318278e+00 -7.041547e+00 6.069153e-01 5.046859e+00 2.814009e+00 -5.071392e+00 -1.071332e+00 -1.285912e+00 -6.051834e-01 -2.225615e+00 -2.680574e+00 -1.065456e+00 1.305454e+00 5.768833e-01 -1.587640e-01 -7.243993e-01 1.069449e-01 2.802706e-01 -5.447525e-01 -4.198741e-01 -3.351284e-01 1.741351e-01 1.591383e-01 -1.270043e+00
<VARIANCE> 25
 9.966745e+00 3.110409e+01 8.080729e+00 1.123993e+01 2.035353e+01 1.727590e+01 1.838434e+01 2.354983e+01 1.254343e+01 2.171543e+01 1.274403e+01 1.612169e+01 8.643934e-01 1.494811e+00 1.534708e+00 1.124799e+00 1.860040e+00 1.972125e+00 2.832556e+00 2.468692e+00 1.997047e+00 2.206870e+00 1.191363e+00 1.966343e+00 4.690633e-01
<GCONST> 8.468239e+01
~s "ST_E_4_1"
<MEAN> 25
 -9.937825e+00 6.754899e+00 -1.038244e+00 -5.778895e-01 2.113948e+00 2.505894e+00 -4.782362e+00 -1.098627e+00 -3.528649e+00 -3.412462e+00 -1.067817e+00 1.275835e+00 -1.330793e-01 1.250514e-01 1.728994e-01 1.811320e-02 -1.105504e-01 -1.264251e-02 9.858778e-03 -9.671319e-03 -3.783258e-02 -4.689536e-02 1.849239e-02 1.079221e-01 -1.380113e-01
<VARIANCE> 25
 8.505995e+00 5.347788e+00 1.137301e+01 8.874960e+00 1.405704e+01 1.840757e+01 1.507192e+01 8.814215e+00 1.715018e+01 1.203353e+01 1.521302e+01 1.129712e+01 1.868308e-01 2.566577e-01 4.659182e-01 7.014855e-01 9.876764e-01 1.146981e+00 1.327258e+00 1.097509e+00 1.501066e+00 1.555654e+00 1.591527e+00 1.017145e+00 1.085100e-01
<GCONST> 7.075422e+01
~s "ST_l_2_1"
<MEAN> 25
 1.338673e+01 -6.032156e+00 9.139660e+00 -2.196149e+00 -6.421380e+00 -9.503610e+00 -6.668417e+00 -3.605610e+00 3.050850e+00 -3.344571e+00 -3.137436e+00 9.961579e-01 6.431730e-01 -2.625085e-01 1.143044e+00 7.420387e-01 -1.452797e+00 -9.324671e-02 -4.048973e-03 -3.811210e-01 -1.444784e+00 2.589215e-01 5.620434e-01 -8.693011e-02 2.336351e-01
<VARIANCE> 25
 5.558515e+01 5.939970e+01 1.004301e+02 1.084427e+02 1.052248e+02 1.015843e+02 1.167683e+02 7.195731e+01 7.825615e+01 6.353719e+01 5.907318e+01 4.491050e+01 4.642531e+00 8.927421e+00 1.162194e+01 9.919900e+00 1.601612e+01 8.951659e+00 2.167788e+01 8.588158e+00 1.220578e+01 8.517706e+00 6.761802e+00 4.045450e+00 6.283804e+00
<GCONST> 1.265080e+02
~s "ST_l_3_1"
<MEAN> 25
 1.477707e+01 -9.406620e+00 1.692586e+01 -3.972016e+00 -1.259261e+01 -6.246352e+00 -5.872057e+00 -3.252365e+00 -7.672673e+00 3.147051e+00 -4.235128e-01 -1.050380e+00 -2.704810e-01 7.977863e-01 1.310789e+00 -4.782020e-01 -8.665224e-01 4.970590e-01 8.215034e-01 -2.681820e-02 -2.023049e+00 3.735813e-01 1.941270e-01 -8.015171e-02 -3.070874e-01
<VARIANCE> 25
 2.677279e+01 2.259143e+01 1.333502e+02 1.199754e+02 6.052617e+01 8.403768e+01 1.260351e+02 1.192114e+02 1.126065e+02 6.918190e+01 6.208847e+01 4.541369e+01 7.163783e-01 2.319761e+00 4.200263e+00 6.612325e+00 3.687725e+00 8.995367e+00 5.189834e+00 8.884626e+00 5.111056e+00 6.412209e+00 4.712057e+00 3.766036e+00 1.215006e+00
<GCONST> 1.148142e+02
~s "ST_l_4_1"
<MEAN> 25
 1.594313e+01 5.492606e+00 1.418599e+01 -4.431028e+00 -1.473880e+01 2.448234e+00 1.665293e+00 -1.212833e+01 -1.558188e+01 2.482641e+00 1.657627e+00 -1.140620e+00 8.029081e-01 2.761366e+00 -2.644832e+00 1.158560e+00 1.395102e+00 4.292246e-01 -4.464220e-01 -1.229388e+00 1.075286e+00 -1.065886e+00 4.139779e-02 9.445674e-02 -1.955069e+00
<VARIANCE> 25
 3.228584e+01 7.796832e+01 1.396501e+02 7.613632e+01 1.087881e+02 8.871708e+01 1.235057e+02 1.120027e+02 7.435394e+01 7.036298e+01 5.102250e+01 2.192681e+01 1.729638e+00 3.701078e+00 8.125183e+00 6.921794e+00 9.729407e+00 9.820924e+00 9.349681e+00 1.162115e+01 6.730394e+00 6.865217e+00 3.661193e+00 2.250492e+00 1.289070e+00
<GCONST> 1.186716e+02
~s "ST_b_2_1"
<MEAN> 25
 1.882548e+01 1.451631e+01 3.679523e+00 5.243112e+00 1.176045e+00 3.703212e+00 -3.567863e+00 -1.751903e+01 -1.292019e+01 -1.087860e+00 -2.102306e-02 -3.650828e+00 -4.774789e-01 -1.069826e+00 8.605938e-01 -9.980440e-01 -1.771775e-01 -1.499578e+00 -1.108899e+00 2.661169e+00 1.976048e+00 -9.922986e-01 2.335119e-01 1.990282e-01 8.481515e-01
<VARIANCE> 25
 2.015817e+01 3.676759e+01 5.740554e+01 4.774652e+01 4.236300e+01 4.849104e+01 6.145925e+01 7.580286e+01 6.153522e+01 3.603434e+01 1.854661e+01 3.341091e+01 2.487669e+00 9.399213e+00 5.683019e+00 6.130064e+00 5.383682e+00 4.596668e+00 4.966682e+00 5.548754e+00 5.989890e+00 4.251008e+00 2.811137e+00 1.965153e+00 3.315843e+00
<GCONST> 1.100514e+02
~s "ST_b_3_1"
<MEAN> 25
 1.875637e+01 1.065918e+01 2.183037e+00 4.319996e+00 3.366273e+00 1.493623e+00 -6.058942e+00 -1.177959e+01 -8.957312e+00 -3.646920e+00 -1.460835e+00 -4.342774e+00 -2.414010e-01 -6.959738e+00 2.010464e-01 -2.713990e+00 -1.781948e+00 -3.159523e+00 -6.227021e-02 3.507045e+00 2.940168e+00 1.820705e+00 5.140195e-01 -4.232158e-01 4.531285e+00
<VARIANCE> 25
 2.185031e+01 6.630163e+01 5.827982e+01 4.343467e+01 3.984502e+01 5.162303e+01 4.649911e+01 5.535348e+01 5.113976e+01 4.226913e+01 2.822827e+01 2.388697e+01 2.898292e+00 5.205942e+00 1.269805e+01 1.540969e+01 7.342269e+00 5.913250e+00 6.113176e+00 1.082488e+01 1.115201e+01 4.665754e+00 3.973184e+00 3.213660e+00 1.921424e+00
<GCONST> 1.138417e+02
~s "ST_b_4_1"
<MEAN> 25
 1.962473e+01 -6.478517e+00 1.156400e+00 -2.222148e+00 -2.198138e+00 -6.165716e+00 -5.785869e+00 -6.767828e+00 -4.881448e+00 3.784609e+00 2.804656e+00 -4.311105e+00 -7.868747e-01 -7.649633e+00 1.265850e+00 -3.829450e+00 -2.723103e+00 -2.995681e+00 1.213891e+00 3.038415e+00 3.086946e+00 2.509484e+00 -2.960056e-01 -6.596886e-01 5.587561e+00
<VARIANCE> 25
 1.787142e+01 3.719542e+01 7.568526e+01 1.025599e+02 3.609266e+01 9.661615e+01 6.362367e+01 6.183161e+01 4.720695e+01 6.048363e+01 4.284992e+01 1.926660e+01 4.269417e+00 5.666262e+00 1.708465e+01 1.253882e+01 6.865005e+00 7.096570e+00 9.095511e+00 1.537834e+01 1.909361e+01 4.939981e+00 4.829123e+00 4.846239e+00 1.964596e+00
<GCONST> 1.182652e+02
~s "ST_o_2_1"
<MEAN> 25
 1.541640e+01 -6.975640e+00 -3.672180e+00 -1.745126e+01 4.264164e+00 1.310963e+00 6.352848e-01 -4.262489e+00 -3.290161e+00 2.001128e+00 4.608109e+00 -1.934558e+00 1.093697e+00 -3.901808e-01 7.930977e-01 3.956646e-02 -6.253046e-01 -8.780870e-01 1.011192e-01 -3.473870e-01 -1.090591e-01 8.286321e-01 -1.187119e+00 -2.317903e-01 1.048336e+00
<VARIANCE> 25
 5.851667e+01 6.113987e+01 9.117330e+01 7.134682e+01 9.434010e+01 1.203092e+02 9.199661e+01 5.481287e+01 7.757397e+01 5.884142e+01 6.738242e+01 2.640977e+01 6.089106e+00 8.861104e+00 7.964346e+00 9.458867e+00 1.070490e+01 9.936706e+00 1.114770e+01 6.822880e+00 9.138169e+00 5.928538e+00 5.633267e+00 3.525464e+00 1.178739e+01
<GCONST> 1.234391e+02
~s "ST_o_3_1"
<MEAN> 25
 1.790283e+01 4.039677e+00 -1.102966e+01 -7.490913e+00 4.959519e+00 2.525735e+00 -5.439703e+00 -3.188981e+00 1.581786e+00 6.203383e+00 -1.899704e+00 -2.720707e+00 -2.032859e+00 2.607055e+00 -2.049640e+00 9.421026e-01 -9.904541e-01 1.554268e+00 2.103176e-01 5.083404e-01 8.733423e-01 -1.035214e+00 1.465226e+00 6.944399e-01 -4.458000e+00
<VARIANCE> 25
 2.445026e+01 2.658893e+01 6.557372e+01 3.757711e+01 2.473951e+01 3.164041e+01 3.991071e+01 2.029022e+01 3.429509e+01 2.784900e+01 3.794468e+01 2.273640e+01 4.462934e+00 3.784228e+00 1.196580e+01 6.844108e+00 6.143739e+00 4.614377e+00 8.729318e+00 3.665344e+00 5.588327e+00 2.892244e+00 6.008421e+00 2.694901e+00 3.520446e+00
<GCONST> 1.080833e+02
~s "ST_o_4_1"
<MEAN> 25
 1.285920e+00 6.489443e+00 -7.401243e+00 -6.040437e+00 -3.708793e+00 7.655420e-01 -9.907506e-01 -4.635647e-01 -1.959922e-01 7.931810e-01 2.267959e+00 5.000300e-01 -2.125949e+00 -1.880327e+00 2.019999e+00 6.409554e-01 -3.446523e-01 -1.672759e+00 7.403354e-01 6.964160e-01 -3.075821e-01 -2.552624e-01 -1.076245e-01 7.946558e-01 1.606034e-01
<VARIANCE> 25
 3.845777e+01 7.389145e+00 3.210236e+01 2.411721e+01 1.949103e+01 2.009052e+01 2.655883e+01 1.920377e+01 2.455848e+01 1.950405e+01 2.182504e+01 1.438950e+01 4.898533e+00 5.048398e+00 4.604644e+00 2.483380e+00 5.210198e+00 3.957274e+00 3.679238e+00 3.416356e+00 2.976178e+00 4.186954e+00 2.272307e+00 3.188209e+00 1.073664e+01
<GCONST> 1.004529e+02
~s "ST_aw_2_1"
<MEAN> 25
 -9.185357e+00 3.214846e+00 -6.793166e+00 4.610796e+00 1.248657e+00 2.844037e+00 1.054739e+00 7.928512e-01 4.561228e+00 -2.013454e+00 -1.250157e+00 -4.459653e-01 -8.397182e-03 7.582558e-03 4.399991e-03 -5.258624e-03 -1.583250e-02 -3.358579e-02 -1.169128e-02 4.513284e-02 1.016822e-01 4.219905e-02 -2.132801e-02 1.466016e-02 2.888286e-03
<VARIANCE> 25
 2.196170e+00 3.200294e+00 6.145418e+00 8.623627e+00 1.088894e+01 1.152567e+01 1.221210e+01 1.495100e+01 1.205006e+01 1.629963e+01 9.587826e+00 1.173511e+01 1.039086e-01 2.222764e-01 3.690261e-01 5.463021e-01 6.800321e-01 9.774834e-01 1.137265e+00 1.230942e+00 1.189343e+00 1.471927e+00 1.093616e+00 1.351170e+00 5.360071e-02
<GCONST> 6.449265e+01
~s "ST_aw_3_1"
<MEAN> 25
 -1.414155e+01 3.164574e+00 -4.690290e+00 7.000464e+00 4.731167e+00 9.736655e-01 -1.357493e+00 4.368295e-01 7.554873e-01 -2.961925e+00 1.490732e+00 4.788146e-01 -6.995787e-02 -4.485531e-02 -1.808732e-02 -8.501932e-02 -2.632509e-02 -7.229272e-02 9.277143e-03 9.591258e-02 -5.402450e-03 2.397652e-02 4.416037e-02 1.121215e-01 -2.545905e-02
<VARIANCE> 25
 4.031445e+00 3.089622e+00 7.330807e+00 1.003322e+01 1.303660e+01 1.377060e+01 1.224683e+01 1.070942e+01 1.217041e+01 1.322245e+01 1.506559e+01 1.290578e+01 1.247029e-01 2.417928e-01 4.995861e-01 8.044056e-01 6.964756e-01 1.110897e+00 1.142341e+00 9.361365e-01 1.026105e+00 1.271215e+00 1.802913e+00 1.451177e+00 5.360071e-02
<GCONST> 6.688352e+01
~s "ST_aw_4_1"
<MEAN> 25
 -5.056382e+00 5.806878e+00 -2.694879e+00 4.419333e+00 -1.285860e+00 -6.525530e-01 -4.067136e+00 7.165249e-01 2.291021e+00 -1.934529e+00 -3.020362e-01 2.234557e+00 8.927027e-02 5.888250e-02 1.807573e-01 -1.028168e-03 -9.423026e-02 -1.706483e-02 -5.893099e-02 -1.415154e-01 -8.720631e-02 -6.759712e-02 2.470133e-02 -1.957498e-02 6.344604e-02
<VARIANCE> 25
 5.211790e+01 4.986639e+01 2.918709e+01 1.857634e+01 3.233957e+01 4.921292e+01 3.538031e+01 2.391480e+01 1.402657e+01 1.341798e+01 1.584018e+01 1.060534e+01 6.883936e+00 6.693108e+00 2.122421e+00 1.596931e+00 2.643241e+00 3.982441e+00 4.644585e+00 1.752258e+00 1.840871e+00 1.353451e+00 1.522823e+00 1.294199e+00 4.832369e+00
<GCONST> 9.724807e+01
~s "ST_e_2_1"
<MEAN> 25
 1.422564e+01 -2.577293e+00 1.290782e+01 7.450193e+00 -1.151526e+01 -1.581204e+01 4.446641e+00 -4.457539e-01 -1.101259e+01 -2.001454e+00 -1.798001e+00 1.230768e-01 1.889676e-01 1.577003e+00 1.069998e-01 1.063746e+00 -1.248374e+00 7.602272e-01 6.428653e-01 -7.961726e-01 -4.847267e-03 -2.278903e-01 -2.297400e-02 -1.061353e-01 -1.688412e+00
<VARIANCE> 25
 3.251110e+01 7.081853e+01 9.337992e+01 9.538897e+01 1.112877e+02 7.195801e+01 9.281670e+01 1.161723e+02 8.042022e+01 4.880646e+01 4.934507e+01 3.703120e+01 5.261920e+00 1.034477e+01 6.329282e+00 1.156131e+01 1.127771e+01 8.012911e+00 8.737884e+00 1.400103e+01 1.019917e+01 4.281677e+00 5.865249e+00 4.132013e+00 9.740909e+00
<GCONST> 1.236842e+02
~s "ST_e_2_2"
<MEAN> 25
 1.400749e+01 -1.585428e+01 1.635936e+01 -7.126274e+00 -1.142672e+01 -1.533719e+01 -2.449326e+00 5.795652e+00 -6.203333e+00 9.358301e-01 3.115382e-01 2.923119e+00 -3.290747e-01 1.193653e+00 8.465037e-01 -5.439532e-01 -2.496296e-01 -3.161848e-01 1.079255e+00 -1.116827e+00 -1.466825e+00 6.397258e-01 -1.140001e+00 1.015682e+00 -5.587025e-01
<VARIANCE> 25
 1.228601e+01 1.665888e+01 3.592537e+01 6.867379e+01 5.361805e+01 3.885809e+01 4.087126e+01 4.430834e+01 5.068200e+01 2.317043e+01 2.563463e+01 1.798956e+01 5.903737e-01 2.437814e+00 3.125807e+00 6.305812e+00 3.325495e+00 2.768262e+00 4.317871e+00 2.320285e+00 3.880572e+00 1.948374e+00 3.074983e+00 2.557650e+00 1.731768e+00
<GCONST> 9.992877e+01
~s "ST_e_3_1"
<MEAN> 25
 5.774270e+00 2.733217e+00 1.125253e+01 -2.455971e+00 -6.571728e+00 -7.208031e+00 6.557006e-01 -2.566320e+00 -5.099813e+00 -8.233128e-01 -5.288878e-02 2.504701e+00 -4.647740e-01 3.510133e-02 9.057859e-01 -8.247151e-01 -2.739485e-01 9.855360e-01 1.205289e-01 -9.906669e-01 -3.280441e-01 -7.423548e-02 4.212947e-01 -1.172522e-02 3.503882e-01
<VARIANCE> 25
 1.232925e+02 1.415299e+02 1.161944e+02 8.249615e+01 9.857301e+01 6.462075e+01 7.961829e+01 4.553641e+01 7.315182e+01 3.529138e+01 4.614973e+01 2.744386e+01 1.252072e+01 1.872593e+01 1.486635e+01 1.209441e+01 1.620721e+01 7.379594e+00 1.379706e+01 7.230400e+00 8.071651e+00 4.278178e+00 3.827587e+00 3.663547e+00 1.320124e+01
<GCONST> 1.256362e+02
~s "ST_e_4_1"
<MEAN> 25
 1.511376e+01 2.952818e-01 7.401530e+00 -5.303621e-01 -9.876650e+00 -5.223554e+00 9.845757e-02 -4.914846e+00 -3.001931e+00 -3.805551e-01 -1.218827e+00 -3.505868e-02 -8.750474e-01 1.540946e+00 -7.828732e-01 9.195266e-02 9.581468e-01 6.596574e-01 3.560269e-01 -2.924946e-01 2.911880e-01 -1.198872e-01 1.410788e-01 -3.951392e-02 -1.087295e+00
<VARIANCE> 25
 2.732906e+01 8.406972e+01 1.753942e+02 7.291446e+01 1.642323e+02 1.422737e+02 9.547571e+01 1.024517e+02 1.066579e+02 4.940121e+01 4.293979e+01 4.163904e+01 9.005805e+00 8.739156e+00 1.125090e+01 1.008680e+01 1.315236e+01 9.436950e+00 1.153059e+01 1.098081e+01 8.261945e+00 4.462451e+00 3.930842e+00 2.821175e+00 3.408620e+00
<GCONST> 1.244480e+02
~s "ST_e_4_2"
<MEAN> 25
 1.078865e+01 4.466395e+00 2.396818e+01 -2.673129e+00 -2.005252e+01 -2.692851e+00 2.813748e+00 -7.804621e+00 -1.445980e+01 1.599670e-01 -8.671249e-01 -4.086156e+00 -3.549279e-02 1.279007e+00 -1.016801e+00 8.810700e-01 2.740579e-01 7.030343e-02 -3.064828e-01 -8.504204e-02 6.095231e-01 -1.208852e-01 6.383749e-02 -2.164212e-01 -1.311332e+00
<VARIANCE> 25
 1.580309e+01 5.884086e+01 5.577658e+01 9.141049e+01 7.182611e+01 5.436056e+01 1.024366e+02 7.511482e+01 6.544681e+01 6.527408e+01 3.847428e+01 4.669026e+01 2.293036e+00 8.546536e+00 8.415766e+00 9.477963e+00 1.164164e+01 5.007010e+00 9.332811e+00 6.576094e+00 1.012234e+01 4.524032e+00 3.393447e+00 6.037751e+00 7.128518e+00
<GCONST> 1.187352e+02
~s "ST_r_2_1"
<MEAN> 25
 1.099390e+01 -1.320598e+01 1.943104e+00 -1.356429e+01 7.885351e-01 -6.872872e+00 2.948781e+00 -1.305873e+00 8.307374e+00 6.620062e-02 -7.852554e+00 -6.831965e+00 1.533354e-01 -2.054336e-01 2.154267e-01 2.110502e-01 -6.879835e-02 -4.346055e-01 -2.814332e-01 4.877986e-01 1.143611e-01 -3.320695e-01 2.012185e-01 4.008201e-01 -1.199507e-01
<VARIANCE> 25
 3.633507e+01 2.920355e+01 2.527110e+01 3.839758e+01 4.028090e+01 3.823764e+01 5.252921e+01 6.598880e+01 4.298667e+01 3.559888e+01 3.295187e+01 2.894449e+01 4.832180e-01 6.005751e-01 9.583676e-01 8.323711e-01 1.299025e+00 2.523059e+00 1.731148e+00 1.707597e+00 1.850137e+00 2.111193e+00 1.690912e+00 1.051420e+00 2.219411e-01
<GCONST> 9.071621e+01
~s "ST_r_2_2"
<MEAN> 25
 1.164799e+01 -7.204582e+00 1.838956e+00 -3.677455e+00 -1.464873e+00 -2.908768e+00 -3.793174e-02 -2.250065e+00 -6.159118e-01 8.715891e-01 -4.346310e+00 -3.546555e+00 5.408772e-02 6.457150e-02 -8.326125e-02 2.022771e-01 1.963821e-01 -3.290318e-02 -6.299343e-01 1.531529e-01 3.482828e-01 -1.417918e-01 -4.031104e-01 1.302515e-02 -2.290663e-01
<VARIANCE> 25
 1.032137e+02 1.482954e+02 9.183070e+01 1.236678e+02 7.815133e+01 1.137390e+02 1.139396e+02 8.706183e+01 5.666759e+01 6.244415e+01 4.144749e+01 4.119372e+01 1.543046e+00 1.220728e+00 2.232398e+00 2.727211e+00 1.931871e+00 2.633476e+00 3.002253e+00 3.024088e+00 3.134229e+00 2.458427e+00 2.301957e+00 1.675867e+00 1.037101e+00
<GCONST> 1.085303e+02
~s "ST_r_3_1"
<MEAN> 25
 1.456068e+01 -1.639431e+01 5.087876e+00 -1.210617e+01 -9.223517e-01 -6.903874e+00 -1.477509e+00 -9.776804e-01 7.710838e+00 1.002319e+00 -4.302369e+00 -5.196506e+00 1.466479e+00 5.172968e-03 -2.883822e-02 3.197356e+00 -1.584808e+00 1.190195e+00 -1.476121e+00 6.543854e-01 -1.316993e+00 6.234645e-01 7.529191e-01 7.844895e-01 -2.325731e+00
<VARIANCE> 25
 1.837263e+01 1.976209e+01 2.008415e+01 4.034739e+01 4.646006e+01 7.820660e+01 5.779715e+01 1.015734e+02 7.600446e+01 4.353180e+01 4.290192e+01 3.912476e+01 1.343426e+00 1.597067e+00 3.220246e+00 4.063163e+00 3.594811e+00 6.240351e+00 5.062383e+00 5.704959e+00 7.376405e+00 5.345756e+00 3.421730e+00 3.730762e+00 1.952620e+00
<GCONST> 1.076437e+02
~s "ST_r_3_2"
<MEAN> 25
 8.504635e+00 -3.690544e+00 1.302661e+00 -2.950318e-01 -3.911499e-01 -3.624915e+00 -1.462204e+00 -1.624259e+00 1.228224e+00 3.958027e-01 -4.212415e+00 -1.466239e+00 -4.748449e-03 5.523403e-01 -6.211973e-01 1.312173e+00 -5.250773e-01 1.096434e+00 -9.402840e-01 -3.677712e-02 2.277850e-01 -1.019275e-01 2.721711e-01 8.623935e-02 -1.667621e+00
<VARIANCE> 25
 1.286273e+02 1.484150e+02 7.744077e+01 1.021800e+02 5.817659e+01 1.350591e+02 8.484856e+01 8.247869e+01 4.673681e+01 4.527203e+01 3.978687e+01 4.246731e+01 3.121049e+00 4.666607e+00 3.855729e+00 7.816876e+00 4.316172e+00 9.332863e+00 6.375418e+00 5.242060e+00 4.914157e+00 3.340755e+00 3.166219e+00 3.358489e+00 4.688835e+00
<GCONST> 1.176893e+02
~s "ST_r_4_1"
<MEAN> 25
 1.563801e+01 -7.461427e+00 -2.298523e+00 4.032345e+00 -2.364386e+00 -3.776962e+00 -2.872725e+00 -1.412611e+00 1.045024e+00 1.290741e+00 -2.687181e+00 -3.555095e+00 -2.977091e-01 1.893187e+00 -8.316689e-01 1.166735e+00 4.204873e-01 2.124549e-01 -4.162544e-01 -4.248188e-01 -3.034246e-01 -2.908673e-01 3.358896e-01 4.087933e-01 -1.816029e+00
<VARIANCE> 25
 7.921866e+01 1.007849e+02 8.809944e+01 6.390348e+01 5.942049e+01 5.590028e+01 5.617187e+01 5.764819e+01 3.660184e+01 3.817932e+01 3.550383e+01 2.735185e+01 3.649275e+00 7.019886e+00 7.088701e+00 1.064829e+01 6.342693e+00 6.637225e+00 7.146811e+00 6.640983e+00 4.947193e+00 4.146697e+00 3.957838e+00 3.152827e+00 4.663081e+00
<GCONST> 1.161317e+02
~s "ST_h_2_1"
<MEAN> 25
 9.462358e-01 5.741187e+00 -5.596185e+00 -3.443640e+00 1.419448e-01 6.976720e+00 8.268303e-01 2.277079e-02 -2.266940e+00 -3.128996e-01 -3.052550e-01 1.452694e+00 -5.473471e-01 2.039838e-01 1.368622e-02 4.349619e-02 -1.923921e-01 5.876890e-02 1.270484e-01 4.355971e-01 2.553365e-02 -2.786056e-01 1.136984e-02 8.935562e-02 -6.660968e-01
<VARIANCE> 25
 1.326609e+02 3.617262e+01 1.121731e+02 9.584003e+01 2.208229e+01 6.426269e+01 5.071759e+01 4.495345e+01 2.392166e+01 1.456162e+01 1.411185e+01 1.810636e+01 1.739916e+00 2.125828e+00 4.028077e+00 3.593590e+00 1.578055e+00 1.652348e+00 3.821277e+00 1.596185e+00 1.675625e+00 1.428900e+00 1.467154e+00 1.182747e+00 1.476971e+00
<GCONST> 9.865312e+01
~s "ST_h_3_1"
<MEAN> 25
 -1.190001e+00 5.089331e+00 -8.693430e-01 1.416428e+00 4.712899e-01 1.507293e+00 -2.603946e+00 -2.457365e+00 -9.962331e-01 -2.481445e+00 -1.283236e+00 -3.098592e-01 -3.164908e-01 1.334473e-01 -5.655363e-02 1.402855e-03 -7.234998e-02 -1.504226e-01 2.607704e-01 3.982622e-01 -3.895413e-01 -1.762375e-01 2.164119e-01 1.164765e-01 -4.824923e-01
<VARIANCE> 25
 1.298028e+02 9.705598e+01 7.199943e+01 4.150162e+01 1.656302e+01 3.534224e+01 4.215052e+01 3.450417e+01 2.585709e+01 2.866451e+01 1.915715e+01 1.286113e+01 6.061314e-01 1.139984e+00 2.719396e+00 2.386020e+00 1.903031e+00 1.247883e+00 3.806036e+00 2.394433e+00 1.903425e+00 2.035261e+00 1.322697e+00 7.484232e-01 1.003354e+00
<GCONST> 9.508286e+01
~s "ST_h_4_1"
<MEAN> 25
 -6.573183e+00 5.497993e+00 -5.340515e-01 2.415404e+00 2.976509e-01 3.207927e+00 -3.033478e+00 1.034128e+00 -4.963674e-01 -8.880147e-01 -3.796464e-01 -2.443887e-01 -5.636969e-02 -3.528962e-01 5.683006e-02 -1.990791e-02 -4.254170e-02 1.253399e-01 9.816846e-02 4.108389e-02 -1.055165e-01 -7.258069e-03 1.803476e-01 1.333925e-01 8.436032e-02
<VARIANCE> 25
 7.261887e+01 3.268573e+01 4.324126e+01 2.734110e+01 1.484080e+01 3.049402e+01 2.730145e+01 2.904933e+01 2.152235e+01 1.538612e+01 1.136940e+01 1.513784e+01 7.757118e-01 1.196872e+00 1.659220e+00 1.322022e+00 2.068783e+00 1.380427e+00 2.113675e+00 1.642062e+00 1.898019e+00 1.740350e+00 1.374691e+00 1.429173e+00 7.103270e-01
<GCONST> 8.906897e+01
~s "ST_u_2_1"
<MEAN> 25
 2.197522e+01 2.172606e+00 -7.682548e+00 -4.580345e+00 -6.437483e-01 4.132194e+00 -5.757862e+00 -1.355872e+01 -6.573067e+00 4.370914e+00 4.077610e-01 -1.785826e+00 -2.273910e-01 2.754735e+00 -1.327795e+00 -1.421052e+00 8.702540e-01 1.559889e+00 5.606037e-01 8.998407e-02 -6.751345e-01 -1.127249e+00 6.392173e-01 7.728628e-01 -1.737499e+00
<VARIANCE> 25
 2.453591e+01 6.780265e+01 6.508020e+01 6.970697e+01 5.274047e+01 4.594115e+01 6.250108e+01 8.575172e+01 7.832549e+01 4.047319e+01 3.655066e+01 2.348427e+01 2.650403e+00 3.759900e+00 5.564090e+00 6.798689e+00 6.825600e+00 6.024512e+00 6.155632e+00 6.166488e+00 6.984004e+00 4.250564e+00 3.739918e+00 2.393977e+00 1.809700e+00
<GCONST> 1.124405e+02
~s "ST_u_3_1"
<MEAN> 25
 1.645838e+01 1.421856e+01 -7.474588e+00 -7.463162e+00 3.714202e-01 6.233011e+00 -1.616750e+00 -7.365040e+00 -7.515944e+00 -4.440756e+00 1.007050e+00 1.427711e+00 -1.734905e+00 4.701596e-01 1.448738e+00 1.239981e+00 -4.085815e-01 -3.790477e-01 3.669934e-01 6.636696e-01 4.347977e-01 -4.336351e-01 -2.490105e-01 -4.305137e-02 -1.436670e+00
<VARIANCE> 25
 4.332522e+01 4.000110e+01 4.467622e+01 7.259496e+01 4.470878e+01 5.838450e+01 2.322859e+01 6.134273e+01 2.709289e+01 2.217149e+01 2.188686e+01 2.212561e+01 2.245895e+00 2.079001e+00 2.897307e+00 2.629255e+00 2.224071e+00 3.241911e+00 1.879110e+00 3.713085e+00 3.374000e+00 1.185296e+00 1.792171e+00 1.373652e+00 1.071254e+00
<GCONST> 9.904415e+01
~s "ST_u_3_2"
<MEAN> 25
 8.147754e+00 3.447302e+00 -8.994198e+00 -6.137893e+00 -1.215296e+00 2.338840e+00 -1.857734e+00 -1.956030e+00 -6.915826e-01 -4.793848e-01 -9.463128e-01 -1.386803e-01 -2.411194e+00 -5.469976e-01 1.141387e+00 3.438863e-01 -5.856141e-01 -6.764263e-01 -1.869363e-02 -3.204788e-02 -1.836846e-01 -6.901361e-02 2.754104e-01 1.819730e-01 -1.246234e+00
<VARIANCE> 25
 1.178708e+02 4.163411e+01 5.429943e+01 4.132653e+01 3.277474e+01 2.740326e+01 3.396235e+01 6.343984e+01 7.393654e+01 2.332931e+01 1.478708e+01 2.243810e+01 4.414408e+00 1.234542e+00 2.038154e+00 4.141984e+00 3.936509e+00 2.945361e+00 3.694171e+00 2.508136e+00 3.153681e+00 2.220353e+00 1.511017e+00 1.760559e+00 3.187042e+00
<GCONST> 1.024839e+02
~s "ST_u_4_1"
<MEAN> 25
 1.636887e+00 1.194644e+01 8.801338e-01 3.832533e+00 9.177111e-01 1.840952e+00 -2.193676e+00 -4.427158e+00 -2.473724e+00 -3.245467e+00 -1.081809e-01 1.100081e-01 -2.330812e+00 -1.486328e+00 -3.664986e-01 7.618459e-01 4.637870e-01 -1.204076e-01 1.894961e-01 5.256389e-01 1.762137e-01 1.195185e-01 -2.296955e-01 -4.492775e-01 -1.343572e+00
<VARIANCE> 25
 6.036657e+01 5.116179e+01 4.310773e+01 3.386545e+01 2.446362e+01 3.621312e+01 2.686223e+01 4.256205e+01 3.616209e+01 1.725420e+01 1.625130e+01 2.350121e+01 3.016165e+00 2.367766e+00 2.209878e+00 2.726724e+00 2.578626e+00 2.665420e+00 1.965167e+00 3.314769e+00 2.109660e+00 1.400866e+00 1.547897e+00 1.240005e+00 1.138657e+00
<GCONST> 9.690707e+01
~s "ST_u_4_2"
<MEAN> 25
 7.586073e+00 -2.584867e+00 -2.325498e+00 -6.779015e+00 2.117819e-01 -2.677706e+00 -2.161764e+00 -2.021106e+00 2.709218e-01 4.437091e-01 8.365335e-01 7.386229e-01 1.995953e+00 -2.329108e+00 2.615850e+00 -2.012822e+00 5.267767e-01 -1.538660e+00 -8.425450e-01 -3.441359e-01 -4.622063e-01 7.932683e-01 7.105935e-01 1.570592e-01 5.055776e+00
<VARIANCE> 25
 1.401706e+02 8.303700e+01 9.448779e+01 7.725318e+01 4.810833e+01 7.876495e+01 5.681702e+01 8.845383e+01 5.962354e+01 5.205294e+01 2.721394e+01 3.344697e+01 1.084870e+01 7.051782e+00 9.517159e+00 7.343506e+00 4.565658e+00 7.795055e+00 8.326728e+00 7.432740e+00 5.696795e+00 6.070458e+00 3.319816e+00 4.055970e+00 1.140852e+01
<GCONST> 1.206804e+02
~s "ST_k_2_1"
<MEAN> 25
 1.464155e+01 -6.461887e+00 5.374053e+00 -2.336955e+00 -1.325278e+00 -4.922036e+00 -4.193427e-01 -2.312712e-01 -5.913919e+00 2.532048e+00 -3.483629e+00 -3.454295e+00 -1.738515e-01 2.080055e+00 -2.319297e+00 2.011212e+00 1.095996e+00 1.841144e-01 -4.204146e-01 -1.274525e-01 5.619743e-01 -1.350361e-01 3.138475e-01 3.256813e-01 -2.577122e+00
<VARIANCE> 25
 3.852436e+01 8.181905e+01 2.085731e+02 1.184808e+02 1.598204e+02 1.167546e+02 1.103590e+02 9.298736e+01 9.822490e+01 6.628322e+01 8.429710e+01 5.757144e+01 2.716578e+00 7.826059e+00 1.265609e+01 1.016463e+01 1.649372e+01 9.923087e+00 1.298359e+01 1.267616e+01 8.041365e+00 4.782135e+00 5.836670e+00 5.369158e+00 7.138475e+00
<GCONST> 1.276316e+02
~s "ST_k_3_1"
<MEAN> 25
 1.485130e+01 -6.204355e-01 -9.852921e+00 9.766030e-01 6.199419e+00 -1.015356e+00 -4.577422e+00 -8.632685e-01 2.565530e+00 7.754054e-01 -4.000375e+00 -4.682836e+00 -2.439725e+00 2.837698e+00 -5.652370e-01 -5.426688e-01 9.786917e-02 1.620346e+00 -2.919992e-01 -2.645581e-01 6.350304e-01 -7.264628e-01 9.494698e-01 7.695815e-01 -3.523468e+00
<VARIANCE> 25
 4.930553e+01 4.629263e+01 5.713911e+01 5.597577e+01 5.433408e+01 4.707715e+01 4.441455e+01 6.738534e+01 4.484686e+01 4.435793e+01 4.410632e+01 2.925763e+01 5.072014e+00 4.478745e+00 1.123165e+01 6.543908e+00 9.895412e+00 6.001491e+00 7.170460e+00 6.833235e+00 5.972447e+00 4.554207e+00 4.665990e+00 3.290219e+00 3.651321e+00
<GCONST> 1.150853e+02
~s "ST_k_4_1"
<MEAN> 25
 -1.627736e+00 1.957950e+00 -5.544964e+00 -8.218796e-01 -9.386438e-01 8.016189e-01 -1.016826e+00 -1.821282e-01 1.102012e+00 8.609567e-01 -2.344050e+00 -2.757500e+00 -1.608075e+00 4.751602e-01 1.426470e+00 3.533409e-01 -7.358052e-01 -3.417557e-02 3.328638e-01 1.276108e-02 -5.588951e-01 -2.855572e-01 2.751838e-01 2.939255e-01 -1.207006e+00
<VARIANCE> 25
 2.271660e+01 2.296900e+01 2.607993e+01 1.965308e+01 2.149941e+01 1.871113e+01 3.041787e+01 1.787180e+01 2.039924e+01 2.013095e+01 1.710054e+01 1.643741e+01 3.558899e+00 1.881135e+00 2.817283e+00 2.286348e+00 3.810453e+00 2.303453e+00 3.443661e+00 3.138451e+00 2.506292e+00 3.189467e+00 1.809677e+00 1.492494e+00 2.463812e+00
<GCONST> 9.468584e+01
~s "ST_k_4_2"
<MEAN> 25
 9.639955e+00 5.679664e+00 -6.043032e+00 -3.273502e+00 4.676229e+00 3.538070e+00 -3.173195e+00 -3.109750e+00 -2.164007e+00 -2.034562e+00 -1.393169e-01 -1.906573e+00 -7.535380e-01 -2.030871e-01 4.893634e-01 -2.088299e+00 -6.429284e-01 1.425688e+00 1.182941e+00 -4.478383e-01 -6.164799e-01 -6.257627e-02 1.259328e+00 5.466851e-01 2.417001e-01
<VARIANCE> 25
 7.986670e+01 6.926694e+01 7.798075e+01 7.085880e+01 1.069340e+02 5.547160e+01 5.020046e+01 8.037916e+01 4.522823e+01 6.059331e+01 6.599346e+01 2.540756e+01 6.480199e+00 6.373289e+00 9.268262e+00 6.124881e+00 8.093005e+00 6.835406e+00 5.252290e+00 5.450573e+00 4.809104e+00 5.019620e+00 4.193060e+00 2.910246e+00 4.298577e+00
<GCONST> 1.177849e+02
~s "ST_a_2_1"
<MEAN> 25
 2.068474e+01 -6.918658e+00 -4.401039e+00 -6.912118e+00 -1.262862e+00 2.358644e-01 -1.953841e+00 -7.092705e+00 -3.106879e+00 3.065857e+00 1.696000e+00 -4.089891e+00 -1.590200e-01 -4.826787e+00 8.652866e-01 -1.657722e+00 -4.136325e-01 -1.265949e+00 8.514377e-01 1.538981e+00 1.323578e+00 7.752646e-01 -8.939605e-01 -1.599546e+00 3.732943e+00
<VARIANCE> 25
 2.217539e+01 8.137601e+01 6.979823e+01 1.167452e+02 5.795779e+01 8.258530e+01 7.381676e+01 7.020275e+01 7.623151e+01 5.172579e+01 5.595922e+01 3.396975e+01 5.007095e+00 6.935991e+00 7.949114e+00 1.251865e+01 5.780860e+00 7.814334e+00 7.634626e+00 1.163014e+01 1.169526e+01 5.629547e+00 5.904841e+00 3.375062e+00 3.467579e+00
<GCONST> 1.201744e+02
~s "ST_a_2_2"
<MEAN> 25
 6.081956e+00 -3.438369e-01 1.051568e+00 -9.836150e-01 7.842572e-01 -3.490189e+00 -2.451203e+00 1.124521e-01 -7.605360e-01 -1.315702e+00 -2.187184e+00 7.392931e-02 1.547376e+00 -2.736789e+00 3.142725e-01 -1.482820e+00 4.512720e-01 -9.741432e-01 -3.206307e-01 9.610395e-01 -3.018942e-01 2.601976e-01 -1.743386e-01 -4.612068e-01 3.087233e+00
<VARIANCE> 25
 8.369456e+01 1.322034e+02 8.569611e+01 6.094221e+01 5.516782e+01 6.676855e+01 4.893457e+01 5.880416e+01 5.379552e+01 3.687260e+01 5.120113e+01 3.554121e+01 1.207816e+01 1.281587e+01 8.731759e+00 8.794083e+00 7.085242e+00 6.802636e+00 7.604368e+00 8.291017e+00 5.438430e+00 3.888274e+00 5.157485e+00 4.352806e+00 1.416052e+01
<GCONST> 1.213101e+02
~s "ST_a_2_3"
<MEAN> 25
 -1.139284e+01 4.951194e+00 -2.143159e+00 4.052450e+00 6.682900e+00 6.469392e+00 4.374791e+00 1.986114e+00 2.005857e+00 3.900158e-01 4.510336e+00 4.265476e+00 4.891320e+00 -8.299402e-01 -2.357325e-02 -3.165014e+00 2.589338e-01 -8.490396e-01 -2.086988e-01 -8.985518e-01 -6.304637e-01 2.837481e-01 -5.158123e-01 -7.136114e-01 6.542489e+00
<VARIANCE> 25
 1.062366e+02 1.636952e+01 1.281458e+01 6.239145e+01 2.149105e+01 3.341002e+01 1.442502e+01 1.028963e+01 1.118254e+01 9.406199e+00 1.372679e+01 6.709953e+00 8.553323e+00 5.313804e+00 2.750172e+00 8.254094e+00 3.614125e+00 4.009568e+00 2.493114e+00 2.454373e+00 1.731817e+00 1.295616e+00 1.610207e+00 1.445264e+00 1.831844e+01
<GCONST> 9.683195e+01
~s "ST_a_3_1"
<MEAN> 25
 1.813257e+01 -1.445722e+01 -1.270781e+00 -9.781738e+00 -1.543900e-01 -1.316398e+00 -1.995915e-01 -5.388321e+00 1.585030e+00 2.629568e+00 -2.154945e+00 -6.956663e+00 -1.394309e+00 -2.563179e+00 1.691014e+00 -1.693771e+00 6.714577e-01 -3.509499e-01 2.532343e-01 1.582331e+00 1.730696e+00 -7.240911e-01 -1.836124e+00 -1.019527e+00 2.096783e+00
<VARIANCE> 25
 2.163655e+01 3.288861e+01 6.924688e+01 8.794746e+01 4.307815e+01 7.195715e+01 9.060010e+01 9.812323e+01 8.829151e+01 6.306704e+01 6.198055e+01 3.170901e+01 1.721909e+00 4.363452e+00 4.649566e+00 7.038948e+00 6.504614e+00 5.831367e+00 8.673796e+00 8.093721e+00 8.276506e+00 5.792902e+00 4.820778e+00 3.427724e+00 1.900202e+00
<GCONST> 1.152778e+02
~s "ST_a_3_2"
<MEAN> 25
 1.047087e+01 -6.333964e+00 -3.768342e+00 -8.864518e+00 4.094268e+00 2.190745e+00 1.024845e+00 -1.535784e+00 5.122116e-01 1.796917e+00 -1.740600e+00 -1.206841e+00 3.085957e+00 -3.634275e+00 8.408697e-01 -2.866118e+00 4.195195e-02 -5.356975e-01 2.592535e-01 -9.094531e-01 -5.965638e-01 4.499633e-01 -9.691740e-01 -1.922917e+00 5.855629e+00
<VARIANCE> 25
 1.462582e+02 1.115858e+02 5.731757e+01 1.189113e+02 4.946803e+01 8.257912e+01 5.137695e+01 4.867068e+01 3.880236e+01 3.317867e+01 5.818217e+01 3.985091e+01 1.110619e+01 7.394780e+00 7.081205e+00 1.030507e+01 6.243287e+00 7.271065e+00 8.246128e+00 6.217184e+00 4.721314e+00 4.836235e+00 4.401574e+00 3.039328e+00 1.287740e+01
<GCONST> 1.202506e+02
~s "ST_a_3_3"
<MEAN> 25
 9.436090e+00 1.364388e+00 3.200018e+00 1.946140e-01 -2.484626e+00 -4.747047e+00 -2.516098e+00 -1.534042e+00 -3.496061e+00 -1.803295e+00 -1.716787e+00 -2.354810e+00 -3.045909e-01 -7.974030e-01 -3.865935e-01 -8.589819e-03 -1.180358e-01 -3.852533e-01 3.389852e-01 8.744901e-01 7.989174e-01 -2.754965e-01 1.052385e-01 -2.869565e-01 4.152421e-01
<VARIANCE> 25
 9.471433e+01 1.499157e+02 1.105917e+02 7.009432e+01 6.946928e+01 8.649302e+01 3.892746e+01 5.361662e+01 6.149137e+01 3.561871e+01 4.972137e+01 2.978319e+01 3.515605e+00 5.412120e+00 8.656099e+00 4.919826e+00 6.060556e+00 4.464534e+00 5.169144e+00 6.856833e+00 7.132767e+00 3.707141e+00 3.630236e+00 2.757386e+00 4.477705e+00
<GCONST> 1.164412e+02
~s "ST_a_3_4"
<MEAN> 25
 1.460336e+01 -1.162974e+01 6.285425e+00 -5.989806e+00 1.448110e-01 -1.028343e+01 -7.505686e+00 7.120105e+00 -1.189750e+00 4.857687e-01 -1.022041e+00 -3.476665e+00 2.094020e+00 -2.589100e+00 -1.711499e-01 -1.708065e+00 -4.829661e-01 1.428011e-01 -7.049589e-01 5.989344e-01 3.976859e-01 5.633687e-01 -5.089757e-01 -1.772192e+00 2.290389e+00
<VARIANCE> 25
 2.584939e+01 3.934372e+01 7.622980e+01 9.817049e+01 5.141191e+01 8.112256e+01 6.833849e+01 7.998759e+01 6.243625e+01 5.072663e+01 4.154772e+01 5.523677e+01 3.472503e+00 5.227587e+00 7.342002e+00 1.084764e+01 6.463026e+00 1.066492e+01 1.383302e+01 1.322180e+01 6.951729e+00 7.536545e+00 5.554900e+00 4.033407e+00 5.895310e+00
<GCONST> 1.200938e+02
~s "ST_a_4_1"
<MEAN> 25
 8.660893e+00 -1.311342e+01 2.679585e+00 -1.466402e+01 5.789795e+00 8.932261e-01 -5.758845e-01 -5.125117e-02 -7.003484e-01 1.641212e+00 -1.581822e+00 -6.099284e+00 9.847531e-01 -1.460169e+00 7.201787e-01 -1.447695e-01 1.478148e-01 1.543300e-01 -8.262663e-01 6.134921e-02 2.370442e-01 -4.253427e-01 -1.133619e+00 -1.107361e+00 1.173773e+00
<VARIANCE> 25
 8.894111e+01 7.216717e+01 2.741542e+01 8.614277e+01 4.953534e+01 5.748242e+01 6.706572e+01 4.201074e+01 6.619560e+01 3.895112e+01 4.016663e+01 4.760464e+01 3.281096e+00 2.172830e+00 1.668086e+00 5.685744e+00 4.316312e+00 7.517827e+00 5.632438e+00 4.884077e+00 9.222241e+00 4.890560e+00 2.281568e+00 2.651721e+00 4.524290e+00
<GCONST> 1.119162e+02
~s "ST_a_4_2"
<MEAN> 25
 1.319485e+01 -1.629523e+01 4.177210e+00 -1.556317e+01 4.200675e-02 -6.633176e+00 2.793135e+00 -1.272700e+00 6.390629e+00 2.925132e+00 -7.427820e+00 -8.248055e+00 -1.214672e+00 3.888648e-01 -2.260413e-01 -4.243307e-01 7.801477e-01 -1.396408e-01 1.287756e+00 1.805774e-01 1.222302e+00 -1.563900e+00 -1.348763e+00 1.726704e-01 7.134664e-01
<VARIANCE> 25
 2.583864e+01 2.045419e+01 2.990222e+01 3.100295e+01 3.021063e+01 3.416082e+01 5.488691e+01 7.592398e+01 4.819550e+01 3.504371e+01 2.807934e+01 2.637514e+01 6.989692e-01 1.273074e+00 2.263985e+00 2.299045e+00 2.445229e+00 3.129032e+00 5.584921e+00 4.097693e+00 4.164923e+00 4.022695e+00 5.534332e+00 2.718903e+00 2.769260e-01
<GCONST> 9.930671e+01
~s "ST_a_4_3"
<MEAN> 25
 1.085283e+01 -5.166272e+00 1.468413e+00 -4.064901e+00 -1.150723e+00 -6.108837e+00 -1.922115e+00 2.183140e+00 2.499348e-02 -3.517649e-02 -5.457080e+00 -4.361943e+00 -2.123802e-01 -4.377612e-02 -2.954718e-01 3.275319e-02 5.461736e-01 5.479659e-01 1.472496e-01 -1.930764e-01 1.731907e-01 2.384247e-01 -6.249952e-01 -9.918697e-04 -5.340920e-01
<VARIANCE> 25
 9.022900e+01 1.743376e+02 6.368186e+01 1.070937e+02 6.003751e+01 7.949194e+01 4.959233e+01 8.043449e+01 5.140286e+01 4.621859e+01 3.691753e+01 3.490606e+01 1.553311e+00 2.354942e+00 3.556199e+00 2.847935e+00 3.532950e+00 3.716102e+00 3.280743e+00 3.521152e+00 3.306906e+00 3.895762e+00 4.941768e+00 3.658146e+00 1.009857e+00
<GCONST> 1.102285e+02
~s "ST_a_4_4"
<MEAN> 25
 1.473589e+01 -1.614050e+01 5.410995e+00 -1.351758e+01 4.494865e+00 -7.545819e+00 -4.851408e+00 8.487786e+00 -3.157747e+00 3.518414e-01 -6.173848e+00 -9.015386e+00 4.821635e-01 -1.693023e-01 -1.168218e+00 -3.069893e-01 8.741874e-01 1.764907e+00 8.282602e-01 -1.764570e+00 -1.871477e-01 7.362121e-01 -1.057778e+00 -1.084906e+00 2.703425e-02
<VARIANCE> 25
 2.505821e+01 3.165889e+01 4.606283e+01 5.321572e+01 3.491546e+01 4.482256e+01 5.592121e+01 1.019723e+02 5.147605e+01 4.944261e+01 3.948391e+01 3.114403e+01 1.132926e+00 1.600133e+00 2.192269e+00 1.878288e+00 2.231795e+00 1.965260e+00 5.224198e+00 3.538321e+00 3.514741e+00 2.444510e+00 3.219345e+00 3.019943e+00 1.206520e+00
<GCONST> 1.024067e+02
~s "ST_a_4_5"
<MEAN> 25
 1.437040e+01 -1.666394e+01 2.241736e+00 -1.362374e+01 4.465290e+00 -2.943962e+00 -6.750235e-01 -6.883367e-01 5.221561e-01 1.175650e+00 -6.494416e+00 -6.609336e+00 -1.171952e-02 6.729290e-04 8.331981e-02 -8.456265e-02 2.418817e-01 -6.863592e-01 2.170526e-01 7.272378e-02 -1.577355e-01 2.945220e-01 -6.376904e-01 -6.476334e-02 -1.346843e-02
<VARIANCE> 25
 2.896896e+01 2.281005e+01 4.518745e+01 7.072799e+01 6.159419e+01 3.987107e+01 6.165811e+01 6.533074e+01 5.793880e+01 4.700357e+01 3.940514e+01 2.714512e+01 1.380664e+00 1.792328e+00 2.276939e+00 4.030209e+00 3.672951e+00 3.918792e+00 4.216090e+00 4.952860e+00 4.519932e+00 3.845225e+00 3.859984e+00 2.583605e+00 1.876170e+00
<GCONST> 1.061148e+02
~s "ST_n_2_1"
<MEAN> 25
 2.159476e+00 3.288502e+00 -1.472511e+00 3.258928e+00 1.380575e+00 3.180619e+00 1.930973e+00 -4.205988e-01 -1.545174e+00 -3.112407e+00 -3.230843e+00 -3.302629e+00 -6.322786e-01 -3.069864e-02 -1.232383e-01 4.544418e-02 1.825958e-01 1.272213e-01 -1.230507e-01 1.640849e-02 3.404697e-02 -1.131454e-01 2.414595e-01 1.386207e-01 -5.353408e-01
<VARIANCE> 25
 7.903329e+01 1.022128e+02 8.611261e+01 5.249590e+01 2.839128e+01 3.754153e+01 4.798912e+01 4.638125e+01 3.604742e+01 2.248981e+01 2.296111e+01 1.927728e+01 8.122622e-01 1.769676e+00 1.615146e+00 1.244537e+00 2.147317e+00 1.615615e+00 2.170557e+00 2.046588e+00 1.727746e+00 1.911062e+00 1.271352e+00 1.365785e+00 3.704482e-01
<GCONST> 9.537966e+01
~s "ST_n_2_2"
<MEAN> 25
 -7.663876e+00 3.404135e+00 -4.992712e+00 3.018345e+00 5.547305e-01 2.814436e+00 -2.076025e+00 9.317988e-01 1.978582e+00 -1.187722e+00 -3.927033e-02 1.013799e+00 5.498600e-02 1.336382e-01 -3.028956e-02 -6.765886e-02 -1.136710e-02 1.807250e-02 3.900188e-02 -2.954736e-02 -1.266516e-01 -9.919862e-02 1.401049e-02 -2.159897e-02 -1.258425e-02
<VARIANCE> 25
 4.780956e+01 1.041624e+01 1.473062e+01 1.454602e+01 1.750326e+01 1.896392e+01 2.643878e+01 2.045294e+01 1.667009e+01 1.311611e+01 1.385238e+01 1.333888e+01 1.908135e-01 4.802578e-01 6.976451e-01 7.768755e-01 1.070211e+00 1.411633e+00 1.438110e+00 1.334747e+00 1.433012e+00 1.454419e+00 1.234819e+00 1.207125e+00 9.017558e-02
<GCONST> 7.701906e+01
~s "ST_n_3_1"
<MEAN> 25
 3.235537e+00 6.424854e+00 -2.569252e-01 3.835170e+00 2.564690e+00 1.515898e+00 -3.542021e+00 -3.574460e+00 -1.855976e+00 -3.423585e+00 -2.799645e+00 -1.322125e+00 -1.238419e-01 -3.735501e-01 -5.194862e-01 -6.289498e-01 -4.611796e-02 4.338973e-01 2.926323e-01 3.654382e-02 -2.931690e-01 3.639874e-02 4.374903e-01 4.914290e-01 -7.247522e-02
<VARIANCE> 25
 1.581048e+02 8.798897e+01 6.422923e+01 5.896328e+01 2.814617e+01 2.877691e+01 3.981420e+01 4.930725e+01 3.230475e+01 3.194256e+01 2.825876e+01 2.226958e+01 7.032236e+00 6.866705e+00 4.035478e+00 2.713939e+00 2.282686e+00 2.781137e+00 2.661121e+00 2.196312e+00 2.336252e+00 2.456786e+00 1.889779e+00 2.029611e+00 3.679343e+00
<GCONST> 1.056687e+02
~s "ST_n_4_1"
<MEAN> 25
 1.125264e+01 8.160821e+00 -5.325029e+00 -4.406602e+00 1.317836e-01 6.067311e+00 -1.420570e+00 -4.000680e+00 -1.759998e+00 -2.164065e+00 1.624273e+00 1.392532e+00 3.271274e+00 -6.919419e-01 -7.930121e-01 -1.952222e+00 -6.331498e-01 3.735693e-01 1.928543e-01 -7.859243e-01 -8.916454e-01 4.422270e-01 8.924675e-01 -1.074173e-01 3.025300e+00
<VARIANCE> 25
 1.514775e+02 7.939522e+01 5.699931e+01 9.670267e+01 4.137533e+01 5.181153e+01 3.635803e+01 4.982496e+01 4.062032e+01 2.335707e+01 3.812112e+01 2.448833e+01 1.589718e+01 1.225390e+01 5.163423e+00 7.098691e+00 3.166543e+00 4.730921e+00 3.861231e+00 5.965578e+00 4.939300e+00 2.228837e+00 4.039502e+00 2.581284e+00 1.035952e+01
<GCONST> 1.146211e+02
~s "ST_d_2_1"
<MEAN> 25
 1.613573e+01 1.138305e+01 -2.331326e+00 6.873790e+00 3.263147e+00 -7.328164e+00 -1.077242e+01 -3.561094e-01 5.319037e+00 -3.790935e+00 -7.900301e+00 -4.709195e+00 -5.462264e-01 1.462281e+00 7.313177e-01 -2.408427e-01 7.733214e-01 6.676169e-01 -1.015349e+00 -6.528825e-01 3.456791e-01 -6.605025e-01 -2.676762e-01 1.390152e-01 -7.380491e-01
<VARIANCE> 25
 1.985359e+01 9.349403e+01 5.537714e+01 4.271854e+01 5.195576e+01 2.919448e+01 4.388553e+01 4.314002e+01 4.631787e+01 1.680395e+01 2.782254e+01 2.054045e+01 1.701272e+00 2.355062e+01 6.739905e+00 3.914306e+00 6.971621e+00 5.035168e+00 7.295015e+00 5.314334e+00 6.325250e+00 3.626231e+00 4.619989e+00 3.874212e+00 7.915149e+00
<GCONST> 1.113832e+02
~s "ST_d_3_1"
<MEAN> 25
 1.972888e+01 -5.293622e+00 1.006919e+00 2.448684e+00 1.171967e+00 -4.552628e+00 -1.395526e+01 -9.082144e+00 -2.658190e+00 -4.066335e+00 2.436981e+00 1.534739e+00 1.558860e+00 -1.336960e+00 -7.024993e-01 -2.580505e+00 -1.012811e+00 9.851792e-01 5.457993e-01 -1.904111e+00 -3.101437e+00 5.158600e-01 2.269355e+00 7.540372e-01 2.186826e+00
<VARIANCE> 25
 1.928521e+01 4.182240e+01 7.332466e+01 1.045666e+02 9.452914e+01 1.117750e+02 6.206942e+01 8.266409e+01 6.927251e+01 5.431816e+01 5.803419e+01 4.107043e+01 2.509136e+00 1.937987e+01 1.342252e+01 9.225892e+00 1.156241e+01 1.087640e+01 9.515033e+00 7.574405e+00 6.684516e+00 5.081146e+00 7.561394e+00 5.434439e+00 6.938431e+00
<GCONST> 1.223954e+02
~s "ST_d_4_1"
<MEAN> 25
 2.456049e+01 4.790120e+00 -6.397774e+00 -1.306635e+01 -4.477608e+00 6.573182e+00 -2.051928e+00 -1.405160e+01 -1.096042e+01 4.145885e-02 2.670529e+00 8.895259e-01 1.707458e-01 -1.752831e-01 -3.312130e-01 -7.542994e-01 -7.669528e-01 5.651535e-01 1.204763e+00 1.207511e-02 1.465608e-01 3.168914e-01 -6.227486e-01 4.688089e-02 1.344410e-01
<VARIANCE> 25
 6.323013e+00 7.502599e+01 2.594467e+01 5.415690e+01 3.252022e+01 3.268769e+01 4.523943e+01 3.827882e+01 2.650126e+01 8.033132e+01 2.138109e+01 2.404436e+01 4.799342e-01 8.969614e+00 2.126600e+00 7.408623e+00 2.010499e+00 5.941475e+00 3.258867e+00 5.485889e+00 5.144493e+00 7.474228e+00 2.336585e+00 2.657777e+00 1.462306e+00
<GCONST> 1.031247e+02
~s "ST_g_2_1"
<MEAN> 25
 -1.697289e+00 6.997533e+00 6.697501e-01 4.876065e+00 7.441020e-02 6.036308e-01 -4.505685e-01 -2.160860e-02 5.436450e-03 -1.922520e+00 2.894579e-01 9.378287e-01 1.236481e+00 -2.416966e-01 1.050542e-01 -6.156216e-01 1.055817e+00 -1.062308e+00 -9.197881e-01 -6.944643e-01 -1.466599e-01 -5.174968e-02 7.274003e-02 -1.869888e-01 2.919877e+00
<VARIANCE> 25
 1.537598e+02 7.360931e+01 8.962445e+01 3.381559e+01 6.173267e+01 6.849148e+01 4.636664e+01 4.842931e+01 4.911827e+01 1.957374e+01 4.311199e+01 3.460077e+01 1.506572e+01 9.038354e+00 8.038063e+00 3.978857e+00 5.755379e+00 7.223685e+00 4.918097e+00 6.164684e+00 3.917574e+00 3.329686e+00 2.907011e+00 3.127894e+00 2.499942e+01
<GCONST> 1.170530e+02
~s "ST_g_3_1"
<MEAN> 25
 1.292821e+00 6.999193e+00 2.037112e+00 4.550876e+00 4.375735e-01 -1.942837e+00 -1.014087e+00 -6.419795e-01 -7.105741e-02 -8.229874e-01 5.220388e-01 8.576536e-01 2.155025e+00 -1.487529e+00 1.083705e+00 -1.649326e+00 1.203233e-01 -1.779023e+00 -6.957977e-01 -5.202537e-01 -7.385787e-01 8.367261e-02 9.217317e-02 -4.079171e-01 4.941377e+00
<VARIANCE> 25
 7.633430e+01 8.019522e+01 9.488260e+01 4.972346e+01 5.640732e+01 5.771400e+01 4.390065e+01 5.376092e+01 5.195328e+01 2.210637e+01 3.247542e+01 2.780929e+01 2.255368e+01 1.556192e+01 6.234426e+00 6.067464e+00 5.632779e+00 1.103919e+01 6.047781e+00 5.434644e+00 5.062089e+00 3.378934e+00 5.117611e+00 4.395569e+00 3.303226e+01
<GCONST> 1.193987e+02
~s "ST_g_4_1"
<MEAN> 25
 4.393877e+00 3.093574e+00 6.227879e+00 -4.889968e-01 -2.207068e+00 -4.552441e+00 -4.193441e-01 -3.522820e+00 -2.700740e+00 -1.812353e+00 3.426104e-01 9.456681e-02 2.279114e+00 -2.836050e+00 2.118390e+00 -2.155830e+00 -8.483225e-01 -1.867560e+00 -3.193586e-01 5.035923e-01 -1.439873e+00 -1.311933e-01 1.384891e-01 -4.718834e-01 5.016381e+00
<VARIANCE> 25
 4.386527e+01 1.286964e+02 1.020151e+02 7.174223e+01 6.443949e+01 6.592422e+01 6.027759e+01 6.714175e+01 6.236818e+01 3.826799e+01 3.532753e+01 2.886869e+01 1.579963e+01 1.441939e+01 1.073684e+01 8.174283e+00 6.259161e+00 8.844709e+00 1.193384e+01 7.369614e+00 6.117778e+00 4.308992e+00 5.461125e+00 4.484704e+00 1.911214e+01
<GCONST> 1.226632e+02
~s "ST_t_2_1"
<MEAN> 25
 9.859260e+00 -1.073673e+01 4.153121e+00 -8.989839e+00 1.393364e+00 -9.182751e+00 9.145995e-01 7.484913e-01 -2.376858e-01 3.532302e+00 -4.421371e+00 5.621111e-01 1.323745e+00 -4.736359e-01 2.809156e-01 -3.087517e-01 1.422815e+00 -9.571879e-01 -2.521672e-01 -8.544116e-02 5.317571e-02 1.061305e+00 -1.450566e+00 7.042091e-02 1.633519e+00
<VARIANCE> 25
 5.597238e+01 6.501546e+01 7.200549e+01 9.637132e+01 8.846023e+01 7.349026e+01 7.148946e+01 7.497127e+01 5.902458e+01 5.505656e+01 6.385036e+01 4.475460e+01 5.722048e+00 1.095313e+01 9.292731e+00 9.512435e+00 6.041130e+00 6.454720e+00 7.186344e+00 5.643017e+00 6.131239e+00 6.833669e+00 4.281107e+00 4.956037e+00 2.207817e+01
<GCONST> 1.222722e+02
~s "ST_t_3_1"
<MEAN> 25
 1.480053e+01 -9.303526e+00 1.468277e+00 -7.183663e+00 3.264033e+00 -8.167599e+00 -7.850933e-01 -1.055412e+00 5.810944e-02 6.710481e+00 -8.448746e+00 -1.848119e+00 8.229012e-01 2.267871e+00 -2.461319e+00 2.480605e+00 3.123903e-02 1.583160e+00 -7.874887e-01 -1.189569e-02 1.382937e+00 -5.323291e-01 1.424079e-02 -3.837513e-01 -2.598054e+00
<VARIANCE> 25
 2.748776e+01 4.253858e+01 6.067538e+01 9.303880e+01 7.042054e+01 8.294778e+01 8.600514e+01 6.990271e+01 5.109883e+01 5.619916e+01 6.057582e+01 4.936104e+01 3.916218e+00 6.670434e+00 8.403912e+00 1.025896e+01 7.088449e+00 5.880259e+00 6.738246e+00 6.967752e+00 6.675592e+00 5.918118e+00 5.708041e+00 4.461908e+00 1.444447e+01
<GCONST> 1.198726e+02
~s "ST_t_4_1"
<MEAN> 25
 1.054712e+01 3.383239e-01 -7.527301e+00 -1.717711e+00 2.652586e+00 -2.998065e+00 -4.329527e+00 1.424389e+00 5.622641e+00 1.698910e+00 -4.343750e+00 -1.526205e+00 -1.108733e+00 7.222591e-01 -4.836895e-01 -1.631492e-01 -2.199516e-01 7.859867e-01 2.036996e-02 -7.758680e-02 1.558514e-01 -6.177928e-01 9.472249e-01 1.318823e-01 -1.256804e+00
<VARIANCE> 25
 7.485165e+01 5.502214e+01 7.147009e+01 5.583811e+01 5.114524e+01 5.034945e+01 5.191560e+01 4.731884e+01 4.322431e+01 3.080686e+01 4.486575e+01 2.821954e+01 1.042403e+01 9.091207e+00 1.293511e+01 7.356331e+00 8.702337e+00 6.705406e+00 7.520672e+00 8.136456e+00 6.963152e+00 4.760518e+00 5.068938e+00 4.429385e+00 1.673137e+01
<GCONST> 1.192770e+02
~s "ST_sil_2_1"
<MEAN> 25
 -1.021033e+01 3.208331e+00 -2.983783e+00 2.783188e+00 4.262186e-01 1.782234e+00 -1.135676e-01 8.524668e-01 2.982101e-01 -1.869473e+00 2.651224e-01 1.025905e+00 -5.217980e-02 -1.535554e-02 4.692736e-03 2.304725e-03 1.607182e-02 3.218750e-03 7.091870e-03 2.013743e-02 1.726313e-04 4.988285e-03 2.459324e-02 1.955759e-02 -2.973353e-02
<VARIANCE> 25
 9.788000e+00 5.085114e+00 1.555266e+01 1.591699e+01 1.234469e+01 1.433578e+01 1.514122e+01 1.484482e+01 1.607927e+01 1.370420e+01 1.475206e+01 1.297763e+01 1.207440e-01 2.548696e-01 4.168687e-01 6.138959e-01 8.466421e-01 9.833373e-01 1.103672e+00 1.232743e+00 1.288430e+00 1.286083e+00 1.228253e+00 1.167776e+00 5.360071e-02
<GCONST> 6.982706e+01
~s "silst"
<MEAN> 25
 -1.728210e+01 4.683449e+00 -2.614284e+00 6.701378e+00 1.914473e+00 6.484073e+00 4.439063e+00 5.246099e+00 7.083498e+00 1.631196e+00 5.729049e+00 5.295337e+00 -3.299275e-03 -5.766814e-03 2.765486e-03 2.265825e-02 2.469829e-02 8.365449e-03 -9.088639e-03 2.080134e-03 2.024022e-02 7.859644e-04 8.877334e-03 -1.247483e-03 -2.039639e-03
<VARIANCE> 25
 4.121887e+00 4.726728e+00 1.043942e+01 1.149998e+01 8.275806e+00 1.005021e+01 1.229345e+01 1.295193e+01 1.320211e+01 1.012246e+01 8.778404e+00 7.039566e+00 3.840343e-02 1.383878e-01 2.152636e-01 3.749231e-01 4.854233e-01 4.451723e-01 7.480053e-01 1.089011e+00 1.280225e+00 1.010613e+00 7.895699e-01 8.519101e-01 5.360071e-02
<GCONST> 5.965816e+01
~s "ST_sil_3_1"
<MEAN> 25
 -1.728819e+01 4.685462e+00 -2.616308e+00 6.698197e+00 1.918700e+00 6.487552e+00 4.437194e+00 5.247760e+00 7.084181e+00 1.632524e+00 5.729558e+00 5.298145e+00 -3.061458e-03 -5.577433e-03 2.588440e-03 2.295429e-02 2.523107e-02 8.411750e-03 -8.600049e-03 2.922874e-03 2.072225e-02 6.530770e-04 9.097867e-03 -1.492139e-03 -1.877403e-03
<VARIANCE> 25
 4.092028e+00 4.730078e+00 1.043007e+01 1.151349e+01 8.264412e+00 1.003797e+01 1.229665e+01 1.294215e+01 1.321057e+01 1.013576e+01 8.788012e+00 7.036428e+00 3.852788e-02 1.383814e-01 2.151650e-01 3.749562e-01 4.852972e-01 4.451267e-01 7.478427e-01 1.088485e+00 1.279777e+00 1.011152e+00 7.892588e-01 8.516563e-01 5.360071e-02
<GCONST> 5.965262e+01
~s "ST_sil_4_1"
<MEAN> 25
 -1.001851e+01 2.419166e+00 -2.293080e+00 2.812742e+00 1.208549e+00 2.479572e+00 9.062940e-01 9.361038e-01 8.181871e-01 -1.822578e+00 8.071194e-01 1.969023e+00 6.374738e-01 -8.991791e-02 9.925041e-02 -1.590776e-01 -5.110127e-02 -3.680777e-01 -2.340730e-01 -1.109925e-01 -1.853854e-01 -1.271962e-01 -3.340580e-01 -2.105257e-01 7.047877e-01
<VARIANCE> 25
 2.879638e+01 1.973891e+01 2.820170e+01 2.996357e+01 2.102321e+01 3.109377e+01 2.599069e+01 2.214892e+01 2.217669e+01 1.727568e+01 2.124887e+01 1.667565e+01 2.682395e+00 2.305447e+00 2.000649e+00 2.583383e+00 1.925935e+00 2.776073e+00 1.916352e+00 1.969958e+00 2.183533e+00 1.762268e+00 1.943150e+00 1.648435e+00 6.362476e+00
<GCONST> 9.451742e+01
~s "ST_j_2_1"
<MEAN> 25
 7.925763e+00 1.061527e+01 -1.015576e+01 -7.068549e+00 -1.108194e+00 7.114596e+00 7.849253e-01 6.228137e-02 -2.058792e+00 -4.144153e+00 -1.262123e+00 -1.259054e-01 -1.850210e+00 -1.648653e-01 8.056859e-01 9.692762e-01 -1.785772e-01 -2.952108e-01 3.255738e-01 5.660404e-01 7.228390e-02 -3.459850e-01 -1.774931e-01 -1.348208e-01 -1.324683e+00
<VARIANCE> 25
 1.019710e+02 3.351461e+01 3.783700e+01 5.370485e+01 2.521571e+01 3.747049e+01 2.916565e+01 4.076418e+01 1.574539e+01 1.689335e+01 1.476727e+01 1.853699e+01 2.083124e+00 2.279133e+00 1.758460e+00 2.310704e+00 2.629792e+00 1.734519e+00 2.438494e+00 1.873444e+00 1.407956e+00 1.313964e+00 1.337449e+00 1.290179e+00 8.926989e-01
<GCONST> 9.387153e+01
~s "ST_j_3_1"
<MEAN> 25
 -6.964381e+00 4.550294e+00 -6.957422e+00 3.226169e+00 1.614716e+00 3.392841e+00 -1.077471e-01 -9.375202e-01 -1.053027e+00 -3.950248e+00 -1.935771e+00 5.456497e-02 -8.723207e-01 -5.877062e-01 5.839625e-02 1.764474e-01 -1.540428e-01 -3.028778e-01 -2.205901e-01 -9.471694e-02 6.935009e-02 2.628813e-01 7.055720e-02 -1.615700e-01 -4.350027e-01
<VARIANCE> 25
 5.012483e+00 6.383002e+00 1.254872e+01 1.790813e+01 1.528910e+01 1.419805e+01 1.577686e+01 1.296334e+01 1.083739e+01 1.408183e+01 1.492071e+01 2.085835e+01 2.022681e-01 5.028077e-01 6.651916e-01 1.007883e+00 1.232574e+00 9.579610e-01 1.291346e+00 9.547582e-01 1.311145e+00 1.408222e+00 1.284104e+00 1.301193e+00 5.459158e-02
<GCONST> 7.220539e+01
~s "ST_j_4_1"
<MEAN> 25
 -1.024487e+01 3.099977e+00 -4.674016e+00 1.635876e+00 2.737214e+00 7.111665e+00 -2.020355e+00 2.093518e+00 -1.192632e+00 -1.593803e+00 -1.262262e-01 -7.494943e-01 -1.030826e-01 8.680962e-02 1.806245e-01 1.856497e-01 7.720817e-02 -3.006234e-02 -4.391301e-02 8.971368e-02 3.233431e-02 -8.561742e-03 7.176136e-02 -1.190744e-02 -1.011299e-01
<VARIANCE> 25
 2.371976e+00 3.012020e+00 1.315507e+01 2.054833e+01 9.600819e+00 3.852773e+01 1.501522e+01 2.120162e+01 1.283971e+01 1.960832e+01 1.409407e+01 1.329887e+01 1.285061e-01 2.749026e-01 4.243569e-01 5.393156e-01 6.583223e-01 9.368548e-01 1.158136e+00 9.988765e-01 1.299080e+00 1.013692e+00 1.449774e+00 1.570716e+00 5.360071e-02
<GCONST> 6.896781e+01
~s "ST_w_2_1"
<MEAN> 25
 -1.980237e+01 4.167644e+00 -4.054537e+00 6.602464e+00 5.197381e+00 8.028853e+00 1.872007e+00 6.924445e+00 8.117977e+00 2.637241e+00 6.659521e+00 5.178969e+00 6.430598e-03 1.570204e-02 2.241028e-02 2.435510e-02 2.226297e-02 -2.611065e-02 -7.851588e-02 3.170479e-02 1.090920e-01 4.694409e-02 -4.084325e-02 -7.268621e-02 -4.822670e-03
<VARIANCE> 25
 4.088334e+00 3.548010e+00 7.208988e+00 1.940532e+01 7.378365e+00 2.163126e+01 1.399527e+01 1.418355e+01 1.373236e+01 9.874880e+00 9.057123e+00 7.604601e+00 3.654580e-02 1.450117e-01 2.287531e-01 3.717959e-01 4.403586e-01 4.284705e-01 6.697897e-01 1.111442e+00 1.189384e+00 9.797658e-01 8.368693e-01 9.882030e-01 5.360071e-02
<GCONST> 6.043724e+01
~s "ST_w_3_1"
<MEAN> 25
 -1.810858e+01 5.956120e+00 -2.805029e+00 8.466230e+00 4.514563e+00 6.819969e+00 3.845298e-02 2.539820e+00 8.874359e+00 2.778032e+00 4.494545e+00 4.597479e+00 -3.857357e-02 8.122952e-02 7.991707e-02 -3.492976e-01 -4.398509e-01 1.452477e-01 1.110398e-01 -5.668060e-01 -7.350861e-01 5.208415e-02 8.575740e-02 4.552362e-01 -1.632381e-02
<VARIANCE> 25
 5.429554e+00 3.514671e+00 8.508125e+00 1.176801e+01 9.049946e+00 1.244891e+01 1.026870e+01 8.904114e+00 6.906031e+00 4.271771e+00 3.873977e+00 4.140295e+00 3.654580e-02 5.248706e-02 1.097968e-01 3.005652e-01 5.878701e-01 3.854338e-01 1.477553e+00 1.378720e+00 5.968674e-01 6.472019e-01 2.205186e-01 2.957091e-01 5.360071e-02
<GCONST> 5.185342e+01
~s "ST_w_4_1"
<MEAN> 25
 -1.801324e+01 6.350898e+00 -2.587987e+00 5.929142e+00 1.496310e+00 7.029933e+00 3.819566e+00 3.570332e+00 3.976673e+00 1.081765e-01 4.076643e+00 4.851793e+00 2.028861e-01 -1.718487e-01 1.280513e-01 2.112775e-01 5.220862e-01 5.336369e-01 8.975472e-01 -2.106586e-01 -1.603592e+00 -1.063903e+00 2.398034e-01 -3.514183e-02 2.529401e-01
<VARIANCE> 25
 5.610827e+00 3.199166e+00 6.890347e+00 1.095326e+01 6.351991e+00 1.296834e+01 1.611908e+01 8.834985e+00 5.692928e+00 1.172057e+01 5.410646e+00 2.561261e+00 4.470250e-01 6.430387e-02 1.401253e-01 1.419372e-01 1.261637e-01 2.496401e-01 2.715434e-01 3.128087e-01 5.001219e-01 2.928082e-01 1.860972e-01 2.448616e-01 2.535332e-01
<GCONST> 4.958520e+01
~s "ST_ng_2_1"
<MEAN> 25
 1.146398e+01 -8.956505e+00 2.002344e-01 -3.268110e+00 2.477520e+00 -1.037321e+01 -9.710708e-01 7.768034e+00 7.105026e-01 2.084460e+00 -4.832637e+00 -2.179300e+00 1.883457e+00 -1.654325e+00 -2.290079e-01 -2.883779e+00 1.133605e-01 2.602580e-01 5.500314e-01 -4.186202e-01 -7.142880e-02 2.876701e-01 -1.475068e+00 -1.098623e+00 2.808951e+00
<VARIANCE> 25
 5.268613e+01 6.190528e+01 6.692137e+01 7.436575e+01 5.184648e+01 3.146626e+01 6.442056e+01 4.992916e+01 4.777330e+01 3.521882e+01 4.139958e+01 2.976204e+01 4.590034e+00 6.320615e+00 6.894080e+00 1.122647e+01 1.006923e+01 6.466002e+00 9.789948e+00 1.175680e+01 6.505208e+00 6.324983e+00 5.162378e+00 4.136510e+00 5.946383e+00
<GCONST> 1.177668e+02
~s "ST_ng_3_1"
<MEAN> 25
 1.392233e+01 -1.723378e+01 2.266518e+00 -1.166020e+01 1.602027e+00 -6.245253e+00 8.343376e-01 3.611479e+00 -1.590340e-01 2.718433e+00 -8.055577e+00 -5.677498e+00 3.586606e-01 -3.896037e-02 -2.571356e-01 4.450899e-01 -2.082566e-01 3.353021e-01 -5.759012e-03 -2.180869e-01 -2.304763e-01 1.336966e-01 -1.767288e-01 -2.995764e-01 -2.123365e-01
<VARIANCE> 25
 2.115235e+01 2.570338e+01 2.863956e+01 7.011470e+01 5.628539e+01 4.459115e+01 3.265533e+01 4.548807e+01 3.758084e+01 4.371355e+01 2.914881e+01 2.513696e+01 2.061626e+00 2.101938e+00 2.551164e+00 8.747076e+00 6.346816e+00 3.979676e+00 3.208720e+00 5.118431e+00 3.512637e+00 4.121497e+00 2.656403e+00 2.274246e+00 3.743674e+00
<GCONST> 1.053733e+02
~s "ST_m_2_1"
<MEAN> 25
 1.578743e+01 -7.861872e+00 8.018007e-01 -1.422442e+00 -1.639041e+00 3.133714e+00 -2.267789e+00 -4.122595e+00 -3.738544e+00 -8.124030e-01 -3.667374e+00 -5.266721e+00 5.809700e-02 4.577937e-01 -1.077669e+00 1.553562e+00 -3.092434e-01 1.982407e-01 8.166547e-01 -1.156590e+00 -3.117534e-01 2.940010e-01 4.833443e-02 1.579452e-01 -9.547516e-01
<VARIANCE> 25
 5.755387e+01 1.647259e+02 5.105293e+01 8.080148e+01 7.505520e+01 4.799236e+01 4.804714e+01 8.835963e+01 7.699820e+01 4.197518e+01 3.777258e+01 4.087912e+01 2.982792e+00 9.120131e+00 6.391063e+00 8.903881e+00 7.916113e+00 5.225035e+00 4.897859e+00 8.433851e+00 8.212844e+00 3.546855e+00 3.709321e+00 2.517339e+00 4.310299e+00
<GCONST> 1.172497e+02
~s "ST_m_2_2"
<MEAN> 25
 1.891726e+01 -1.296976e+01 1.383424e+00 -9.590319e+00 3.623697e+00 4.864455e-01 -4.488388e+00 -1.066976e+00 -4.637208e+00 2.674849e+00 -4.608890e+00 -1.075163e+01 1.618650e+00 2.746239e+00 -1.492926e+00 3.808856e+00 -1.074855e+00 1.856046e+00 -2.708001e-02 -3.809788e+00 -9.913084e-01 -5.086235e-01 1.582976e+00 5.190754e-01 -2.591625e+00
<VARIANCE> 25
 1.677553e+01 5.047036e+01 6.661624e+01 7.599641e+01 3.089089e+01 6.399215e+01 9.302904e+01 8.512489e+01 7.697606e+01 4.322527e+01 3.220360e+01 2.042698e+01 8.379629e-01 4.227825e+00 5.006770e+00 9.011266e+00 3.954562e+00 3.599247e+00 4.974548e+00 7.493338e+00 6.875171e+00 4.068728e+00 3.911784e+00 3.513046e+00 2.197456e+00
<GCONST> 1.104701e+02
~s "ST_ng_4_1"
<MEAN> 25
 2.167841e+01 -1.093703e+01 -1.127893e+01 1.590046e+00 -4.670997e-01 -8.414816e+00 8.503608e-01 1.326471e+00 -7.246548e-01 1.078759e+00 -8.179617e+00 -7.771595e+00 2.275358e-01 7.795667e-01 -2.688021e-01 9.995106e-01 -1.727580e-01 2.482557e-01 5.238910e-02 -3.436237e-01 2.002959e-01 -4.817467e-01 9.087205e-02 6.753502e-02 -6.455231e-01
<VARIANCE> 25
 6.457218e+00 3.184580e+01 5.588222e+01 4.512671e+01 4.511340e+01 3.600533e+01 5.138658e+01 6.027734e+01 4.394534e+01 4.789346e+01 2.797754e+01 1.468836e+01 6.705705e-01 4.702231e+00 2.794073e+00 4.892557e+00 2.897080e+00 2.991456e+00 3.739795e+00 5.567711e+00 2.628993e+00 2.134617e+00 1.884684e+00 1.247771e+00 2.455541e+00
<GCONST> 1.006448e+02
~s "ST_m_3_1"
<MEAN> 25
 1.747551e+01 -1.493549e+00 -5.022145e+00 5.038209e+00 -1.235054e+00 9.497168e-01 5.354230e-01 -9.874242e+00 -5.834261e+00 2.031599e+00 -2.545957e+00 -4.879408e+00 -2.839555e-01 1.803507e+00 -1.065944e+00 5.172310e-01 1.608589e+00 -7.163581e-02 -8.707969e-01 -7.303253e-01 -7.118942e-01 -4.145773e-01 3.478114e-02 1.926990e-01 -1.341875e+00
<VARIANCE> 25
 7.784844e+01 1.007667e+02 5.076631e+01 4.436787e+01 5.952417e+01 3.582791e+01 5.597544e+01 6.828535e+01 7.419336e+01 4.775219e+01 4.788105e+01 2.834957e+01 1.704439e+00 1.007137e+01 4.157233e+00 5.897131e+00 7.121181e+00 3.109922e+00 4.352351e+00 5.830199e+00 7.133582e+00 3.323131e+00 3.132757e+00 2.729930e+00 3.094064e+00
<GCONST> 1.127491e+02
~s "ST_m_3_2"
<MEAN> 25
 2.310341e+01 -1.530150e+00 -4.015692e+00 6.679231e+00 -1.971631e-01 8.483005e-01 2.570465e-01 -1.488224e+01 -8.786992e+00 3.317635e+00 -2.140763e+00 -8.139474e+00 2.810175e-01 3.553977e+00 -4.189340e-01 1.929398e+00 9.397559e-01 9.358287e-01 -2.461145e-01 -2.394063e+00 -1.732911e+00 -4.224201e-02 -2.236329e-01 9.437758e-01 -2.236070e+00
<VARIANCE> 25
 6.813072e+00 4.072741e+01 9.465087e+01 7.258199e+01 5.334916e+01 2.414300e+01 8.344774e+01 6.765333e+01 8.037484e+01 4.135913e+01 3.579369e+01 2.313628e+01 9.953078e-01 3.496038e+00 5.845429e+00 9.444201e+00 6.168938e+00 3.991573e+00 5.498946e+00 1.056168e+01 4.083521e+00 4.109632e+00 4.520734e+00 2.210198e+00 1.232741e+00
<GCONST> 1.088900e+02
~s "ST_m_4_1"
<MEAN> 25
 8.125408e+00 4.362330e+00 -2.753685e+00 5.989446e+00 3.361365e+00 2.643720e+00 -2.294371e+00 -7.384820e+00 -6.761522e+00 -2.526056e+00 -1.961688e+00 -1.907880e+00 -7.448649e-01 -7.624412e-01 -5.970597e-01 -5.458742e-01 2.466201e-01 -2.307642e-01 -3.654723e-01 7.437758e-01 3.074777e-01 -4.047705e-01 1.091032e-01 2.477809e-01 -2.366323e-01
<VARIANCE> 25
 1.519910e+02 4.736221e+01 4.953605e+01 4.014317e+01 3.238805e+01 2.898428e+01 4.889201e+01 9.814163e+01 5.533358e+01 3.754559e+01 2.989257e+01 2.371894e+01 1.473266e+00 2.560383e+00 1.424115e+00 2.256955e+00 2.612540e+00 1.782864e+00 2.184829e+00 3.115000e+00 2.269824e+00 2.362329e+00 1.888216e+00 1.558726e+00 2.141407e+00
<GCONST> 1.014190e+02
~s "ST_m_4_2"
<MEAN> 25
 2.206962e+01 8.301795e+00 -4.026485e+00 2.967662e+00 5.903223e+00 6.348625e+00 -4.192880e+00 -1.893134e+01 -1.324758e+01 7.387980e-01 -1.572332e+00 -3.358821e+00 -3.626448e-01 1.273915e+00 1.005290e+00 -8.895610e-02 -3.067439e-01 5.073321e-01 1.550742e-01 -9.443150e-01 -9.642325e-01 -1.164806e-01 6.044319e-01 2.168232e-01 -5.916289e-01
<VARIANCE> 25
 5.656537e+00 2.381252e+01 4.373765e+01 4.355342e+01 4.472654e+01 1.593328e+01 7.442137e+01 3.987412e+01 3.723267e+01 3.175026e+01 2.611848e+01 2.225035e+01 2.759087e-01 1.759288e+00 1.977934e+00 1.546611e+00 2.354275e+00 1.573961e+00 2.182014e+00 3.353106e+00 2.643195e+00 2.543416e+00 2.024565e+00 1.252579e+00 4.161012e-01
<GCONST> 9.206123e+01
~s "ST_c_2_1"
<MEAN> 25
 -2.797904e+00 4.369790e+00 -4.840109e+00 1.631645e+00 9.599316e-02 3.434305e+00 -2.197297e+00 -1.804034e+00 -4.401674e-01 1.798606e+00 2.666541e+00 -7.413301e-01 -1.794672e+00 -1.391084e+00 -5.759435e-01 7.921867e-02 -2.570654e-02 1.153646e-02 5.998729e-01 6.551835e-02 -6.393912e-01 -6.473119e-01 7.704972e-02 -1.895154e-01 -9.031954e-01
<VARIANCE> 25
 1.793383e+01 1.892314e+01 9.307446e+00 1.474593e+01 1.313677e+01 1.465388e+01 1.825580e+01 1.567948e+01 1.576987e+01 2.587584e+01 1.045400e+01 1.301159e+01 1.758093e+00 9.871958e-01 3.811128e-01 1.113760e+00 1.980719e+00 1.589564e+00 1.315480e+00 1.866073e+00 5.024565e-01 1.017862e+00 7.320701e-01 6.248345e-01 5.058390e-01
<GCONST> 7.814213e+01
~s "ST_c_3_1"
<MEAN> 25
 -7.876729e+00 4.289863e-01 -7.486356e+00 4.383650e-01 2.717566e-01 7.869734e+00 3.391822e+00 -5.841066e-01 -3.292730e+00 -1.712247e+00 2.780656e+00 1.507908e+00 -2.744017e-01 1.796419e-01 2.707630e-01 4.214874e-02 -2.233381e-01 4.991344e-02 -3.193433e-01 -2.429558e-01 -6.425999e-02 -3.152783e-01 -2.041371e-01 1.497849e-01 -2.062923e-01
<VARIANCE> 25
 3.400119e+00 1.208241e+01 1.473289e+01 1.150803e+01 6.819778e+00 1.293473e+01 9.713258e+00 1.714215e+01 1.544756e+01 1.375640e+01 1.076517e+01 7.439442e+00 5.971799e-02 2.535568e-01 3.391588e-01 4.755479e-01 7.967992e-01 6.727708e-01 1.048642e+00 9.522933e-01 1.972500e+00 1.145963e+00 1.868721e+00 4.700352e-01 5.360071e-02
<GCONST> 6.525237e+01
~s "ST_c_4_1"
<MEAN> 25
 -9.565896e+00 1.281337e+00 -4.049813e+00 2.941453e+00 -2.320052e-01 4.743307e+00 -9.673033e-01 -1.666897e+00 -1.135266e+00 -1.746140e+00 -1.067110e-01 8.526604e-01 -2.937385e-02 -2.073457e-02 1.394425e-02 -1.783998e-02 1.652185e-02 -2.648463e-03 -4.411005e-02 -3.559168e-03 1.018082e-01 1.295369e-01 3.091190e-02 3.128875e-02 -2.599415e-02
<VARIANCE> 25
 6.680122e+00 1.531849e+01 2.463138e+01 8.128244e+00 9.120641e+00 1.466386e+01 1.132972e+01 1.427464e+01 1.361994e+01 1.140111e+01 1.175166e+01 1.129027e+01 1.141300e-01 2.367897e-01 5.057588e-01 3.564270e-01 6.173233e-01 1.500346e+00 9.763830e-01 7.489613e-01 9.575326e-01 1.215183e+00 1.472888e+00 1.050059e+00 5.360071e-02
<GCONST> 6.773692e+01
~s "ST_p_2_1"
<MEAN> 25
 1.979888e+01 -6.057609e+00 -2.946797e+00 -3.461127e+00 6.426276e-01 1.978009e+00 -3.010957e+00 -3.048651e+00 -3.163627e+00 3.083554e+00 -2.346466e+00 -6.455719e+00 -4.146288e-01 3.824035e+00 -3.075774e+00 3.138906e+00 3.504229e-01 1.312339e+00 4.575349e-03 9.199899e-01 1.918559e+00 -4.547600e-01 7.450070e-01 3.641928e-01 -4.499051e+00
<VARIANCE> 25
 1.751891e+01 1.384510e+02 6.878511e+01 1.181709e+02 3.925655e+01 7.132054e+01 4.416008e+01 8.538977e+01 5.059085e+01 4.278761e+01 3.215460e+01 2.410949e+01 3.454812e+00 3.399907e+00 1.134770e+01 1.155931e+01 7.241385e+00 6.905596e+00 4.810647e+00 6.472809e+00 7.161431e+00 3.969113e+00 4.166310e+00 2.108276e+00 3.102118e+00
<GCONST> 1.145922e+02
~s "ST_p_3_1"
<MEAN> 25
 1.052379e+01 7.721618e+00 -9.046853e+00 5.477511e-01 3.400330e+00 2.477870e+00 -3.809741e+00 -1.798953e-01 3.932647e+00 -7.501749e-01 -2.750902e+00 -2.813307e+00 -3.207020e+00 2.471757e-01 4.984646e-02 -5.066945e-01 -4.415171e-01 -5.846034e-01 2.919445e-01 9.264909e-01 9.393076e-01 8.084740e-02 1.581025e-01 8.937380e-01 -2.474434e+00
<VARIANCE> 25
 5.650003e+01 6.674794e+01 1.629938e+02 3.142179e+01 2.951830e+01 4.359975e+01 3.296264e+01 3.673186e+01 5.585085e+01 4.411555e+01 2.376474e+01 1.958832e+01 2.605214e+00 5.758288e+00 8.360807e+00 4.305715e+00 4.119453e+00 4.495549e+00 4.284540e+00 4.126218e+00 5.553519e+00 2.936506e+00 2.603354e+00 2.207725e+00 3.416592e+00
<GCONST> 1.087869e+02
~s "ST_p_4_1"
<MEAN> 25
 9.488535e+00 -5.249094e+00 -5.759051e-01 1.929286e+00 -2.918221e+00 -6.050866e+00 -2.682674e+00 2.364502e+00 2.983543e+00 -1.872244e-01 1.440552e+00 -8.393669e-02 1.313221e+00 -3.781345e+00 4.561350e+00 -2.089844e-01 -2.354369e+00 -2.924267e+00 9.173085e-02 6.194686e-01 -1.528526e+00 -6.746757e-01 1.082856e+00 7.352664e-01 4.892944e+00
<VARIANCE> 25
 6.231083e+01 1.022302e+02 1.117001e+02 4.794225e+01 5.377182e+01 8.081558e+01 4.008983e+01 4.426546e+01 3.785752e+01 3.586050e+01 2.448454e+01 1.877192e+01 7.736412e+00 6.377687e+00 1.116707e+01 9.448230e+00 5.991045e+00 5.934015e+00 4.826458e+00 5.742630e+00 6.072232e+00 4.851748e+00 3.824599e+00 3.154682e+00 8.688846e+00
<GCONST> 1.159802e+02
~h "E"
<BEGINHMM>
<NUMSTATES> 5
<STATE> 2
~s "ST_E_2_1"
<STATE> 3
~s "ST_E_3_1"
<STATE> 4
~s "ST_E_4_1"
~t "T_E"
<ENDHMM>
~h "a"
<BEGINHMM>
<NUMSTATES> 5
<STATE> 2
~s "ST_a_2_1"
<STATE> 3
~s "ST_a_3_1"
<STATE> 4
~s "ST_a_4_5"
~t "T_a"
<ENDHMM>
~h "b"
<BEGINHMM>
<NUMSTATES> 5
<STATE> 2
~s "ST_b_2_1"
<STATE> 3
~s "ST_b_3_1"
<STATE> 4
~s "ST_b_4_1"
~t "T_b"
<ENDHMM>
~h "c"
<BEGINHMM>
<NUMSTATES> 5
<STATE> 2
~s "ST_c_2_1"
<STATE> 3
~s "ST_c_3_1"
<STATE> 4
~s "ST_c_4_1"
~t "T_c"
<ENDHMM>
~h "d"
<BEGINHMM>
<NUMSTATES> 5
<STATE> 2
~s "ST_d_2_1"
<STATE> 3
~s "ST_d_3_1"
<STATE> 4
~s "ST_d_4_1"
~t "T_d"
<ENDHMM>
~h "e"
<BEGINHMM>
<NUMSTATES> 5
<STATE> 2
~s "ST_e_2_1"
<STATE> 3
~s "ST_e_3_1"
<STATE> 4
~s "ST_e_4_1"
~t "T_e"
<ENDHMM>
~h "g"
<BEGINHMM>
<NUMSTATES> 5
<STATE> 2
~s "ST_g_2_1"
<STATE> 3
~s "ST_g_3_1"
<STATE> 4
~s "ST_g_4_1"
~t "T_g"
<ENDHMM>
~h "h"
<BEGINHMM>
<NUMSTATES> 5
<STATE> 2
~s "ST_h_2_1"
<STATE> 3
~s "ST_h_3_1"
<STATE> 4
~s "ST_h_4_1"
~t "T_h"
<ENDHMM>
~h "i"
<BEGINHMM>
<NUMSTATES> 5
<STATE> 2
~s "ST_i_2_1"
<STATE> 3
~s "ST_i_3_1"
<STATE> 4
~s "ST_i_4_1"
~t "T_i"
<ENDHMM>
~h "j"
<BEGINHMM>
<NUMSTATES> 5
<STATE> 2
~s "ST_j_2_1"
<STATE> 3
~s "ST_j_3_1"
<STATE> 4
~s "ST_j_4_1"
~t "T_j"
<ENDHMM>
~h "k"
<BEGINHMM>
<NUMSTATES> 5
<STATE> 2
~s "ST_k_2_1"
<STATE> 3
~s "ST_k_3_1"
<STATE> 4
~s "ST_k_4_1"
~t "T_k"
<ENDHMM>
~h "l"
<BEGINHMM>
<NUMSTATES> 5
<STATE> 2
~s "ST_l_2_1"
<STATE> 3
~s "ST_l_3_1"
<STATE> 4
~s "ST_l_4_1"
~t "T_l"
<ENDHMM>
~h "m"
<BEGINHMM>
<NUMSTATES> 5
<STATE> 2
~s "ST_m_2_1"
<STATE> 3
~s "ST_m_3_1"
<STATE> 4
~s "ST_m_4_1"
~t "T_m"
<ENDHMM>
~h "n"
<BEGINHMM>
<NUMSTATES> 5
<STATE> 2
~s "ST_n_2_1"
<STATE> 3
~s "ST_n_3_1"
<STATE> 4
~s "ST_n_4_1"
~t "T_n"
<ENDHMM>
~h "o"
<BEGINHMM>
<NUMSTATES> 5
<STATE> 2
~s "ST_o_2_1"
<STATE> 3
~s "ST_o_3_1"
<STATE> 4
~s "ST_o_4_1"
~t "T_o"
<ENDHMM>
~h "p"
<BEGINHMM>
<NUMSTATES> 5
<STATE> 2
~s "ST_p_2_1"
<STATE> 3
~s "ST_p_3_1"
<STATE> 4
~s "ST_p_4_1"
~t "T_p"
<ENDHMM>
~h "r"
<BEGINHMM>
<NUMSTATES> 5
<STATE> 2
~s "ST_r_2_1"
<STATE> 3
~s "ST_r_3_1"
<STATE> 4
~s "ST_r_4_1"
~t "T_r"
<ENDHMM>
~h "s"
<BEGINHMM>
<NUMSTATES> 5
<STATE> 2
~s "ST_s_2_1"
<STATE> 3
~s "ST_s_3_1"
<STATE> 4
~s "ST_s_4_1"
~t "T_s"
<ENDHMM>
~h "t"
<BEGINHMM>
<NUMSTATES> 5
<STATE> 2
~s "ST_t_2_1"
<STATE> 3
~s "ST_t_3_1"
<STATE> 4
~s "ST_t_4_1"
~t "T_t"
<ENDHMM>
~h "u"
<BEGINHMM>
<NUMSTATES> 5
<STATE> 2
~s "ST_u_2_1"
<STATE> 3
~s "ST_u_3_1"
<STATE> 4
~s "ST_u_4_1"
~t "T_u"
<ENDHMM>
~h "w"
<BEGINHMM>
<NUMSTATES> 5
<STATE> 2
~s "ST_w_2_1"
<STATE> 3
~s "ST_w_3_1"
<STATE> 4
~s "ST_w_4_1"
~t "T_w"
<ENDHMM>
~h "aw"
<BEGINHMM>
<NUMSTATES> 5
<STATE> 2
~s "ST_aw_2_1"
<STATE> 3
~s "ST_aw_3_1"
<STATE> 4
~s "ST_aw_4_1"
~t "T_aw"
<ENDHMM>
~h "ng"
<BEGINHMM>
<NUMSTATES> 5
<STATE> 2
~s "ST_ng_2_1"
<STATE> 3
~s "ST_ng_3_1"
<STATE> 4
~s "ST_ng_4_1"
~t "T_ng"
<ENDHMM>
~h "sp"
<BEGINHMM>
<NUMSTATES> 3
<STATE> 2
~s "ST_sil_3_1"
<TRANSP> 3
 0.000000e+00 1.720300e-16 1.000000e+00
 0.000000e+00 1.440883e-02 9.855912e-01
 0.000000e+00 0.000000e+00 0.000000e+00
<ENDHMM>
~h "k-i+n"
<BEGINHMM>
<NUMSTATES> 5
<STATE> 2
~s "ST_i_2_2"
<STATE> 3
~s "ST_i_3_3"
<STATE> 4
~s "ST_i_4_2"
~t "T_i"
<ENDHMM>
~h "a-k+i"
<BEGINHMM>
<NUMSTATES> 5
<STATE> 2
~s "ST_k_2_1"
<STATE> 3
~s "ST_k_3_1"
<STATE> 4
~s "ST_k_4_2"
~t "T_k"
<ENDHMM>
~h "a-m+b"
<BEGINHMM>
<NUMSTATES> 5
<STATE> 2
~s "ST_m_2_2"
<STATE> 3
~s "ST_m_3_2"
<STATE> 4
~s "ST_m_4_2"
~t "T_m"
<ENDHMM>
~h "a-m+p"
<BEGINHMM>
<NUMSTATES> 5
<STATE> 2
~s "ST_m_2_1"
<STATE> 3
~s "ST_m_3_1"
<STATE> 4
~s "ST_m_4_2"
~t "T_m"
<ENDHMM>
~h "a-r+a"
<BEGINHMM>
<NUMSTATES> 5
<STATE> 2
~s "ST_r_2_2"
<STATE> 3
~s "ST_r_3_2"
<STATE> 4
~s "ST_r_4_1"
~t "T_r"
<ENDHMM>
~h "d-u+a"
<BEGINHMM>
<NUMSTATES> 5
<STATE> 2
~s "ST_u_2_1"
<STATE> 3
~s "ST_u_3_2"
<STATE> 4
~s "ST_u_4_2"
~t "T_u"
<ENDHMM>
~h "g-a+m"
<BEGINHMM>
<NUMSTATES> 5
<STATE> 2
~s "ST_a_2_2"
<STATE> 3
~s "ST_a_3_4"
<STATE> 4
~s "ST_a_4_4"
~t "T_a"
<ENDHMM>
~h "t-a+m"
<BEGINHMM>
<NUMSTATES> 5
<STATE> 2
~s "ST_a_2_2"
<STATE> 3
~s "ST_a_3_2"
<STATE> 4
~s "ST_a_4_1"
~t "T_a"
<ENDHMM>
~h "g-i+t"
<BEGINHMM>
<NUMSTATES> 5
<STATE> 2
~s "ST_i_2_2"
<STATE> 3
~s "ST_i_3_3"
<STATE> 4
~s "ST_i_4_3"
~t "T_i"
<ENDHMM>
~h "w-a+r"
<BEGINHMM>
<NUMSTATES> 5
<STATE> 2
~s "ST_a_2_3"
<STATE> 3
~s "ST_a_3_2"
<STATE> 4
~s "ST_a_4_1"
~t "T_a"
<ENDHMM>
~h "l-i+ng"
<BEGINHMM>
<NUMSTATES> 5
<STATE> 2
~s "ST_i_2_4"
<STATE> 3
~s "ST_i_3_3"
<STATE> 4
~s "ST_i_4_2"
~t "T_i"
<ENDHMM>
~h "a+t"
<BEGINHMM>
<NUMSTATES> 5
<STATE> 2
~s "ST_a_2_2"
<STATE> 3
~s "ST_a_3_2"
<STATE> 4
~s "ST_a_4_5"
~t "T_a"
<ENDHMM>
~h "g-a"
<BEGINHMM>
<NUMSTATES> 5
<STATE> 2
~s "ST_a_2_2"
<STATE> 3
~s "ST_a_3_3"
<STATE> 4
~s "ST_a_4_3"
~t "T_a"
<ENDHMM>
~h "sil"
<BEGINHMM>
<NUMSTATES> 5
<STATE> 2
~s "ST_sil_2_1"
<STATE> 3
~s "ST_sil_3_1"
<STATE> 4
~s "ST_sil_4_1"
<TRANSP> 5
 0.000000e+00 1.000000e+00 0.000000e+00 0.000000e+00 0.000000e+00
 0.000000e+00 9.530151e-01 1.410125e-02 3.288366e-02 0.000000e+00
 0.000000e+00 0.000000e+00 9.791914e-01 2.080862e-02 0.000000e+00
 0.000000e+00 1.173306e-01 0.000000e+00 6.313503e-01 2.513191e-01
 0.000000e+00 0.000000e+00 0.000000e+00 0.000000e+00 0.000000e+00
<ENDHMM>
~h "p-e+s"
<BEGINHMM>
<NUMSTATES> 5
<STATE> 2
~s "ST_e_2_2"
<STATE> 3
~s "ST_e_3_1"
<STATE> 4
~s "ST_e_4_1"
~t "T_e"
<ENDHMM>
~h "p-i+l"
<BEGINHMM>
<NUMSTATES> 5
<STATE> 2
~s "ST_i_2_3"
<STATE> 3
~s "ST_i_3_3"
<STATE> 4
~s "ST_i_4_2"
~t "T_i"
<ENDHMM>
~h "s-a+r"
<BEGINHMM>
<NUMSTATES> 5
<STATE> 2
~s "ST_a_2_1"
<STATE> 3
~s "ST_a_3_1"
<STATE> 4
~s "ST_a_4_1"
~t "T_a"
<ENDHMM>
~h "s-e+g"
<BEGINHMM>
<NUMSTATES> 5
<STATE> 2
~s "ST_e_2_1"
<STATE> 3
~s "ST_e_3_1"
<STATE> 4
~s "ST_e_4_2"
~t "T_e"
<ENDHMM>
~h "s-i+u"
<BEGINHMM>
<NUMSTATES> 5
<STATE> 2
~s "ST_i_2_3"
<STATE> 3
~s "ST_i_3_2"
<STATE> 4
~s "ST_i_4_2"
~t "T_i"
<ENDHMM>
~h "b-a+r"
<BEGINHMM>
<NUMSTATES> 5
<STATE> 2
~s "ST_a_2_1"
<STATE> 3
~s "ST_a_3_1"
<STATE> 4
~s "ST_a_4_2"
~t "T_a"
<ENDHMM>
~h "b-i+r"
<BEGINHMM>
<NUMSTATES> 5
<STATE> 2
~s "ST_i_2_3"
<STATE> 3
~s "ST_i_3_3"
<STATE> 4
~s "ST_i_4_3"
~t "T_i"
<ENDHMM>
~h "r-a+p"
<BEGINHMM>
<NUMSTATES> 5
<STATE> 2
~s "ST_a_2_2"
<STATE> 3
~s "ST_a_3_4"
<STATE> 4
~s "ST_a_4_5"
~t "T_a"
<ENDHMM>
~h "r-n+a"
<BEGINHMM>
<NUMSTATES> 5
<STATE> 2
~s "ST_n_2_2"
<STATE> 3
~s "ST_n_3_1"
<STATE> 4
~s "ST_n_4_1"
~t "T_n"
<ENDHMM>
~h "h-i+j"
<BEGINHMM>
<NUMSTATES> 5
<STATE> 2
~s "ST_i_2_2"
<STATE> 3
~s "ST_i_3_2"
<STATE> 4
~s "ST_i_4_2"
~t "T_i"
<ENDHMM>
