~o
<STREAMINFO> 1 25
<VECSIZE> 25<NULLD><MFCC_D_N_Z_0><DIAGC>
~h "E"
<BEGINHMM>
<NUMSTATES> 5
<STATE> 2
<MEAN> 25
 -4.022225e+00 2.176405e+00 -3.720132e+00 2.180101e+00 2.590575e+00 1.397075e+00 -2.039466e+00 -5.624413e-01 -1.181489e+00 -9.603116e-01 -1.855144e+00 -6.288891e-01 -4.872031e-01 3.000594e-01 8.197438e-02 7.987942e-02 -6.835911e-02 3.155583e-02 1.436765e-02 4.667914e-03 7.231920e-02 -7.378789e-02 1.442196e-01 1.390323e-01 -5.338699e-01
<VARIANCE> 25
 1.100359e+02 5.728751e+01 3.315358e+01 2.624055e+01 2.730018e+01 2.357609e+01 2.664552e+01 2.175562e+01 2.528039e+01 2.532714e+01 2.582445e+01 2.496673e+01 1.191828e+00 1.121896e+00 1.435701e+00 1.948372e+00 1.846765e+00 1.993774e+00 2.372490e+00 2.184053e+00 2.000844e+00 2.074999e+00 1.682714e+00 1.570192e+00 1.136800e+00
<GCONST> 9.401577e+01
<STATE> 3
<MEAN> 25
 -5.753418e+00 3.226048e+00 -3.391682e+00 2.449288e+00 2.311368e+00 1.490725e+00 -1.978106e+00 -5.277623e-01 -9.188641e-01 -1.219331e+00 -1.334623e+00 -1.375454e-01 -4.108572e-01 2.429798e-01 8.942413e-02 5.880738e-02 -8.209366e-02 1.410429e-02 1.728703e-02 1.314550e-02 6.666030e-02 -6.118188e-02 1.233851e-01 1.150469e-01 -4.376833e-01
<VARIANCE> 25
 8.786659e+01 4.430995e+01 2.819012e+01 2.209769e+01 2.338541e+01 2.088387e+01 2.384356e+01 1.875767e+01 2.281576e+01 2.283634e+01 2.347630e+01 2.162625e+01 9.788052e-01 9.076482e-01 1.175906e+00 1.567539e+00 1.608446e+00 1.786628e+00 2.075229e+00 1.858324e+00 1.791856e+00 1.906263e+00 1.609725e+00 1.454446e+00 8.935813e-01
<GCONST> 9.029343e+01
<STATE> 4
<MEAN> 25
 -7.448479e+00 4.176078e+00 -2.913344e+00 2.668998e+00 1.913859e+00 1.531186e+00 -1.899307e+00 -4.263872e-01 -6.529655e-01 -1.465636e+00 -8.364670e-01 3.391644e-01 -3.209734e-01 1.769014e-01 8.700053e-02 3.668825e-02 -8.989509e-02 -3.904477e-03 1.565671e-02 1.999735e-02 6.108046e-02 -4.539055e-02 9.877425e-02 8.688150e-02 -3.287834e-01
<VARIANCE> 25
 6.326287e+01 3.074404e+01 2.387331e+01 1.815930e+01 1.969854e+01 1.880559e+01 2.136309e+01 1.607464e+01 2.054514e+01 2.019381e+01 2.075254e+01 1.819136e+01 7.521426e-01 7.017966e-01 9.365769e-01 1.219394e+00 1.387436e+00 1.593959e+00 1.776579e+00 1.555041e+00 1.602585e+00 1.737011e+00 1.554346e+00 1.346110e+00 6.435459e-01
<GCONST> 8.593215e+01
<TRANSP> 5
 0.000000e+00 1.000000e+00 0.000000e+00 0.000000e+00 0.000000e+00
 0.000000e+00 7.301717e-01 2.698283e-01 0.000000e+00 0.000000e+00
 0.000000e+00 0.000000e+00 7.301721e-01 2.698279e-01 0.000000e+00
 0.000000e+00 0.000000e+00 0.000000e+00 8.508676e-01 1.491325e-01
 0.000000e+00 0.000000e+00 0.000000e+00 0.000000e+00 0.000000e+00
<ENDHMM>
~h "a"
<BEGINHMM>
<NUMSTATES> 5
<STATE> 2
<MEAN> 25
 -7.359394e-01 -1.018532e-01 -4.245473e-01 4.463596e-01 5.138881e-01 6.255747e-01 3.106925e-01 4.208249e-01 9.663789e-01 2.654475e-01 4.352175e-01 3.736650e-01 1.024885e-01 -2.816023e-02 1.307411e-02 -5.194163e-02 -1.827788e-02 -3.216492e-02 -2.299364e-02 -3.752981e-02 -4.605221e-02 -1.190631e-02 -3.161457e-02 -2.549732e-02 1.229499e-01
<VARIANCE> 25
 2.381640e+02 9.118430e+01 7.906417e+01 8.626184e+01 5.422995e+01 6.947043e+01 5.032475e+01 6.759893e+01 6.628471e+01 3.174039e+01 4.393491e+01 3.707613e+01 3.695656e+00 5.196114e+00 4.217334e+00 4.719936e+00 3.931049e+00 3.825541e+00 3.853585e+00 4.575762e+00 4.143085e+00 2.902135e+00 2.850194e+00 2.280346e+00 5.626746e+00
<GCONST> 1.137864e+02
<STATE> 3
<MEAN> 25
 -3.785027e-01 -2.141476e-01 -3.727186e-01 2.594822e-01 4.387547e-01 4.978012e-01 2.373996e-01 2.906136e-01 8.074864e-01 2.386886e-01 3.332838e-01 2.835271e-01 9.497254e-02 -2.988551e-02 1.465373e-02 -5.060039e-02 -1.944200e-02 -3.444032e-02 -2.179618e-02 -3.461235e-02 -4.190443e-02 -5.845433e-03 -2.622372e-02 -2.451798e-02 1.187679e-01
<VARIANCE> 25
 2.370214e+02 9.226163e+01 8.089461e+01 8.640485e+01 5.562673e+01 6.998888e+01 5.147140e+01 6.865073e+01 6.661997e+01 3.199572e+01 4.382760e+01 3.721979e+01 3.730695e+00 5.276258e+00 4.310340e+00 4.794474e+00 4.008689e+00 3.892314e+00 3.947330e+00 4.640466e+00 4.213000e+00 2.933043e+00 2.882265e+00 2.299975e+00 5.612844e+00
<GCONST> 1.140850e+02
<STATE> 4
<MEAN> 25
 2.940892e-01 -4.460111e-01 -2.504866e-01 -3.339065e-02 2.879736e-01 2.332709e-01 1.108184e-01 3.399592e-02 5.218089e-01 1.985514e-01 1.261740e-01 7.402575e-02 9.763699e-02 -3.201040e-02 1.974626e-02 -5.156147e-02 -1.961799e-02 -4.165753e-02 -2.738769e-02 -3.641938e-02 -4.469388e-02 -4.871337e-03 -2.800253e-02 -3.023600e-02 1.256318e-01
<VARIANCE> 25
 2.306995e+02 9.308942e+01 8.398404e+01 8.675957e+01 5.722290e+01 7.045985e+01 5.261947e+01 6.944981e+01 6.719569e+01 3.282389e+01 4.335166e+01 3.727596e+01 3.834050e+00 5.336392e+00 4.411803e+00 4.928217e+00 4.113294e+00 4.004140e+00 4.087296e+00 4.700959e+00 4.293487e+00 2.990034e+00 2.916501e+00 2.340755e+00 5.740215e+00
<GCONST> 1.144832e+02
<TRANSP> 5
 0.000000e+00 1.000000e+00 0.000000e+00 0.000000e+00 0.000000e+00
 0.000000e+00 7.311257e-01 2.688743e-01 0.000000e+00 0.000000e+00
 0.000000e+00 0.000000e+00 7.311264e-01 2.688736e-01 0.000000e+00
 0.000000e+00 0.000000e+00 0.000000e+00 8.535334e-01 1.464666e-01
 0.000000e+00 0.000000e+00 0.000000e+00 0.000000e+00 0.000000e+00
<ENDHMM>
~h "b"
<BEGINHMM>
<NUMSTATES> 5
<STATE> 2
<MEAN> 25
 -2.650598e+00 1.167791e+00 -1.372232e+00 1.610088e+00 1.448213e+00 1.622136e+00 2.868768e-01 7.532713e-01 7.761858e-01 -3.046629e-02 1.083548e+00 4.393520e-01 5.482199e-01 -1.512286e-01 4.807696e-02 -1.737655e-01 1.273183e-03 -1.450421e-01 -1.471659e-01 -1.730526e-01 -1.911131e-01 -3.000002e-02 -1.643927e-01 -2.036365e-01 6.049182e-01
<VARIANCE> 25
 2.430996e+02 7.547669e+01 4.989241e+01 7.059034e+01 3.232902e+01 5.858826e+01 4.553310e+01 7.505513e+01 6.237488e+01 2.667846e+01 3.332759e+01 3.831030e+01 4.450417e+00 5.200275e+00 2.902514e+00 4.418386e+00 2.759421e+00 3.774480e+00 3.288575e+00 4.685020e+00 3.468508e+00 2.372377e+00 2.406215e+00 2.206709e+00 8.581895e+00
<GCONST> 1.108813e+02
<STATE> 3
<MEAN> 25
 -5.892925e-01 5.860540e-01 -1.190372e+00 9.541762e-01 1.429349e+00 1.099055e+00 -2.336823e-01 9.690051e-02 1.029080e-01 -1.125417e-01 4.770324e-01 -3.074092e-01 5.692815e-01 -1.586477e-01 4.989672e-02 -1.813240e-01 -6.927943e-03 -1.411199e-01 -1.417858e-01 -1.846917e-01 -1.791615e-01 -1.768726e-02 -1.634661e-01 -1.997334e-01 6.275901e-01
<VARIANCE> 25
 2.483985e+02 8.569445e+01 5.359925e+01 7.555596e+01 3.401810e+01 6.056723e+01 4.828050e+01 8.338139e+01 6.488603e+01 2.838937e+01 3.411337e+01 3.997775e+01 4.639731e+00 6.043821e+00 3.246123e+00 4.938447e+00 2.979671e+00 4.096359e+00 3.599185e+00 5.236683e+00 3.851690e+00 2.585735e+00 2.646054e+00 2.373396e+00 9.068246e+00
<GCONST> 1.127741e+02
<STATE> 4
<MEAN> 25
 2.638992e+00 -3.689136e-01 -8.636060e-01 -6.039311e-02 1.240126e+00 2.963009e-01 -9.093403e-01 -9.867038e-01 -7.741869e-01 -1.183018e-01 -4.632975e-01 -1.365165e+00 5.033293e-01 -1.583909e-01 5.152857e-02 -1.631609e-01 -1.963270e-02 -1.197738e-01 -1.077305e-01 -1.713051e-01 -1.195296e-01 7.094982e-03 -1.411754e-01 -1.658606e-01 5.746998e-01
<VARIANCE> 25
 2.414919e+02 1.004676e+02 6.034797e+01 8.272034e+01 3.770817e+01 6.349426e+01 5.195473e+01 9.560619e+01 6.954676e+01 3.135036e+01 3.484657e+01 4.064869e+01 4.502075e+00 7.210131e+00 3.767392e+00 5.652559e+00 3.315372e+00 4.441871e+00 4.036499e+00 6.010201e+00 4.504690e+00 2.945067e+00 3.007564e+00 2.558702e+00 8.924525e+00
<GCONST> 1.150254e+02
<TRANSP> 5
 0.000000e+00 1.000000e+00 0.000000e+00 0.000000e+00 0.000000e+00
 0.000000e+00 7.293474e-01 2.706526e-01 0.000000e+00 0.000000e+00
 0.000000e+00 0.000000e+00 7.293473e-01 2.706527e-01 0.000000e+00
 0.000000e+00 0.000000e+00 0.000000e+00 8.511218e-01 1.488782e-01
 0.000000e+00 0.000000e+00 0.000000e+00 0.000000e+00 0.000000e+00
<ENDHMM>
~h "c"
<BEGINHMM>
<NUMSTATES> 5
<STATE> 2
<MEAN> 25
 -9.558869e+00 1.484625e+00 -5.208339e+00 3.139101e+00 2.885931e-01 3.586270e+00 3.167657e-01 -1.809733e+00 -8.566961e-01 -1.635566e+00 1.118751e+00 1.389401e+00 -1.001155e-01 -6.655985e-03 3.417467e-02 7.904270e-02 2.807867e-02 -3.013382e-02 -1.335372e-02 4.215496e-02 -2.075750e-02 -3.129548e-02 2.174897e-03 -1.420977e-02 -7.930234e-02
<VARIANCE> 25
 1.891589e+01 2.151040e+01 2.771613e+01 9.776019e+00 1.448330e+01 1.804552e+01 1.597520e+01 1.676750e+01 1.371264e+01 1.399608e+01 1.541080e+01 8.354099e+00 6.117895e-01 5.005381e-01 1.074050e+00 5.520406e-01 9.090179e-01 1.545040e+00 1.264110e+00 1.186307e+00 1.236091e+00 1.473725e+00 1.580800e+00 9.374967e-01 3.057013e-01
<GCONST> 7.767543e+01
<STATE> 3
<MEAN> 25
 -9.876310e+00 1.477500e+00 -5.070207e+00 3.398962e+00 3.780215e-01 3.485624e+00 2.674849e-01 -1.666539e+00 -9.228532e-01 -1.745716e+00 1.118718e+00 1.333843e+00 -8.151571e-02 9.301520e-03 6.346900e-02 7.392494e-02 1.512831e-02 -2.717017e-02 -1.568384e-02 4.984407e-02 -1.442151e-02 -3.878742e-02 -1.146388e-02 -2.539207e-02 -5.967889e-02
<VARIANCE> 25
 1.434661e+01 2.086686e+01 2.511988e+01 9.601002e+00 1.273084e+01 1.770842e+01 1.592749e+01 1.599948e+01 1.276756e+01 1.369914e+01 1.494939e+01 8.149621e+00 4.583690e-01 4.608814e-01 9.143813e-01 5.255051e-01 8.167073e-01 1.584552e+00 1.206143e+00 1.127630e+00 1.145364e+00 1.454260e+00 1.558088e+00 9.142262e-01 2.268547e-01
<GCONST> 7.571800e+01
<STATE> 4
<MEAN> 25
 -1.004864e+01 1.442273e+00 -4.927962e+00 3.631675e+00 4.139113e-01 3.475002e+00 2.147421e-01 -1.573540e+00 -9.634530e-01 -1.850850e+00 1.016942e+00 1.244440e+00 -6.442466e-02 1.560080e-02 7.392678e-02 5.450325e-02 3.674461e-03 -1.481419e-02 -1.135513e-02 4.834491e-02 -5.812494e-03 -4.629444e-02 -2.881936e-02 -3.709573e-02 -4.174882e-02
<VARIANCE> 25
 1.112201e+01 2.029369e+01 2.280231e+01 9.578806e+00 1.104501e+01 1.742385e+01 1.585046e+01 1.525507e+01 1.177585e+01 1.345010e+01 1.427695e+01 8.068621e+00 3.239586e-01 4.251886e-01 7.495134e-01 4.995683e-01 7.342712e-01 1.606308e+00 1.150657e+00 1.060995e+00 1.045056e+00 1.423647e+00 1.518990e+00 8.834655e-01 1.563159e-01
<GCONST> 7.354763e+01
<TRANSP> 5
 0.000000e+00 1.000000e+00 0.000000e+00 0.000000e+00 0.000000e+00
 0.000000e+00 7.013479e-01 2.986521e-01 0.000000e+00 0.000000e+00
 0.000000e+00 0.000000e+00 7.013478e-01 2.986523e-01 0.000000e+00
 0.000000e+00 0.000000e+00 0.000000e+00 8.174110e-01 1.825890e-01
 0.000000e+00 0.000000e+00 0.000000e+00 0.000000e+00 0.000000e+00
<ENDHMM>
~h "d"
<BEGINHMM>
<NUMSTATES> 5
<STATE> 2
<MEAN> 25
 1.726135e+01 -4.110668e+00 -3.469015e-01 -4.764286e+00 -6.990541e-01 -2.536768e+00 -4.499956e+00 -4.417406e+00 -2.073893e+00 6.004876e-01 -1.704181e+00 -2.960846e+00 4.209478e-02 -2.608807e-02 -2.411839e-02 -1.629807e-01 -1.737062e-02 4.062501e-02 4.283156e-02 -5.883411e-02 -1.619626e-02 3.901115e-02 2.707850e-02 3.000238e-02 1.119661e-01
<VARIANCE> 25
 6.777734e+01 1.567117e+02 7.247230e+01 1.444903e+02 6.760604e+01 7.666565e+01 7.280774e+01 1.097683e+02 9.235074e+01 5.421161e+01 5.720955e+01 4.078287e+01 3.571467e+00 1.322773e+01 6.544623e+00 9.122135e+00 5.950195e+00 6.270700e+00 6.166149e+00 8.139041e+00 7.246446e+00 5.156861e+00 5.402047e+00 3.267206e+00 7.004513e+00
<GCONST> 1.222046e+02
<STATE> 3
<MEAN> 25
 1.732408e+01 -4.232061e+00 -4.201835e-01 -5.383855e+00 -7.540923e-01 -2.366770e+00 -4.302405e+00 -4.594502e+00 -2.100181e+00 7.494199e-01 -1.605390e+00 -2.849943e+00 -3.462197e-03 -3.580095e-02 -1.374933e-02 -1.549233e-01 -1.639020e-02 4.230750e-02 6.112529e-02 -3.423825e-02 -1.931222e-03 4.230495e-02 1.864899e-02 2.933554e-02 8.570792e-02
<VARIANCE> 25
 6.521027e+01 1.530610e+02 7.523511e+01 1.476207e+02 7.126855e+01 7.910746e+01 7.413942e+01 1.081309e+02 9.337118e+01 5.646123e+01 5.990399e+01 4.127362e+01 3.861450e+00 1.288838e+01 6.553828e+00 9.196887e+00 6.153240e+00 6.435979e+00 6.236968e+00 8.083925e+00 7.317040e+00 5.369798e+00 5.609827e+00 3.372175e+00 6.893233e+00
<GCONST> 1.226274e+02
<STATE> 4
<MEAN> 25
 1.706443e+01 -4.499338e+00 -4.060669e-01 -6.100208e+00 -8.224869e-01 -2.157643e+00 -3.882702e+00 -4.690599e+00 -2.041260e+00 9.878163e-01 -1.519986e+00 -2.737404e+00 -6.446835e-02 -3.988705e-02 6.824556e-03 -1.191755e-01 -1.877733e-02 3.145387e-02 7.257988e-02 1.107502e-02 2.284325e-02 3.772246e-02 1.819629e-03 2.818051e-02 3.660304e-02
<VARIANCE> 25
 6.658185e+01 1.459499e+02 8.057628e+01 1.501119e+02 7.923766e+01 8.283547e+01 7.662506e+01 1.066896e+02 9.345697e+01 5.861414e+01 6.350753e+01 4.212007e+01 4.452194e+00 1.222679e+01 6.541931e+00 9.299117e+00 6.625162e+00 6.663041e+00 6.333517e+00 8.019844e+00 7.346564e+00 5.547851e+00 5.882216e+00 3.565377e+00 6.886773e+00
<GCONST> 1.233284e+02
<TRANSP> 5
 0.000000e+00 1.000000e+00 0.000000e+00 0.000000e+00 0.000000e+00
 0.000000e+00 7.375467e-01 2.624533e-01 0.000000e+00 0.000000e+00
 0.000000e+00 0.000000e+00 7.375469e-01 2.624531e-01 0.000000e+00
 0.000000e+00 0.000000e+00 0.000000e+00 8.591582e-01 1.408418e-01
 0.000000e+00 0.000000e+00 0.000000e+00 0.000000e+00 0.000000e+00
<ENDHMM>
~h "e"
<BEGINHMM>
<NUMSTATES> 5
<STATE> 2
<MEAN> 25
 7.434939e+00 -3.588474e-01 5.993840e+00 -1.844840e+00 -3.543593e+00 -4.255366e+00 2.144927e-01 -2.729617e+00 -4.886377e+00 -5.620059e-01 -1.098551e+00 -1.111037e+00 -8.770587e-02 9.745379e-02 1.792769e-02 9.646216e-02 -6.366206e-02 3.643437e-02 1.744578e-02 -7.401751e-02 -4.678544e-02 -6.720265e-04 6.646801e-03 -4.632277e-04 -1.995221e-01
<VARIANCE> 25
 1.667288e+02 1.188575e+02 1.694307e+02 1.047637e+02 1.187303e+02 1.033786e+02 8.339634e+01 9.771977e+01 1.037073e+02 4.618106e+01 4.453540e+01 4.115361e+01 7.123538e+00 9.209140e+00 9.305470e+00 8.409846e+00 7.635985e+00 6.432216e+00 6.520828e+00 7.228144e+00 8.123835e+00 4.317984e+00 4.103480e+00 3.223370e+00 6.365074e+00
<GCONST> 1.243155e+02
<STATE> 3
<MEAN> 25
 7.126710e+00 -2.245708e-02 6.020917e+00 -1.512866e+00 -3.739606e+00 -4.108245e+00 2.365298e-01 -2.966334e+00 -5.030435e+00 -5.634131e-01 -1.084532e+00 -1.117050e+00 -9.284720e-02 8.164556e-02 -3.719325e-03 8.912617e-02 -4.627082e-02 4.239347e-02 -2.280977e-04 -5.337334e-02 -2.760078e-02 1.715155e-03 3.051836e-03 -9.077424e-04 -2.148432e-01
<VARIANCE> 25
 1.666785e+02 1.154619e+02 1.703446e+02 1.035104e+02 1.158929e+02 1.031507e+02 8.216802e+01 9.769218e+01 1.022708e+02 4.653296e+01 4.378408e+01 3.989310e+01 6.695015e+00 9.057791e+00 9.210981e+00 8.237300e+00 7.451492e+00 6.316973e+00 6.428703e+00 7.200639e+00 8.042268e+00 4.336075e+00 4.039183e+00 3.158053e+00 6.292339e+00
<GCONST> 1.239598e+02
<STATE> 4
<MEAN> 25
 6.839511e+00 3.281245e-01 6.178665e+00 -1.194889e+00 -3.938696e+00 -4.068037e+00 1.471953e-01 -3.137430e+00 -5.197158e+00 -5.726724e-01 -1.076318e+00 -1.130423e+00 -9.275308e-02 5.581201e-02 -3.909643e-02 7.195121e-02 -1.562357e-02 4.872706e-02 -2.093733e-02 -1.982345e-02 3.993968e-04 1.986560e-03 -4.977792e-03 -2.267999e-03 -2.238786e-01
<VARIANCE> 25
 1.633138e+02 1.101991e+02 1.719030e+02 1.025294e+02 1.111274e+02 1.043066e+02 8.237570e+01 9.774603e+01 1.011021e+02 4.723257e+01 4.300110e+01 3.837513e+01 6.102496e+00 8.798528e+00 9.088443e+00 8.020495e+00 7.165986e+00 6.178295e+00 6.414034e+00 7.184592e+00 7.944926e+00 4.371541e+00 3.962648e+00 3.084378e+00 6.371678e+00
<GCONST> 1.235494e+02
<TRANSP> 5
 0.000000e+00 1.000000e+00 0.000000e+00 0.000000e+00 0.000000e+00
 0.000000e+00 7.205897e-01 2.794103e-01 0.000000e+00 0.000000e+00
 0.000000e+00 0.000000e+00 7.205894e-01 2.794107e-01 0.000000e+00
 0.000000e+00 0.000000e+00 0.000000e+00 8.414875e-01 1.585125e-01
 0.000000e+00 0.000000e+00 0.000000e+00 0.000000e+00 0.000000e+00
<ENDHMM>
~h "g"
<BEGINHMM>
<NUMSTATES> 5
<STATE> 2
<MEAN> 25
 -6.223334e+00 2.020489e+00 1.112352e+00 2.175658e+00 -7.951030e-01 1.002576e+00 2.064532e+00 2.258976e+00 1.798888e+00 6.522896e-01 2.396942e+00 2.147385e+00 -4.105397e-02 5.764419e-03 -4.600105e-02 5.535562e-02 3.502014e-02 3.576146e-03 -4.963901e-02 -2.472892e-02 3.607822e-02 3.768951e-02 3.250529e-02 7.484576e-03 -8.678700e-02
<VARIANCE> 25
 1.954942e+02 5.143442e+01 1.209719e+02 6.825597e+01 6.688473e+01 8.735248e+01 4.776833e+01 5.887383e+01 8.710677e+01 2.949801e+01 4.040607e+01 3.398736e+01 2.048363e+00 3.871295e+00 4.303207e+00 3.401941e+00 3.289382e+00 3.011015e+00 3.337261e+00 3.658944e+00 4.244957e+00 2.637569e+00 2.429301e+00 2.120009e+00 3.462805e+00
<GCONST> 1.107190e+02
<STATE> 3
<MEAN> 25
 -6.371492e+00 2.071751e+00 9.488962e-01 2.378819e+00 -6.287154e-01 1.101027e+00 1.882116e+00 2.159792e+00 1.875248e+00 6.362210e-01 2.413372e+00 2.145740e+00 -3.808509e-02 1.266361e-02 -4.865575e-02 5.234870e-02 4.858540e-02 2.773155e-02 -4.772761e-02 -2.107108e-02 2.394131e-02 -9.653175e-03 -3.748209e-03 -2.798027e-03 -8.731726e-02
<VARIANCE> 25
 1.928102e+02 5.044635e+01 1.178537e+02 6.785324e+01 6.481855e+01 8.613162e+01 4.687733e+01 5.726430e+01 8.443174e+01 2.914920e+01 3.998471e+01 3.290047e+01 1.933271e+00 3.755763e+00 4.172445e+00 3.300681e+00 3.217159e+00 2.967885e+00 3.304018e+00 3.613099e+00 4.112280e+00 2.623012e+00 2.373670e+00 2.030598e+00 3.414464e+00
<GCONST> 1.101497e+02
<STATE> 4
<MEAN> 25
 -6.340302e+00 2.127123e+00 6.691867e-01 2.387810e+00 -3.866960e-01 1.300980e+00 1.703733e+00 2.129760e+00 1.850182e+00 3.967593e-01 2.197007e+00 2.075942e+00 -2.482929e-02 4.866277e-03 -6.988361e-02 1.091217e-02 4.639704e-02 3.581350e-02 -2.075654e-02 5.938800e-03 1.233851e-02 -3.166506e-02 -3.030375e-02 -7.314363e-03 -6.590137e-02
<VARIANCE> 25
 1.878094e+02 4.946027e+01 1.132389e+02 6.628465e+01 6.036809e+01 8.531125e+01 4.684729e+01 5.543930e+01 7.950731e+01 2.821716e+01 3.837526e+01 3.153388e+01 1.870557e+00 3.583183e+00 3.996686e+00 3.202697e+00 3.101588e+00 2.980802e+00 3.285695e+00 3.582229e+00 4.021618e+00 2.543816e+00 2.342359e+00 1.927650e+00 3.526140e+00
<GCONST> 1.094648e+02
<TRANSP> 5
 0.000000e+00 1.000000e+00 0.000000e+00 0.000000e+00 0.000000e+00
 0.000000e+00 7.313018e-01 2.686982e-01 0.000000e+00 0.000000e+00
 0.000000e+00 0.000000e+00 7.313017e-01 2.686983e-01 0.000000e+00
 0.000000e+00 0.000000e+00 0.000000e+00 8.533109e-01 1.466891e-01
 0.000000e+00 0.000000e+00 0.000000e+00 0.000000e+00 0.000000e+00
<ENDHMM>
~h "h"
<BEGINHMM>
<NUMSTATES> 5
<STATE> 2
<MEAN> 25
 -6.002293e+00 4.475194e+00 -2.915575e+00 2.081125e+00 1.852541e-01 2.254748e+00 1.028721e+00 7.501941e-01 1.926742e+00 -2.186816e-01 1.267149e+00 1.652042e+00 -1.447609e-01 3.427358e-02 -9.097511e-02 6.820482e-02 4.273738e-02 8.188700e-02 4.563021e-03 2.725311e-02 2.121506e-02 -2.352233e-02 1.142233e-02 -4.695293e-03 -2.081009e-01
<VARIANCE> 25
 1.336786e+02 3.751676e+01 6.158669e+01 5.627711e+01 2.221406e+01 5.352407e+01 3.248562e+01 3.760217e+01 3.424646e+01 2.614671e+01 2.753718e+01 2.163984e+01 1.129523e+00 1.627010e+00 1.915572e+00 1.638408e+00 1.757073e+00 2.251024e+00 2.126788e+00 2.288034e+00 1.905543e+00 1.889474e+00 1.792491e+00 1.524388e+00 1.165773e+00
<GCONST> 9.714326e+01
<STATE> 3
<MEAN> 25
 -6.558286e+00 4.606041e+00 -3.217535e+00 2.332627e+00 3.406303e-01 2.579266e+00 1.050423e+00 8.605983e-01 1.961254e+00 -3.885190e-01 1.235211e+00 1.618771e+00 -1.484139e-01 3.053830e-02 -6.375910e-02 6.980141e-02 4.046272e-02 7.593264e-02 2.595302e-03 3.589731e-02 9.981734e-03 -4.817759e-02 -1.259240e-02 -9.526843e-03 -1.981013e-01
<VARIANCE> 25
 1.228913e+02 3.261404e+01 5.318140e+01 5.403625e+01 2.063949e+01 4.792224e+01 2.956431e+01 3.453198e+01 3.237883e+01 2.507516e+01 2.599809e+01 2.041862e+01 1.035242e+00 1.395942e+00 1.663577e+00 1.498272e+00 1.579535e+00 2.031972e+00 1.964200e+00 2.073492e+00 1.807855e+00 1.782405e+00 1.693765e+00 1.429358e+00 1.039940e+00
<GCONST> 9.495083e+01
<STATE> 4
<MEAN> 25
 -7.163317e+00 4.531797e+00 -3.292629e+00 2.682272e+00 4.230945e-01 2.910057e+00 1.154973e+00 1.125835e+00 2.034946e+00 -5.990801e-01 1.128378e+00 1.609991e+00 -1.162345e-01 5.155597e-04 -3.660894e-02 4.338176e-02 3.208464e-02 4.109307e-02 -7.145652e-03 3.891345e-02 -6.945590e-03 -4.787259e-02 -3.477913e-02 -2.122292e-02 -1.353020e-01
<VARIANCE> 25
 1.077855e+02 2.859558e+01 4.355664e+01 5.035872e+01 1.919984e+01 4.149010e+01 2.687857e+01 3.118894e+01 3.041421e+01 2.339158e+01 2.435721e+01 1.943391e+01 1.074058e+00 1.212583e+00 1.397487e+00 1.419574e+00 1.403010e+00 1.820205e+00 1.784635e+00 1.857976e+00 1.770457e+00 1.636611e+00 1.599590e+00 1.357543e+00 1.236271e+00
<GCONST> 9.294933e+01
<TRANSP> 5
 0.000000e+00 1.000000e+00 0.000000e+00 0.000000e+00 0.000000e+00
 0.000000e+00 7.456170e-01 2.543831e-01 0.000000e+00 0.000000e+00
 0.000000e+00 0.000000e+00 7.456168e-01 2.543833e-01 0.000000e+00
 0.000000e+00 0.000000e+00 0.000000e+00 8.705646e-01 1.294354e-01
 0.000000e+00 0.000000e+00 0.000000e+00 0.000000e+00 0.000000e+00
<ENDHMM>
~h "i"
<BEGINHMM>
<NUMSTATES> 5
<STATE> 2
<MEAN> 25
 6.689674e+00 -1.885967e+00 2.206005e+00 -2.003113e+00 -1.856049e+00 -2.531773e+00 -7.470264e-01 -1.544765e+00 -2.668941e+00 -5.474129e-01 -1.739831e+00 -1.828422e+00 -8.900384e-02 -1.289916e-02 -4.297570e-02 2.555162e-02 4.456062e-02 7.686278e-03 1.506589e-03 5.450085e-02 1.793569e-02 -2.086545e-02 -1.652877e-02 8.703824e-04 -9.986974e-02
<VARIANCE> 25
 1.553807e+02 1.170696e+02 1.540169e+02 9.609064e+01 9.086479e+01 9.383872e+01 6.709150e+01 7.950922e+01 8.239638e+01 4.592500e+01 4.307170e+01 3.625066e+01 3.537235e+00 7.216819e+00 6.668605e+00 6.621686e+00 6.023290e+00 5.346702e+00 5.964114e+00 6.282403e+00 6.020271e+00 4.014327e+00 3.683769e+00 2.850562e+00 5.654643e+00
<GCONST> 1.199748e+02
<STATE> 3
<MEAN> 25
 6.312078e+00 -1.911190e+00 2.027888e+00 -1.904807e+00 -1.674176e+00 -2.491556e+00 -7.350722e-01 -1.341414e+00 -2.585469e+00 -6.144024e-01 -1.785825e+00 -1.809096e+00 -1.085037e-01 -2.809209e-03 -4.909307e-02 2.734822e-02 5.117371e-02 1.260436e-02 5.615288e-03 5.564322e-02 2.525081e-02 -1.823615e-02 -1.201948e-02 8.819439e-03 -1.176986e-01
<VARIANCE> 25
 1.571538e+02 1.153593e+02 1.503553e+02 9.440730e+01 8.894514e+01 9.229741e+01 6.524088e+01 7.742619e+01 7.990382e+01 4.565182e+01 4.292411e+01 3.595612e+01 3.342067e+00 6.999104e+00 6.485668e+00 6.427197e+00 5.937924e+00 5.202110e+00 5.831638e+00 6.157118e+00 5.854346e+00 3.952158e+00 3.663901e+00 2.812966e+00 5.434760e+00
<GCONST> 1.194577e+02
<STATE> 4
<MEAN> 25
 5.747492e+00 -1.895846e+00 1.794714e+00 -1.826040e+00 -1.387671e+00 -2.448190e+00 -6.953443e-01 -1.069875e+00 -2.467119e+00 -6.695514e-01 -1.802222e+00 -1.745728e+00 -1.292873e-01 1.421300e-02 -6.301896e-02 2.910845e-02 5.740449e-02 2.075643e-02 7.368397e-03 5.075845e-02 3.684313e-02 -1.212296e-02 -4.765728e-03 1.846873e-02 -1.422208e-01
<VARIANCE> 25
 1.584821e+02 1.115784e+02 1.458335e+02 9.212434e+01 8.540880e+01 9.122088e+01 6.295649e+01 7.418996e+01 7.689628e+01 4.517543e+01 4.282259e+01 3.540449e+01 3.133951e+00 6.588147e+00 6.243350e+00 6.131305e+00 5.773942e+00 5.005686e+00 5.629278e+00 5.931139e+00 5.615941e+00 3.841032e+00 3.619596e+00 2.761668e+00 5.164540e+00
<GCONST> 1.186796e+02
<TRANSP> 5
 0.000000e+00 1.000000e+00 0.000000e+00 0.000000e+00 0.000000e+00
 0.000000e+00 7.302003e-01 2.697997e-01 0.000000e+00 0.000000e+00
 0.000000e+00 0.000000e+00 7.302011e-01 2.697989e-01 0.000000e+00
 0.000000e+00 0.000000e+00 0.000000e+00 8.521455e-01 1.478545e-01
 0.000000e+00 0.000000e+00 0.000000e+00 0.000000e+00 0.000000e+00
<ENDHMM>
~h "j"
<BEGINHMM>
<NUMSTATES> 5
<STATE> 2
<MEAN> 25
 -7.850783e+00 4.251733e+00 -5.712106e+00 2.329979e+00 1.642818e+00 3.607876e+00 -5.233499e-01 9.144502e-01 6.422651e-01 -2.586716e+00 -9.112485e-01 -4.278241e-01 -2.467184e-01 -5.212998e-02 6.222848e-02 1.226659e-01 3.111917e-02 3.151616e-03 -5.930865e-02 4.800821e-02 5.252322e-02 -8.588020e-03 2.175043e-02 1.400991e-02 -1.873604e-01
<VARIANCE> 25
 5.565413e+01 1.595165e+01 2.052661e+01 3.851270e+01 1.737391e+01 2.814308e+01 2.246961e+01 2.223594e+01 2.148911e+01 1.928247e+01 1.314408e+01 1.514193e+01 7.226918e-01 7.572970e-01 8.486133e-01 1.166840e+00 1.062004e+00 1.290636e+00 1.573141e+00 1.330923e+00 1.363743e+00 1.536804e+00 1.346727e+00 1.401614e+00 3.714250e-01
<GCONST> 8.396111e+01
<STATE> 3
<MEAN> 25
 -8.716951e+00 4.056412e+00 -5.478668e+00 2.764366e+00 1.745013e+00 3.598954e+00 -7.500231e-01 1.063414e+00 8.287379e-01 -2.598110e+00 -8.210475e-01 -3.616416e-01 -1.839219e-01 -4.664225e-02 5.465532e-02 9.613895e-02 1.317292e-02 -8.898791e-03 -5.459652e-02 2.895596e-02 4.466658e-02 1.752106e-04 2.104177e-02 2.023104e-02 -1.338205e-01
<VARIANCE> 25
 4.071004e+01 1.241542e+01 1.720178e+01 3.320770e+01 1.640865e+01 2.692881e+01 2.160828e+01 2.058716e+01 2.102896e+01 1.806351e+01 1.272294e+01 1.435646e+01 6.181509e-01 6.391352e-01 7.171299e-01 1.031883e+00 9.634354e-01 1.221540e+00 1.525721e+00 1.277384e+00 1.318226e+00 1.443710e+00 1.293375e+00 1.365517e+00 2.965035e-01
<GCONST> 8.145323e+01
<STATE> 4
<MEAN> 25
 -9.421853e+00 3.871366e+00 -5.123023e+00 3.131589e+00 1.656227e+00 3.500626e+00 -1.093822e+00 1.139127e+00 8.925180e-01 -2.534323e+00 -6.703092e-01 -1.831021e-01 -1.126929e-01 -3.638582e-02 4.365047e-02 6.790438e-02 -6.912082e-03 -1.986000e-02 -4.929466e-02 7.272638e-03 3.334134e-02 1.019621e-02 2.548390e-02 2.857722e-02 -7.827158e-02
<VARIANCE> 25
 2.752559e+01 9.395926e+00 1.452034e+01 2.761451e+01 1.564977e+01 2.635057e+01 2.130149e+01 1.895806e+01 2.049450e+01 1.673809e+01 1.250285e+01 1.371282e+01 5.482412e-01 5.685176e-01 6.163492e-01 9.085754e-01 8.757387e-01 1.196551e+00 1.518231e+00 1.223806e+00 1.281980e+00 1.344242e+00 1.261535e+00 1.337019e+00 2.655054e-01
<GCONST> 7.916287e+01
<TRANSP> 5
 0.000000e+00 1.000000e+00 0.000000e+00 0.000000e+00 0.000000e+00
 0.000000e+00 7.403406e-01 2.596594e-01 0.000000e+00 0.000000e+00
 0.000000e+00 0.000000e+00 7.403408e-01 2.596592e-01 0.000000e+00
 0.000000e+00 0.000000e+00 0.000000e+00 8.631456e-01 1.368544e-01
 0.000000e+00 0.000000e+00 0.000000e+00 0.000000e+00 0.000000e+00
<ENDHMM>
~h "k"
<BEGINHMM>
<NUMSTATES> 5
<STATE> 2
<MEAN> 25
 4.880496e+00 -1.264173e+00 5.911141e-01 -1.521116e+00 -3.896998e-01 -1.977859e+00 -7.189927e-01 -8.551973e-01 -1.851135e+00 -2.848011e-01 -1.927325e+00 -1.424850e+00 -2.017408e-01 9.840520e-02 -5.482356e-02 8.709764e-02 1.409450e-02 5.842489e-02 -3.969837e-04 -1.221825e-03 3.276986e-02 -2.423658e-02 5.931636e-03 2.600300e-02 -2.851160e-01
<VARIANCE> 25
 1.587730e+02 1.071022e+02 9.967627e+01 9.103130e+01 7.008680e+01 6.436767e+01 5.054294e+01 5.773241e+01 5.153014e+01 4.281212e+01 4.280156e+01 3.333125e+01 3.977496e+00 5.534104e+00 5.447811e+00 5.318864e+00 5.690808e+00 4.637048e+00 4.930439e+00 5.125421e+00 4.253860e+00 3.425956e+00 3.472789e+00 2.663370e+00 5.899877e+00
<GCONST> 1.157957e+02
<STATE> 3
<MEAN> 25
 4.082087e+00 -8.734047e-01 3.763445e-01 -1.181985e+00 -3.491836e-01 -1.752003e+00 -7.165564e-01 -8.503704e-01 -1.720966e+00 -3.855619e-01 -1.899638e+00 -1.318537e+00 -2.192297e-01 1.038449e-01 -5.385892e-02 8.993533e-02 8.522143e-03 6.032055e-02 1.540076e-03 1.437192e-03 3.341712e-02 -2.830927e-02 1.174775e-02 3.015195e-02 -3.029115e-01
<VARIANCE> 25
 1.599264e+02 1.026524e+02 9.611415e+01 8.602148e+01 6.659974e+01 6.162831e+01 4.833852e+01 5.499182e+01 4.950562e+01 4.078102e+01 4.136350e+01 3.258307e+01 3.763671e+00 5.173981e+00 5.220160e+00 4.983641e+00 5.403976e+00 4.432928e+00 4.701672e+00 4.864766e+00 4.049918e+00 3.248504e+00 3.360663e+00 2.594145e+00 5.598175e+00
<GCONST> 1.146934e+02
<STATE> 4
<MEAN> 25
 3.004956e+00 -3.455158e-01 5.405766e-02 -7.929834e-01 -3.072332e-01 -1.442291e+00 -6.916582e-01 -8.529220e-01 -1.528526e+00 -5.165141e-01 -1.796260e+00 -1.181407e+00 -2.312811e-01 1.046715e-01 -4.376078e-02 9.160271e-02 -1.475706e-03 5.578787e-02 2.689339e-03 8.714253e-03 2.969835e-02 -3.324889e-02 1.831587e-02 3.341440e-02 -3.114434e-01
<VARIANCE> 25
 1.581933e+02 9.427026e+01 9.129195e+01 7.932561e+01 6.182417e+01 5.799662e+01 4.530900e+01 5.042152e+01 4.676706e+01 3.788146e+01 3.892002e+01 3.133637e+01 3.447848e+00 4.662514e+00 4.938916e+00 4.534732e+00 4.944588e+00 4.177573e+00 4.370710e+00 4.424318e+00 3.790370e+00 3.017124e+00 3.174741e+00 2.504447e+00 5.253859e+00
<GCONST> 1.129944e+02
<TRANSP> 5
 0.000000e+00 1.000000e+00 0.000000e+00 0.000000e+00 0.000000e+00
 0.000000e+00 7.406374e-01 2.593625e-01 0.000000e+00 0.000000e+00
 0.000000e+00 0.000000e+00 7.406377e-01 2.593623e-01 0.000000e+00
 0.000000e+00 0.000000e+00 0.000000e+00 8.650198e-01 1.349802e-01
 0.000000e+00 0.000000e+00 0.000000e+00 0.000000e+00 0.000000e+00
<ENDHMM>
~h "l"
<BEGINHMM>
<NUMSTATES> 5
<STATE> 2
<MEAN> 25
 1.231721e+01 -4.660597e+00 3.231251e+00 -3.530143e+00 -2.405333e+00 -3.894476e+00 -1.807411e+00 -2.999342e+00 -2.168539e+00 -2.050142e-01 -2.236813e+00 -2.669011e+00 1.654539e-03 -3.320897e-03 6.786120e-02 1.057065e-02 -2.254120e-02 -9.140886e-02 2.014559e-02 7.925068e-02 -5.370586e-02 -2.048044e-02 -4.196136e-02 -1.727265e-03 4.828055e-02
<VARIANCE> 25
 1.059358e+02 1.329072e+02 1.340320e+02 1.017577e+02 1.138241e+02 8.599411e+01 8.007707e+01 1.006717e+02 9.407887e+01 5.307273e+01 4.922986e+01 4.129725e+01 4.100011e+00 9.736025e+00 7.021438e+00 8.262416e+00 7.706331e+00 6.539463e+00 7.135096e+00 8.120214e+00 7.137496e+00 5.047164e+00 3.972989e+00 3.160680e+00 6.417064e+00
<GCONST> 1.230372e+02
<STATE> 3
<MEAN> 25
 1.229076e+01 -4.645627e+00 3.432275e+00 -3.484756e+00 -2.430577e+00 -4.195735e+00 -1.722808e+00 -2.697010e+00 -2.373474e+00 -2.612490e-01 -2.380231e+00 -2.678779e+00 -1.435386e-02 7.644241e-03 4.235712e-02 1.297751e-02 6.550873e-03 -7.236752e-02 2.583658e-02 8.495317e-02 -5.405392e-02 -1.323594e-02 -4.358009e-02 -2.317754e-03 1.850052e-02
<VARIANCE> 25
 1.050601e+02 1.344940e+02 1.356562e+02 1.019473e+02 1.146999e+02 8.532275e+01 7.906530e+01 1.004377e+02 9.444626e+01 5.363390e+01 4.972866e+01 4.127349e+01 4.085311e+00 9.749408e+00 6.990374e+00 8.308516e+00 7.840496e+00 6.497372e+00 7.095994e+00 8.199809e+00 7.138165e+00 5.033872e+00 3.992466e+00 3.167180e+00 6.147309e+00
<GCONST> 1.230388e+02
<STATE> 4
<MEAN> 25
 1.232297e+01 -4.630933e+00 3.687637e+00 -3.481799e+00 -2.307000e+00 -4.593157e+00 -1.572720e+00 -2.326841e+00 -2.731257e+00 -2.426519e-01 -2.544431e+00 -2.767598e+00 -2.836259e-02 2.061715e-02 -2.164999e-05 1.714132e-02 4.083484e-02 -3.483238e-02 3.427839e-02 8.104794e-02 -5.058497e-02 -6.625566e-03 -4.252844e-02 -7.307785e-03 -2.378787e-02
<VARIANCE> 25
 1.030932e+02 1.369436e+02 1.377785e+02 1.040569e+02 1.133612e+02 8.406719e+01 7.759170e+01 9.898943e+01 9.479905e+01 5.443167e+01 5.028992e+01 4.097412e+01 4.127397e+00 9.688074e+00 6.848591e+00 8.396146e+00 7.912849e+00 6.363616e+00 6.977023e+00 8.193892e+00 7.026799e+00 4.965221e+00 4.000766e+00 3.159155e+00 5.800373e+00
<GCONST> 1.229132e+02
<TRANSP> 5
 0.000000e+00 1.000000e+00 0.000000e+00 0.000000e+00 0.000000e+00
 0.000000e+00 7.252145e-01 2.747855e-01 0.000000e+00 0.000000e+00
 0.000000e+00 0.000000e+00 7.252140e-01 2.747860e-01 0.000000e+00
 0.000000e+00 0.000000e+00 0.000000e+00 8.465716e-01 1.534284e-01
 0.000000e+00 0.000000e+00 0.000000e+00 0.000000e+00 0.000000e+00
<ENDHMM>
~h "m"
<BEGINHMM>
<NUMSTATES> 5
<STATE> 2
<MEAN> 25
 -2.996580e+00 5.450109e-01 -1.561795e+00 1.664976e+00 1.053675e+00 1.940167e+00 1.121217e+00 8.032911e-01 1.282750e+00 4.414289e-01 1.079681e+00 9.411339e-01 1.146854e-01 -1.262519e-02 -1.014578e-02 -6.636798e-02 1.868154e-02 -6.082460e-02 -5.728323e-02 -4.018851e-02 -6.177050e-02 -1.254734e-02 -4.134341e-02 -4.565279e-02 1.296431e-01
<VARIANCE> 25
 2.438293e+02 7.569888e+01 6.507185e+01 7.194131e+01 4.492961e+01 5.679896e+01 4.570659e+01 6.791713e+01 6.575269e+01 3.067791e+01 3.976484e+01 3.716360e+01 3.394124e+00 4.373827e+00 3.575076e+00 4.247177e+00 3.286070e+00 3.535917e+00 3.235941e+00 4.363999e+00 3.715370e+00 2.702548e+00 2.426888e+00 2.095026e+00 5.969182e+00
<GCONST> 1.112522e+02
<STATE> 3
<MEAN> 25
 -2.421128e+00 4.714414e-01 -1.569637e+00 1.378541e+00 1.117836e+00 1.666002e+00 8.588266e-01 6.044809e-01 9.907727e-01 3.692639e-01 8.726882e-01 7.152862e-01 1.692135e-01 -2.073789e-02 6.958304e-03 -8.150510e-02 1.319654e-02 -7.860141e-02 -7.657233e-02 -5.822401e-02 -8.199670e-02 -2.055760e-02 -5.729274e-02 -6.478507e-02 1.888326e-01
<VARIANCE> 25
 2.400060e+02 7.714859e+01 6.566194e+01 7.355779e+01 4.560210e+01 5.704794e+01 4.592459e+01 6.839307e+01 6.511896e+01 3.125968e+01 3.928357e+01 3.706545e+01 3.788186e+00 4.682284e+00 3.687096e+00 4.414115e+00 3.418240e+00 3.701589e+00 3.356869e+00 4.447609e+00 3.766598e+00 2.769224e+00 2.497394e+00 2.168990e+00 6.743423e+00
<GCONST> 1.119235e+02
<STATE> 4
<MEAN> 25
 -8.690073e-01 1.986836e-01 -1.450686e+00 7.773710e-01 1.130446e+00 1.073942e+00 3.185936e-01 1.347528e-01 3.148337e-01 1.995714e-01 3.670359e-01 1.638768e-01 2.485760e-01 -3.727734e-02 2.409850e-02 -1.070108e-01 -5.393022e-04 -9.779862e-02 -9.214205e-02 -8.225702e-02 -1.057253e-01 -2.815381e-02 -7.864992e-02 -8.817028e-02 2.743764e-01
<VARIANCE> 25
 2.348366e+02 8.251909e+01 6.865551e+01 7.697646e+01 4.712423e+01 5.870724e+01 4.719858e+01 7.143886e+01 6.487769e+01 3.222782e+01 3.840183e+01 3.755387e+01 4.325630e+00 5.362216e+00 3.901153e+00 4.780174e+00 3.660974e+00 4.017006e+00 3.623954e+00 4.749413e+00 3.956199e+00 2.891952e+00 2.671829e+00 2.316529e+00 7.758419e+00
<GCONST> 1.132716e+02
<TRANSP> 5
 0.000000e+00 1.000000e+00 0.000000e+00 0.000000e+00 0.000000e+00
 0.000000e+00 7.243848e-01 2.756152e-01 0.000000e+00 0.000000e+00
 0.000000e+00 0.000000e+00 7.243855e-01 2.756144e-01 0.000000e+00
 0.000000e+00 0.000000e+00 0.000000e+00 8.453786e-01 1.546214e-01
 0.000000e+00 0.000000e+00 0.000000e+00 0.000000e+00 0.000000e+00
<ENDHMM>
~h "n"
<BEGINHMM>
<NUMSTATES> 5
<STATE> 2
<MEAN> 25
 -2.210170e+00 5.045206e-01 -1.870735e+00 -7.763714e-02 1.155259e+00 1.709289e+00 -1.651717e-01 6.025843e-01 7.570815e-01 -2.144657e-01 4.773850e-01 3.737175e-01 2.788812e-01 -1.214122e-01 -3.166742e-02 -1.262907e-01 -2.377457e-02 -4.171069e-02 -3.204215e-02 -7.676414e-02 -9.651072e-02 -3.257217e-02 -7.290006e-02 -8.435345e-02 3.098171e-01
<VARIANCE> 25
 2.124241e+02 8.407061e+01 5.927205e+01 7.844778e+01 4.448576e+01 5.601696e+01 4.495789e+01 5.030354e+01 5.030182e+01 2.851200e+01 3.981427e+01 3.141018e+01 4.527696e+00 4.586003e+00 3.249801e+00 4.951282e+00 3.391869e+00 3.458402e+00 3.598189e+00 4.184697e+00 3.496951e+00 2.632561e+00 2.624563e+00 2.161020e+00 5.850070e+00
<GCONST> 1.108334e+02
<STATE> 3
<MEAN> 25
 -1.127347e+00 1.746791e-02 -1.944143e+00 -5.313618e-01 1.034074e+00 1.530443e+00 -2.687941e-01 3.191381e-01 3.952745e-01 -3.248443e-01 1.999618e-01 5.425729e-02 2.813559e-01 -1.263595e-01 -1.650968e-02 -1.122661e-01 -3.690897e-02 -4.681626e-02 -2.233862e-02 -8.024944e-02 -9.700383e-02 -2.901119e-02 -7.284682e-02 -8.140729e-02 3.110561e-01
<VARIANCE> 25
 2.130963e+02 9.013937e+01 6.048578e+01 8.083790e+01 4.543385e+01 5.608787e+01 4.571429e+01 5.114533e+01 4.952001e+01 2.944147e+01 3.969988e+01 3.164713e+01 4.652029e+00 4.914530e+00 3.379841e+00 5.223824e+00 3.491992e+00 3.617305e+00 3.788821e+00 4.320942e+00 3.642679e+00 2.707886e+00 2.718361e+00 2.218541e+00 5.894108e+00
<GCONST> 1.115179e+02
<STATE> 4
<MEAN> 25
 6.394474e-01 -8.747414e-01 -1.849207e+00 -1.103580e+00 7.052590e-01 1.156448e+00 -2.989670e-01 -1.203830e-01 -1.529773e-01 -4.304992e-01 -2.021771e-01 -4.238327e-01 2.458191e-01 -1.238671e-01 2.374385e-02 -7.922041e-02 -5.112764e-02 -5.853134e-02 -1.246900e-02 -7.434853e-02 -9.296869e-02 -2.151181e-02 -6.175148e-02 -6.863006e-02 2.829978e-01
<VARIANCE> 25
 2.112862e+02 9.954058e+01 6.653086e+01 8.373519e+01 4.863674e+01 5.827153e+01 4.758387e+01 5.383257e+01 4.948948e+01 3.141136e+01 3.972479e+01 3.202343e+01 4.506022e+00 5.269900e+00 3.617434e+00 5.461371e+00 3.732637e+00 3.846354e+00 4.155410e+00 4.550626e+00 3.866924e+00 2.848960e+00 2.843410e+00 2.298084e+00 5.550898e+00
<GCONST> 1.125665e+02
<TRANSP> 5
 0.000000e+00 1.000000e+00 0.000000e+00 0.000000e+00 0.000000e+00
 0.000000e+00 7.277901e-01 2.722099e-01 0.000000e+00 0.000000e+00
 0.000000e+00 0.000000e+00 7.277898e-01 2.722103e-01 0.000000e+00
 0.000000e+00 0.000000e+00 0.000000e+00 8.495812e-01 1.504187e-01
 0.000000e+00 0.000000e+00 0.000000e+00 0.000000e+00 0.000000e+00
<ENDHMM>
~h "o"
<BEGINHMM>
<NUMSTATES> 5
<STATE> 2
<MEAN> 25
 4.962147e+00 -1.707889e+00 -1.282831e+00 -3.377255e+00 9.626223e-01 -1.493160e+00 -9.924851e-01 -8.888806e-01 -8.219889e-01 7.749898e-01 -1.199124e+00 -2.069679e+00 -2.821610e-01 1.201351e-01 3.841266e-02 1.965213e-01 -7.361371e-02 1.221677e-02 9.775417e-03 7.326884e-03 1.813355e-02 -6.714518e-02 -3.642307e-03 3.845320e-02 -3.758090e-01
<VARIANCE> 25
 1.345424e+02 8.190637e+01 1.103771e+02 9.180154e+01 7.739341e+01 5.723804e+01 4.926468e+01 4.548836e+01 5.431815e+01 4.011899e+01 3.975380e+01 3.152245e+01 5.197375e+00 5.709197e+00 7.831944e+00 5.996634e+00 6.908832e+00 5.254090e+00 5.634514e+00 4.632352e+00 4.920863e+00 3.683055e+00 4.211875e+00 3.254729e+00 9.835452e+00
<GCONST> 1.173035e+02
<STATE> 3
<MEAN> 25
 3.861589e+00 -1.239490e+00 -1.098015e+00 -2.589648e+00 6.342587e-01 -1.444947e+00 -9.481811e-01 -8.660876e-01 -7.591301e-01 4.954613e-01 -1.219062e+00 -1.909907e+00 -2.676514e-01 1.123695e-01 5.674203e-02 1.930698e-01 -8.261882e-02 9.395586e-03 1.099441e-02 6.206003e-03 6.153875e-03 -7.168865e-02 1.223899e-03 4.699209e-02 -3.504474e-01
<VARIANCE> 25
 1.360772e+02 7.891325e+01 1.058449e+02 8.791287e+01 7.342831e+01 5.284738e+01 4.590997e+01 4.451831e+01 5.229056e+01 3.853801e+01 3.691629e+01 3.068519e+01 4.668572e+00 5.343163e+00 7.380102e+00 5.608383e+00 6.358347e+00 4.829115e+00 5.219055e+00 4.414268e+00 4.707933e+00 3.557950e+00 3.981209e+00 3.085302e+00 9.015512e+00
<GCONST> 1.159209e+02
<STATE> 4
<MEAN> 25
 2.803100e+00 -7.558229e-01 -7.313811e-01 -1.674821e+00 1.236145e-01 -1.448800e+00 -8.903121e-01 -9.071465e-01 -7.355333e-01 1.341497e-01 -1.261918e+00 -1.735621e+00 -2.334622e-01 9.914526e-02 7.284323e-02 1.832647e-01 -9.220199e-02 4.947523e-03 1.388561e-02 6.274112e-03 -7.382347e-03 -7.402801e-02 2.761997e-03 5.365594e-02 -3.059236e-01
<VARIANCE> 25
 1.354958e+02 7.626561e+01 1.020076e+02 8.197658e+01 6.911174e+01 4.918092e+01 4.304252e+01 4.401550e+01 5.054509e+01 3.677099e+01 3.336158e+01 2.982893e+01 4.005795e+00 4.961769e+00 6.799682e+00 5.189267e+00 5.624982e+00 4.402628e+00 4.756061e+00 4.181043e+00 4.507390e+00 3.451112e+00 3.638181e+00 2.861164e+00 7.964279e+00
<GCONST> 1.142444e+02
<TRANSP> 5
 0.000000e+00 1.000000e+00 0.000000e+00 0.000000e+00 0.000000e+00
 0.000000e+00 7.515786e-01 2.484214e-01 0.000000e+00 0.000000e+00
 0.000000e+00 0.000000e+00 7.515789e-01 2.484212e-01 0.000000e+00
 0.000000e+00 0.000000e+00 0.000000e+00 8.764456e-01 1.235543e-01
 0.000000e+00 0.000000e+00 0.000000e+00 0.000000e+00 0.000000e+00
<ENDHMM>
~h "p"
<BEGINHMM>
<NUMSTATES> 5
<STATE> 2
<MEAN> 25
 6.201751e+00 -1.960478e+00 2.375766e+00 -2.705225e+00 -6.459653e-01 -2.308422e+00 -5.102401e-01 -1.584943e+00 -1.262879e+00 4.620938e-01 -2.668482e-01 -5.362236e-01 4.588687e-02 6.745018e-02 2.674942e-03 -4.805888e-02 2.518637e-02 1.882098e-02 -4.090804e-02 -7.327449e-02 -8.058324e-02 -2.642441e-02 -2.624133e-02 -1.986532e-02 2.549050e-02
<VARIANCE> 25
 1.813570e+02 1.176590e+02 1.397238e+02 1.057653e+02 8.082763e+01 9.436620e+01 7.081396e+01 7.403484e+01 8.715846e+01 4.038264e+01 3.964987e+01 3.852539e+01 7.060945e+00 7.670907e+00 8.801144e+00 7.806015e+00 6.338082e+00 6.160222e+00 5.439785e+00 5.068079e+00 6.446440e+00 3.895190e+00 3.329448e+00 2.802099e+00 9.889300e+00
<GCONST> 1.214688e+02
<STATE> 3
<MEAN> 25
 6.475173e+00 -1.763259e+00 2.361618e+00 -2.946736e+00 -5.429513e-01 -2.247153e+00 -6.705854e-01 -1.876233e+00 -1.595403e+00 3.711255e-01 -3.922726e-01 -6.375868e-01 4.809690e-02 6.305863e-02 -4.392989e-03 -4.818911e-02 2.698896e-02 1.996589e-02 -3.943358e-02 -6.934409e-02 -8.157356e-02 -2.704090e-02 -3.184044e-02 -2.404000e-02 2.205116e-02
<VARIANCE> 25
 1.775618e+02 1.186473e+02 1.422740e+02 1.058073e+02 8.256544e+01 9.426274e+01 7.176160e+01 7.397675e+01 8.654846e+01 4.104185e+01 4.003557e+01 3.815180e+01 7.264009e+00 7.774549e+00 8.862392e+00 7.840599e+00 6.471133e+00 6.223965e+00 5.588903e+00 5.207895e+00 6.519237e+00 3.993447e+00 3.393380e+00 2.844420e+00 9.928892e+00
<GCONST> 1.217289e+02
<STATE> 4
<MEAN> 25
 6.820459e+00 -1.636719e+00 2.179394e+00 -3.386345e+00 -2.509909e-01 -2.090007e+00 -8.889446e-01 -2.170474e+00 -2.006173e+00 3.034644e-01 -5.803785e-01 -7.540996e-01 6.443541e-02 4.895163e-02 -9.410974e-03 -5.632947e-02 2.771601e-02 1.130982e-02 -4.025806e-02 -6.206646e-02 -8.034462e-02 -1.770028e-02 -2.907293e-02 -2.168097e-02 4.519120e-02
<VARIANCE> 25
 1.734548e+02 1.172671e+02 1.426784e+02 1.058594e+02 8.473807e+01 9.284496e+01 7.290604e+01 7.418644e+01 8.474697e+01 4.180354e+01 4.069735e+01 3.771852e+01 7.672557e+00 7.777760e+00 8.737062e+00 7.790507e+00 6.567510e+00 6.208645e+00 5.788731e+00 5.520512e+00 6.558747e+00 4.084337e+00 3.452434e+00 2.902409e+00 9.900778e+00
<GCONST> 1.219323e+02
<TRANSP> 5
 0.000000e+00 1.000000e+00 0.000000e+00 0.000000e+00 0.000000e+00
 0.000000e+00 7.272990e-01 2.727009e-01 0.000000e+00 0.000000e+00
 0.000000e+00 0.000000e+00 7.272989e-01 2.727011e-01 0.000000e+00
 0.000000e+00 0.000000e+00 0.000000e+00 8.511407e-01 1.488593e-01
 0.000000e+00 0.000000e+00 0.000000e+00 0.000000e+00 0.000000e+00
<ENDHMM>
~h "r"
<BEGINHMM>
<NUMSTATES> 5
<STATE> 2
<MEAN> 25
 1.202880e+00 -7.392364e-01 -1.718573e-01 -1.420744e-01 5.758123e-01 1.186531e-01 -5.008389e-01 -4.210829e-01 4.188856e-01 3.026923e-01 -3.149371e-01 -6.109792e-01 1.178139e-01 -5.483489e-02 1.978324e-02 -8.141460e-02 -3.268312e-02 -5.642615e-02 -1.508641e-02 -4.799804e-02 -1.481333e-02 -8.601137e-04 -2.704246e-02 -2.283510e-02 1.788237e-01
<VARIANCE> 25
 2.430570e+02 1.031667e+02 7.946680e+01 8.797146e+01 5.032573e+01 6.928454e+01 5.423241e+01 7.884119e+01 7.270589e+01 3.183739e+01 4.206474e+01 3.855412e+01 3.633975e+00 6.075104e+00 4.407241e+00 5.416022e+00 3.826246e+00 4.040561e+00 4.050344e+00 5.054165e+00 4.460881e+00 3.004719e+00 2.941186e+00 2.364740e+00 6.185428e+00
<GCONST> 1.149663e+02
<STATE> 3
<MEAN> 25
 1.660506e+00 -9.491503e-01 -1.026759e-01 -4.626442e-01 4.538711e-01 -9.097359e-02 -5.688542e-01 -6.004705e-01 3.445094e-01 2.847540e-01 -4.199366e-01 -6.974649e-01 1.262299e-01 -5.687109e-02 1.516698e-02 -8.862431e-02 -3.139335e-02 -5.397341e-02 -1.879289e-02 -4.887906e-02 -2.320872e-02 -5.895817e-03 -2.986564e-02 -2.303210e-02 1.853846e-01
<VARIANCE> 25
 2.389896e+02 1.035278e+02 8.307112e+01 9.026675e+01 5.275628e+01 6.986616e+01 5.506083e+01 7.763526e+01 7.359575e+01 3.241707e+01 4.194302e+01 3.819304e+01 3.858427e+00 6.163690e+00 4.621536e+00 5.639906e+00 3.991609e+00 4.160384e+00 4.177608e+00 5.074105e+00 4.622118e+00 3.089763e+00 3.007048e+00 2.424298e+00 6.362637e+00
<GCONST> 1.155037e+02
<STATE> 4
<MEAN> 25
 2.593332e+00 -1.338239e+00 3.538644e-03 -1.018834e+00 2.496121e-01 -4.187425e-01 -7.145706e-01 -9.164570e-01 9.352203e-02 2.004045e-01 -6.521997e-01 -8.897865e-01 1.399432e-01 -5.625134e-02 1.053850e-02 -9.617352e-02 -3.177191e-02 -4.903813e-02 -2.326584e-02 -4.732584e-02 -4.072023e-02 -1.238059e-02 -2.942462e-02 -2.280498e-02 1.903937e-01
<VARIANCE> 25
 2.292245e+02 1.039390e+02 8.894099e+01 9.438722e+01 5.618951e+01 7.070954e+01 5.625393e+01 7.557998e+01 7.413589e+01 3.381111e+01 4.172337e+01 3.766890e+01 4.208959e+00 6.242100e+00 4.917089e+00 5.994304e+00 4.241621e+00 4.372253e+00 4.390361e+00 5.141908e+00 4.855745e+00 3.226640e+00 3.119739e+00 2.518726e+00 6.574268e+00
<GCONST> 1.162752e+02
<TRANSP> 5
 0.000000e+00 1.000000e+00 0.000000e+00 0.000000e+00 0.000000e+00
 0.000000e+00 7.288857e-01 2.711143e-01 0.000000e+00 0.000000e+00
 0.000000e+00 0.000000e+00 7.288862e-01 2.711137e-01 0.000000e+00
 0.000000e+00 0.000000e+00 0.000000e+00 8.504505e-01 1.495495e-01
 0.000000e+00 0.000000e+00 0.000000e+00 0.000000e+00 0.000000e+00
<ENDHMM>
~h "s"
<BEGINHMM>
<NUMSTATES> 5
<STATE> 2
<MEAN> 25
 7.665646e+00 -1.666424e+00 3.711492e+00 -3.370505e+00 -9.877133e-01 -3.140195e+00 -6.961284e-01 -2.369179e+00 -3.072507e+00 1.130876e-02 -1.553751e+00 -9.432388e-01 -7.346798e-02 5.240122e-02 7.069141e-02 2.753524e-02 -6.548086e-02 -3.937108e-02 1.159219e-02 8.327134e-03 -3.349568e-02 -2.921664e-03 2.075639e-04 2.412095e-02 -6.801997e-02
<VARIANCE> 25
 1.752879e+02 1.177300e+02 1.455571e+02 1.149867e+02 1.198461e+02 9.268211e+01 8.233211e+01 9.455927e+01 1.029986e+02 4.697406e+01 5.132027e+01 4.289773e+01 8.853233e+00 8.732107e+00 8.078931e+00 8.365246e+00 7.813923e+00 6.143939e+00 6.903442e+00 7.505606e+00 7.849311e+00 4.515572e+00 4.436595e+00 3.340437e+00 6.817386e+00
<GCONST> 1.246273e+02
<STATE> 3
<MEAN> 25
 7.405388e+00 -1.451187e+00 3.969017e+00 -3.261009e+00 -1.242630e+00 -3.293642e+00 -6.709427e-01 -2.338849e+00 -3.200475e+00 4.588831e-03 -1.538614e+00 -8.647726e-01 -7.519440e-02 5.754729e-02 6.179636e-02 3.021207e-02 -6.995179e-02 -3.534126e-02 6.829364e-03 1.103339e-02 -3.179940e-02 -1.371220e-03 3.962845e-03 1.813363e-02 -9.016781e-02
<VARIANCE> 25
 1.750314e+02 1.153063e+02 1.471150e+02 1.147746e+02 1.218317e+02 9.276285e+01 8.253590e+01 9.332378e+01 1.028950e+02 4.730863e+01 5.129864e+01 4.234846e+01 8.744026e+00 8.719149e+00 8.132576e+00 8.352108e+00 7.804493e+00 6.207268e+00 6.951191e+00 7.484125e+00 7.858202e+00 4.529863e+00 4.402699e+00 3.350893e+00 6.772108e+00
<GCONST> 1.246106e+02
<STATE> 4
<MEAN> 25
 7.308608e+00 -1.201812e+00 4.334119e+00 -3.314679e+00 -1.494793e+00 -3.623823e+00 -7.447811e-01 -2.320406e+00 -3.417050e+00 9.034685e-02 -1.416993e+00 -8.115271e-01 -6.480645e-02 6.016528e-02 4.476147e-02 3.335858e-02 -7.261020e-02 -2.767760e-02 9.672549e-04 9.685243e-03 -2.862079e-02 1.261849e-05 5.656198e-03 4.075309e-03 -1.120786e-01
<VARIANCE> 25
 1.727502e+02 1.108694e+02 1.507033e+02 1.149849e+02 1.236462e+02 9.482962e+01 8.419043e+01 9.108807e+01 1.020837e+02 4.826529e+01 5.057643e+01 4.143716e+01 8.618902e+00 8.700710e+00 8.253345e+00 8.371141e+00 7.693877e+00 6.343394e+00 7.106121e+00 7.368157e+00 7.863865e+00 4.570196e+00 4.301169e+00 3.355295e+00 7.079114e+00
<GCONST> 1.246390e+02
<TRANSP> 5
 0.000000e+00 1.000000e+00 0.000000e+00 0.000000e+00 0.000000e+00
 0.000000e+00 7.303212e-01 2.696787e-01 0.000000e+00 0.000000e+00
 0.000000e+00 0.000000e+00 7.303217e-01 2.696783e-01 0.000000e+00
 0.000000e+00 0.000000e+00 0.000000e+00 8.537353e-01 1.462648e-01
 0.000000e+00 0.000000e+00 0.000000e+00 0.000000e+00 0.000000e+00
<ENDHMM>
~h "t"
<BEGINHMM>
<NUMSTATES> 5
<STATE> 2
<MEAN> 25
 5.345627e+00 -2.339005e+00 1.549711e+00 -2.763749e+00 -7.475227e-01 -2.346410e+00 -1.194035e+00 -6.716207e-01 -9.436353e-01 6.452545e-01 -1.510314e+00 -1.503967e+00 -6.365275e-02 1.452552e-02 1.479125e-02 3.542810e-02 -3.257638e-02 -2.683327e-02 -6.711544e-03 2.087507e-02 -1.245304e-02 -3.320751e-02 1.490966e-02 2.445237e-02 -7.510595e-02
<VARIANCE> 25
 1.593933e+02 1.003046e+02 1.363622e+02 1.026304e+02 8.003893e+01 8.145560e+01 6.789629e+01 7.580691e+01 8.111698e+01 4.163131e+01 4.814647e+01 3.568722e+01 4.981547e+00 7.173461e+00 7.699808e+00 6.871833e+00 5.718185e+00 5.478436e+00 5.831092e+00 5.946954e+00 6.002306e+00 3.949170e+00 3.934198e+00 2.952349e+00 9.209414e+00
<GCONST> 1.204490e+02
<STATE> 3
<MEAN> 25
 5.080669e+00 -2.258870e+00 1.600897e+00 -2.609222e+00 -8.746275e-01 -2.434004e+00 -1.197777e+00 -5.922232e-01 -9.920247e-01 5.175260e-01 -1.437681e+00 -1.395498e+00 -6.333933e-02 2.025556e-02 1.601227e-02 3.672585e-02 -3.487416e-02 -2.608504e-02 9.698644e-04 1.753108e-02 -1.820515e-02 -3.374001e-02 2.280186e-02 2.924330e-02 -7.353817e-02
<VARIANCE> 25
 1.595796e+02 9.872742e+01 1.363686e+02 1.010836e+02 7.903362e+01 8.166901e+01 6.737318e+01 7.361981e+01 7.956561e+01 4.145436e+01 4.676284e+01 3.528901e+01 4.897979e+00 6.969135e+00 7.645882e+00 6.720218e+00 5.652603e+00 5.424202e+00 5.680763e+00 5.817462e+00 5.952907e+00 3.906980e+00 3.843401e+00 2.892025e+00 8.982987e+00
<GCONST> 1.200755e+02
<STATE> 4
<MEAN> 25
 4.769087e+00 -2.041032e+00 1.665717e+00 -2.332235e+00 -1.072068e+00 -2.577450e+00 -1.178903e+00 -5.767711e-01 -1.153119e+00 2.740806e-01 -1.355072e+00 -1.263023e+00 -6.707582e-02 3.217513e-02 9.212288e-03 4.328121e-02 -3.066323e-02 -1.874282e-02 7.868245e-03 1.247338e-02 -1.877624e-02 -3.465059e-02 2.860191e-02 3.433190e-02 -8.264224e-02
<VARIANCE> 25
 1.570947e+02 9.542292e+01 1.356607e+02 9.762137e+01 7.701493e+01 8.159565e+01 6.548969e+01 6.990570e+01 7.664311e+01 4.132130e+01 4.405711e+01 3.451020e+01 4.698191e+00 6.564768e+00 7.426649e+00 6.450661e+00 5.509546e+00 5.306718e+00 5.433765e+00 5.551997e+00 5.820782e+00 3.831439e+00 3.681538e+00 2.793852e+00 8.452764e+00
<GCONST> 1.192657e+02
<TRANSP> 5
 0.000000e+00 1.000000e+00 0.000000e+00 0.000000e+00 0.000000e+00
 0.000000e+00 7.303911e-01 2.696089e-01 0.000000e+00 0.000000e+00
 0.000000e+00 0.000000e+00 7.303923e-01 2.696077e-01 0.000000e+00
 0.000000e+00 0.000000e+00 0.000000e+00 8.532748e-01 1.467252e-01
 0.000000e+00 0.000000e+00 0.000000e+00 0.000000e+00 0.000000e+00
<ENDHMM>
~h "u"
<BEGINHMM>
<NUMSTATES> 5
<STATE> 2
<MEAN> 25
 2.343830e+00 -2.359111e-01 -1.373769e+00 -1.493952e+00 3.859226e-01 4.830089e-01 -1.400513e+00 -1.503161e+00 -5.569393e-01 2.390145e-01 -6.514333e-01 -4.646160e-01 -7.251317e-03 -1.782804e-02 -2.811718e-02 -4.872086e-02 3.155879e-03 -7.207473e-03 1.103069e-02 2.653879e-02 -1.836847e-02 -5.967035e-03 -4.045833e-03 -8.306902e-03 1.452057e-02
<VARIANCE> 25
 2.253375e+02 8.794740e+01 8.296555e+01 1.010199e+02 6.113550e+01 6.711931e+01 6.400140e+01 7.195609e+01 6.213552e+01 3.878371e+01 4.284290e+01 3.126269e+01 4.446074e+00 5.721276e+00 4.634706e+00 5.324626e+00 4.627086e+00 4.385160e+00 4.657909e+00 5.098805e+00 4.396643e+00 3.504240e+00 3.184895e+00 2.362226e+00 5.540132e+00
<GCONST> 1.157015e+02
<STATE> 3
<MEAN> 25
 2.308925e+00 -2.874322e-01 -1.451500e+00 -1.666967e+00 4.034965e-01 4.179191e-01 -1.365936e+00 -1.388351e+00 -6.254749e-01 2.139438e-01 -6.630183e-01 -4.867889e-01 -2.159335e-02 -8.949726e-03 -1.762004e-02 -3.500681e-02 -1.279276e-03 -2.423305e-02 1.649704e-02 3.381791e-02 -2.063096e-02 -7.708467e-03 -5.188459e-03 -7.827560e-03 6.880026e-03
<VARIANCE> 25
 2.227787e+02 8.733594e+01 8.436033e+01 1.002894e+02 6.313448e+01 6.726636e+01 6.391066e+01 7.124009e+01 6.107500e+01 3.880026e+01 4.209835e+01 3.152393e+01 4.615784e+00 5.702147e+00 4.618991e+00 5.342740e+00 4.729056e+00 4.402154e+00 4.648515e+00 5.136584e+00 4.345064e+00 3.490287e+00 3.193824e+00 2.429451e+00 5.664939e+00
<GCONST> 1.157920e+02
<STATE> 4
<MEAN> 25
 2.624597e+00 -4.584682e-01 -1.424382e+00 -2.070517e+00 5.057092e-01 9.378275e-02 -1.410897e+00 -1.280372e+00 -8.146597e-01 2.021208e-01 -7.271993e-01 -5.504615e-01 -3.660548e-02 5.951313e-03 1.426924e-03 -1.571451e-02 -5.481445e-03 -4.275725e-02 1.994057e-02 3.718921e-02 -2.538153e-02 -1.152538e-02 -7.362033e-03 -5.959761e-03 1.239646e-04
<VARIANCE> 25
 2.164523e+02 8.671838e+01 8.855023e+01 9.991972e+01 6.785765e+01 6.912933e+01 6.395198e+01 7.028870e+01 6.052960e+01 3.907608e+01 4.082224e+01 3.219551e+01 5.141593e+00 5.777830e+00 4.763713e+00 5.513660e+00 4.980560e+00 4.549326e+00 4.771467e+00 5.257465e+00 4.411839e+00 3.488707e+00 3.217789e+00 2.559823e+00 6.042569e+00
<GCONST> 1.163325e+02
<TRANSP> 5
 0.000000e+00 1.000000e+00 0.000000e+00 0.000000e+00 0.000000e+00
 0.000000e+00 7.327119e-01 2.672880e-01 0.000000e+00 0.000000e+00
 0.000000e+00 0.000000e+00 7.327113e-01 2.672887e-01 0.000000e+00
 0.000000e+00 0.000000e+00 0.000000e+00 8.558899e-01 1.441102e-01
 0.000000e+00 0.000000e+00 0.000000e+00 0.000000e+00 0.000000e+00
<ENDHMM>
~h "w"
<BEGINHMM>
<NUMSTATES> 5
<STATE> 2
<MEAN> 25
 -1.814959e+01 5.063550e+00 -3.659679e+00 6.682570e+00 3.192022e+00 6.760518e+00 3.206098e+00 5.778849e+00 8.135309e+00 2.582642e+00 5.991238e+00 5.277035e+00 -1.738640e-03 -1.672376e-02 2.478381e-02 6.748246e-02 3.258189e-02 -3.425119e-02 -7.026157e-02 -8.253524e-02 2.221538e-02 7.073172e-02 5.478155e-02 -5.471939e-04 4.374798e-03
<VARIANCE> 25
 5.648743e+00 4.223152e+00 8.279396e+00 1.340368e+01 9.119946e+00 1.541930e+01 1.277009e+01 1.263159e+01 1.180880e+01 9.572924e+00 1.033716e+01 8.416817e+00 6.360649e-02 1.547882e-01 2.328972e-01 3.434261e-01 3.668133e-01 4.856573e-01 6.723434e-01 1.035354e+00 1.115240e+00 1.050386e+00 8.117771e-01 1.096315e+00 7.295708e-02
<GCONST> 6.124107e+01
<STATE> 3
<MEAN> 25
 -1.813025e+01 5.084989e+00 -3.507194e+00 6.934164e+00 3.332675e+00 6.762985e+00 2.936221e+00 5.443043e+00 8.066514e+00 2.534660e+00 5.984296e+00 5.224830e+00 7.497327e-03 9.471470e-03 4.086985e-02 6.038564e-02 3.510233e-02 5.644124e-03 -6.816141e-02 -8.215207e-02 -2.077458e-02 -2.419180e-02 -1.379485e-02 -1.750500e-02 5.074097e-03
<VARIANCE> 25
 6.630798e+00 4.588394e+00 8.050889e+00 1.359366e+01 9.275782e+00 1.544777e+01 1.308285e+01 1.339456e+01 1.279980e+01 9.938582e+00 9.590816e+00 7.963083e+00 1.026557e-01 1.669435e-01 2.108856e-01 3.515964e-01 3.964466e-01 4.441302e-01 6.951638e-01 1.045654e+00 1.108807e+00 1.086549e+00 7.727179e-01 1.005637e+00 1.440991e-01
<GCONST> 6.264286e+01
<STATE> 4
<MEAN> 25
 -1.774139e+01 5.057851e+00 -3.293453e+00 6.836454e+00 3.354105e+00 6.847891e+00 2.774054e+00 5.193106e+00 7.650621e+00 2.123845e+00 5.587924e+00 5.093716e+00 5.804680e-02 -4.091207e-03 1.658976e-02 -2.418074e-02 7.876418e-03 9.150302e-03 -1.597727e-02 -3.802003e-02 -5.961943e-02 -5.673948e-02 -5.589928e-02 -2.376990e-02 6.433445e-02
<VARIANCE> 25
 1.573459e+01 6.789261e+00 8.434917e+00 1.674408e+01 1.010080e+01 1.625504e+01 1.424827e+01 1.519905e+01 1.520069e+01 1.038143e+01 9.993223e+00 8.029264e+00 3.868214e-01 3.019714e-01 2.878253e-01 5.421081e-01 5.048700e-01 5.564763e-01 7.852496e-01 1.136599e+00 1.282627e+00 1.068438e+00 8.537897e-01 9.029059e-01 6.579880e-01
<GCONST> 6.974193e+01
<TRANSP> 5
 0.000000e+00 1.000000e+00 0.000000e+00 0.000000e+00 0.000000e+00
 0.000000e+00 7.361465e-01 2.638535e-01 0.000000e+00 0.000000e+00
 0.000000e+00 0.000000e+00 7.361466e-01 2.638534e-01 0.000000e+00
 0.000000e+00 0.000000e+00 0.000000e+00 8.584200e-01 1.415800e-01
 0.000000e+00 0.000000e+00 0.000000e+00 0.000000e+00 0.000000e+00
<ENDHMM>
~h "aw"
<BEGINHMM>
<NUMSTATES> 5
<STATE> 2
<MEAN> 25
 -1.004729e+01 3.636840e+00 -4.981320e+00 3.546329e+00 1.698948e+00 3.401289e+00 -1.300289e+00 1.165510e+00 1.208202e+00 -2.487772e+00 -5.315638e-01 -5.005796e-02 -3.170678e-02 -1.959125e-02 3.247757e-02 3.996928e-02 -3.168396e-02 -3.576545e-02 -3.678666e-02 -1.003286e-04 2.869884e-02 2.159090e-02 3.454695e-02 3.488376e-02 -2.017442e-02
<VARIANCE> 25
 1.861859e+01 7.832953e+00 1.288038e+01 2.287652e+01 1.520864e+01 2.860331e+01 2.148086e+01 1.824384e+01 1.963627e+01 1.588073e+01 1.241953e+01 1.287666e+01 5.972719e-01 6.335109e-01 5.464399e-01 8.035722e-01 8.542340e-01 1.306343e+00 1.650103e+00 1.231747e+00 1.260023e+00 1.225935e+00 1.224134e+00 1.284177e+00 3.525323e-01
<GCONST> 7.834746e+01
<STATE> 3
<MEAN> 25
 -1.012269e+01 3.565104e+00 -4.861419e+00 3.682809e+00 1.566377e+00 3.264566e+00 -1.423299e+00 1.179510e+00 1.326205e+00 -2.397321e+00 -3.925571e-01 8.111830e-02 6.350474e-03 -4.507982e-03 3.098579e-02 1.647149e-02 -4.583037e-02 -4.864189e-02 -2.324263e-02 1.563228e-02 3.579514e-02 3.228238e-02 4.055209e-02 3.426749e-02 5.470106e-03
<VARIANCE> 25
 1.801611e+01 8.639820e+00 1.292775e+01 2.083013e+01 1.533222e+01 2.991901e+01 2.190300e+01 1.782831e+01 1.900834e+01 1.541891e+01 1.249424e+01 1.269723e+01 7.672991e-01 8.120763e-01 5.436098e-01 7.816140e-01 8.765913e-01 1.390891e+00 1.754218e+00 1.238233e+00 1.267447e+00 1.177327e+00 1.243558e+00 1.257331e+00 5.127675e-01
<GCONST> 7.925763e+01
<STATE> 4
<MEAN> 25
 -9.993469e+00 3.539820e+00 -4.604383e+00 3.715675e+00 1.232076e+00 3.041911e+00 -1.598283e+00 1.267147e+00 1.396772e+00 -2.215924e+00 -1.724506e-01 2.842366e-01 3.683471e-02 1.561094e-02 2.971302e-02 -1.756271e-02 -5.790386e-02 -6.793594e-02 -1.797589e-02 3.140979e-02 4.317158e-02 3.650535e-02 3.248928e-02 2.789169e-02 2.543717e-02
<VARIANCE> 25
 1.897704e+01 1.080645e+01 1.388171e+01 1.871312e+01 1.579525e+01 2.977072e+01 2.220646e+01 1.677235e+01 1.847184e+01 1.484284e+01 1.260507e+01 1.272774e+01 1.097406e+00 1.159693e+00 6.032060e-01 7.739813e-01 9.105713e-01 1.431169e+00 1.792441e+00 1.214379e+00 1.286445e+00 1.169365e+00 1.294282e+00 1.239146e+00 8.014920e-01
<GCONST> 8.077656e+01
<TRANSP> 5
 0.000000e+00 1.000000e+00 0.000000e+00 0.000000e+00 0.000000e+00
 0.000000e+00 7.403114e-01 2.596886e-01 0.000000e+00 0.000000e+00
 0.000000e+00 0.000000e+00 7.403115e-01 2.596885e-01 0.000000e+00
 0.000000e+00 0.000000e+00 0.000000e+00 8.630655e-01 1.369345e-01
 0.000000e+00 0.000000e+00 0.000000e+00 0.000000e+00 0.000000e+00
<ENDHMM>
~h "ng"
<BEGINHMM>
<NUMSTATES> 5
<STATE> 2
<MEAN> 25
 1.136342e+01 -4.332530e+00 3.071968e+00 -2.302989e+00 -1.342347e+00 -5.192302e+00 -3.520239e-01 -4.652859e-01 -2.895936e+00 -4.167319e-01 -4.084909e+00 -3.054146e+00 -1.554576e-01 8.560036e-02 -4.793881e-02 1.057716e-01 7.067535e-02 1.090415e-01 1.037195e-02 2.149288e-04 1.543480e-02 -1.707449e-02 -3.627815e-02 -4.880480e-03 -2.579640e-01
<VARIANCE> 25
 9.799641e+01 1.691955e+02 1.072767e+02 1.050037e+02 8.399850e+01 7.181477e+01 5.940486e+01 8.419225e+01 6.927688e+01 5.952545e+01 4.655672e+01 3.978874e+01 3.272795e+00 9.198434e+00 5.015375e+00 7.579872e+00 6.858956e+00 5.071704e+00 6.009254e+00 7.087165e+00 5.056133e+00 4.412533e+00 3.358344e+00 2.675567e+00 4.938487e+00
<GCONST> 1.193047e+02
<STATE> 3
<MEAN> 25
 1.074057e+01 -3.969231e+00 2.884632e+00 -1.883079e+00 -1.113120e+00 -4.752403e+00 -3.184480e-01 -4.938604e-01 -2.824066e+00 -5.000238e-01 -4.189357e+00 -3.041929e+00 -1.880032e-01 1.147578e-01 -4.839991e-02 1.189389e-01 5.647638e-02 1.241775e-01 6.391663e-03 -1.793611e-02 2.009625e-02 -2.368886e-02 -1.638990e-02 1.035060e-02 -3.068018e-01
<VARIANCE> 25
 1.077139e+02 1.700503e+02 1.020740e+02 1.037532e+02 7.862015e+01 7.053741e+01 5.670163e+01 8.154180e+01 6.531219e+01 5.803746e+01 4.628201e+01 3.904015e+01 3.057521e+00 8.695054e+00 4.729378e+00 7.222561e+00 6.567664e+00 4.851276e+00 5.704354e+00 6.893169e+00 4.731513e+00 4.206127e+00 3.300884e+00 2.610556e+00 4.633452e+00
<GCONST> 1.184519e+02
<STATE> 4
<MEAN> 25
 9.808747e+00 -3.374394e+00 2.656602e+00 -1.273961e+00 -9.142602e-01 -4.131761e+00 -2.756015e-01 -6.990788e-01 -2.703707e+00 -6.173429e-01 -4.213800e+00 -2.965240e+00 -2.307376e-01 1.500412e-01 -5.010482e-02 1.280301e-01 3.370015e-02 1.357239e-01 3.862441e-03 -3.227035e-02 2.521548e-02 -3.212010e-02 1.326056e-02 3.476010e-02 -3.660101e-01
<VARIANCE> 25
 1.224796e+02 1.678291e+02 9.722166e+01 1.010071e+02 7.202415e+01 6.953117e+01 5.341925e+01 7.726601e+01 6.107867e+01 5.501830e+01 4.713055e+01 3.814424e+01 2.758646e+00 7.818713e+00 4.366896e+00 6.638212e+00 6.070300e+00 4.586023e+00 5.223476e+00 6.539039e+00 4.314513e+00 3.880430e+00 3.220431e+00 2.529633e+00 4.130405e+00
<GCONST> 1.171577e+02
<TRANSP> 5
 0.000000e+00 1.000000e+00 0.000000e+00 0.000000e+00 0.000000e+00
 0.000000e+00 7.293319e-01 2.706681e-01 0.000000e+00 0.000000e+00
 0.000000e+00 0.000000e+00 7.293315e-01 2.706685e-01 0.000000e+00
 0.000000e+00 0.000000e+00 0.000000e+00 8.509473e-01 1.490527e-01
 0.000000e+00 0.000000e+00 0.000000e+00 0.000000e+00 0.000000e+00
<ENDHMM>
~h "sil"
<BEGINHMM>
<NUMSTATES> 5
<STATE> 2
<MEAN> 25
 -1.382546e+01 4.091929e+00 -2.774898e+00 4.502489e+00 1.143615e+00 4.346404e+00 2.027678e+00 2.580358e+00 2.494807e+00 -8.174499e-01 2.719159e+00 3.223803e+00 -6.122848e-02 -1.004753e-01 -2.575551e-02 1.425122e-01 3.134805e-01 1.597031e-01 4.902328e-02 1.697049e-01 6.695501e-02 -1.006352e-01 6.721008e-02 4.321658e-02 -3.745489e-03
<VARIANCE> 25
 2.209940e+01 7.410913e+00 1.399803e+01 1.839141e+01 1.329088e+01 2.299443e+01 2.144960e+01 1.541586e+01 1.749052e+01 1.157911e+01 1.671591e+01 1.336066e+01 2.765448e-01 3.909414e-01 4.121265e-01 6.908334e-01 1.149893e+00 9.998951e-01 9.757770e-01 9.985284e-01 1.174032e+00 9.609082e-01 8.915620e-01 8.629594e-01 1.566491e-01
<GCONST> 7.347656e+01
<STATE> 3
<MEAN> 25
 -1.380165e+01 3.997805e+00 -2.930495e+00 4.420861e+00 1.360066e+00 4.275348e+00 1.946848e+00 3.243126e+00 3.226785e+00 -5.893538e-01 2.853480e+00 3.260508e+00 2.642653e-02 1.529362e-04 -4.149952e-02 -6.650980e-02 -2.205486e-02 -6.174050e-02 -3.326856e-02 1.685031e-01 2.088067e-01 8.729962e-02 1.371328e-02 -1.241308e-02 1.855421e-02
<VARIANCE> 25
 2.293761e+01 7.030711e+00 1.495009e+01 1.891637e+01 1.327450e+01 2.391665e+01 2.164818e+01 1.875944e+01 2.328187e+01 1.262791e+01 1.830057e+01 1.437258e+01 3.024104e-01 3.803418e-01 5.045207e-01 6.843743e-01 8.546875e-01 8.959613e-01 9.656082e-01 1.194861e+00 1.376341e+00 9.927740e-01 1.034230e+00 1.031017e+00 1.787462e-01
<GCONST> 7.500231e+01
<STATE> 4
<MEAN> 25
 -1.352448e+01 3.961328e+00 -2.968160e+00 4.272139e+00 1.095537e+00 3.846240e+00 1.652188e+00 3.356641e+00 3.752935e+00 5.564100e-02 3.041723e+00 3.181734e+00 2.136089e-02 -7.147930e-03 -2.687717e-03 3.831701e-03 -3.488369e-02 -5.135722e-02 -4.126380e-02 -7.019987e-03 5.030833e-02 6.817231e-02 1.801276e-02 -3.212630e-02 1.878713e-02
<VARIANCE> 25
 2.364592e+01 7.044947e+00 1.583619e+01 1.879491e+01 1.314968e+01 2.263879e+01 2.148888e+01 1.985776e+01 2.749183e+01 1.555309e+01 2.005179e+01 1.488577e+01 3.311761e-01 3.978311e-01 5.401627e-01 7.153019e-01 7.721251e-01 8.842735e-01 9.853628e-01 1.266407e+00 1.352810e+00 1.160183e+00 1.098266e+00 1.153041e+00 2.523185e-01
<GCONST> 7.643929e+01
<TRANSP> 5
 0.000000e+00 1.000000e+00 0.000000e+00 0.000000e+00 0.000000e+00
 0.000000e+00 7.335651e-01 2.664349e-01 0.000000e+00 0.000000e+00
 0.000000e+00 0.000000e+00 7.335649e-01 2.664351e-01 0.000000e+00
 0.000000e+00 0.000000e+00 0.000000e+00 8.565107e-01 1.434893e-01
 0.000000e+00 0.000000e+00 0.000000e+00 0.000000e+00 0.000000e+00
<ENDHMM>
