~o
<STREAMINFO> 1 25
<VECSIZE> 25<NULLD><MFCC_D_N_Z_0><DIAGC>
~s "silst"
<MEAN> 25
 -1.723469e+01 4.622483e+00 -2.599935e+00 6.710159e+00 1.892226e+00 6.489759e+00 4.472738e+00 5.260015e+00 7.084974e+00 1.598909e+00 5.693723e+00 5.290768e+00 -2.466980e-03 -5.376692e-03 2.067491e-03 2.174552e-02 2.318864e-02 4.919205e-03 -1.485135e-02 -6.402608e-04 2.477981e-02 4.394372e-03 8.720935e-03 -7.372038e-04 -2.186963e-03
<VARIANCE> 25
 4.268154e+00 4.611842e+00 1.060502e+01 1.144401e+01 8.322165e+00 1.008888e+01 1.234699e+01 1.296711e+01 1.321314e+01 1.011781e+01 8.758628e+00 7.081227e+00 3.822098e-02 1.385131e-01 2.156526e-01 3.765699e-01 4.860089e-01 4.443565e-01 7.470784e-01 1.091855e+00 1.276032e+00 1.005293e+00 7.932242e-01 8.518348e-01 5.360071e-02
<GCONST> 5.969728e+01
~h "E"
<BEGINHMM>
<NUMSTATES> 5
<STATE> 2
<MEAN> 25
 1.397510e+01 -2.721361e+00 -1.624376e+01 -9.214581e-01 9.752138e+00 5.501899e-01 -5.241153e+00 -4.056331e-01 -7.738733e-01 -4.224545e-01 -7.343229e+00 -5.324934e+00 -1.724117e+00 5.299056e-01 3.026070e-01 -1.715967e-01 2.081937e-01 3.214533e-01 -1.589524e-01 2.517121e-02 -5.890553e-02 -9.164544e-02 1.103193e-01 -9.013102e-02 -1.491840e+00
<VARIANCE> 25
 6.704891e+01 3.360042e+01 2.515043e+01 2.451407e+01 1.647729e+01 2.397420e+01 2.736916e+01 2.160425e+01 2.137980e+01 1.513735e+01 1.051102e+01 2.148563e+01 3.309273e+00 1.701021e+00 1.093729e+00 2.209278e+00 1.929899e+00 2.300647e+00 2.316758e+00 2.071120e+00 1.694058e+00 1.271126e+00 1.146621e+00 1.380641e+00 1.926786e+00
<GCONST> 9.120309e+01
<STATE> 3
<MEAN> 25
 -3.749474e+00 -1.479172e+00 -7.171378e+00 2.816120e-01 5.051262e+00 2.744505e+00 -5.186884e+00 -8.143632e-01 -1.103280e+00 -9.363745e-01 -2.298746e+00 -2.482049e+00 -1.157852e+00 1.325061e+00 7.037986e-01 -9.660216e-02 -7.674545e-01 1.956992e-01 4.964409e-01 -4.053592e-01 -5.612916e-01 -6.263366e-01 3.063846e-01 2.787420e-01 -1.347857e+00
<VARIANCE> 25
 1.206269e+01 2.924409e+01 9.302063e+00 1.178984e+01 1.905193e+01 1.813238e+01 1.754954e+01 2.057459e+01 1.154905e+01 2.232500e+01 1.092231e+01 1.771333e+01 7.514687e-01 1.580857e+00 1.529328e+00 1.171770e+00 1.711142e+00 1.777672e+00 2.283297e+00 2.394369e+00 1.998047e+00 2.695884e+00 1.107267e+00 2.102229e+00 4.382624e-01
<GCONST> 8.433224e+01
<STATE> 4
<MEAN> 25
 -9.816141e+00 6.792199e+00 -1.173705e+00 -5.514322e-01 2.112574e+00 2.362062e+00 -4.725836e+00 -1.265930e+00 -3.581769e+00 -3.449539e+00 -1.171506e+00 1.119748e+00 -1.437483e-01 1.293721e-01 1.741300e-01 7.798774e-04 -1.291426e-01 -1.559702e-02 1.918074e-02 -1.530919e-02 -3.127636e-02 -1.935685e-02 1.160619e-02 1.124725e-01 -1.463068e-01
<VARIANCE> 25
 9.039937e+00 5.213515e+00 1.172861e+01 9.185473e+00 1.381476e+01 1.796812e+01 1.538989e+01 8.399463e+00 1.688608e+01 1.172287e+01 1.561608e+01 1.131691e+01 2.146535e-01 2.558378e-01 4.715694e-01 7.091788e-01 9.966661e-01 1.125429e+00 1.276294e+00 1.133178e+00 1.482349e+00 1.507557e+00 1.564461e+00 9.863063e-01 1.195319e-01
<GCONST> 7.091857e+01
<TRANSP> 5
 0.000000e+00 1.000000e+00 0.000000e+00 0.000000e+00 0.000000e+00
 0.000000e+00 8.071811e-01 1.928189e-01 0.000000e+00 0.000000e+00
 0.000000e+00 0.000000e+00 7.515341e-01 2.484659e-01 0.000000e+00
 0.000000e+00 0.000000e+00 0.000000e+00 9.187715e-01 8.122849e-02
 0.000000e+00 0.000000e+00 0.000000e+00 0.000000e+00 0.000000e+00
<ENDHMM>
~h "a"
<BEGINHMM>
<NUMSTATES> 5
<STATE> 2
<MEAN> 25
 6.125249e+00 -6.418968e-01 -5.848705e-01 -1.463622e+00 1.215157e+00 -2.501577e-01 -1.357872e+00 -1.901433e+00 3.128971e-01 -1.644682e-01 -9.561642e-01 -1.005009e+00 1.318618e+00 -2.245302e+00 3.191514e-01 -1.392179e+00 2.314820e-01 -8.468762e-01 8.326200e-02 6.567184e-01 4.920167e-02 1.758887e-01 -4.878982e-01 -5.499638e-01 3.029201e+00
<VARIANCE> 25
 1.672637e+02 1.402813e+02 7.031580e+01 9.530109e+01 4.427127e+01 6.827126e+01 5.307568e+01 5.775580e+01 4.328392e+01 3.686142e+01 4.721693e+01 3.925403e+01 1.289353e+01 9.822193e+00 6.666493e+00 7.822435e+00 5.140608e+00 5.867601e+00 6.072432e+00 6.272676e+00 6.141563e+00 3.539691e+00 4.196138e+00 3.423255e+00 1.491360e+01
<GCONST> 1.200499e+02
<STATE> 3
<MEAN> 25
 1.066084e+01 -5.146703e+00 1.768269e-01 -5.280992e+00 1.614576e+00 -2.242417e+00 -1.440466e+00 -5.493184e-01 -1.873397e-01 1.326827e-01 -1.442659e+00 -2.368304e+00 1.599419e+00 -3.078308e+00 6.262678e-01 -2.035651e+00 2.579991e-01 -9.105706e-01 -1.153358e-01 6.551629e-01 -1.875793e-01 3.031799e-01 -8.095670e-01 -1.191233e+00 3.798541e+00
<VARIANCE> 25
 1.049523e+02 1.283304e+02 8.620763e+01 1.207936e+02 5.083589e+01 8.478811e+01 5.894312e+01 6.298119e+01 5.473257e+01 4.232488e+01 4.904876e+01 4.349782e+01 1.261754e+01 1.029906e+01 7.842573e+00 1.187961e+01 6.416971e+00 7.268055e+00 9.317618e+00 9.644466e+00 6.671368e+00 4.857334e+00 5.387273e+00 4.281820e+00 1.577997e+01
<GCONST> 1.238252e+02
<STATE> 4
<MEAN> 25
 1.339574e+01 -1.342002e+01 2.837800e+00 -1.115500e+01 3.392939e+00 -4.591604e+00 -1.926707e+00 1.565425e+00 -7.821698e-01 1.233412e+00 -4.591175e+00 -6.009904e+00 2.411423e-01 -6.458079e-01 -8.434324e-02 -2.823443e-01 2.512297e-01 -5.069305e-02 4.042826e-01 -2.191879e-01 1.141245e-01 2.019434e-01 -8.435407e-01 -5.813302e-01 5.025278e-01
<VARIANCE> 25
 4.942859e+01 6.858651e+01 5.843207e+01 9.944345e+01 5.949089e+01 7.340873e+01 7.151227e+01 9.325105e+01 6.238273e+01 4.760141e+01 4.309388e+01 3.906684e+01 2.944947e+00 3.930911e+00 4.042407e+00 5.415465e+00 4.612679e+00 5.431823e+00 6.441591e+00 6.992824e+00 5.448474e+00 4.888861e+00 4.382911e+00 3.625657e+00 3.608964e+00
<GCONST> 1.152501e+02
<TRANSP> 5
 0.000000e+00 1.000000e+00 0.000000e+00 0.000000e+00 0.000000e+00
 0.000000e+00 2.430512e-01 7.569488e-01 0.000000e+00 0.000000e+00
 0.000000e+00 0.000000e+00 3.115545e-01 6.884454e-01 0.000000e+00
 0.000000e+00 0.000000e+00 0.000000e+00 6.459870e-01 3.540130e-01
 0.000000e+00 0.000000e+00 0.000000e+00 0.000000e+00 0.000000e+00
<ENDHMM>
~h "b"
<BEGINHMM>
<NUMSTATES> 5
<STATE> 2
<MEAN> 25
 1.923318e+01 1.073599e+01 2.074765e+00 1.442724e+00 3.702622e+00 4.513292e+00 -5.169945e+00 -1.482173e+01 -1.183867e+01 -1.539144e+00 -5.414685e-01 -3.420964e+00 -1.642435e-01 -1.949051e+00 1.214465e+00 1.958491e-01 -1.712051e+00 -1.708887e+00 -3.065067e-01 1.497025e+00 1.353311e+00 -6.765167e-02 4.166426e-01 -1.346909e-01 1.082948e+00
<VARIANCE> 25
 1.831236e+01 1.240212e+02 5.987265e+01 6.100645e+01 4.090413e+01 3.946343e+01 5.796873e+01 9.803094e+01 5.609880e+01 3.521348e+01 2.539816e+01 3.268736e+01 2.946900e+00 1.242148e+01 4.451642e+00 1.019680e+01 3.490555e+00 5.597418e+00 4.596663e+00 1.401202e+01 9.597227e+00 3.307816e+00 3.609287e+00 1.719163e+00 5.726357e+00
<GCONST> 1.138015e+02
<STATE> 3
<MEAN> 25
 1.866287e+01 7.175869e+00 2.658815e+00 1.714524e+00 1.768987e+00 1.107486e+00 -5.650365e+00 -1.021443e+01 -7.503475e+00 -2.374461e+00 -5.050911e-01 -3.553363e+00 2.528954e-01 -5.635381e+00 -1.970719e-02 -7.433548e-01 -2.167783e+00 -2.567422e+00 4.891146e-01 1.814108e+00 1.956197e+00 1.978887e+00 4.205862e-01 -1.050613e+00 3.400577e+00
<VARIANCE> 25
 1.902282e+01 1.148842e+02 6.817673e+01 6.200023e+01 3.830736e+01 5.767070e+01 4.426506e+01 4.950921e+01 5.718901e+01 4.028304e+01 3.484914e+01 2.338669e+01 3.576175e+00 2.056177e+01 1.299359e+01 1.894333e+01 6.535017e+00 6.199975e+00 5.361154e+00 2.011977e+01 1.282049e+01 5.086355e+00 3.827490e+00 3.250347e+00 9.337265e+00
<GCONST> 1.189428e+02
<STATE> 4
<MEAN> 25
 2.051355e+01 -2.472252e+00 3.895674e+00 6.164490e+00 -3.961284e+00 -9.043447e-01 -1.400396e+00 -1.613805e+01 -1.118103e+01 5.223175e+00 -7.692430e-01 -8.743944e+00 -4.248417e-01 -2.808556e+00 3.159763e-01 -2.001910e+00 -8.471329e-01 -1.462448e+00 4.246281e-01 1.230230e+00 2.029226e+00 8.743473e-01 -1.166241e-01 -2.971737e-01 2.326217e+00
<VARIANCE> 25
 8.990038e+00 7.826229e+01 5.730281e+01 1.579905e+02 3.203136e+01 6.546268e+01 7.218448e+01 1.214167e+02 1.197894e+02 4.665300e+01 3.788678e+01 2.713231e+01 2.264369e+00 2.180657e+01 6.962754e+00 2.195741e+01 6.885319e+00 6.554284e+00 7.351465e+00 2.052723e+01 1.306409e+01 6.543829e+00 3.714425e+00 2.874609e+00 1.045391e+01
<GCONST> 1.208233e+02
<TRANSP> 5
 0.000000e+00 1.000000e+00 0.000000e+00 0.000000e+00 0.000000e+00
 0.000000e+00 3.914159e-02 9.608583e-01 0.000000e+00 0.000000e+00
 0.000000e+00 0.000000e+00 2.764888e-01 7.235112e-01 0.000000e+00
 0.000000e+00 0.000000e+00 0.000000e+00 6.038768e-01 3.961232e-01
 0.000000e+00 0.000000e+00 0.000000e+00 0.000000e+00 0.000000e+00
<ENDHMM>
~h "c"
<BEGINHMM>
<NUMSTATES> 5
<STATE> 2
<MEAN> 25
 -2.324997e+00 4.074131e+00 -5.649606e+00 1.182290e+00 -1.080718e-02 4.189305e+00 -2.332009e+00 -2.687118e+00 3.780818e-01 3.076290e+00 3.105926e+00 1.044190e-01 -1.679760e+00 -1.272652e+00 -5.183088e-01 -2.862595e-03 9.856781e-03 2.010988e-01 7.636492e-01 2.112626e-01 -6.282783e-01 -5.469050e-01 1.325647e-01 -9.346487e-02 -8.813382e-01
<VARIANCE> 25
 1.877285e+01 2.082645e+01 5.349551e+00 1.493979e+01 1.498846e+01 1.281808e+01 2.061825e+01 1.062841e+01 1.290887e+01 1.653560e+01 8.680170e+00 6.561780e+00 1.768605e+00 9.451446e-01 3.680613e-01 1.151327e+00 2.238625e+00 1.444280e+00 1.270715e+00 1.907558e+00 5.002398e-01 1.046208e+00 7.640039e-01 6.126493e-01 5.219136e-01
<GCONST> 7.600736e+01
<STATE> 3
<MEAN> 25
 -7.958536e+00 8.076620e-01 -7.186491e+00 3.251280e-01 2.348094e-01 8.027452e+00 3.705954e+00 -1.013447e-02 -3.376313e+00 -1.647933e+00 2.743198e+00 1.617249e+00 -2.730895e-01 2.014713e-01 2.571802e-01 1.531790e-01 -8.666117e-02 9.009413e-02 -1.768185e-01 -1.044600e-01 -2.394772e-02 -2.940612e-01 -1.610528e-01 1.258804e-01 -2.105525e-01
<VARIANCE> 25
 3.669317e+00 1.162979e+01 1.545121e+01 1.217978e+01 6.469129e+00 1.394618e+01 9.408338e+00 1.492773e+01 1.566976e+01 1.487002e+01 1.070729e+01 7.780499e+00 6.535415e-02 2.618165e-01 3.723323e-01 3.563233e-01 6.275732e-01 7.006594e-01 9.247099e-01 8.212560e-01 2.107757e+00 1.185441e+00 2.040607e+00 4.917540e-01 5.360071e-02
<GCONST> 6.506691e+01
<STATE> 4
<MEAN> 25
 -9.546574e+00 1.264571e+00 -4.104750e+00 2.885581e+00 -1.818467e-01 4.784568e+00 -1.017806e+00 -1.671107e+00 -1.185875e+00 -1.680734e+00 -5.872710e-02 8.107744e-01 -2.196761e-02 -1.871960e-02 2.197219e-02 -3.143097e-02 2.342485e-03 1.196888e-02 -8.712801e-02 -6.583773e-02 6.570895e-02 1.032194e-01 9.095640e-03 2.063531e-02 -2.316741e-02
<VARIANCE> 25
 6.592985e+00 1.537089e+01 2.458019e+01 8.089533e+00 9.176390e+00 1.430701e+01 1.156203e+01 1.481624e+01 1.366083e+01 1.141195e+01 1.173097e+01 1.108582e+01 1.170789e-01 2.319825e-01 4.954908e-01 3.816369e-01 6.992309e-01 1.484022e+00 1.006463e+00 8.387092e-01 9.899806e-01 1.226884e+00 1.444697e+00 1.042201e+00 5.360071e-02
<GCONST> 6.806934e+01
<TRANSP> 5
 0.000000e+00 1.000000e+00 0.000000e+00 0.000000e+00 0.000000e+00
 0.000000e+00 8.004557e-01 1.995443e-01 0.000000e+00 0.000000e+00
 0.000000e+00 0.000000e+00 8.019234e-01 1.980767e-01 0.000000e+00
 0.000000e+00 0.000000e+00 0.000000e+00 9.697707e-01 3.022922e-02
 0.000000e+00 0.000000e+00 0.000000e+00 0.000000e+00 0.000000e+00
<ENDHMM>
~h "d"
<BEGINHMM>
<NUMSTATES> 5
<STATE> 2
<MEAN> 25
 1.737657e+01 5.894942e+00 -2.341645e+00 7.466128e+00 1.214927e+00 -8.735775e+00 -8.852095e+00 -4.403367e-01 4.064941e+00 -1.836988e+00 -6.908070e+00 -4.217363e+00 -3.978954e-01 1.808043e+00 2.162360e-01 2.240624e-01 1.040256e+00 4.160290e-01 -1.075384e+00 -6.513186e-01 3.953913e-01 -6.456546e-01 -2.480510e-01 1.124541e-01 -1.026654e+00
<VARIANCE> 25
 1.768688e+01 1.726527e+02 5.079392e+01 4.564044e+01 6.327771e+01 3.735695e+01 5.448314e+01 4.764947e+01 4.925763e+01 3.827930e+01 3.518886e+01 2.149053e+01 1.575717e+00 2.108200e+01 7.115431e+00 4.920156e+00 7.215288e+00 5.509754e+00 6.738700e+00 4.998631e+00 5.940804e+00 4.723490e+00 4.458501e+00 3.609113e+00 7.742112e+00
<GCONST> 1.139376e+02
<STATE> 3
<MEAN> 25
 2.078620e+01 -3.402063e+00 -2.305259e-01 3.028404e-01 8.078457e-01 -3.158005e+00 -1.258802e+01 -1.061206e+01 -4.675688e+00 -3.773601e+00 2.790126e+00 1.597078e+00 1.298751e+00 -4.192812e-01 -8.250111e-01 -2.772726e+00 -8.001216e-01 1.345138e+00 7.606164e-01 -1.594292e+00 -2.627514e+00 1.982896e-01 1.611188e+00 7.641775e-01 1.492270e+00
<VARIANCE> 25
 2.042946e+01 5.741050e+01 6.992547e+01 1.050245e+02 7.620030e+01 1.049668e+02 6.113530e+01 7.274675e+01 7.494670e+01 5.301162e+01 5.219337e+01 3.857863e+01 2.320014e+00 1.929903e+01 1.173594e+01 8.735324e+00 1.012197e+01 1.089385e+01 8.653949e+00 8.046902e+00 7.363613e+00 5.707020e+00 8.574180e+00 4.781036e+00 7.195286e+00
<GCONST> 1.220007e+02
<STATE> 4
<MEAN> 25
 2.228431e+01 -3.041771e+00 -1.495236e+00 -1.471260e+01 -5.282320e+00 3.891636e+00 -2.500708e+00 -9.110419e+00 -9.700910e+00 6.521846e-01 3.270547e+00 -1.021743e-01 -3.326339e-01 -1.661364e+00 3.594405e-01 -4.868652e-02 -3.283985e-01 -2.245723e-01 4.628050e-01 6.000419e-01 9.579282e-01 7.743773e-01 -3.108250e-01 -6.868066e-01 7.893724e-01
<VARIANCE> 25
 1.648010e+01 1.536198e+02 5.944012e+01 5.135239e+01 4.077905e+01 6.552693e+01 3.806941e+01 8.703407e+01 4.242398e+01 7.144534e+01 3.158414e+01 4.106576e+01 8.298017e-01 6.801256e+00 2.511793e+00 3.971915e+00 3.422641e+00 4.863093e+00 3.189511e+00 4.981923e+00 3.448324e+00 5.238923e+00 3.635707e+00 3.321347e+00 1.428265e+00
<GCONST> 1.083382e+02
<TRANSP> 5
 0.000000e+00 1.000000e+00 0.000000e+00 0.000000e+00 0.000000e+00
 0.000000e+00 8.857971e-01 1.142029e-01 0.000000e+00 0.000000e+00
 0.000000e+00 0.000000e+00 8.441880e-01 1.558121e-01 0.000000e+00
 0.000000e+00 0.000000e+00 0.000000e+00 8.903750e-01 1.096251e-01
 0.000000e+00 0.000000e+00 0.000000e+00 0.000000e+00 0.000000e+00
<ENDHMM>
~h "e"
<BEGINHMM>
<NUMSTATES> 5
<STATE> 2
<MEAN> 25
 1.384496e+01 -6.749861e+00 1.273167e+01 1.449095e+00 -9.982018e+00 -1.478775e+01 1.444583e+00 2.826498e+00 -8.689290e+00 -6.701344e-01 -1.507494e+00 1.277951e+00 -3.071263e-01 1.432917e+00 4.424502e-01 3.982274e-01 -9.333595e-01 5.420837e-01 1.029886e+00 -1.196032e+00 -5.740647e-01 6.977102e-02 -1.770299e-01 1.870980e-01 -1.134883e+00
<VARIANCE> 25
 3.346951e+01 1.081589e+02 7.779579e+01 1.389890e+02 8.285378e+01 6.870457e+01 7.129512e+01 7.230209e+01 7.453246e+01 4.540473e+01 3.818793e+01 3.134633e+01 5.806417e+00 1.086427e+01 7.762501e+00 1.342416e+01 1.006004e+01 6.799412e+00 6.857403e+00 9.019654e+00 1.094539e+01 4.891141e+00 4.965952e+00 4.053775e+00 7.421990e+00
<GCONST> 1.219667e+02
<STATE> 3
<MEAN> 25
 9.182888e-01 4.083467e+00 1.315644e+01 -2.151415e+00 -1.071690e+01 -7.431611e+00 6.367089e+00 -3.486992e+00 -4.169432e+00 -1.367079e+00 2.845328e+00 3.424666e+00 3.342421e-01 1.738655e-01 1.271177e+00 -4.200310e-01 -6.799998e-01 5.360163e-01 -2.045530e-01 -5.545653e-01 -7.926227e-01 -9.167849e-02 -5.670853e-02 -1.626678e-01 1.772594e-01
<VARIANCE> 25
 1.946317e+02 1.039002e+02 1.384639e+02 9.108920e+01 1.233216e+02 5.993861e+01 1.092222e+02 4.925568e+01 1.015191e+02 3.940480e+01 4.835470e+01 3.185345e+01 1.442904e+01 1.120081e+01 1.290707e+01 7.411083e+00 1.394215e+01 5.323739e+00 1.351107e+01 8.002113e+00 1.003768e+01 4.362778e+00 4.188695e+00 3.630798e+00 8.265067e+00
<GCONST> 1.256859e+02
<STATE> 4
<MEAN> 25
 1.062954e+01 2.720850e+00 1.949666e+01 -3.560342e+00 -1.324376e+01 -3.827513e+00 -8.021562e-01 -5.863094e+00 -1.117645e+01 1.598030e-02 -5.149950e-01 -2.494416e+00 -3.924450e-02 7.291896e-01 -6.400415e-01 3.715512e-01 3.827687e-01 2.076539e-01 -2.921944e-01 -1.015400e-01 3.701206e-01 -2.113971e-02 -2.866719e-02 -1.623132e-01 -7.627858e-01
<VARIANCE> 25
 3.153991e+01 8.724763e+01 1.706496e+02 1.150705e+02 1.124386e+02 8.594817e+01 1.119081e+02 8.940061e+01 1.044185e+02 5.755163e+01 4.172872e+01 4.523778e+01 3.050890e+00 1.051622e+01 1.351436e+01 1.116333e+01 1.017704e+01 6.686449e+00 9.897923e+00 8.459785e+00 9.927097e+00 4.586013e+00 4.241657e+00 4.837681e+00 8.716084e+00
<GCONST> 1.245207e+02
<TRANSP> 5
 0.000000e+00 1.000000e+00 0.000000e+00 0.000000e+00 0.000000e+00
 0.000000e+00 7.504492e-01 2.495508e-01 0.000000e+00 0.000000e+00
 0.000000e+00 0.000000e+00 7.142247e-01 2.857753e-01 0.000000e+00
 0.000000e+00 0.000000e+00 0.000000e+00 8.835883e-01 1.164117e-01
 0.000000e+00 0.000000e+00 0.000000e+00 0.000000e+00 0.000000e+00
<ENDHMM>
~h "g"
<BEGINHMM>
<NUMSTATES> 5
<STATE> 2
<MEAN> 25
 -2.169015e+00 4.334646e+00 -3.886148e-01 3.362458e+00 -9.256620e-01 3.653285e-01 3.478264e-01 9.708255e-01 2.536862e-01 -1.481758e+00 1.074846e-01 1.147436e+00 5.758463e-01 4.623773e-01 -1.205246e-01 -3.725809e-01 1.184093e+00 -4.268283e-01 -5.235121e-01 -3.217660e-01 -1.170512e-02 -3.314677e-01 9.477033e-02 4.717222e-02 1.435287e+00
<VARIANCE> 25
 1.915692e+02 8.902290e+01 8.406874e+01 5.187302e+01 5.198458e+01 7.746436e+01 4.282372e+01 6.089852e+01 3.711488e+01 1.949946e+01 3.285218e+01 3.063191e+01 9.365086e+00 5.761140e+00 6.622714e+00 2.887150e+00 4.481412e+00 6.254696e+00 4.636575e+00 5.129083e+00 3.852844e+00 3.092550e+00 3.148872e+00 2.236605e+00 1.471968e+01
<GCONST> 1.142971e+02
<STATE> 3
<MEAN> 25
 -9.883417e-01 4.417726e+00 3.385856e-01 3.253222e+00 1.061133e+00 -6.227812e-01 -4.473541e-01 3.356044e-01 6.404614e-01 -1.321602e+00 1.859919e-01 1.332173e+00 1.657814e+00 -3.530059e-01 7.243393e-01 -9.336537e-01 5.628455e-01 -1.328108e+00 -7.050569e-01 -4.342891e-01 -3.008091e-01 -1.284716e-01 -2.861670e-01 -3.619297e-01 3.674542e+00
<VARIANCE> 25
 1.399746e+02 9.421739e+01 8.616635e+01 5.478116e+01 4.343791e+01 6.827119e+01 3.958803e+01 5.254301e+01 4.291033e+01 1.870088e+01 3.923051e+01 3.168948e+01 1.616857e+01 1.000060e+01 5.565656e+00 3.757583e+00 4.140151e+00 8.366667e+00 3.487929e+00 5.082512e+00 2.757209e+00 2.709913e+00 3.783430e+00 2.745075e+00 2.611759e+01
<GCONST> 1.155021e+02
<STATE> 4
<MEAN> 25
 1.756454e-01 4.568470e+00 2.093727e+00 2.602662e+00 7.941813e-01 -2.151489e+00 -1.058793e+00 -2.817993e-01 7.550108e-02 -1.243249e+00 -2.529230e-01 5.731176e-01 2.054228e+00 -7.104211e-01 1.133075e+00 -8.891335e-01 -2.165479e-01 -1.473399e+00 -7.247232e-01 -1.936608e-01 -7.529327e-01 -1.055155e-01 -2.056625e-01 -6.036172e-01 3.375035e+00
<VARIANCE> 25
 8.104272e+01 8.883425e+01 7.669212e+01 5.373848e+01 4.263095e+01 5.825409e+01 4.465039e+01 5.220584e+01 4.952109e+01 2.295379e+01 3.169876e+01 2.410058e+01 1.609495e+01 1.123424e+01 4.923157e+00 6.444548e+00 4.257861e+00 9.025290e+00 4.867294e+00 3.967010e+00 3.313086e+00 2.987557e+00 3.793002e+00 3.121662e+00 3.118237e+01
<GCONST> 1.158662e+02
<TRANSP> 5
 0.000000e+00 1.000000e+00 0.000000e+00 0.000000e+00 0.000000e+00
 0.000000e+00 5.186580e-03 9.948134e-01 0.000000e+00 0.000000e+00
 0.000000e+00 0.000000e+00 2.165791e-02 9.783421e-01 0.000000e+00
 0.000000e+00 0.000000e+00 0.000000e+00 2.495343e-01 7.504657e-01
 0.000000e+00 0.000000e+00 0.000000e+00 0.000000e+00 0.000000e+00
<ENDHMM>
~h "h"
<BEGINHMM>
<NUMSTATES> 5
<STATE> 2
<MEAN> 25
 -1.788802e+00 5.005080e+00 -4.773517e+00 -2.379722e+00 7.855791e-01 5.579781e+00 2.071383e+00 1.306664e+00 -1.247529e+00 -7.671808e-01 -7.527061e-03 2.067619e+00 -2.792599e-01 -1.235255e-01 4.068329e-01 -4.126451e-01 -2.758246e-01 -4.462159e-01 -1.425187e-01 3.428300e-01 1.070761e-01 -2.104920e-01 -4.426668e-01 -3.880849e-01 1.347888e-01
<VARIANCE> 25
 1.013779e+02 2.776441e+01 1.070000e+02 8.585081e+01 1.972654e+01 6.709101e+01 3.354274e+01 2.771707e+01 2.148980e+01 1.312935e+01 1.721093e+01 1.281003e+01 3.782748e+00 1.506119e+00 3.169147e+00 3.436223e+00 1.779185e+00 2.325096e+00 2.595824e+00 1.106383e+00 1.414008e+00 1.143175e+00 1.789118e+00 1.371612e+00 6.360065e+00
<GCONST> 9.790681e+01
<STATE> 3
<MEAN> 25
 -8.897771e-01 7.871310e+00 -4.364821e+00 -2.316217e+00 -1.056499e+00 3.093637e+00 -8.866566e-02 -2.794293e-01 -3.132952e-02 -2.649344e+00 -6.421725e-01 8.802897e-02 -5.552260e-01 3.019452e-01 4.079832e-01 2.737043e-01 -3.618033e-01 4.841730e-02 -4.547926e-03 -5.420472e-03 4.090460e-02 -2.429646e-01 1.277171e-01 -7.409141e-02 -6.936235e-01
<VARIANCE> 25
 1.193928e+02 5.437014e+01 6.688055e+01 5.074648e+01 2.151248e+01 1.926004e+01 2.417702e+01 2.308078e+01 2.043711e+01 2.269780e+01 1.582813e+01 1.463635e+01 1.049057e+00 5.781764e-01 2.437263e+00 1.714838e+00 1.043675e+00 1.522242e+00 1.897359e+00 1.450070e+00 1.615190e+00 1.280251e+00 1.246191e+00 1.033601e+00 1.005021e+00
<GCONST> 9.018076e+01
<STATE> 4
<MEAN> 25
 -6.869152e+00 4.826197e+00 -7.477875e-01 2.422912e+00 -1.216453e+00 1.483358e+00 -2.186642e+00 1.248003e+00 9.837872e-02 -8.864651e-01 -7.396981e-01 -3.474949e-01 -4.447810e-02 -1.885048e-01 -3.230654e-02 1.279593e-01 2.540071e-02 1.407315e-01 -1.162173e-02 -9.571342e-02 -1.120301e-01 -3.520238e-02 1.174900e-01 8.478791e-02 -4.855052e-02
<VARIANCE> 25
 3.228807e+01 1.640957e+01 3.009723e+01 1.686355e+01 1.605679e+01 3.029227e+01 1.927618e+01 2.075723e+01 2.203814e+01 1.598110e+01 1.277609e+01 1.433685e+01 4.150022e-01 5.451791e-01 1.112929e+00 9.378484e-01 7.866498e-01 1.390093e+00 1.086953e+00 1.446464e+00 2.434629e+00 1.385107e+00 1.280627e+00 1.595538e+00 4.149736e-01
<GCONST> 8.185167e+01
<TRANSP> 5
 0.000000e+00 1.000000e+00 0.000000e+00 0.000000e+00 0.000000e+00
 0.000000e+00 4.902453e-01 5.097547e-01 0.000000e+00 0.000000e+00
 0.000000e+00 0.000000e+00 2.871591e-01 7.128409e-01 0.000000e+00
 0.000000e+00 0.000000e+00 0.000000e+00 6.739181e-01 3.260819e-01
 0.000000e+00 0.000000e+00 0.000000e+00 0.000000e+00 0.000000e+00
<ENDHMM>
~h "i"
<BEGINHMM>
<NUMSTATES> 5
<STATE> 2
<MEAN> 25
 1.073360e+01 -6.594063e-01 1.733229e+01 -1.592347e+00 -1.086081e+01 -9.114869e+00 8.500846e-02 -3.248726e+00 -1.039179e+01 -1.496298e+00 7.563810e-01 -6.303810e-01 4.128967e-01 -1.095412e+00 -1.025276e-01 2.089973e-02 -1.275532e-01 -7.164273e-01 -1.442042e-01 4.932431e-01 1.180023e-01 1.685505e-01 -1.668052e-01 -3.478108e-02 9.948643e-01
<VARIANCE> 25
 3.823039e+01 1.226344e+02 1.385630e+02 1.146886e+02 1.222189e+02 1.285590e+02 1.130254e+02 9.368745e+01 1.146557e+02 6.434451e+01 5.247822e+01 4.490207e+01 4.170131e+00 1.268820e+01 1.378978e+01 9.796588e+00 1.065357e+01 9.521861e+00 1.068708e+01 1.077169e+01 1.226594e+01 5.651307e+00 5.507864e+00 3.923212e+00 9.077411e+00
<GCONST> 1.274318e+02
<STATE> 3
<MEAN> 25
 1.882127e+01 -7.185594e+00 -1.781618e+00 1.510033e+00 -2.473704e+00 -4.563705e+00 -8.043306e-01 -6.939184e+00 -2.799571e+00 2.919447e+00 -3.307946e+00 -4.601468e+00 4.529966e-02 -2.028276e-01 -7.378683e-01 -2.869015e-01 6.504061e-01 6.163480e-01 -1.413023e-01 1.426025e-01 3.840497e-01 -4.846151e-02 -3.920645e-01 -2.980047e-01 -4.842739e-02
<VARIANCE> 25
 3.235235e+01 9.005199e+01 8.966132e+01 1.044806e+02 7.241646e+01 1.101129e+02 9.251997e+01 1.283251e+02 1.010401e+02 5.057943e+01 4.246045e+01 4.270605e+01 2.291454e+00 8.137543e+00 7.667284e+00 9.946259e+00 8.853313e+00 6.436538e+00 7.833083e+00 1.196254e+01 8.412792e+00 6.004462e+00 5.046400e+00 3.744393e+00 4.167040e+00
<GCONST> 1.216081e+02
<STATE> 4
<MEAN> 25
 1.306036e+01 -1.295472e+01 8.619172e+00 -7.602823e+00 -3.075017e+00 -7.807753e+00 1.364901e+00 2.820746e+00 -3.128673e+00 -2.073431e+00 -4.324297e+00 -3.038679e+00 -1.768512e-01 5.708362e-01 2.820549e-01 -1.679229e-01 -1.689048e-01 3.342675e-02 1.092539e-01 -2.585169e-01 -1.380236e-01 2.874466e-01 1.876898e-01 3.158508e-01 -3.486922e-01
<VARIANCE> 25
 2.577443e+01 7.029368e+01 1.195338e+02 7.238776e+01 8.963803e+01 1.123661e+02 7.448318e+01 8.231457e+01 8.777560e+01 5.723185e+01 5.438589e+01 3.406532e+01 9.877576e-01 1.598071e+00 3.795778e+00 3.001536e+00 3.992333e+00 3.811865e+00 4.356848e+00 4.408966e+00 4.247797e+00 3.752645e+00 3.567991e+00 2.448617e+00 1.056212e+00
<GCONST> 1.100580e+02
<TRANSP> 5
 0.000000e+00 1.000000e+00 0.000000e+00 0.000000e+00 0.000000e+00
 0.000000e+00 8.386695e-01 1.613305e-01 0.000000e+00 0.000000e+00
 0.000000e+00 0.000000e+00 7.496142e-01 2.503858e-01 0.000000e+00
 0.000000e+00 0.000000e+00 0.000000e+00 7.683306e-01 2.316693e-01
 0.000000e+00 0.000000e+00 0.000000e+00 0.000000e+00 0.000000e+00
<ENDHMM>
~h "j"
<BEGINHMM>
<NUMSTATES> 5
<STATE> 2
<MEAN> 25
 2.173314e+00 9.059381e+00 -7.136737e+00 -3.682777e+00 -9.281877e-01 6.101234e+00 4.974210e-02 1.773677e+00 -1.848640e+00 -5.052277e+00 -1.721020e+00 -5.320964e-01 -1.925554e+00 -6.601852e-01 5.065009e-01 1.132148e+00 4.255294e-01 -3.145267e-01 -2.058931e-01 3.099426e-01 1.505849e-01 -1.163895e-01 -3.368649e-01 -4.488829e-01 -1.204354e+00
<VARIANCE> 25
 7.728570e+01 3.284225e+01 2.439621e+01 4.697855e+01 1.953741e+01 4.023609e+01 2.698235e+01 2.839714e+01 1.661118e+01 1.698176e+01 1.538611e+01 2.290290e+01 1.996028e+00 2.010425e+00 1.719614e+00 2.024895e+00 2.323765e+00 1.731134e+00 2.142552e+00 1.412626e+00 1.489864e+00 1.339138e+00 1.467183e+00 1.414709e+00 8.159030e-01
<GCONST> 9.199983e+01
<STATE> 3
<MEAN> 25
 -7.434445e+00 4.270519e+00 -6.668248e+00 3.386571e+00 1.555097e+00 3.189841e+00 -6.362300e-01 -1.068724e+00 -1.162558e+00 -3.897082e+00 -2.647048e+00 -5.565189e-01 -8.105291e-01 -5.618167e-01 1.998409e-02 1.251372e-01 -1.083865e-01 -2.779621e-01 -2.087919e-01 -6.791399e-02 4.315174e-02 2.962752e-01 2.045814e-01 -7.889097e-02 -4.011016e-01
<VARIANCE> 25
 4.541205e+00 5.237174e+00 1.097108e+01 1.767521e+01 1.579827e+01 1.439053e+01 1.242806e+01 1.266861e+01 1.018613e+01 1.358554e+01 1.406948e+01 1.828185e+01 1.449876e-01 4.291094e-01 5.677034e-01 9.536158e-01 1.226898e+00 9.536083e-01 1.305815e+00 9.620274e-01 1.318898e+00 1.459586e+00 1.207856e+00 1.211483e+00 5.360071e-02
<GCONST> 7.045259e+01
<STATE> 4
<MEAN> 25
 -1.223848e+01 3.273245e+00 -4.764483e+00 4.771477e+00 4.119390e+00 3.531500e+00 -1.489469e+00 8.272252e-01 -6.408530e-01 -2.800683e+00 1.067967e+00 -5.504216e-01 -1.152931e-01 1.464693e-02 1.108315e-01 7.285970e-02 -2.846122e-05 5.099280e-03 -4.853799e-03 1.017394e-01 1.240006e-01 7.908257e-02 5.996925e-02 6.297205e-02 -8.597857e-02
<VARIANCE> 25
 5.218237e+00 3.304672e+00 9.968887e+00 2.330745e+01 1.095693e+01 3.495526e+01 1.294119e+01 1.682156e+01 1.191993e+01 1.676505e+01 1.462901e+01 1.426505e+01 1.200960e-01 2.836111e-01 5.004568e-01 7.890043e-01 6.901931e-01 9.828939e-01 1.271191e+00 1.035267e+00 1.106967e+00 1.137056e+00 1.609137e+00 1.652301e+00 5.360071e-02
<GCONST> 7.007159e+01
<TRANSP> 5
 0.000000e+00 1.000000e+00 0.000000e+00 0.000000e+00 0.000000e+00
 0.000000e+00 8.459105e-01 1.540895e-01 0.000000e+00 0.000000e+00
 0.000000e+00 0.000000e+00 7.674205e-01 2.325795e-01 0.000000e+00
 0.000000e+00 0.000000e+00 0.000000e+00 9.181353e-01 8.186468e-02
 0.000000e+00 0.000000e+00 0.000000e+00 0.000000e+00 0.000000e+00
<ENDHMM>
~h "k"
<BEGINHMM>
<NUMSTATES> 5
<STATE> 2
<MEAN> 25
 1.521933e+01 -4.856514e+00 4.770889e+00 -9.207293e-01 -2.694914e+00 -3.625216e+00 1.444571e+00 -2.257231e+00 -5.802882e+00 1.321878e+00 -4.588381e+00 -3.464765e+00 -4.246434e-01 2.263885e+00 -1.627396e+00 1.654861e+00 5.678652e-01 2.427028e-01 -2.757544e-01 -7.012044e-02 8.442308e-01 -1.902696e-01 1.442856e-01 3.567584e-01 -2.575722e+00
<VARIANCE> 25
 3.831222e+01 9.715866e+01 2.069476e+02 1.020559e+02 1.395790e+02 1.021236e+02 8.425790e+01 9.725340e+01 9.006136e+01 7.419614e+01 8.038507e+01 5.384026e+01 2.954589e+00 7.016472e+00 1.366435e+01 1.009439e+01 1.196701e+01 8.453352e+00 9.802465e+00 1.163081e+01 7.246955e+00 6.071236e+00 6.372782e+00 4.876248e+00 6.046871e+00
<GCONST> 1.262146e+02
<STATE> 3
<MEAN> 25
 1.295272e+01 7.716072e-01 -8.907213e+00 3.236889e-01 5.310943e+00 -1.497387e-01 -4.198089e+00 -6.395409e-01 2.361217e+00 7.618954e-01 -4.281355e+00 -4.462510e+00 -2.852786e+00 2.352570e+00 -5.080068e-02 -4.890783e-01 -2.420835e-01 1.260671e+00 -3.335663e-01 -9.776308e-02 3.655701e-01 -4.451671e-01 8.348580e-01 6.162561e-01 -3.668965e+00
<VARIANCE> 25
 5.910372e+01 5.849725e+01 7.115132e+01 4.775023e+01 5.944164e+01 4.502023e+01 4.593694e+01 6.059884e+01 4.402166e+01 3.808910e+01 2.981208e+01 2.502338e+01 4.643782e+00 4.352521e+00 9.882793e+00 5.145962e+00 1.029175e+01 5.776342e+00 6.994630e+00 5.868959e+00 5.870692e+00 3.646215e+00 3.875373e+00 2.825809e+00 2.852170e+00
<GCONST> 1.133294e+02
<STATE> 4
<MEAN> 25
 6.060081e+00 7.097427e+00 -1.925528e+00 -1.930505e-01 -1.224241e+00 -2.245244e-01 -2.336120e+00 -2.477473e+00 -1.815972e+00 -1.520237e+00 -3.231219e+00 -2.943471e+00 -1.220454e+00 2.775635e-01 8.247710e-01 7.456541e-04 -2.469538e-01 1.062746e-01 2.449407e-01 -1.130065e-01 -3.815267e-01 -4.325511e-02 5.808684e-01 2.324141e-01 -8.208576e-01
<VARIANCE> 25
 8.623809e+01 9.483947e+01 5.878155e+01 3.425156e+01 4.949755e+01 3.137130e+01 3.959558e+01 4.134103e+01 3.303839e+01 3.842261e+01 2.864680e+01 1.954194e+01 2.561087e+00 3.178131e+00 5.355256e+00 3.672777e+00 4.914149e+00 3.756495e+00 4.831312e+00 3.242568e+00 3.283022e+00 3.271987e+00 2.861769e+00 1.746764e+00 1.857422e+00
<GCONST> 1.061315e+02
<TRANSP> 5
 0.000000e+00 1.000000e+00 0.000000e+00 0.000000e+00 0.000000e+00
 0.000000e+00 6.597201e-01 3.402798e-01 0.000000e+00 0.000000e+00
 0.000000e+00 0.000000e+00 5.257905e-01 4.742095e-01 0.000000e+00
 0.000000e+00 0.000000e+00 0.000000e+00 6.128780e-01 3.871220e-01
 0.000000e+00 0.000000e+00 0.000000e+00 0.000000e+00 0.000000e+00
<ENDHMM>
~h "l"
<BEGINHMM>
<NUMSTATES> 5
<STATE> 2
<MEAN> 25
 1.201186e+01 -6.772618e+00 8.423552e+00 -5.322497e+00 -4.186306e+00 -7.247746e+00 -6.545455e+00 -2.547714e+00 3.609016e+00 -2.034887e+00 -2.563342e+00 -1.068774e+00 1.102336e+00 -3.706699e-01 1.573749e+00 1.009350e+00 -2.045019e+00 5.652691e-01 -6.379433e-01 -7.723000e-01 -1.590622e+00 4.942729e-01 8.141919e-01 -3.753689e-01 4.287883e-01
<VARIANCE> 25
 6.613564e+01 7.361249e+01 1.196853e+02 1.141294e+02 8.680001e+01 1.032540e+02 1.257132e+02 9.184547e+01 1.001945e+02 7.002370e+01 5.583158e+01 4.129874e+01 5.848188e+00 9.165670e+00 1.346728e+01 1.132700e+01 1.378402e+01 1.128863e+01 2.226012e+01 1.024366e+01 1.251856e+01 9.306376e+00 6.034571e+00 4.645716e+00 8.844363e+00
<GCONST> 1.287706e+02
<STATE> 3
<MEAN> 25
 1.540757e+01 -9.758289e+00 1.583926e+01 -2.516832e+00 -1.388169e+01 -6.590347e+00 -4.799889e+00 -3.706811e+00 -5.609611e+00 1.513820e+00 -8.845730e-01 -2.574414e-01 -2.497184e-01 7.009878e-01 1.197598e+00 -3.448278e-01 -8.644139e-01 1.396067e-01 8.305552e-01 5.421523e-02 -1.848358e+00 3.823357e-01 2.295783e-01 1.066831e-01 -2.524305e-01
<VARIANCE> 25
 2.284474e+01 2.150642e+01 1.120028e+02 1.043621e+02 6.828963e+01 7.847929e+01 1.279998e+02 1.045014e+02 1.020605e+02 6.965518e+01 6.111043e+01 4.578505e+01 7.222127e-01 2.561702e+00 4.454290e+00 6.932027e+00 4.350078e+00 7.938516e+00 6.150787e+00 8.006715e+00 6.234956e+00 6.411823e+00 4.949384e+00 3.827605e+00 1.286210e+00
<GCONST> 1.147695e+02
<STATE> 4
<MEAN> 25
 1.594373e+01 5.956586e+00 1.403317e+01 -4.213465e+00 -1.351462e+01 1.620112e+00 5.095283e-01 -1.120353e+01 -1.542569e+01 1.740991e+00 1.501171e+00 -1.208760e+00 6.295223e-01 2.500545e+00 -2.304108e+00 1.183240e+00 1.359813e+00 4.479882e-01 -4.639329e-01 -1.296688e+00 8.865452e-01 -8.544828e-01 -2.176043e-03 -3.334235e-03 -1.793647e+00
<VARIANCE> 25
 3.062623e+01 9.035033e+01 1.441540e+02 8.078563e+01 1.065943e+02 8.669936e+01 1.171231e+02 1.196139e+02 7.105125e+01 7.838817e+01 4.789343e+01 2.089759e+01 1.893706e+00 4.258766e+00 9.036179e+00 7.130959e+00 9.428687e+00 1.008321e+01 8.785370e+00 1.239074e+01 6.815891e+00 6.780107e+00 3.719654e+00 2.131510e+00 1.430470e+00
<GCONST> 1.192074e+02
<TRANSP> 5
 0.000000e+00 1.000000e+00 0.000000e+00 0.000000e+00 0.000000e+00
 0.000000e+00 6.146125e-01 3.853875e-01 0.000000e+00 0.000000e+00
 0.000000e+00 0.000000e+00 8.415495e-01 1.584506e-01 0.000000e+00
 0.000000e+00 0.000000e+00 0.000000e+00 8.111671e-01 1.888329e-01
 0.000000e+00 0.000000e+00 0.000000e+00 0.000000e+00 0.000000e+00
<ENDHMM>
~h "m"
<BEGINHMM>
<NUMSTATES> 5
<STATE> 2
<MEAN> 25
 1.645583e+01 -9.667734e+00 -7.597610e-01 -3.869600e+00 7.656621e-01 1.774831e-01 -1.877734e+00 -3.508892e+00 -2.366327e+00 7.706105e-01 -4.457891e+00 -7.132202e+00 6.109183e-01 8.915173e-01 -1.558596e+00 1.368804e+00 2.398700e-02 1.286373e+00 3.097916e-01 -1.864536e+00 -4.737529e-01 2.857102e-02 2.966655e-01 -1.529322e-02 -1.255081e+00
<VARIANCE> 25
 6.029489e+01 1.391884e+02 5.891541e+01 1.109550e+02 5.445726e+01 6.439824e+01 6.226749e+01 1.054398e+02 7.493172e+01 4.608318e+01 3.243548e+01 3.926870e+01 3.059150e+00 5.742137e+00 3.025311e+00 6.987497e+00 4.863340e+00 4.690570e+00 4.695929e+00 6.947091e+00 6.539191e+00 3.523774e+00 3.570471e+00 2.536460e+00 2.765874e+00
<GCONST> 1.149036e+02
<STATE> 3
<MEAN> 25
 1.946811e+01 -7.359554e+00 -4.227769e+00 -1.243206e+00 1.016852e+00 4.505276e-01 -1.984784e-01 -6.053854e+00 -5.148240e+00 3.232679e+00 -3.535896e+00 -8.114584e+00 2.267275e-01 2.554692e+00 -9.144545e-01 1.087417e+00 1.143360e+00 9.806582e-01 -6.622544e-01 -1.312422e+00 -9.649800e-01 -4.216466e-01 2.848420e-01 6.704598e-01 -1.839662e+00
<VARIANCE> 25
 5.105531e+01 8.961043e+01 6.719779e+01 1.056898e+02 4.942933e+01 4.024781e+01 8.387296e+01 1.110606e+02 5.557806e+01 4.655666e+01 4.555592e+01 3.065397e+01 1.550137e+00 7.116715e+00 4.563634e+00 7.673446e+00 4.544622e+00 3.589775e+00 3.671609e+00 7.866958e+00 4.991569e+00 2.996611e+00 4.161858e+00 2.637069e+00 2.616649e+00
<GCONST> 1.132534e+02
<STATE> 4
<MEAN> 25
 2.054953e+01 7.771527e+00 -4.761889e+00 1.289904e+00 6.676456e+00 5.587754e+00 -5.278542e+00 -1.564775e+01 -1.101617e+01 -7.081256e-01 -1.438842e+00 -2.961472e+00 -4.776302e-01 1.423173e+00 8.332561e-01 1.384027e-01 -6.840682e-02 3.298853e-01 -1.002781e-01 -6.764297e-01 -6.852631e-01 -3.800527e-01 3.425310e-01 3.938501e-01 -8.571296e-01
<VARIANCE> 25
 3.767129e+01 5.023119e+01 4.426054e+01 4.031690e+01 3.192361e+01 2.367509e+01 5.545365e+01 6.884927e+01 4.714352e+01 2.842591e+01 2.627167e+01 2.270842e+01 9.691079e-01 3.472103e+00 3.532490e+00 2.851454e+00 3.133946e+00 2.188478e+00 2.839808e+00 5.795821e+00 4.530808e+00 3.030283e+00 2.411014e+00 1.723148e+00 1.311505e+00
<GCONST> 1.020108e+02
<TRANSP> 5
 0.000000e+00 1.000000e+00 0.000000e+00 0.000000e+00 0.000000e+00
 0.000000e+00 2.570805e-01 7.429195e-01 0.000000e+00 0.000000e+00
 0.000000e+00 0.000000e+00 6.068939e-01 3.931061e-01 0.000000e+00
 0.000000e+00 0.000000e+00 0.000000e+00 7.371038e-01 2.628963e-01
 0.000000e+00 0.000000e+00 0.000000e+00 0.000000e+00 0.000000e+00
<ENDHMM>
~h "n"
<BEGINHMM>
<NUMSTATES> 5
<STATE> 2
<MEAN> 25
 -5.466358e+00 2.997775e+00 -4.389398e+00 2.993681e+00 7.764205e-01 3.222234e+00 -9.265941e-01 5.124246e-01 1.039689e+00 -1.717977e+00 -7.209342e-01 -4.466198e-02 -1.078056e-01 1.061832e-01 -3.400655e-02 -7.778385e-02 -2.484548e-02 -4.558061e-03 -2.978720e-03 1.660882e-02 -7.953586e-02 -1.201044e-01 7.100555e-02 3.580077e-02 -1.290063e-01
<VARIANCE> 25
 7.045540e+01 2.598237e+01 3.030827e+01 2.228804e+01 1.965600e+01 2.286927e+01 3.437328e+01 2.630194e+01 2.309472e+01 1.549281e+01 1.743519e+01 1.747634e+01 4.297970e-01 7.883211e-01 1.088486e+00 9.591876e-01 1.343763e+00 1.476486e+00 1.564484e+00 1.621610e+00 1.543029e+00 1.553843e+00 1.183265e+00 1.297758e+00 1.891500e-01
<GCONST> 8.470432e+01
<STATE> 3
<MEAN> 25
 2.070435e+00 5.657381e+00 -2.350560e+00 2.191701e+00 2.261641e+00 2.017192e+00 -2.523986e+00 -1.913409e+00 -1.260777e+00 -3.108835e+00 -2.006896e+00 -8.834438e-01 1.229817e+00 4.234862e-01 -1.349373e-01 -1.257420e+00 -5.704997e-01 4.606420e-01 2.123361e-01 -1.572621e-01 -2.699029e-01 1.292395e-01 6.343845e-01 5.004535e-01 8.782657e-01
<VARIANCE> 25
 1.724778e+02 6.571677e+01 5.409063e+01 4.094856e+01 3.058278e+01 3.550729e+01 4.029916e+01 5.309358e+01 3.681603e+01 2.801751e+01 2.935048e+01 2.032336e+01 1.161525e+01 6.554337e+00 3.498157e+00 3.778829e+00 2.097477e+00 3.021319e+00 2.421548e+00 3.216732e+00 2.707089e+00 2.170524e+00 2.205716e+00 2.003525e+00 5.957544e+00
<GCONST> 1.068287e+02
<STATE> 4
<MEAN> 25
 1.261887e+01 6.878161e+00 -5.548825e+00 -6.393496e+00 -9.333333e-01 6.611544e+00 -1.789522e+00 -4.662203e+00 -2.103676e+00 -1.734610e+00 2.433836e+00 1.371232e+00 2.113852e+00 -1.832659e+00 -1.111459e-01 -1.816056e+00 -5.843675e-01 1.149477e-01 -3.612732e-02 -1.621349e-01 -8.726969e-01 4.799149e-01 6.787419e-01 -3.149928e-01 2.878132e+00
<VARIANCE> 25
 1.662874e+02 9.027499e+01 7.097971e+01 9.897060e+01 4.629410e+01 5.136937e+01 4.794194e+01 5.980550e+01 5.063457e+01 2.554312e+01 4.338113e+01 2.174871e+01 1.544918e+01 1.240021e+01 6.525527e+00 7.258694e+00 2.954351e+00 4.577822e+00 5.074374e+00 5.700490e+00 7.955216e+00 2.721375e+00 4.029596e+00 2.452350e+00 9.177266e+00
<GCONST> 1.168353e+02
<TRANSP> 5
 0.000000e+00 1.000000e+00 0.000000e+00 0.000000e+00 0.000000e+00
 0.000000e+00 8.219571e-01 1.780429e-01 0.000000e+00 0.000000e+00
 0.000000e+00 0.000000e+00 3.779015e-01 6.220984e-01 0.000000e+00
 0.000000e+00 0.000000e+00 0.000000e+00 4.874832e-01 5.125168e-01
 0.000000e+00 0.000000e+00 0.000000e+00 0.000000e+00 0.000000e+00
<ENDHMM>
~h "o"
<BEGINHMM>
<NUMSTATES> 5
<STATE> 2
<MEAN> 25
 1.408533e+01 -5.953247e+00 -4.808362e+00 -1.487354e+01 5.837934e+00 6.897451e-01 -1.687416e+00 -2.776915e+00 -3.249951e+00 2.546609e+00 4.258367e+00 -2.109287e+00 9.218429e-01 -1.348241e-01 7.309796e-02 -3.203747e-01 -9.115811e-02 -2.097902e-01 -8.125860e-03 -2.362823e-01 -1.097110e-02 4.512361e-01 -6.125023e-01 -3.282895e-02 7.976952e-01
<VARIANCE> 25
 7.158722e+01 7.118295e+01 9.304046e+01 9.939238e+01 1.209806e+02 1.260571e+02 1.000563e+02 7.282536e+01 7.947689e+01 6.066145e+01 7.074650e+01 3.073344e+01 6.624626e+00 1.002506e+01 1.091989e+01 1.175178e+01 1.549264e+01 1.305038e+01 1.248808e+01 7.625801e+00 9.305254e+00 5.936897e+00 6.925790e+00 4.282347e+00 1.322596e+01
<GCONST> 1.272063e+02
<STATE> 3
<MEAN> 25
 1.731485e+01 5.256077e+00 -1.274151e+01 -7.395339e+00 4.557182e+00 3.458125e+00 -5.179973e+00 -3.011069e+00 2.258651e+00 5.303324e+00 -6.620955e-01 -2.514867e+00 -2.499044e+00 2.252167e+00 -1.351977e+00 4.488790e-01 -1.188049e+00 1.186826e+00 4.847003e-01 3.692654e-01 6.068347e-01 -9.964040e-01 1.438894e+00 7.454911e-01 -4.145653e+00
<VARIANCE> 25
 2.929823e+01 1.839254e+01 4.722158e+01 2.950644e+01 2.241278e+01 2.673380e+01 3.893489e+01 1.775960e+01 2.957632e+01 2.621393e+01 3.394724e+01 2.094995e+01 4.164070e+00 3.902972e+00 1.240218e+01 5.292614e+00 6.133789e+00 4.829310e+00 8.429307e+00 3.479867e+00 5.748150e+00 2.771040e+00 5.694232e+00 2.338370e+00 3.847213e+00
<GCONST> 1.060744e+02
<STATE> 4
<MEAN> 25
 4.970244e-01 6.233401e+00 -6.902053e+00 -5.645803e+00 -3.650406e+00 4.667439e-01 -1.094496e+00 -3.994212e-01 -1.140877e-01 7.050022e-01 2.093724e+00 4.392354e-01 -1.872983e+00 -1.975564e+00 2.037199e+00 6.272978e-01 -2.004566e-01 -1.681885e+00 7.633941e-01 7.201915e-01 -2.930695e-01 -1.453923e-01 -1.217744e-01 7.775227e-01 4.251998e-01
<VARIANCE> 25
 3.267154e+01 7.485337e+00 3.039002e+01 2.360987e+01 2.007160e+01 1.787023e+01 2.377760e+01 1.917461e+01 2.464654e+01 1.969278e+01 2.076049e+01 1.404812e+01 5.502205e+00 5.004635e+00 4.771787e+00 2.552215e+00 4.856029e+00 3.955301e+00 3.640142e+00 3.410383e+00 3.052860e+00 4.179389e+00 2.289474e+00 3.181236e+00 1.149533e+01
<GCONST> 1.001505e+02
<TRANSP> 5
 0.000000e+00 1.000000e+00 0.000000e+00 0.000000e+00 0.000000e+00
 0.000000e+00 9.159662e-01 8.403376e-02 0.000000e+00 0.000000e+00
 0.000000e+00 0.000000e+00 7.259163e-01 2.740838e-01 0.000000e+00
 0.000000e+00 0.000000e+00 0.000000e+00 7.545373e-01 2.454626e-01
 0.000000e+00 0.000000e+00 0.000000e+00 0.000000e+00 0.000000e+00
<ENDHMM>
~h "p"
<BEGINHMM>
<NUMSTATES> 5
<STATE> 2
<MEAN> 25
 1.884145e+01 -8.342297e+00 -5.366027e-02 -5.835736e+00 6.409062e-01 1.084259e+00 -3.310317e+00 -1.745246e+00 -3.256137e+00 3.451772e+00 -3.534982e+00 -6.865993e+00 4.668090e-02 3.380881e+00 -2.938460e+00 3.653244e+00 -3.956101e-01 1.368260e+00 1.860269e-01 3.089333e-01 1.351646e+00 -1.297514e-01 9.422507e-01 1.868385e-01 -4.202211e+00
<VARIANCE> 25
 2.092097e+01 1.483857e+02 6.819566e+01 1.341577e+02 4.617741e+01 6.342083e+01 5.201964e+01 5.935724e+01 3.834435e+01 4.206067e+01 3.711789e+01 2.004943e+01 3.378439e+00 4.823201e+00 9.520797e+00 9.253538e+00 7.042074e+00 6.651180e+00 4.009499e+00 6.858879e+00 8.046135e+00 3.785986e+00 4.561500e+00 2.228680e+00 3.844517e+00
<GCONST> 1.146368e+02
<STATE> 3
<MEAN> 25
 1.188502e+01 4.968077e+00 -1.277579e+01 3.894995e-01 3.710696e+00 2.075409e+00 -3.779401e+00 9.040747e-01 5.956515e+00 9.423563e-01 -2.688617e+00 -3.827264e+00 -2.687862e+00 1.978928e-01 1.073635e-01 -3.711625e-01 -4.299464e-01 -7.730480e-01 2.809320e-01 6.293819e-01 8.448422e-01 -5.647665e-02 3.797367e-01 1.169410e+00 -1.917839e+00
<VARIANCE> 25
 4.995742e+01 5.892488e+01 1.081615e+02 3.019097e+01 2.689679e+01 4.372257e+01 3.881728e+01 3.446879e+01 4.375429e+01 4.014422e+01 2.543192e+01 1.736798e+01 4.055664e+00 8.652438e+00 1.291161e+01 4.859771e+00 5.669347e+00 4.935491e+00 4.861302e+00 4.326715e+00 6.405096e+00 3.439135e+00 2.985018e+00 2.276279e+00 8.147963e+00
<GCONST> 1.110370e+02
<STATE> 4
<MEAN> 25
 1.065927e+01 -7.031387e+00 1.318903e+00 2.237928e+00 -3.798619e+00 -7.197814e+00 -2.441666e+00 2.490493e+00 2.478245e+00 -3.690808e-01 1.658152e+00 3.360134e-01 1.358674e+00 -3.711084e+00 4.571899e+00 -3.382703e-01 -2.246697e+00 -2.977368e+00 -7.711843e-02 8.267161e-01 -1.562651e+00 -6.778463e-01 9.219052e-01 6.221139e-01 4.892685e+00
<VARIANCE> 25
 5.701334e+01 1.067966e+02 1.029427e+02 4.788770e+01 5.436377e+01 7.440879e+01 4.025247e+01 4.878810e+01 3.372514e+01 3.660043e+01 2.424593e+01 1.975507e+01 8.191447e+00 7.116544e+00 1.119405e+01 1.023911e+01 5.922455e+00 6.166049e+00 4.935200e+00 5.500660e+00 6.329213e+00 4.720200e+00 4.049093e+00 3.109313e+00 1.123893e+01
<GCONST> 1.163975e+02
<TRANSP> 5
 0.000000e+00 1.000000e+00 0.000000e+00 0.000000e+00 0.000000e+00
 0.000000e+00 6.543590e-01 3.456409e-01 0.000000e+00 0.000000e+00
 0.000000e+00 0.000000e+00 6.831702e-01 3.168298e-01 0.000000e+00
 0.000000e+00 0.000000e+00 0.000000e+00 6.673663e-01 3.326336e-01
 0.000000e+00 0.000000e+00 0.000000e+00 0.000000e+00 0.000000e+00
<ENDHMM>
~h "r"
<BEGINHMM>
<NUMSTATES> 5
<STATE> 2
<MEAN> 25
 1.129224e+01 -1.140673e+01 1.386349e+00 -9.399840e+00 3.000578e-01 -4.851579e+00 1.560824e+00 -1.224578e+00 4.868050e+00 3.131956e-01 -6.452498e+00 -5.798537e+00 -1.082378e-01 -5.671634e-02 8.472972e-02 3.016254e-02 9.662464e-02 -9.370352e-02 -2.975812e-01 2.795951e-01 2.481661e-01 -4.847353e-01 -6.129177e-02 1.520974e-01 -6.910686e-02
<VARIANCE> 25
 6.512943e+01 8.200400e+01 4.902980e+01 1.026284e+02 4.889624e+01 5.754825e+01 7.575430e+01 7.007791e+01 6.434324e+01 4.311115e+01 3.576052e+01 3.582305e+01 1.136266e+00 8.916870e-01 1.388342e+00 1.649004e+00 1.599132e+00 2.563441e+00 2.224087e+00 2.456358e+00 2.408160e+00 2.532079e+00 2.217356e+00 1.445487e+00 6.144462e-01
<GCONST> 1.010923e+02
<STATE> 3
<MEAN> 25
 1.030915e+01 -8.915943e+00 1.527912e+00 -5.748701e+00 -6.636822e-01 -2.585339e+00 -1.616701e+00 -1.770887e+00 4.363465e+00 2.174915e-01 -3.998384e+00 -4.177710e+00 2.674360e-01 2.499262e-01 -1.809152e-01 1.053222e+00 -3.637623e-01 2.885829e-01 -8.401854e-01 3.016342e-01 -3.995664e-01 -5.450694e-02 5.079031e-01 3.460291e-01 -1.321838e+00
<VARIANCE> 25
 1.045246e+02 1.399782e+02 5.951461e+01 1.048161e+02 5.205357e+01 7.595877e+01 7.669061e+01 9.697448e+01 6.794283e+01 4.411637e+01 3.770118e+01 4.429744e+01 2.483677e+00 2.365045e+00 3.026109e+00 4.776275e+00 3.284408e+00 5.031975e+00 4.100858e+00 4.178302e+00 4.183992e+00 3.546697e+00 2.994085e+00 2.430121e+00 2.709394e+00
<GCONST> 1.126652e+02
<STATE> 4
<MEAN> 25
 1.480643e+01 -7.632202e+00 -2.031795e+00 8.244433e-01 -8.580972e-01 -3.292951e+00 -2.864371e+00 -6.269356e-01 1.624427e+00 8.027253e-01 -3.050634e+00 -4.150643e+00 -6.799585e-02 1.706868e+00 -7.355542e-01 1.427644e+00 1.476258e-01 3.794029e-01 -3.645123e-01 -2.392823e-01 -5.275847e-01 -1.074821e-01 3.686458e-01 5.385537e-01 -2.003859e+00
<VARIANCE> 25
 8.185741e+01 1.147647e+02 8.465025e+01 9.059863e+01 5.588235e+01 5.911518e+01 6.013728e+01 5.948886e+01 4.631740e+01 4.061023e+01 3.096357e+01 2.748924e+01 3.941308e+00 6.397626e+00 6.940291e+00 1.121913e+01 6.251782e+00 6.677712e+00 7.371619e+00 6.039896e+00 5.176073e+00 3.929409e+00 3.762013e+00 3.133227e+00 4.305506e+00
<GCONST> 1.166606e+02
<TRANSP> 5
 0.000000e+00 1.000000e+00 0.000000e+00 0.000000e+00 0.000000e+00
 0.000000e+00 5.838003e-01 4.161997e-01 0.000000e+00 0.000000e+00
 0.000000e+00 0.000000e+00 1.206772e-01 8.793228e-01 0.000000e+00
 0.000000e+00 0.000000e+00 0.000000e+00 6.741849e-01 3.258151e-01
 0.000000e+00 0.000000e+00 0.000000e+00 0.000000e+00 0.000000e+00
<ENDHMM>
~h "s"
<BEGINHMM>
<NUMSTATES> 5
<STATE> 2
<MEAN> 25
 1.616926e+01 -4.812363e+00 4.128381e+00 -9.036717e+00 2.369635e+00 -4.542485e+00 -5.944938e+00 -2.628428e+00 -2.675674e+00 2.829287e+00 -4.707678e+00 8.109665e-01 -1.416877e+00 1.610585e+00 3.950468e-01 -6.247630e-01 1.777311e+00 -3.193385e-01 -4.607145e-02 3.366164e-01 2.179452e-01 8.504093e-05 2.746618e-01 2.618399e-01 9.563266e-02
<VARIANCE> 25
 5.901832e+01 8.357040e+01 1.089729e+02 1.096749e+02 9.418508e+01 9.197740e+01 1.254261e+02 1.381346e+02 9.077205e+01 5.714839e+01 8.021970e+01 4.780142e+01 1.401526e+01 1.057325e+01 9.522458e+00 1.404438e+01 1.378061e+01 8.274757e+00 1.035227e+01 1.550687e+01 1.063981e+01 6.698828e+00 5.641397e+00 3.941180e+00 7.087278e+00
<GCONST> 1.285074e+02
<STATE> 3
<MEAN> 25
 -9.043786e+00 6.675465e+00 6.150564e+00 -8.963313e+00 9.362395e+00 -8.580796e+00 1.259314e+00 3.638391e+00 2.769459e+00 -8.894519e-01 1.066505e+00 2.579793e+00 -3.963147e+00 1.085322e+00 -8.010209e-01 -1.159973e-01 6.131551e-01 2.123159e-01 1.040775e+00 4.974124e-01 9.414654e-01 -3.420919e-01 8.638679e-01 3.509680e-01 -3.840428e-01
<VARIANCE> 25
 9.756430e+01 6.485724e+01 9.255608e+01 8.254639e+01 9.060941e+01 8.164928e+01 9.624891e+01 6.312240e+01 6.563833e+01 3.662111e+01 4.127640e+01 3.280870e+01 9.890280e+00 8.080142e+00 6.947759e+00 7.067824e+00 8.658687e+00 6.668258e+00 6.053309e+00 5.678879e+00 4.937451e+00 4.466203e+00 4.673694e+00 3.218732e+00 1.841332e+00
<GCONST> 1.185406e+02
<STATE> 4
<MEAN> 25
 -7.994530e+00 1.058003e+00 7.530899e+00 -7.764150e+00 4.736729e+00 -1.015827e+01 2.301069e+00 3.399884e+00 2.431248e+00 -8.993691e-01 1.887237e-01 4.689367e+00 4.326630e+00 -1.851002e+00 1.550838e+00 8.758051e-01 -2.069769e+00 -4.890735e-01 -7.582228e-01 -8.129777e-01 -1.705980e+00 1.700595e-01 -5.692168e-01 -1.891993e-01 1.860843e-01
<VARIANCE> 25
 1.379485e+02 5.303682e+01 1.462339e+02 7.539278e+01 8.075758e+01 6.384342e+01 9.203751e+01 6.510719e+01 8.124611e+01 3.915681e+01 5.350790e+01 3.422304e+01 1.254759e+01 5.287521e+00 1.234359e+01 1.076582e+01 8.776902e+00 8.462101e+00 6.487754e+00 5.822736e+00 9.543398e+00 5.121032e+00 4.647267e+00 4.144822e+00 4.168030e+00
<GCONST> 1.222752e+02
<TRANSP> 5
 0.000000e+00 1.000000e+00 0.000000e+00 0.000000e+00 0.000000e+00
 0.000000e+00 7.232396e-01 2.767604e-01 0.000000e+00 0.000000e+00
 0.000000e+00 0.000000e+00 7.921550e-01 2.078449e-01 0.000000e+00
 0.000000e+00 0.000000e+00 0.000000e+00 7.607075e-01 2.392925e-01
 0.000000e+00 0.000000e+00 0.000000e+00 0.000000e+00 0.000000e+00
<ENDHMM>
~h "t"
<BEGINHMM>
<NUMSTATES> 5
<STATE> 2
<MEAN> 25
 8.875015e+00 -9.191150e+00 3.235013e+00 -8.282832e+00 2.075778e+00 -9.116871e+00 1.581775e+00 1.161829e+00 -2.063802e-01 3.143479e+00 -3.395298e+00 4.890354e-01 1.684324e+00 -1.373713e+00 5.561332e-01 -1.070727e+00 1.405584e+00 -9.426271e-01 -4.072800e-01 -8.203833e-02 2.845704e-01 1.136688e+00 -1.461218e+00 -2.285212e-01 2.730953e+00
<VARIANCE> 25
 5.482224e+01 7.105387e+01 6.766504e+01 1.026030e+02 8.770856e+01 8.289961e+01 6.554478e+01 7.492802e+01 5.506317e+01 5.329990e+01 5.878979e+01 4.521155e+01 7.042532e+00 9.812774e+00 1.121858e+01 9.816645e+00 7.428257e+00 7.879092e+00 6.349479e+00 7.208699e+00 6.035827e+00 6.541051e+00 5.646479e+00 4.944948e+00 2.396059e+01
<GCONST> 1.233326e+02
<STATE> 3
<MEAN> 25
 1.511890e+01 -1.218619e+01 2.582012e+00 -1.031981e+01 3.571177e+00 -7.825728e+00 -1.239716e+00 -1.145649e+00 9.642103e-01 6.519323e+00 -8.146583e+00 -2.143705e+00 8.417827e-01 1.487153e+00 -1.598758e+00 2.147559e+00 -3.468205e-01 1.413963e+00 -1.008740e+00 -4.801752e-02 7.100576e-01 -2.067359e-01 -6.770393e-02 -1.954839e-01 -2.088839e+00
<VARIANCE> 25
 1.919485e+01 3.400675e+01 4.309254e+01 9.986916e+01 5.967627e+01 7.391420e+01 6.920573e+01 7.058752e+01 5.057449e+01 4.379286e+01 6.736253e+01 4.339072e+01 2.436653e+00 5.434748e+00 6.622425e+00 8.727553e+00 6.021188e+00 6.718267e+00 5.907433e+00 6.542500e+00 6.693677e+00 6.044977e+00 5.396512e+00 4.310819e+00 8.330525e+00
<GCONST> 1.163266e+02
<STATE> 4
<MEAN> 25
 1.140449e+01 -6.136472e-01 -6.594858e+00 -1.530296e+00 2.361897e+00 -2.911270e+00 -4.692571e+00 1.067137e+00 5.642488e+00 1.334990e+00 -4.009918e+00 -1.466839e+00 -1.130966e+00 7.245597e-01 -4.234561e-01 -1.816223e-01 -3.367958e-01 8.041916e-01 -1.146657e-01 4.366904e-02 1.821302e-01 -7.636421e-01 9.257897e-01 1.239570e-01 -1.283781e+00
<VARIANCE> 25
 6.636539e+01 6.585033e+01 7.981013e+01 6.516273e+01 5.062706e+01 4.996740e+01 5.751115e+01 4.954977e+01 4.477240e+01 3.542493e+01 4.654018e+01 3.224535e+01 8.490725e+00 1.011928e+01 1.475506e+01 8.504363e+00 8.023952e+00 7.144942e+00 8.237427e+00 7.762589e+00 7.448386e+00 5.272576e+00 4.647829e+00 4.230217e+00 1.671103e+01
<GCONST> 1.203172e+02
<TRANSP> 5
 0.000000e+00 1.000000e+00 0.000000e+00 0.000000e+00 0.000000e+00
 0.000000e+00 4.794872e-01 5.205128e-01 0.000000e+00 0.000000e+00
 0.000000e+00 0.000000e+00 6.638076e-01 3.361925e-01 0.000000e+00
 0.000000e+00 0.000000e+00 0.000000e+00 6.750611e-01 3.249389e-01
 0.000000e+00 0.000000e+00 0.000000e+00 0.000000e+00 0.000000e+00
<ENDHMM>
~h "u"
<BEGINHMM>
<NUMSTATES> 5
<STATE> 2
<MEAN> 25
 2.134453e+01 3.124169e+00 -8.332155e+00 -6.108203e+00 4.460189e-01 5.510527e+00 -5.308148e+00 -1.179404e+01 -5.786163e+00 3.450316e+00 8.917130e-01 -1.836546e+00 -6.926091e-01 2.891146e+00 -1.206399e+00 -8.982483e-01 6.834915e-01 1.300557e+00 6.350644e-01 2.773391e-01 -2.309130e-01 -1.235968e+00 5.421435e-01 9.731525e-01 -2.122636e+00
<VARIANCE> 25
 2.682861e+01 8.538194e+01 7.018519e+01 6.726121e+01 4.589501e+01 4.053596e+01 6.319367e+01 8.313465e+01 7.332182e+01 3.167683e+01 3.549488e+01 2.626290e+01 3.192842e+00 3.704228e+00 7.063409e+00 7.803056e+00 6.828174e+00 6.291137e+00 7.144815e+00 6.280006e+00 6.865567e+00 3.658527e+00 3.573088e+00 2.164071e+00 2.057242e+00
<GCONST> 1.128606e+02
<STATE> 3
<MEAN> 25
 1.345148e+01 1.193648e+01 -6.643097e+00 -6.185555e+00 -2.840678e-01 5.363860e+00 -1.072353e+00 -5.201473e+00 -5.148149e+00 -3.731414e+00 -1.461823e-01 4.638478e-01 -1.950702e+00 7.729410e-02 1.139700e+00 9.786718e-01 -3.966067e-01 -4.816899e-01 2.241785e-01 5.711855e-01 4.472851e-01 -2.627415e-01 -2.732710e-01 -1.525868e-01 -1.385453e+00
<VARIANCE> 25
 6.781274e+01 7.326777e+01 5.968335e+01 8.608539e+01 4.120335e+01 5.386032e+01 2.521015e+01 5.538244e+01 4.220657e+01 2.652681e+01 2.176987e+01 2.424954e+01 2.476788e+00 1.808827e+00 2.711187e+00 3.193232e+00 2.664706e+00 3.034355e+00 1.944165e+00 3.016772e+00 2.968664e+00 1.386607e+00 1.655578e+00 1.215388e+00 1.383039e+00
<GCONST> 1.011939e+02
<STATE> 4
<MEAN> 25
 2.276885e+00 4.806479e+00 -3.912748e+00 -1.179235e+00 -3.588311e-01 8.146034e-01 -1.653367e+00 -2.418642e+00 3.620645e-01 -8.515863e-01 -1.741758e-01 -1.945452e-01 -1.023386e+00 -1.481114e+00 4.737619e-01 1.963285e-01 3.234094e-01 -6.913844e-01 2.053539e-01 1.846923e-01 6.977098e-02 -1.593774e-02 1.888232e-01 3.972629e-02 4.729989e-01
<VARIANCE> 25
 9.042618e+01 8.136821e+01 5.854152e+01 6.604907e+01 2.825952e+01 3.917839e+01 4.147221e+01 5.220682e+01 4.306646e+01 2.510900e+01 1.911269e+01 2.538587e+01 8.745307e+00 3.318762e+00 4.602129e+00 3.555057e+00 2.760741e+00 3.818375e+00 3.587473e+00 3.593237e+00 3.220533e+00 2.701576e+00 2.000143e+00 2.456635e+00 1.046922e+01
<GCONST> 1.081496e+02
<TRANSP> 5
 0.000000e+00 1.000000e+00 0.000000e+00 0.000000e+00 0.000000e+00
 0.000000e+00 6.902505e-01 3.097495e-01 0.000000e+00 0.000000e+00
 0.000000e+00 0.000000e+00 7.274346e-01 2.725653e-01 0.000000e+00
 0.000000e+00 0.000000e+00 0.000000e+00 5.826567e-01 4.173433e-01
 0.000000e+00 0.000000e+00 0.000000e+00 0.000000e+00 0.000000e+00
<ENDHMM>
~h "w"
<BEGINHMM>
<NUMSTATES> 5
<STATE> 2
<MEAN> 25
 -1.963490e+01 4.551018e+00 -3.939765e+00 6.682240e+00 4.919707e+00 7.698121e+00 2.148049e+00 6.656777e+00 8.017008e+00 2.693285e+00 6.732253e+00 5.152180e+00 6.171429e-03 2.052535e-02 1.579903e-02 2.683654e-02 2.619174e-02 -2.563586e-02 -7.096572e-02 5.449438e-02 1.229481e-01 3.371120e-02 -4.816474e-02 -7.589407e-02 -5.161568e-03
<VARIANCE> 25
 3.890668e+00 4.580069e+00 6.744534e+00 1.867538e+01 7.911782e+00 2.022959e+01 1.309031e+01 1.429086e+01 1.360603e+01 9.838154e+00 9.079478e+00 7.559204e+00 3.654580e-02 1.457404e-01 2.227124e-01 3.639451e-01 4.277055e-01 4.272756e-01 6.657467e-01 1.077904e+00 1.158158e+00 1.022538e+00 8.471535e-01 9.819110e-01 5.360071e-02
<GCONST> 6.037530e+01
<STATE> 3
<MEAN> 25
 -1.818351e+01 5.864377e+00 -2.890978e+00 8.124466e+00 4.640145e+00 7.359515e+00 -2.909838e-01 2.869351e+00 8.963876e+00 2.825001e+00 4.614653e+00 4.685904e+00 -4.410587e-02 7.067596e-02 9.378357e-02 -3.501558e-01 -4.259651e-01 1.738424e-01 1.310516e-01 -5.801902e-01 -7.369044e-01 5.395137e-02 5.962067e-02 4.530928e-01 -1.837145e-02
<VARIANCE> 25
 4.802472e+00 3.581815e+00 9.020126e+00 1.307969e+01 8.483862e+00 1.439645e+01 1.179429e+01 1.035332e+01 6.124912e+00 4.286222e+00 3.717035e+00 4.189304e+00 3.654580e-02 5.248706e-02 1.077838e-01 3.006294e-01 6.139662e-01 3.811144e-01 1.488147e+00 1.404807e+00 5.990438e-01 6.655506e-01 2.319568e-01 3.002001e-01 5.360071e-02
<GCONST> 5.227456e+01
<STATE> 4
<MEAN> 25
 -1.806232e+01 6.363952e+00 -2.561239e+00 5.917729e+00 1.413816e+00 7.225765e+00 3.953261e+00 3.667353e+00 3.976850e+00 1.332148e-01 3.989485e+00 4.933898e+00 2.189187e-01 -1.718999e-01 1.236809e-01 2.344817e-01 5.222895e-01 5.198197e-01 9.083768e-01 -2.174499e-01 -1.620107e+00 -1.044451e+00 2.480885e-01 -1.533182e-02 2.598063e-01
<VARIANCE> 25
 4.927623e+00 3.140532e+00 6.347889e+00 1.085490e+01 6.432784e+00 1.338353e+01 1.528046e+01 8.910575e+00 5.069040e+00 1.127530e+01 5.313780e+00 2.694295e+00 4.529433e-01 6.389853e-02 1.405348e-01 1.245589e-01 1.383635e-01 2.453237e-01 2.581751e-01 2.868668e-01 4.864300e-01 2.986588e-01 1.814890e-01 2.341696e-01 2.626784e-01
<GCONST> 4.899751e+01
<TRANSP> 5
 0.000000e+00 1.000000e+00 0.000000e+00 0.000000e+00 0.000000e+00
 0.000000e+00 9.559939e-01 4.400613e-02 0.000000e+00 0.000000e+00
 0.000000e+00 0.000000e+00 7.433003e-01 2.566997e-01 0.000000e+00
 0.000000e+00 0.000000e+00 0.000000e+00 4.684504e-01 5.315497e-01
 0.000000e+00 0.000000e+00 0.000000e+00 0.000000e+00 0.000000e+00
<ENDHMM>
~h "aw"
<BEGINHMM>
<NUMSTATES> 5
<STATE> 2
<MEAN> 25
 -9.435106e+00 3.212343e+00 -6.717417e+00 4.381944e+00 1.424737e+00 2.873668e+00 1.223179e+00 9.402037e-01 4.482629e+00 -1.988199e+00 -1.204889e+00 -5.680738e-01 7.988873e-04 5.538350e-03 -1.962261e-02 -3.603874e-02 -3.021904e-02 -9.441540e-03 2.279742e-02 6.143522e-02 1.113556e-01 2.529771e-02 -3.567338e-02 4.680529e-03 5.460582e-03
<VARIANCE> 25
 2.794590e+00 3.050842e+00 6.205780e+00 8.880095e+00 1.079979e+01 1.157452e+01 1.241995e+01 1.558209e+01 1.179850e+01 1.634331e+01 9.514254e+00 1.167458e+01 1.030884e-01 2.225995e-01 3.623686e-01 5.026187e-01 6.425525e-01 9.881631e-01 1.110337e+00 1.260775e+00 1.196875e+00 1.502387e+00 1.105191e+00 1.306409e+00 5.360071e-02
<GCONST> 6.459756e+01
<STATE> 3
<MEAN> 25
 -1.428219e+01 2.813551e+00 -5.203058e+00 6.356318e+00 3.868774e+00 1.312325e+00 -1.043546e+00 1.487462e+00 2.415481e+00 -2.113519e+00 5.263802e-01 1.184279e+00 2.243346e-02 8.481137e-03 -3.120064e-02 -2.340102e-02 4.423931e-02 -3.777226e-01 -2.152822e-01 -5.954050e-03 -3.558877e-01 -1.342729e-01 1.328597e-01 1.475596e-01 3.775422e-02
<VARIANCE> 25
 8.167531e+00 2.609941e+00 7.557431e+00 1.308967e+01 2.016666e+01 1.696275e+01 1.348727e+01 1.128971e+01 1.214347e+01 1.251571e+01 1.775242e+01 1.130720e+01 1.148637e-01 2.001785e-01 4.874341e-01 6.471946e-01 7.807627e-01 1.061299e+00 8.601933e-01 9.902313e-01 8.481846e-01 1.247036e+00 1.662426e+00 1.204426e+00 5.360071e-02
<GCONST> 6.733673e+01
<STATE> 4
<MEAN> 25
 -5.140505e+00 5.859556e+00 -2.715177e+00 4.208372e+00 -9.982144e-01 -4.007075e-03 -4.673543e+00 9.701802e-01 1.952855e+00 -1.309645e+00 1.069602e-01 2.006258e+00 9.575631e-02 6.299260e-02 1.164574e-01 -7.313991e-03 5.301701e-02 1.011042e-02 -7.853617e-02 -1.804985e-01 -2.234280e-01 -7.611228e-02 -4.822619e-02 -2.049419e-02 7.324353e-02
<VARIANCE> 25
 4.837412e+01 4.925514e+01 3.731496e+01 1.954699e+01 3.177147e+01 5.034823e+01 3.098972e+01 2.181006e+01 1.497933e+01 1.524597e+01 1.344856e+01 9.190044e+00 6.771348e+00 6.690933e+00 3.334634e+00 1.786253e+00 2.654429e+00 3.617683e+00 4.152490e+00 1.718089e+00 1.878387e+00 1.317846e+00 1.475573e+00 1.242283e+00 4.515604e+00
<GCONST> 9.730152e+01
<TRANSP> 5
 0.000000e+00 1.000000e+00 0.000000e+00 0.000000e+00 0.000000e+00
 0.000000e+00 9.520035e-01 4.799647e-02 0.000000e+00 0.000000e+00
 0.000000e+00 0.000000e+00 7.741227e-01 2.258773e-01 0.000000e+00
 0.000000e+00 0.000000e+00 0.000000e+00 7.769476e-01 2.230524e-01
 0.000000e+00 0.000000e+00 0.000000e+00 0.000000e+00 0.000000e+00
<ENDHMM>
~h "ng"
<BEGINHMM>
<NUMSTATES> 5
<STATE> 2
<MEAN> 25
 1.149201e+01 -8.230068e+00 4.943932e-01 -2.301224e+00 2.702181e+00 -9.683997e+00 -7.294776e-01 5.472050e+00 -2.393579e-01 1.659143e+00 -3.841360e+00 -1.953166e+00 9.469681e-01 -2.180489e+00 -2.307298e-01 -2.171426e+00 5.134456e-01 -9.570778e-02 5.070658e-01 3.070748e-02 2.268004e-01 4.270804e-01 -1.300793e+00 -9.195219e-01 2.380835e+00
<VARIANCE> 25
 4.895116e+01 1.137347e+02 6.412086e+01 9.626379e+01 5.590532e+01 4.201429e+01 7.198187e+01 6.306285e+01 5.346204e+01 3.950012e+01 3.987081e+01 3.124683e+01 6.257059e+00 1.364737e+01 6.507908e+00 1.333642e+01 1.008321e+01 7.118156e+00 9.323933e+00 1.089483e+01 7.006835e+00 5.817916e+00 4.939183e+00 3.894260e+00 7.144840e+00
<GCONST> 1.207006e+02
<STATE> 3
<MEAN> 25
 1.416123e+01 -1.733820e+01 2.225114e+00 -1.119469e+01 1.488174e+00 -6.055187e+00 7.009015e-01 3.833031e+00 -5.343583e-01 2.771526e+00 -7.959944e+00 -5.855609e+00 3.985431e-01 3.470349e-02 -2.719124e-01 6.171697e-01 -3.474605e-01 3.704565e-01 -2.190258e-03 -2.371060e-01 -2.170102e-01 7.691237e-02 -1.533760e-01 -2.747033e-01 -2.896735e-01
<VARIANCE> 25
 2.087393e+01 2.428470e+01 2.898827e+01 7.070398e+01 5.383513e+01 4.288910e+01 3.124276e+01 4.395091e+01 3.639338e+01 4.386003e+01 2.921000e+01 2.461391e+01 1.987000e+00 2.341917e+00 2.520714e+00 9.041034e+00 6.085222e+00 3.881632e+00 3.152039e+00 5.159624e+00 3.385017e+00 3.919844e+00 2.660338e+00 2.285885e+00 3.898745e+00
<GCONST> 1.050895e+02
<STATE> 4
<MEAN> 25
 2.183488e+01 -1.028925e+01 -1.030145e+01 3.047009e+00 -1.683118e+00 -7.773121e+00 8.494958e-01 8.904439e-02 -1.109472e+00 1.026200e+00 -8.353265e+00 -7.591290e+00 8.913703e-02 1.037203e+00 -5.585336e-02 9.145819e-01 -2.158570e-01 2.369711e-01 -7.070906e-02 -4.203689e-01 8.506812e-02 -5.651000e-01 8.877181e-02 1.909148e-01 -7.538903e-01
<VARIANCE> 25
 6.560135e+00 3.741839e+01 6.304776e+01 4.690177e+01 5.175378e+01 3.671937e+01 4.626405e+01 7.396306e+01 4.719729e+01 4.503955e+01 2.937588e+01 1.605434e+01 7.277345e-01 5.632864e+00 3.181216e+00 4.687509e+00 3.706713e+00 3.293071e+00 3.994049e+00 6.428849e+00 2.804011e+00 2.344717e+00 1.782151e+00 1.286959e+00 2.449720e+00
<GCONST> 1.024176e+02
<TRANSP> 5
 0.000000e+00 1.000000e+00 0.000000e+00 0.000000e+00 0.000000e+00
 0.000000e+00 7.710435e-01 2.289566e-01 0.000000e+00 0.000000e+00
 0.000000e+00 0.000000e+00 9.098663e-01 9.013370e-02 0.000000e+00
 0.000000e+00 0.000000e+00 0.000000e+00 8.544117e-01 1.455882e-01
 0.000000e+00 0.000000e+00 0.000000e+00 0.000000e+00 0.000000e+00
<ENDHMM>
~h "sp"
<BEGINHMM>
<NUMSTATES> 3
<STATE> 2
~s "silst"
<TRANSP> 3
 0.000000e+00 1.437802e-05 9.999856e-01
 0.000000e+00 1.195862e-01 8.804138e-01
 0.000000e+00 0.000000e+00 0.000000e+00
<ENDHMM>
~h "sil"
<BEGINHMM>
<NUMSTATES> 5
<STATE> 2
<MEAN> 25
 -1.019714e+01 3.243640e+00 -3.004579e+00 2.800606e+00 4.548874e-01 1.774238e+00 -1.194493e-01 8.262010e-01 2.590705e-01 -1.882075e+00 2.465265e-01 1.026703e+00 -5.678331e-02 -1.696878e-02 7.289561e-03 5.085324e-03 2.076731e-02 5.420490e-03 7.801265e-03 2.279983e-02 6.447220e-03 6.663435e-03 2.346462e-02 1.917967e-02 -3.170076e-02
<VARIANCE> 25
 9.701602e+00 4.983249e+00 1.538040e+01 1.545433e+01 1.208305e+01 1.408566e+01 1.493593e+01 1.459446e+01 1.583968e+01 1.350679e+01 1.467677e+01 1.280578e+01 1.171458e-01 2.442390e-01 4.073738e-01 6.022652e-01 8.412859e-01 9.659685e-01 1.091920e+00 1.221409e+00 1.264652e+00 1.268896e+00 1.216229e+00 1.142128e+00 5.360071e-02
<GCONST> 6.941640e+01
<STATE> 3
~s "silst"
<STATE> 4
<MEAN> 25
 -1.021541e+01 2.388404e+00 -2.580188e+00 2.489590e+00 9.407780e-01 2.617349e+00 5.181344e-01 8.708729e-01 8.202614e-01 -1.722554e+00 8.473832e-01 1.741310e+00 3.482428e-01 -1.046831e-01 4.140223e-02 -1.205666e-01 -8.029649e-02 -2.407208e-01 -1.485379e-01 -8.237903e-02 -1.790512e-01 -1.221683e-01 -1.969990e-01 -1.242435e-01 3.984522e-01
<VARIANCE> 25
 2.521819e+01 1.807789e+01 2.521063e+01 2.923661e+01 2.049450e+01 2.790389e+01 2.497790e+01 2.252962e+01 2.163871e+01 1.842590e+01 2.088244e+01 1.769019e+01 1.989066e+00 1.827812e+00 1.642164e+00 2.202923e+00 1.757531e+00 2.329280e+00 1.875799e+00 1.908134e+00 2.106515e+00 1.785661e+00 1.853660e+00 1.703031e+00 4.356825e+00
<GCONST> 9.246114e+01
<TRANSP> 5
 0.000000e+00 1.000000e+00 0.000000e+00 0.000000e+00 0.000000e+00
 0.000000e+00 9.460753e-01 1.480786e-02 3.911687e-02 0.000000e+00
 0.000000e+00 0.000000e+00 9.783823e-01 2.161766e-02 0.000000e+00
 0.000000e+00 1.418612e-01 0.000000e+00 6.320928e-01 2.260461e-01
 0.000000e+00 0.000000e+00 0.000000e+00 0.000000e+00 0.000000e+00
<ENDHMM>
